<?xml version="1.0"?>
<opencv_storage>
<cascade>
  <stageType>BOOST</stageType>
  <featureType>LBP</featureType>
  <height>24</height>
  <width>24</width>
  <stageParams>
    <boostType>GAB</boostType>
    <minHitRate>9.9500000476837158e-01</minHitRate>
    <maxFalseAlarm>4.4999998807907104e-01</maxFalseAlarm>
    <weightTrimRate>9.4999999999999996e-01</weightTrimRate>
    <maxDepth>1</maxDepth>
    <maxWeakCount>100</maxWeakCount></stageParams>
  <featureParams>
    <maxCatCount>256</maxCatCount>
    <featSize>1</featSize></featureParams>
  <stageNum>15</stageNum>
  <stages>
    <!-- stage 0 -->
    <_>
      <maxWeakCount>14</maxWeakCount>
      <stageThreshold>-1.8134369850158691e+00</stageThreshold>
      <weakClassifiers>
        <_>
          <internalNodes>
            0 -1 664 -80702992 -147842640 1037307389 -581888556
            -1541621576 -1593529839 -1649357832 -1148583808</internalNodes>
          <leafValues>
            -7.1740174293518066e-01 8.4670722484588623e-02</leafValues></_>
        <_>
          <internalNodes>
            0 -1 33 -788213632 -138225018 8200 -707980200 -987956552
            -24202360 1870780650 -540018005</internalNodes>
          <leafValues>
            -4.7241356968879700e-01 3.5014283657073975e-01</leafValues></_>
        <_>
          <internalNodes>
            0 -1 576 -1736441776 1463289028 1510489469 -1853879164
            69224680 -1912598472 -1891599364 -1467481944</internalNodes>
          <leafValues>
            -4.2102909088134766e-01 3.0962330102920532e-01</leafValues></_>
        <_>
          <internalNodes>
            0 -1 62 -1029444990 -2138961912 -1610596352 -1832737792
            -1039958008 16908820 1074008464 -740589497</internalNodes>
          <leafValues>
            -3.4935000538825989e-01 3.3840528130531311e-01</leafValues></_>
        <_>
          <internalNodes>
            0 -1 851 -624964606 -762830840 14827552 273250816
            -1507095552 4490305 34521220 -2105032054</internalNodes>
          <leafValues>
            -3.0166590213775635e-01 3.2653710246086121e-01</leafValues></_>
        <_>
          <internalNodes>
            0 -1 623 -103809104 521144848 1062508628 -1660852660
            -866073896 -1682412316 -1658398328 -1886395650</internalNodes>
          <leafValues>
            -2.1457172930240631e-01 3.6343681812286377e-01</leafValues></_>
        <_>
          <internalNodes>
            0 -1 188 1073783424 2098400438 1154487003 1963299208
            772115194 -72078714 6404779 -888948086</internalNodes>
          <leafValues>
            -2.5355836749076843e-01 2.9216924309730530e-01</leafValues></_>
        <_>
          <internalNodes>
            0 -1 240 -1566538624 -1127342656 1238653941 1434715424
            -2122284310 -1140455262 430354634 -2127362948</internalNodes>
          <leafValues>
            -3.0848073959350586e-01 2.2393566370010376e-01</leafValues></_>
        <_>
          <internalNodes>
            0 -1 106 -579677026 -13613962 810178938 956445854 1283064052
            -1130603692 1226853976 -133998998</internalNodes>
          <leafValues>
            -2.4927747249603271e-01 2.7101197838783264e-01</leafValues></_>
        <_>
          <internalNodes>
            0 -1 733 -1020538480 -1425739680 71286740 1261920400
            436961473 2160696 22877584 -2065695566</internalNodes>
          <leafValues>
            -3.0752468109130859e-01 2.1744234859943390e-01</leafValues></_>
        <_>
          <internalNodes>
            0 -1 708 -38952448 1931034624 341091865 425704115 9291912
            -2137394866 1959643306 210199099</internalNodes>
          <leafValues>
            -2.6816049218177795e-01 2.2820341587066650e-01</leafValues></_>
        <_>
          <internalNodes>
            0 -1 508 -266485602 1426937682 72705940 1396908138
            -904342392 -628835192 1174973853 -1739915262</internalNodes>
          <leafValues>
            -2.0208284258842468e-01 2.9560753703117371e-01</leafValues></_>
        <_>
          <internalNodes>
            0 -1 695 -1288981574 59670696 85914233 -677045997
            -1434284102 -1741014384 141993404 -611591124</internalNodes>
          <leafValues>
            -1.8709726631641388e-01 3.0761402845382690e-01</leafValues></_>
        <_>
          <internalNodes>
            0 -1 22 -964189598 1417683076 -456754766 -1828537629
            143999226 -1947129716 1491738255 -248302669</internalNodes>
          <leafValues>
            -2.2739234566688538e-01 2.5805729627609253e-01</leafValues></_></weakClassifiers></_>
    <!-- stage 1 -->
    <_>
      <maxWeakCount>27</maxWeakCount>
      <stageThreshold>-1.8091582059860229e+00</stageThreshold>
      <weakClassifiers>
        <_>
          <internalNodes>
            0 -1 548 -586614824 -82310700 -1220225571 -45075176
            -611782148 -1147346552 -1993828136 -1618329592</internalNodes>
          <leafValues>
            -6.6897505521774292e-01 -6.1151079833507538e-02</leafValues></_>
        <_>
          <internalNodes>
            0 -1 793 -78643536 1598081424 -1753182192 -721300336
            -986659400 -1701664672 1543573656 -7342405</internalNodes>
          <leafValues>
            -3.2264715433120728e-01 2.7916833758354187e-01</leafValues></_>
        <_>
          <internalNodes>
            0 -1 471 -638565128 -139957124 418930047 -612890292
            -2079290180 -65386936 -1686070024 -1146483558</internalNodes>
          <leafValues>
            -2.2881567478179932e-01 3.4911453723907471e-01</leafValues></_>
        <_>
          <internalNodes>
            0 -1 190 1628480008 -167983835 625017737 2144833871
            -1290933317 -539391827 -1104311381 -70542709</internalNodes>
          <leafValues>
            -2.3364855349063873e-01 3.0474272370338440e-01</leafValues></_>
        <_>
          <internalNodes>
            0 -1 777 -1291666118 -545241552 -1828848811 -679538540
            -1442662982 -1432646680 -1732081416 -1078247268</internalNodes>
          <leafValues>
            -1.8975122272968292e-01 3.4533008933067322e-01</leafValues></_>
        <_>
          <internalNodes>
            0 -1 65 -188035334 1345370348 547376222 17991764 1952187544
            206849456 2017213642 -36190337</internalNodes>
          <leafValues>
            -2.2546859085559845e-01 2.7600327134132385e-01</leafValues></_>
        <_>
          <internalNodes>
            0 -1 697 -1870658544 -751560656 -2028059279 -172339651
            -2005616726 -834521314 -1229659480 -1735917432</internalNodes>
          <leafValues>
            -1.9814653694629669e-01 2.6621210575103760e-01</leafValues></_>
        <_>
          <internalNodes>
            0 -1 23 -1037374814 1425017422 -445903593 1996694528
            -851410742 -1736137785 -881631235 1841816579</internalNodes>
          <leafValues>
            -2.2077418863773346e-01 2.4186289310455322e-01</leafValues></_>
        <_>
          <internalNodes>
            0 -1 867 -365953902 -1516096854 833222000 1427028398
            -1543781389 -2058727454 -1812204063 -673464081</internalNodes>
          <leafValues>
            -1.6804520785808563e-01 3.1795027852058411e-01</leafValues></_>
        <_>
          <internalNodes>
            0 -1 80 1346811864 -69670286 1283484030 -1085784062
            1172949488 1523388098 1305963230 1137537026</internalNodes>
          <leafValues>
            -2.9017886519432068e-01 1.6906216740608215e-01</leafValues></_>
        <_>
          <internalNodes>
            0 -1 845 -628194296 -266284210 -1561433084 274795259
            720212488 1111325964 -2136860520 -1333016630</internalNodes>
          <leafValues>
            -2.0533169806003571e-01 2.3662275075912476e-01</leafValues></_>
        <_>
          <internalNodes>
            0 -1 59 -966594674 455272610 -2025011379 1599963658
            1088161272 -20698980 1859141244 1875333839</internalNodes>
          <leafValues>
            -2.3171672224998474e-01 1.9882172346115112e-01</leafValues></_>
        <_>
          <internalNodes>
            0 -1 241 -1037926400 -734529406 826526077 1560914393
            343258272 -101152530 -1958614898 221218</internalNodes>
          <leafValues>
            -2.7688655257225037e-01 1.6954138875007629e-01</leafValues></_>
        <_>
          <internalNodes>
            0 -1 706 -581703808 2069355422 496867216 -46745032
            1549657784 1755528332 -25432086 -370410689</internalNodes>
          <leafValues>
            -1.5687210857868195e-01 2.7546498179435730e-01</leafValues></_>
        <_>
          <internalNodes>
            0 -1 114 -19937238 -722067290 36953258 270039018 -891343356
            -649781916 -446243618 -155523141</internalNodes>
          <leafValues>
            -1.8496574461460114e-01 2.4381133913993835e-01</leafValues></_>
        <_>
          <internalNodes>
            0 -1 694 -1280654672 -11001952 -811246371 -48858632
            -2055033892 -585548296 758459597 -1953821644</internalNodes>
          <leafValues>
            -1.8102030456066132e-01 2.3888143897056580e-01</leafValues></_>
        <_>
          <internalNodes>
            0 -1 239 -1601666408 -270456992 -1845841039 -687307658
            -2003567880 1388328902 -1789267010 -1994243696</internalNodes>
          <leafValues>
            -2.0165304839611053e-01 2.1893416345119476e-01</leafValues></_>
        <_>
          <internalNodes>
            0 -1 61 1644208226 -187430374 1075853997 -1378248002
            2071897588 -117488158 -1121669816 1198105088</internalNodes>
          <leafValues>
            -2.8427657485008240e-01 1.5044274926185608e-01</leafValues></_>
        <_>
          <internalNodes>
            0 -1 81 -20460382 -362618136 1313244248 1342986674
            1325114818 157518 671077860 -830269</internalNodes>
          <leafValues>
            -1.8676337599754333e-01 2.3456577956676483e-01</leafValues></_>
        <_>
          <internalNodes>
            0 -1 481 -97655168 -682021248 493355152 -251498358
            -865186372 1418027952 273211534 -1818035422</internalNodes>
          <leafValues>
            -1.9484873116016388e-01 2.1789674460887909e-01</leafValues></_>
        <_>
          <internalNodes>
            0 -1 802 -583010541 656558472 -2014415597 2133291697
            2092406777 -1969311818 1294332004 -903876261</internalNodes>
          <leafValues>
            -1.6293185949325562e-01 2.5770294666290283e-01</leafValues></_>
        <_>
          <internalNodes>
            0 -1 116 -59817903 1442597935 1560331676 457233099
            -1264183836 -807647961 -98411208 1244855899</internalNodes>
          <leafValues>
            -2.2673818469047546e-01 1.9280101358890533e-01</leafValues></_>
        <_>
          <internalNodes>
            0 -1 540 1582559961 354004240 -236348965 2132925621
            1183118772 -1616531788 213177789 -1206918469</internalNodes>
          <leafValues>
            -1.3554452359676361e-01 2.9982718825340271e-01</leafValues></_>
        <_>
          <internalNodes>
            0 -1 675 -503855402 1521456800 280654423 1912430067
            1146797988 -841754939 -1698372353 -1453899322</internalNodes>
          <leafValues>
            -1.3852712512016296e-01 2.9045388102531433e-01</leafValues></_>
        <_>
          <internalNodes>
            0 -1 847 -369391605 -198232285 1752085976 -1761368426
            1383525516 -1980535248 1329325192 -648300549</internalNodes>
          <leafValues>
            -1.1523839831352234e-01 3.3315497636795044e-01</leafValues></_>
        <_>
          <internalNodes>
            0 -1 690 -811079756 222886506 -581746315 -809934316
            1340858300 -1091007701 350573976 -1718127112</internalNodes>
          <leafValues>
            -2.0289896428585052e-01 1.9195644557476044e-01</leafValues></_>
        <_>
          <internalNodes>
            0 -1 131 -812733934 -703714238 -1804961672 -551256702
            655483594 -51744366 570104251 -547134459</internalNodes>
          <leafValues>
            -1.8378657102584839e-01 2.1490079164505005e-01</leafValues></_></weakClassifiers></_>
    <!-- stage 2 -->
    <_>
      <maxWeakCount>37</maxWeakCount>
      <stageThreshold>-1.6944131851196289e+00</stageThreshold>
      <weakClassifiers>
        <_>
          <internalNodes>
            0 -1 238 -8396814 -642501034 860615408 -6097824 -219547234
            -545161012 -1452044568 -605291633</internalNodes>
          <leafValues>
            -6.3951498270034790e-01 -1.7290969192981720e-01</leafValues></_>
        <_>
          <internalNodes>
            0 -1 10 -989530552 -70002217 621848744 -2241953 -169870341
            -2312518 -178132565 2078276287</internalNodes>
          <leafValues>
            -3.1181454658508301e-01 1.8406534194946289e-01</leafValues></_>
        <_>
          <internalNodes>
            0 -1 234 -795160354 -562895689 1848134303 1344418927
            -230276540 -1104132269 -853107062 -81264673</internalNodes>
          <leafValues>
            -1.9920849800109863e-01 2.7739331126213074e-01</leafValues></_>
        <_>
          <internalNodes>
            0 -1 736 -1450135376 -751633404 -1519131559 -2798096
            -1893482566 -1079978020 195737997 -1682238328</internalNodes>
          <leafValues>
            -2.0123146474361420e-01 2.6221829652786255e-01</leafValues></_>
        <_>
          <internalNodes>
            0 -1 72 -285282622 1115726756 773989888 1922739364
            1115493188 1269513 -998792820 -201852421</internalNodes>
          <leafValues>
            -2.1104796230792999e-01 2.2717815637588501e-01</leafValues></_>
        <_>
          <internalNodes>
            0 -1 864 -206837118 -1970868702 -1956330064 -106979680
            -1603563645 -1907887486 -795119471 -738198541</internalNodes>
          <leafValues>
            -1.3718749582767487e-01 2.9206570982933044e-01</leafValues></_>
        <_>
          <internalNodes>
            0 -1 545 -988811120 473753632 -1915774831 -1083319722
            -676143944 -1178679361 1079924872 -1717583585</internalNodes>
          <leafValues>
            -1.7795298993587494e-01 2.3489587008953094e-01</leafValues></_>
        <_>
          <internalNodes>
            0 -1 848 -889568256 -647552509 -1057716846 -234352799
            -969255420 1344328709 -1829870456 -767628625</internalNodes>
          <leafValues>
            -1.9438980519771576e-01 2.1275106072425842e-01</leafValues></_>
        <_>
          <internalNodes>
            0 -1 50 -1058092966 399540758 1208614972 1224903506 69863820
            741754909 1541688010 -282639817</internalNodes>
          <leafValues>
            -2.1413494646549225e-01 1.8374031782150269e-01</leafValues></_>
        <_>
          <internalNodes>
            0 -1 606 -730889216 1372828892 992484479 525696063
            -262143072 -63961614 1340364990 8603235</internalNodes>
          <leafValues>
            -2.3725669085979462e-01 1.6428309679031372e-01</leafValues></_>
        <_>
          <internalNodes>
            0 -1 151 -966660568 436446981 218890876 770367720 1149388712
            790890789 238180572 7474739</internalNodes>
          <leafValues>
            -3.1453964114189148e-01 1.2277241051197052e-01</leafValues></_>
        <_>
          <internalNodes>
            0 -1 502 -1658187924 -101046832 -1241889761 1943342395
            -378006564 -1089784099 580387576 -1702226760</internalNodes>
          <leafValues>
            -2.0320089161396027e-01 1.8766386806964874e-01</leafValues></_>
        <_>
          <internalNodes>
            0 -1 27 -366744702 -1048302546 1651752730 -75542670
            -65870085 119835876 921105919 -3885</internalNodes>
          <leafValues>
            -1.2246961891651154e-01 2.9457160830497742e-01</leafValues></_>
        <_>
          <internalNodes>
            0 -1 717 1075298368 789609104 -1908341708 1520990484
            1292374156 -1890539088 403069096 786416655</internalNodes>
          <leafValues>
            -2.5420466065406799e-01 1.3809005916118622e-01</leafValues></_>
        <_>
          <internalNodes>
            0 -1 187 746620944 1368817808 26000669 1023574576 26837230
            -1277327287 175413752 -1611983790</internalNodes>
          <leafValues>
            -1.8367953598499298e-01 1.9393122196197510e-01</leafValues></_>
        <_>
          <internalNodes>
            0 -1 92 -665666917 1918414970 442132123 -1155481069
            942018418 -1721342820 -49619730 -44598781</internalNodes>
          <leafValues>
            -1.5900051593780518e-01 2.2331303358078003e-01</leafValues></_>
        <_>
          <internalNodes>
            0 -1 789 -1025519360 369071509 958734160 -1223295731
            1650698930 205321378 -90143864 -390071397</internalNodes>
          <leafValues>
            -1.5785822272300720e-01 2.1884021162986755e-01</leafValues></_>
        <_>
          <internalNodes>
            0 -1 118 1537398367 -747484468 2032171859 -115307314
            -364864484 -18460972 -633074166 -9223214</internalNodes>
          <leafValues>
            -1.4068304002285004e-01 2.4364198744297028e-01</leafValues></_>
        <_>
          <internalNodes>
            0 -1 412 -92543960 -725365125 -1494850468 1399381226
            63436164 -1910084496 360307371 -1194606349</internalNodes>
          <leafValues>
            -1.5659563243389130e-01 2.2520604729652405e-01</leafValues></_>
        <_>
          <internalNodes>
            0 -1 515 -125853422 347093180 186387352 -570788762 324551100
            2101085940 683355694 2042563590</internalNodes>
          <leafValues>
            -2.1868908405303955e-01 1.6075961291790009e-01</leafValues></_>
        <_>
          <internalNodes>
            0 -1 348 293634434 -1257126079 680853800 -855238518
            1464176573 2146507234 -118112722 1402055470</internalNodes>
          <leafValues>
            -2.3921187222003937e-01 1.4678169786930084e-01</leafValues></_>
        <_>
          <internalNodes>
            0 -1 43 -503124442 415238662 -1928180098 468345216 128914897
            980802209 1056179571 -691583441</internalNodes>
          <leafValues>
            -2.2039298713207245e-01 1.5298509597778320e-01</leafValues></_>
        <_>
          <internalNodes>
            0 -1 176 -714614025 -1225653659 1990745083 496684598
            2083867321 2126190142 -4584546 -11872665</internalNodes>
          <leafValues>
            -1.3736180961132050e-01 2.4029937386512756e-01</leafValues></_>
        <_>
          <internalNodes>
            0 -1 646 -310123902 945841696 469249456 911272899 1346667952
            968044722 523767644 445076018</internalNodes>
          <leafValues>
            -2.4786068499088287e-01 1.3458186388015747e-01</leafValues></_>
        <_>
          <internalNodes>
            0 -1 511 -733616453 358213750 107054584 -275643965
            1594296507 -52877362 1269636008 -338332729</internalNodes>
          <leafValues>
            -1.3047048449516296e-01 2.5154778361320496e-01</leafValues></_>
        <_>
          <internalNodes>
            0 -1 735 -473965166 -1909927166 -258015760 -34096316
            1512303489 -2102990613 630413446 -809019158</internalNodes>
          <leafValues>
            -1.8329448997974396e-01 1.8092088401317596e-01</leafValues></_>
        <_>
          <internalNodes>
            0 -1 246 -937695852 -991816754 2055132149 -216233162
            -1342708305 1055784413 -1244490789 -108273645</internalNodes>
          <leafValues>
            -1.1831159889698029e-01 2.6392418146133423e-01</leafValues></_>
        <_>
          <internalNodes>
            0 -1 574 1211558961 353380784 745644029 199260097 -275240271
            -90206796 494910872 714764800</internalNodes>
          <leafValues>
            -2.0723369717597961e-01 1.4980335533618927e-01</leafValues></_>
        <_>
          <internalNodes>
            0 -1 111 -673462081 -18968866 -721507590 -222510981
            -487582182 1817335414 -1174879602 -76024185</internalNodes>
          <leafValues>
            -1.1597523838281631e-01 2.7237495779991150e-01</leafValues></_>
        <_>
          <internalNodes>
            0 -1 287 -1608348648 -574076624 -88253447 -690813476
            -1091708772 -13209665 -1779112220 -1097128551</internalNodes>
          <leafValues>
            -1.5277422964572906e-01 2.0656155049800873e-01</leafValues></_>
        <_>
          <internalNodes>
            0 -1 352 -71128862 -1331879196 -2049106084 1168551637
            1132561100 -1116404832 1849534618 1840083615</internalNodes>
          <leafValues>
            -1.7810496687889099e-01 1.7677240073680878e-01</leafValues></_>
        <_>
          <internalNodes>
            0 -1 129 6291458 446670413 636494653 -1359417924 1125508724
            1755231928 1477781768 1145055776</internalNodes>
          <leafValues>
            -3.8769835233688354e-01 8.6541667580604553e-02</leafValues></_>
        <_>
          <internalNodes>
            0 -1 530 -33118960 744001584 1208245264 233621024 1814086704
            490489888 -1249582996 100953140</internalNodes>
          <leafValues>
            -3.9689859747886658e-01 7.8396447002887726e-02</leafValues></_>
        <_>
          <internalNodes>
            0 -1 101 -654312725 -612660965 -1824743813 829994596
            1736070850 -94489239 1574221560 -110103553</internalNodes>
          <leafValues>
            -1.0192199796438217e-01 3.1605827808380127e-01</leafValues></_>
        <_>
          <internalNodes>
            0 -1 30 1242467008 199667654 1197156667 654632558 1502946548
            1492404912 -1754970019 1086842433</internalNodes>
          <leafValues>
            -2.6303181052207947e-01 1.1644888669252396e-01</leafValues></_>
        <_>
          <internalNodes>
            0 -1 273 1950871222 1492090271 -320717481 1399937283
            136255998 -1163830113 746118478 -1419613545</internalNodes>
          <leafValues>
            -1.4865523576736450e-01 2.1096059679985046e-01</leafValues></_>
        <_>
          <internalNodes>
            0 -1 817 -218315760 997965401 -1507364324 -358140893
            -1231241280 -1982791932 360681704 -556857702</internalNodes>
          <leafValues>
            -1.4123634994029999e-01 2.2586034238338470e-01</leafValues></_></weakClassifiers></_>
    <!-- stage 3 -->
    <_>
      <maxWeakCount>45</maxWeakCount>
      <stageThreshold>-1.5258871316909790e+00</stageThreshold>
      <weakClassifiers>
        <_>
          <internalNodes>
            0 -1 440 -573124355 -536925571 -3088929 1596992767
            -610738948 -52815412 -121045506 -609563957</internalNodes>
          <leafValues>
            -5.9594941139221191e-01 -1.2801755964756012e-01</leafValues></_>
        <_>
          <internalNodes>
            0 -1 119 -204539426 -3477482 -169592070 -41748312 1518985199
            -45823518 -872485637 -883964085</internalNodes>
          <leafValues>
            -2.4638287723064423e-01 2.0278161764144897e-01</leafValues></_>
        <_>
          <internalNodes>
            0 -1 702 2135029264 -24000317 1478634772 -307133541
            1360020244 -1175717856 1510365676 487039383</internalNodes>
          <leafValues>
            -2.5058147311210632e-01 1.5602079033851624e-01</leafValues></_>
        <_>
          <internalNodes>
            0 -1 38 -500699486 -488477206 -453078912 -743681342
            -1557946933 1078007414 292025478 -239341493</internalNodes>
          <leafValues>
            -1.6856028139591217e-01 2.2591356933116913e-01</leafValues></_>
        <_>
          <internalNodes>
            0 -1 297 1359061162 1997606116 865347724 1434534799
            2127856062 428088972 -1148347761 1000032971</internalNodes>
          <leafValues>
            -2.1283496916294098e-01 1.6910612583160400e-01</leafValues></_>
        <_>
          <internalNodes>
            0 -1 332 1312296960 -76341194 1312757503 1964508259
            -1540877952 -21418908 -1924506664 -617992578</internalNodes>
          <leafValues>
            -1.6607947647571564e-01 2.0661230385303497e-01</leafValues></_>
        <_>
          <internalNodes>
            0 -1 52 -800928010 848330914 -597374128 1333917376
            1864495026 1583680796 -367934886 1833394001</internalNodes>
          <leafValues>
            -2.1459618210792542e-01 1.7284412682056427e-01</leafValues></_>
        <_>
          <internalNodes>
            0 -1 808 -549722181 -1425741264 627564372 -35668560
            -92490306 -1966161437 1171734680 -811606821</internalNodes>
          <leafValues>
            -1.3522054255008698e-01 2.6674064993858337e-01</leafValues></_>
        <_>
          <internalNodes>
            0 -1 758 -1474174062 -576576112 -4726921 -78275956
            -1423781969 -1442781709 44711389 -541369096</internalNodes>
          <leafValues>
            -1.4134848117828369e-01 2.2181013226509094e-01</leafValues></_>
        <_>
          <internalNodes>
            0 -1 814 -667418624 -75890368 -1744409161 -1713420381
            -554790724 -638182602 574417310 -2112724149</internalNodes>
          <leafValues>
            -1.9193673133850098e-01 1.6484844684600830e-01</leafValues></_>
        <_>
          <internalNodes>
            0 -1 42 1114246730 1414147618 -1976040957 1329095232
            1112950705 854888402 -77313894 1937077847</internalNodes>
          <leafValues>
            -2.4623765051364899e-01 1.2051372975111008e-01</leafValues></_>
        <_>
          <internalNodes>
            0 -1 644 -280829432 292915892 -2023132012 1908350322
            609751512 715145398 1685147420 79848098</internalNodes>
          <leafValues>
            -2.4713753163814545e-01 1.1665025353431702e-01</leafValues></_>
        <_>
          <internalNodes>
            0 -1 856 -671095006 -1446594746 -975203840 -1315572238
            -1785487084 12582188 771634564 -326374097</internalNodes>
          <leafValues>
            -1.6142217814922333e-01 1.7708356678485870e-01</leafValues></_>
        <_>
          <internalNodes>
            0 -1 107 -690320266 -1655301120 2029674107 1006813810
            2068477656 -4962696 -877213110 -349748713</internalNodes>
          <leafValues>
            -1.8135647475719452e-01 1.6075839102268219e-01</leafValues></_>
        <_>
          <internalNodes>
            0 -1 225 -789100332 -612711876 -286075330 891164491
            -1516494652 -638891916 -72050852 2047928186</internalNodes>
          <leafValues>
            -2.1324156224727631e-01 1.3155703246593475e-01</leafValues></_>
        <_>
          <internalNodes>
            0 -1 311 1220977650 362808359 686300888 732265376 1660964764
            -1187500868 -588764584 782466874</internalNodes>
          <leafValues>
            -2.2217370569705963e-01 1.2989373505115509e-01</leafValues></_>
        <_>
          <internalNodes>
            0 -1 11 -289757790 -1031230752 -1401497904 -671767368
            -2099784808 -1985781688 -683358761 -948973163</internalNodes>
          <leafValues>
            -1.5181218087673187e-01 1.9731938838958740e-01</leafValues></_>
        <_>
          <internalNodes>
            0 -1 423 -785993728 1208758932 923122384 -989894473
            1913567960 683205304 1861520206 674595970</internalNodes>
          <leafValues>
            -2.5675112009048462e-01 1.1336226016283035e-01</leafValues></_>
        <_>
          <internalNodes>
            0 -1 21 -1029003205 325750506 86932777 -152182239 269025259
            -544132420 1598252027 -613319585</internalNodes>
          <leafValues>
            -1.3419763743877411e-01 2.0996977388858795e-01</leafValues></_>
        <_>
          <internalNodes>
            0 -1 601 1132686851 472163728 477937141 1579083088
            -896608783 -1584679875 -1981129487 -316945249</internalNodes>
          <leafValues>
            -1.4785265922546387e-01 1.8989975750446320e-01</leafValues></_>
        <_>
          <internalNodes>
            0 -1 244 1525522448 313696737 803933629 1221732382
            1982568378 -1112835159 78102493 3143299</internalNodes>
          <leafValues>
            -2.0522251725196838e-01 1.3365089893341064e-01</leafValues></_>
        <_>
          <internalNodes>
            0 -1 615 -588061508 2046471074 503332381 498872828
            1331480993 1547465721 1584749882 -1448128940</internalNodes>
          <leafValues>
            -1.7226283252239227e-01 1.6087223589420319e-01</leafValues></_>
        <_>
          <internalNodes>
            0 -1 689 2050208564 285259688 -1516441067 261520297
            1878134176 -1099101528 1681111487 -1929714675</internalNodes>
          <leafValues>
            -1.4292943477630615e-01 1.8882267177104950e-01</leafValues></_>
        <_>
          <internalNodes>
            0 -1 664 -1558172688 -1280623460 1744113659 1196298460
            102202805 -1076166723 -1648852993 -1954001655</internalNodes>
          <leafValues>
            -1.9073595106601715e-01 1.4036609232425690e-01</leafValues></_>
        <_>
          <internalNodes>
            0 -1 666 -399261564 2007445046 566122999 -715235946
            371170256 -1649699340 925706378 207819002</internalNodes>
          <leafValues>
            -1.7281579971313477e-01 1.5693807601928711e-01</leafValues></_>
        <_>
          <internalNodes>
            0 -1 868 -74714205 699440672 -814229805 -550573383
            -2018793053 -2136034379 -2124548651 -134227733</internalNodes>
          <leafValues>
            -1.0891572386026382e-01 2.5560548901557922e-01</leafValues></_>
        <_>
          <internalNodes>
            0 -1 103 -671096177 1530605103 -361861448 843749111
            1550479996 -562948644 -1782146594 -1008561465</internalNodes>
          <leafValues>
            -1.2601040303707123e-01 2.1517507731914520e-01</leafValues></_>
        <_>
          <internalNodes>
            0 -1 572 1678749808 100986040 -1928628041 -1358302185
            950587805 546976504 512448517 136881426</internalNodes>
          <leafValues>
            -2.3342880606651306e-01 1.1710999161005020e-01</leafValues></_>
        <_>
          <internalNodes>
            0 -1 321 -1056005568 494818913 927467540 -146246625
            742888372 424680136 -1499140376 680262242</internalNodes>
          <leafValues>
            -2.4405167996883392e-01 1.1154071241617203e-01</leafValues></_>
        <_>
          <internalNodes>
            0 -1 746 694206480 500964400 296492856 464066170 100797312
            802202020 12330232 234904880</internalNodes>
          <leafValues>
            -3.3256852626800537e-01 8.2854524254798889e-02</leafValues></_>
        <_>
          <internalNodes>
            0 -1 550 -1398269776 -794682276 2096090707 -122070667
            1036160477 1295216634 -1544886374 -1744150511</internalNodes>
          <leafValues>
            -1.7944820225238800e-01 1.6286526620388031e-01</leafValues></_>
        <_>
          <internalNodes>
            0 -1 509 -125927388 69026206 -1677648369 1471152107
            1543336370 -119656040 -924791233 1753694737</internalNodes>
          <leafValues>
            -1.9274550676345825e-01 1.4196769893169403e-01</leafValues></_>
        <_>
          <internalNodes>
            0 -1 792 -211840735 1161733905 1562990864 -1549097200
            2122262475 1082828594 -595246200 -664080497</internalNodes>
          <leafValues>
            -1.4127397537231445e-01 1.9232220947742462e-01</leafValues></_>
        <_>
          <internalNodes>
            0 -1 150 -886657514 152273186 -911776720 1067436663 21316764
            472426660 1236548860 1794012694</internalNodes>
          <leafValues>
            -2.1201042830944061e-01 1.3030806183815002e-01</leafValues></_>
        <_>
          <internalNodes>
            0 -1 333 -905982885 -422276 -1107567105 2067943167 -22264598
            -94088667 -352545842 -79992581</internalNodes>
          <leafValues>
            -9.1230235993862152e-02 3.0319190025329590e-01</leafValues></_>
        <_>
          <internalNodes>
            0 -1 16 577938230 1311360647 671100732 1568740930 -517871932
            -558519312 -137254731 1989754880</internalNodes>
          <leafValues>
            -2.2867298126220703e-01 1.2311232835054398e-01</leafValues></_>
        <_>
          <internalNodes>
            0 -1 556 -290724626 -595418346 92738100 225632516 1345610681
            496532120 1298202664 -758779337</internalNodes>
          <leafValues>
            -1.7809464037418365e-01 1.6180586814880371e-01</leafValues></_>
        <_>
          <internalNodes>
            0 -1 116 -21019361 -719944017 497743112 1024116654
            1421614973 -572360906 -565257191 -6128998</internalNodes>
          <leafValues>
            -1.4523319900035858e-01 1.8761026859283447e-01</leafValues></_>
        <_>
          <internalNodes>
            0 -1 415 -652490724 -196967321 -1613105126 -541080468
            -667021392 -410256223 -262985768 -1642409601</internalNodes>
          <leafValues>
            -1.1697715520858765e-01 2.3854081332683563e-01</leafValues></_>
        <_>
          <internalNodes>
            0 -1 305 852482 370444640 1640020418 71871050 458039777
            2127070048 858992396 1753252512</internalNodes>
          <leafValues>
            -3.3659529685974121e-01 8.4209039807319641e-02</leafValues></_>
        <_>
          <internalNodes>
            0 -1 803 522712723 1596121402 -170548207 -334964550
            1848891185 -1232876112 1084184508 -1960319636</internalNodes>
          <leafValues>
            -1.5684500336647034e-01 1.6910044848918915e-01</leafValues></_>
        <_>
          <internalNodes>
            0 -1 351 -607008663 -705779767 1085979378 2005313286
            1965200268 1856263303 -1577261879 -899493309</internalNodes>
          <leafValues>
            -1.3664598762989044e-01 2.0309092104434967e-01</leafValues></_>
        <_>
          <internalNodes>
            0 -1 662 1275215720 637571256 -1921303428 -1348027276
            67981164 -1096364428 130811808 403213545</internalNodes>
          <leafValues>
            -3.0010676383972168e-01 8.9901976287364960e-02</leafValues></_>
        <_>
          <internalNodes>
            0 -1 752 -796199242 761958688 -1215250256 -1753166732
            -1065008749 -1298474322 70078513 155602939</internalNodes>
          <leafValues>
            -2.0412355661392212e-01 1.3428303599357605e-01</leafValues></_>
        <_>
          <internalNodes>
            0 -1 562 1611804800 480413496 142951958 1595965218 5329906
            -1004420720 211188432 108250678</internalNodes>
          <leafValues>
            -2.7219545841217041e-01 9.8946966230869293e-02</leafValues></_></weakClassifiers></_>
    <!-- stage 4 -->
    <_>
      <maxWeakCount>55</maxWeakCount>
      <stageThreshold>-1.5053526163101196e+00</stageThreshold>
      <weakClassifiers>
        <_>
          <internalNodes>
            0 -1 397 -74843686 -548218414 -1275084802 -1112620280
            -309527316 -1144196660 -83015464 -68429810</internalNodes>
          <leafValues>
            -6.1768668889999390e-01 -2.6288816332817078e-01</leafValues></_>
        <_>
          <internalNodes>
            0 -1 633 -1027611432 -1710712576 99436560 -573966512
            -550641176 -1665732135 -1788255232 -845158741</internalNodes>
          <leafValues>
            -2.7531141042709351e-01 1.0287030041217804e-01</leafValues></_>
        <_>
          <internalNodes>
            0 -1 189 1162945166 2069230463 563293123 -142656850
            2145626799 -86660109 -1107841285 -1080593</internalNodes>
          <leafValues>
            -1.6073647141456604e-01 1.9982478022575378e-01</leafValues></_>
        <_>
          <internalNodes>
            0 -1 389 1572356220 -1084949961 -284672007 433085724
            1511017640 -23324139 -847765768 -1106752430</internalNodes>
          <leafValues>
            -2.2836880385875702e-01 1.3211070001125336e-01</leafValues></_>
        <_>
          <internalNodes>
            0 -1 87 -159397265 -1340946774 15222342 272822794 -32419236
            1359356754 -433873573 -216535369</internalNodes>
          <leafValues>
            -8.8812440633773804e-02 2.7050316333770752e-01</leafValues></_>
        <_>
          <internalNodes>
            0 -1 853 -68171774 387902989 184206592 -531114450
            -1463965182 53640764 -980569216 -1026574261</internalNodes>
          <leafValues>
            -1.7321676015853882e-01 1.6748662292957306e-01</leafValues></_>
        <_>
          <internalNodes>
            0 -1 6 -903698782 522234466 1967529913 969478692 114748089
            -61319962 -16036141 1493658181</internalNodes>
          <leafValues>
            -2.0824433863162994e-01 1.3628697395324707e-01</leafValues></_>
        <_>
          <internalNodes>
            0 -1 810 -1507147853 -1316295040 -1628538699 -684069464
            -1103577157 -1949455387 957823451 -646213447</internalNodes>
          <leafValues>
            -1.2012697011232376e-01 2.1447969973087311e-01</leafValues></_>
        <_>
          <internalNodes>
            0 -1 844 -665382909 1528785933 -1797492570 1355338043
            -448924672 1415861104 -357643190 -401416677</internalNodes>
          <leafValues>
            -1.5911793708801270e-01 1.6393828392028809e-01</leafValues></_>
        <_>
          <internalNodes>
            0 -1 209 -196572852 -2449703 1355070232 -652611341
            1473632779 -472814952 -28721367 1373046483</internalNodes>
          <leafValues>
            -1.8988783657550812e-01 1.3458786904811859e-01</leafValues></_>
        <_>
          <internalNodes>
            0 -1 145 -529865050 -1028757270 -492314606 -178121696
            203685258 -616235229 1999512791 -1014266025</internalNodes>
          <leafValues>
            -1.4444023370742798e-01 1.6899085044860840e-01</leafValues></_>
        <_>
          <internalNodes>
            0 -1 577 152578544 461911321 -1172721411 520100365 470292336
            -1463855708 1847270392 -1701685208</internalNodes>
          <leafValues>
            -1.8829421699047089e-01 1.3199493288993835e-01</leafValues></_>
        <_>
          <internalNodes>
            0 -1 680 -591729238 -1705203994 736770342 335374280
            436685535 997487833 1956994047 -381300141</internalNodes>
          <leafValues>
            -1.4188835024833679e-01 1.6770516335964203e-01</leafValues></_>
        <_>
          <internalNodes>
            0 -1 713 1752672002 440185901 -847678190 2025664121
            375665280 962999293 1219789064 15688755</internalNodes>
          <leafValues>
            -2.4162277579307556e-01 9.9908955395221710e-02</leafValues></_>
        <_>
          <internalNodes>
            0 -1 108 -588777475 -136621649 1827207666 -219957553
            -141943506 -1017764541 -905314657 -145757253</internalNodes>
          <leafValues>
            -9.2589862644672394e-02 2.6381886005401611e-01</leafValues></_>
        <_>
          <internalNodes>
            0 -1 138 -357894390 -376795542 -1342211174 -71416092
            438202092 -872405022 601871099 -952180399</internalNodes>
          <leafValues>
            -1.4009064435958862e-01 1.6711895167827606e-01</leafValues></_>
        <_>
          <internalNodes>
            0 -1 475 1699211280 -429815528 2094820783 1601169895
            744059884 -9651269 1609845775 417827550</internalNodes>
          <leafValues>
            -1.8274630606174469e-01 1.3369019329547882e-01</leafValues></_>
        <_>
          <internalNodes>
            0 -1 247 -1874345791 501015834 352590078 2068888203
            -195247375 -1244036778 -527644501 -16669050</internalNodes>
          <leafValues>
            -1.3130536675453186e-01 1.8379396200180054e-01</leafValues></_>
        <_>
          <internalNodes>
            0 -1 537 -123536907 507246109 2004745755 -1129777391
            -76703327 -1141440326 -1402495045 -2012240497</internalNodes>
          <leafValues>
            -1.0164598375558853e-01 2.3799599707126617e-01</leafValues></_>
        <_>
          <internalNodes>
            0 -1 198 -798579136 280514117 -1593580266 490382848
            -932302607 -122804279 2057545225 841840444</internalNodes>
          <leafValues>
            -2.0063719153404236e-01 1.2258791178464890e-01</leafValues></_>
        <_>
          <internalNodes>
            0 -1 865 -1424774925 1034737144 -2036518444 -12913152
            775088557 -1608860258 466551164 -763898451</internalNodes>
          <leafValues>
            -1.4912825822830200e-01 1.6448868811130524e-01</leafValues></_>
        <_>
          <internalNodes>
            0 -1 439 -78621548 484315196 -59096097 1329542458 880676602
            -1353429170 2117618542 -1120211714</internalNodes>
          <leafValues>
            -1.4519464969635010e-01 1.6752840578556061e-01</leafValues></_>
        <_>
          <internalNodes>
            0 -1 36 -502529382 184561340 -2044945154 1035366234
            1297491153 -17093051 -409657758 1710683758</internalNodes>
          <leafValues>
            -2.1967168152332306e-01 1.0493586957454681e-01</leafValues></_>
        <_>
          <internalNodes>
            0 -1 359 360752034 -1208814160 -1846476360 222163771
            -865522694 1922402754 -276853320 2010421760</internalNodes>
          <leafValues>
            -1.9671569764614105e-01 1.1778738349676132e-01</leafValues></_>
        <_>
          <internalNodes>
            0 -1 181 1136380145 -1282382809 -1844315681 1349177998
            1506616868 -345872848 1850891566 1129565430</internalNodes>
          <leafValues>
            -1.7870803177356720e-01 1.3060681521892548e-01</leafValues></_>
        <_>
          <internalNodes>
            0 -1 153 -285231430 -1650792842 -1398637261 -1615648114
            1313156277 -5806108 155080829 -357574026</internalNodes>
          <leafValues>
            -1.2401717156171799e-01 1.9367992877960205e-01</leafValues></_>
        <_>
          <internalNodes>
            0 -1 452 -70980912 2140478696 -1384825577 -2135985620
            -1989336941 1603012788 1089169656 -1469076833</internalNodes>
          <leafValues>
            -1.3925918936729431e-01 1.7023296654224396e-01</leafValues></_>
        <_>
          <internalNodes>
            0 -1 724 -279461872 38838460 1066368305 1225559824
            -596154364 -1494238303 1095960000 -1005653483</internalNodes>
          <leafValues>
            -2.1695981919765472e-01 1.1058796942234039e-01</leafValues></_>
        <_>
          <internalNodes>
            0 -1 222 -134021903 1934379664 609940413 -1075745265
            1910671095 -54438473 -898868278 -14989741</internalNodes>
          <leafValues>
            -1.0261232405900955e-01 2.4086943268775940e-01</leafValues></_>
        <_>
          <internalNodes>
            0 -1 794 -95044861 364304058 1039728948 234875779 1997796769
            -1262223729 -808849700 -2064341633</internalNodes>
          <leafValues>
            -1.3469092547893524e-01 1.7433619499206543e-01</leafValues></_>
        <_>
          <internalNodes>
            0 -1 41 -902986656 507154142 327829180 -1185635550
            1323770761 1773412952 -569201364 1736327797</internalNodes>
          <leafValues>
            -2.0400433242321014e-01 1.1640692502260208e-01</leafValues></_>
        <_>
          <internalNodes>
            0 -1 677 -1062559166 -2027548118 -1444523970 -1161374020
            -1732366460 -1661232366 324490887 -80547776</internalNodes>
          <leafValues>
            -1.6361217200756073e-01 1.4308515191078186e-01</leafValues></_>
        <_>
          <internalNodes>
            0 -1 780 -772143100 1444752927 -1617337454 1322097234
            1619094020 -1662535688 -427668039 3308007</internalNodes>
          <leafValues>
            -2.3338066041469574e-01 1.0178895294666290e-01</leafValues></_>
        <_>
          <internalNodes>
            0 -1 135 239895056 -927740321 557100104 -1440972208
            386461441 -280643591 206709468 756163696</internalNodes>
          <leafValues>
            -2.7668550610542297e-01 8.2972772419452667e-02</leafValues></_>
        <_>
          <internalNodes>
            0 -1 448 -290744192 1466567738 -293777416 1943489588
            -1442055542 -1980945341 340919289 -133726950</internalNodes>
          <leafValues>
            -1.3187421858310699e-01 1.7637681961059570e-01</leafValues></_>
        <_>
          <internalNodes>
            0 -1 291 542223002 -1475562659 -1805185364 662082027
            1994816172 -1448875323 727330318 1103926951</internalNodes>
          <leafValues>
            -2.0858982205390930e-01 1.1370112001895905e-01</leafValues></_>
        <_>
          <internalNodes>
            0 -1 126 438840832 277728443 -1279456836 481750116
            -467500087 -52084747 1695891558 1659992328</internalNodes>
          <leafValues>
            -2.3545937240123749e-01 9.6893690526485443e-02</leafValues></_>
        <_>
          <internalNodes>
            0 -1 696 -73664141 -2095120397 2101287393 -811738541
            1256970670 -880018501 1565757917 -913322245</internalNodes>
          <leafValues>
            -1.0065867751836777e-01 2.3787058889865875e-01</leafValues></_>
        <_>
          <internalNodes>
            0 -1 236 -133771525 1595928687 -1277149475 -1970042613
            -293027220 1845314632 1516815038 -130829374</internalNodes>
          <leafValues>
            -1.2875334918498993e-01 1.8009240925312042e-01</leafValues></_>
        <_>
          <internalNodes>
            0 -1 517 862209552 -564614346 758123792 1838980652
            1320955716 -285818763 1820273675 442713411</internalNodes>
          <leafValues>
            -2.3456054925918579e-01 9.8732367157936096e-02</leafValues></_>
        <_>
          <internalNodes>
            0 -1 805 -1082164606 246937895 -1102406864 -191053306
            -1713653341 -998711062 -470411008 15512847</internalNodes>
          <leafValues>
            -2.2344577312469482e-01 1.0500331223011017e-01</leafValues></_>
        <_>
          <internalNodes>
            0 -1 75 1189531259 -638408311 10879613 -672077798
            -1399400724 -1129753223 -889345170 -814260569</internalNodes>
          <leafValues>
            -1.2284391373395920e-01 1.9115306437015533e-01</leafValues></_>
        <_>
          <internalNodes>
            0 -1 436 -662198121 1578236880 267299387 -135562023
            1061451568 -28246817 2128091643 1876947531</internalNodes>
          <leafValues>
            -1.1104197055101395e-01 2.1846710145473480e-01</leafValues></_>
        <_>
          <internalNodes>
            0 -1 598 68699184 302024692 716254716 237792198 1297090464
            -1742938248 570966020 738197764</internalNodes>
          <leafValues>
            -4.3380048871040344e-01 5.8659587055444717e-02</leafValues></_>
        <_>
          <internalNodes>
            0 -1 655 -842021903 -114180369 813822239 -596772777
            1995832518 461282989 635000283 -1378885194</internalNodes>
          <leafValues>
            -1.0854031145572662e-01 2.2046397626399994e-01</leafValues></_>
        <_>
          <internalNodes>
            0 -1 739 -239419374 1563938005 -906044995 933181790
            -1621523975 -632635932 405119917 -1187264981</internalNodes>
          <leafValues>
            -1.1091957986354828e-01 2.1161130070686340e-01</leafValues></_>
        <_>
          <internalNodes>
            0 -1 761 -597707028 -1854941625 -1522636331 -1526407796
            -1093285707 -1416310341 -669913671 -999294145</internalNodes>
          <leafValues>
            -1.1723025143146515e-01 2.0091237127780914e-01</leafValues></_>
        <_>
          <internalNodes>
            0 -1 403 -800287864 278177683 121776781 1145782552
            -1264327622 -1263090002 -1326183097 780452592</internalNodes>
          <leafValues>
            -1.9543774425983429e-01 1.2765212357044220e-01</leafValues></_>
        <_>
          <internalNodes>
            0 -1 487 2129256983 2100690425 -1791856577 -546032941
            -164111107 -910140213 327997676 -1177373129</internalNodes>
          <leafValues>
            -8.9186243712902069e-02 2.6794382929801941e-01</leafValues></_>
        <_>
          <internalNodes>
            0 -1 426 1444400959 -1627353473 -1715988183 1038540289
            2016789932 1842612500 -309520131 -18267202</internalNodes>
          <leafValues>
            -1.1532700061798096e-01 2.0426338911056519e-01</leafValues></_>
        <_>
          <internalNodes>
            0 -1 796 1330111763 2118187377 -818031579 1034935664
            -780217048 -1586337560 -1654306360 -872153421</internalNodes>
          <leafValues>
            -1.2395295500755310e-01 1.8800060451030731e-01</leafValues></_>
        <_>
          <internalNodes>
            0 -1 134 -529801054 1088348322 1286597237 207262357
            1143749749 -1102590349 1097616433 471458581</internalNodes>
          <leafValues>
            -2.2971464693546295e-01 1.0112154483795166e-01</leafValues></_>
        <_>
          <internalNodes>
            0 -1 214 -27376982 183695297 249723927 -282491468 1219791286
            -1126777032 1010788936 803332966</internalNodes>
          <leafValues>
            -1.8139804899692535e-01 1.2858846783638000e-01</leafValues></_>
        <_>
          <internalNodes>
            0 -1 309 1587339804 464771603 771893565 1067335101
            -220209736 -1160743046 -73659316 -274444529</internalNodes>
          <leafValues>
            -1.4418330788612366e-01 1.6071620583534241e-01</leafValues></_>
        <_>
          <internalNodes>
            0 -1 66 1845388834 1115997928 773227558 -218749382
            1526357014 908139874 1903521540 1885430433</internalNodes>
          <leafValues>
            -3.6087638139724731e-01 6.2808930873870850e-02</leafValues></_></weakClassifiers></_>
    <!-- stage 5 -->
    <_>
      <maxWeakCount>59</maxWeakCount>
      <stageThreshold>-1.4095331430435181e+00</stageThreshold>
      <weakClassifiers>
        <_>
          <internalNodes>
            0 -1 112 -562037025 -52433153 -390148897 1644355199
            -547369729 -79921 -61874481 -80216065</internalNodes>
          <leafValues>
            -5.8463287353515625e-01 -2.5004941225051880e-01</leafValues></_>
        <_>
          <internalNodes>
            0 -1 503 1900059864 -592134792 -580853925 1061690648
            -603973380 -1084170256 -883663124 -83345188</internalNodes>
          <leafValues>
            -2.4393349885940552e-01 1.0658112168312073e-01</leafValues></_>
        <_>
          <internalNodes>
            0 -1 862 -671096286 -5378546 326622866 -173327233
            -1233131613 101110401 -1317932607 -676340049</internalNodes>
          <leafValues>
            -1.2440180033445358e-01 2.1987372636795044e-01</leafValues></_>
        <_>
          <internalNodes>
            0 -1 298 82848298 2113269129 26552458 1977609395 2094899931
            -279107403 -1821299781 1887283855</internalNodes>
          <leafValues>
            -2.1205542981624603e-01 1.1766080558300018e-01</leafValues></_>
        <_>
          <internalNodes>
            0 -1 836 -1390952513 2037447088 -550271659 -1626011204
            -1933928518 -1451820336 690003391 -572566279</internalNodes>
          <leafValues>
            -8.5235185921192169e-02 2.2952733933925629e-01</leafValues></_>
        <_>
          <internalNodes>
            0 -1 48 -497032658 -463305502 -1034042878 -752698362
            1411361476 1229420166 1450612114 -244321209</internalNodes>
          <leafValues>
            -1.4705820381641388e-01 1.6274470090866089e-01</leafValues></_>
        <_>
          <internalNodes>
            0 -1 842 -104882166 2079459871 852971570 1920016699
            1156617288 -82131937 -254036856 -1876177158</internalNodes>
          <leafValues>
            -1.4266815781593323e-01 1.6422218084335327e-01</leafValues></_>
        <_>
          <internalNodes>
            0 -1 49 1112671422 1435772964 1757153917 587868514
            1594247377 953902481 1634027983 -547230921</internalNodes>
          <leafValues>
            -1.4650790393352509e-01 1.5148471295833588e-01</leafValues></_>
        <_>
          <internalNodes>
            0 -1 237 -17939233 -586742194 -904638884 -1694338585
            1593721168 -1127611340 -842465394 -81613205</internalNodes>
          <leafValues>
            -1.2114667892456055e-01 1.8182352185249329e-01</leafValues></_>
        <_>
          <internalNodes>
            0 -1 400 1628717056 1997871260 -234061541 -1244578629
            329777584 -1093022287 1888041610 1217231150</internalNodes>
          <leafValues>
            -1.9540372490882874e-01 1.1205012351274490e-01</leafValues></_>
        <_>
          <internalNodes>
            0 -1 629 89391384 227811808 2096930046 707815344 674761977
            246791793 431508541 204472356</internalNodes>
          <leafValues>
            -4.4208922982215881e-01 4.6055536717176437e-02</leafValues></_>
        <_>
          <internalNodes>
            0 -1 47 -901453086 615602066 203484268 -930674672 -821490850
            -1893656668 1842859952 1299384384</internalNodes>
          <leafValues>
            -2.3330277204513550e-01 8.7092712521553040e-02</leafValues></_>
        <_>
          <internalNodes>
            0 -1 499 -616518156 202424316 -170838611 -1096784264
            2119759100 -3084036 1519414354 772099643</internalNodes>
          <leafValues>
            -1.7817915976047516e-01 1.1831737309694290e-01</leafValues></_>
        <_>
          <internalNodes>
            0 -1 169 1079118886 -577367952 315759269 1342188671
            1097876496 1562860407 1386777820 1895884882</internalNodes>
          <leafValues>
            -2.3404671251773834e-01 8.6505852639675140e-02</leafValues></_>
        <_>
          <internalNodes>
            0 -1 595 -191900491 -15998445 232750104 -1650797403
            456976088 -1145323592 -2002267502 -1104450445</internalNodes>
          <leafValues>
            -1.1854080855846405e-01 1.7918193340301514e-01</leafValues></_>
        <_>
          <internalNodes>
            0 -1 782 806332448 1410250269 -238407133 111527320 168368528
            -1120542732 1209211418 204254251</internalNodes>
          <leafValues>
            -2.2020210325717926e-01 9.4412632286548615e-02</leafValues></_>
        <_>
          <internalNodes>
            0 -1 480 1080533504 271819820 20228432 75540481 13632513
            367022320 582763008 2216530</internalNodes>
          <leafValues>
            -2.8520074486732483e-01 7.3033586144447327e-02</leafValues></_>
        <_>
          <internalNodes>
            0 -1 90 1213180599 -98343956 -495293829 923454993 250505370
            -655999932 -705702975 -1720203427</internalNodes>
          <leafValues>
            -1.1810104548931122e-01 1.7030823230743408e-01</leafValues></_>
        <_>
          <internalNodes>
            0 -1 812 -5122197 -1228329352 -1627675139 1442817016
            633061039 -2002071882 -580913752 -570699319</internalNodes>
          <leafValues>
            -9.4413086771965027e-02 2.1877777576446533e-01</leafValues></_>
        <_>
          <internalNodes>
            0 -1 830 -262960566 1217907529 -513599408 1376345551
            -781798912 1029673570 -84889810 -1606686561</internalNodes>
          <leafValues>
            -1.3604542613029480e-01 1.4950981736183167e-01</leafValues></_>
        <_>
          <internalNodes>
            0 -1 142 1898818166 963030172 1822436818 929375215
            -216412681 -296560127 1842079775 707919476</internalNodes>
          <leafValues>
            -1.5726685523986816e-01 1.3076438009738922e-01</leafValues></_>
        <_>
          <internalNodes>
            0 -1 411 1259350032 991999480 -1552820026 226757252
            1177652890 723575854 -1470225266 46263810</internalNodes>
          <leafValues>
            -2.3172195255756378e-01 8.9727826416492462e-02</leafValues></_>
        <_>
          <internalNodes>
            0 -1 863 1639950239 -1880963088 -1651000070 493286845
            -1485511496 -1433789038 1493423565 -930092839</internalNodes>
          <leafValues>
            -1.1747320741415024e-01 1.7729556560516357e-01</leafValues></_>
        <_>
          <internalNodes>
            0 -1 663 -667880463 -2112704840 1862456689 253746320
            1529771186 -1964596369 1720598901 -1660432197</internalNodes>
          <leafValues>
            -1.3540913164615631e-01 1.5191178023815155e-01</leafValues></_>
        <_>
          <internalNodes>
            0 -1 676 1654556418 146055832 771481089 -723196670 836973715
            -1302479884 1166634195 630005332</internalNodes>
          <leafValues>
            -2.1006157994270325e-01 9.4873443245887756e-02</leafValues></_>
        <_>
          <internalNodes>
            0 -1 354 -571587484 1913146886 901246079 969203148
            -355022376 -121973356 677528829 -918858985</internalNodes>
          <leafValues>
            -1.2274792045354843e-01 1.6705949604511261e-01</leafValues></_>
        <_>
          <internalNodes>
            0 -1 213 1280370167 503490588 -1922806093 -1309190547
            977283902 1534343076 -290895974 -1980543406</internalNodes>
          <leafValues>
            -1.3430534303188324e-01 1.5131704509258270e-01</leafValues></_>
        <_>
          <internalNodes>
            0 -1 380 -680338145 -675189374 -437762827 -374624816
            1920513173 -1142489703 -1264555283 -864248169</internalNodes>
          <leafValues>
            -1.1452448368072510e-01 1.9544580578804016e-01</leafValues></_>
        <_>
          <internalNodes>
            0 -1 22 -356261265 1460581422 -339582861 -5837586 624813051
            -1191416611 1231191983 -261745666</internalNodes>
          <leafValues>
            -1.1090693622827530e-01 1.8217092752456665e-01</leafValues></_>
        <_>
          <internalNodes>
            0 -1 553 -498819038 2042395298 -2016398575 640607318
            1264059454 -289317126 1963232921 1624729408</internalNodes>
          <leafValues>
            -1.9259008765220642e-01 1.0666242986917496e-01</leafValues></_>
        <_>
          <internalNodes>
            0 -1 283 -549986853 -92713739 -117954121 1499010474
            -447573356 -1215369 -268633121 -1689583621</internalNodes>
          <leafValues>
            -8.6049742996692657e-02 2.4581612646579742e-01</leafValues></_>
        <_>
          <internalNodes>
            0 -1 690 -685431436 157212268 -117718412 1387579992
            1797873612 226844331 610602056 -1448018470</internalNodes>
          <leafValues>
            -1.7802013456821442e-01 1.1607770621776581e-01</leafValues></_>
        <_>
          <internalNodes>
            0 -1 361 633733632 524298497 958471212 -2056718536
            1547438281 -172683111 1249807232 245368904</internalNodes>
          <leafValues>
            -2.5396475195884705e-01 8.2285322248935699e-02</leafValues></_>
        <_>
          <internalNodes>
            0 -1 105 -54291802 1880773803 -621852536 811263099
            2120633411 1142259462 1996322626 878880069</internalNodes>
          <leafValues>
            -2.3337973654270172e-01 8.8604941964149475e-02</leafValues></_>
        <_>
          <internalNodes>
            0 -1 686 -352359117 299121724 2144150517 209496678
            2050321868 498626016 -436265573 -1932656741</internalNodes>
          <leafValues>
            -1.2221356481313705e-01 1.7339211702346802e-01</leafValues></_>
        <_>
          <internalNodes>
            0 -1 529 -785212910 2030091798 1806398772 -1858175148
            1290852675 1545993920 1049206561 1219079202</internalNodes>
          <leafValues>
            -1.8912415206432343e-01 1.1159066110849380e-01</leafValues></_>
        <_>
          <internalNodes>
            0 -1 456 -762583631 822082615 1835338418 1472025356
            1811412456 2044413472 988834527 -828665085</internalNodes>
          <leafValues>
            -1.1123927682638168e-01 1.8668557703495026e-01</leafValues></_>
        <_>
          <internalNodes>
            0 -1 445 -809502317 1497843254 2070165765 815279730
            1312281100 -1143473174 -572609035 -2014577285</internalNodes>
          <leafValues>
            -1.1072104424238205e-01 1.8636359274387360e-01</leafValues></_>
        <_>
          <internalNodes>
            0 -1 272 814086804 1082172860 1262873052 826683653 500498972
            1096522156 224238600 1862688769</internalNodes>
          <leafValues>
            -2.3144890367984772e-01 8.9827939867973328e-02</leafValues></_>
        <_>
          <internalNodes>
            0 -1 585 1782979248 1138083584 169238962 764328312 270090280
            -902779352 -1919992954 650984784</internalNodes>
          <leafValues>
            -2.3024837672710419e-01 8.8838510215282440e-02</leafValues></_>
        <_>
          <internalNodes>
            0 -1 360 515945035 -561565685 -1542149384 -241340870
            -1219235464 1016672872 2117138619 1355617175</internalNodes>
          <leafValues>
            -1.4432044327259064e-01 1.4187917113304138e-01</leafValues></_>
        <_>
          <internalNodes>
            0 -1 40 -362059670 611233284 732319274 571222532 356595478
            79717184 1089803312 56849986</internalNodes>
          <leafValues>
            -3.7710762023925781e-01 5.3829446434974670e-02</leafValues></_>
        <_>
          <internalNodes>
            0 -1 813 -166523665 -11444529 -1649422433 1599749209
            2026274900 -280000641 -873945190 -83171894</internalNodes>
          <leafValues>
            -1.0149040073156357e-01 2.0946557819843292e-01</leafValues></_>
        <_>
          <internalNodes>
            0 -1 786 2016876832 940958355 -2120448976 -978267803
            537078922 424611620 -124964096 244609314</internalNodes>
          <leafValues>
            -2.3393109440803528e-01 9.3870870769023895e-02</leafValues></_>
        <_>
          <internalNodes>
            0 -1 345 -1574795226 -160523788 -1565346151 2004439339
            649443572 -1896636790 934590422 -216814575</internalNodes>
          <leafValues>
            -1.3586540520191193e-01 1.5459500253200531e-01</leafValues></_>
        <_>
          <internalNodes>
            0 -1 95 -119643487 1818718177 -521321700 1078248906
            -11582929 1382304275 828339270 1367277043</internalNodes>
          <leafValues>
            -2.0461517572402954e-01 1.0473251342773438e-01</leafValues></_>
        <_>
          <internalNodes>
            0 -1 355 -1090532859 2049456989 -161288994 294211974
            -955389972 -1714979185 -330024886 -662758580</internalNodes>
          <leafValues>
            -1.2511333823204041e-01 1.7877505719661713e-01</leafValues></_>
        <_>
          <internalNodes>
            0 -1 284 -418540485 -67695466 1031188223 1504595613
            1392084905 -616592283 -295792820 -112993337</internalNodes>
          <leafValues>
            -9.3355357646942139e-02 2.2788769006729126e-01</leafValues></_>
        <_>
          <internalNodes>
            0 -1 296 141790240 761390825 -1939153736 1343394254
            1278097128 784148136 1916994606 1817776860</internalNodes>
          <leafValues>
            -2.2905080020427704e-01 9.3088731169700623e-02</leafValues></_>
        <_>
          <internalNodes>
            0 -1 733 -1568762863 -1464953494 35061553 1324866440
            -1103386221 -2022786265 1667063232 -1912740293</internalNodes>
          <leafValues>
            -1.6311128437519073e-01 1.3570450246334076e-01</leafValues></_>
        <_>
          <internalNodes>
            0 -1 466 1275379312 202754836 -1168860253 -1367391105
            1586068679 -1096622872 989347719 466297698</internalNodes>
          <leafValues>
            -1.6676791012287140e-01 1.3188534975051880e-01</leafValues></_>
        <_>
          <internalNodes>
            0 -1 496 746333404 -1791223300 -540797544 426010404
            1033899508 -1117246651 -170646152 745808532</internalNodes>
          <leafValues>
            -4.2056336998939514e-01 5.0690472126007080e-02</leafValues></_>
        <_>
          <internalNodes>
            0 -1 669 -341660749 -744838230 -44084265 -1814202472
            -369444108 -38275246 592598955 -1090300781</internalNodes>
          <leafValues>
            -1.0016695410013199e-01 2.2331911325454712e-01</leafValues></_>
        <_>
          <internalNodes>
            0 -1 1 1696631806 -1712023668 -1907453922 -1644891830
            1507623419 -13067991 501054972 766579899</internalNodes>
          <leafValues>
            -1.7723061144351959e-01 1.2332792580127716e-01</leafValues></_>
        <_>
          <internalNodes>
            0 -1 520 1677762562 226691632 734039464 -1258004298
            1819743280 -1159625743 743318096 170412597</internalNodes>
          <leafValues>
            -2.7629131078720093e-01 7.7409513294696808e-02</leafValues></_>
        <_>
          <internalNodes>
            0 -1 465 1215432697 321301926 1613121420 234167466
            1500253599 2072294905 449732184 -1612554479</internalNodes>
          <leafValues>
            -1.6353474557399750e-01 1.3471740484237671e-01</leafValues></_>
        <_>
          <internalNodes>
            0 -1 851 -29896858 -202579565 1124035664 -1837531540
            -134574588 1447891987 -1169440098 -561787989</internalNodes>
          <leafValues>
            -1.1983381211757660e-01 1.9084663689136505e-01</leafValues></_>
        <_>
          <internalNodes>
            0 -1 494 -732958473 1069202245 1960486004 -176302188
            -15029831 -2314634 -962789669 -1364741678</internalNodes>
          <leafValues>
            -1.0001056641340256e-01 2.3172841966152191e-01</leafValues></_>
        <_>
          <internalNodes>
            0 -1 178 -1629500216 1117152776 -463842790 551697963
            -848295852 1263159382 1505762817 1950696978</internalNodes>
          <leafValues>
            -2.7151787281036377e-01 8.0640479922294617e-02</leafValues></_></weakClassifiers></_>
    <!-- stage 6 -->
    <_>
      <maxWeakCount>62</maxWeakCount>
      <stageThreshold>-1.3947328329086304e+00</stageThreshold>
      <weakClassifiers>
        <_>
          <internalNodes>
            0 -1 736 -71697411 -608704804 -42207781 -4858391 -1623932929
            -1073743907 -1690633281 -11111</internalNodes>
          <leafValues>
            -5.6944876909255981e-01 -2.1412125229835510e-01</leafValues></_>
        <_>
          <internalNodes>
            0 -1 115 -16779521 2003524349 -221577601 1923342935
            -404490570 -30286992 -336601141 -142610689</internalNodes>
          <leafValues>
            -1.6223144531250000e-01 1.9138848781585693e-01</leafValues></_>
        <_>
          <internalNodes>
            0 -1 776 -214171909 -139470872 790197745 -7864839
            -1556884037 -1963987716 192131327 -551823987</internalNodes>
          <leafValues>
            -8.7227992713451385e-02 2.7313578128814697e-01</leafValues></_>
        <_>
          <internalNodes>
            0 -1 843 -15467216 -182276474 2140929269 758848194 122723616
            521964836 -886350360 -669517061</internalNodes>
          <leafValues>
            -1.2443309277296066e-01 1.7674881219863892e-01</leafValues></_>
        <_>
          <internalNodes>
            0 -1 720 -871538352 -1252985037 217433201 -1984103378
            1432813664 -1929267428 -530066120 513789643</internalNodes>
          <leafValues>
            -1.8348577618598938e-01 1.0905554890632629e-01</leafValues></_>
        <_>
          <internalNodes>
            0 -1 28 -942937457 -234166174 1576567634 -251360702
            2013759402 -834436886 1473201863 -707276338</internalNodes>
          <leafValues>
            -4.9379855394363403e-02 2.5991266965866089e-01</leafValues></_>
        <_>
          <internalNodes>
            0 -1 180 -33985841 -10534059 1755102330 1969772670
            2052474584 -285533152 321052847 -551878773</internalNodes>
          <leafValues>
            -1.1714272946119308e-01 1.7549917101860046e-01</leafValues></_>
        <_>
          <internalNodes>
            0 -1 334 -603550980 -1820708322 418047549 537035885
            -932181500 -902802862 -868452584 218187883</internalNodes>
          <leafValues>
            -2.0157718658447266e-01 9.0802662074565887e-02</leafValues></_>
        <_>
          <internalNodes>
            0 -1 194 860160136 -1579319047 117999628 2048381576
            1033285001 465446824 -364903025 -1982419410</internalNodes>
          <leafValues>
            -1.5102696418762207e-01 1.3843779265880585e-01</leafValues></_>
        <_>
          <internalNodes>
            0 -1 582 -873045374 -425549163 1219866572 2073239230
            1995903618 985228247 1282351580 9642892</internalNodes>
          <leafValues>
            -1.9935861229896545e-01 9.5282539725303650e-02</leafValues></_>
        <_>
          <internalNodes>
            0 -1 74 -523247409 -202469842 -429257553 568600757
            1189767123 -8488447 -461906476 -539021</internalNodes>
          <leafValues>
            -1.0593660175800323e-01 1.7913024127483368e-01</leafValues></_>
        <_>
          <internalNodes>
            0 -1 99 -1149600900 804832850 1593102046 -22819104
            2018823124 1507582863 265680198 1241997248</internalNodes>
          <leafValues>
            -1.8859654664993286e-01 9.9393561482429504e-02</leafValues></_>
        <_>
          <internalNodes>
            0 -1 619 -34087425 -501827 2084666807 -136644 -848343928
            -230021 -1431740677 -805313957</internalNodes>
          <leafValues>
            -6.8728037178516388e-02 2.7748316526412964e-01</leafValues></_>
        <_>
          <internalNodes>
            0 -1 335 -1431699351 -707957359 -818565002 -135200400
            -1173896023 -493809689 924099838 -1992162924</internalNodes>
          <leafValues>
            -1.3520380854606628e-01 1.4273035526275635e-01</leafValues></_>
        <_>
          <internalNodes>
            0 -1 120 1861197766 -1433940286 1736764040 -1514229143
            494881828 130338245 -861419890 1078981260</internalNodes>
          <leafValues>
            -2.1871361136436462e-01 8.6551427841186523e-02</leafValues></_>
        <_>
          <internalNodes>
            0 -1 693 1058058221 -1014961796 1204900437 -846343971
            -2087600199 1039456146 456742137 -40047430</internalNodes>
          <leafValues>
            -1.2451869994401932e-01 1.5121443569660187e-01</leafValues></_>
        <_>
          <internalNodes>
            0 -1 866 -571643997 -982974808 1907195250 -1983513619
            366724771 -1894994456 1165997025 -955530497</internalNodes>
          <leafValues>
            -1.1309893429279327e-01 1.6878846287727356e-01</leafValues></_>
        <_>
          <internalNodes>
            0 -1 207 -966807968 319126548 1123351171 766391126
            1321701024 771161581 1144071405 67393382</internalNodes>
          <leafValues>
            -2.0869025588035583e-01 9.7439132630825043e-02</leafValues></_>
        <_>
          <internalNodes>
            0 -1 643 1688445572 218820361 400326563 -1715335440
            1603552419 -104186650 809282394 337859443</internalNodes>
          <leafValues>
            -1.9370967149734497e-01 9.6438691020011902e-02</leafValues></_>
        <_>
          <internalNodes>
            0 -1 731 -612830991 1983118539 -148210477 2133275755
            -1966792517 -1249425844 1358077897 265822265</internalNodes>
          <leafValues>
            -1.3400721549987793e-01 1.4094521105289459e-01</leafValues></_>
        <_>
          <internalNodes>
            0 -1 834 34827706 -1540173256 -1952618023 -641992048
            57620019 -1600084056 155321612 1146412184</internalNodes>
          <leafValues>
            -2.1025969088077545e-01 9.1088689863681793e-02</leafValues></_>
        <_>
          <internalNodes>
            0 -1 716 -1068778496 -1858953968 -2013666524 745488376
            1355071617 146624051 1555540368 613739360</internalNodes>
          <leafValues>
            -2.3528701066970825e-01 8.1104665994644165e-02</leafValues></_>
        <_>
          <internalNodes>
            0 -1 749 -1994084586 981460644 503358252 -1795771290
            456680677 -1428033315 2030899960 -1103155957</internalNodes>
          <leafValues>
            -1.3964669406414032e-01 1.3467277586460114e-01</leafValues></_>
        <_>
          <internalNodes>
            0 -1 626 860363737 328405284 1795016507 459612826 -120631564
            805158088 506729835 71052125</internalNodes>
          <leafValues>
            -2.0012293756008148e-01 9.3189738690853119e-02</leafValues></_>
        <_>
          <internalNodes>
            0 -1 307 -2012685752 -172759436 1889809008 1249227442
            1356669200 895425600 -436018850 1377338636</internalNodes>
          <leafValues>
            -2.3143514990806580e-01 8.3377264440059662e-02</leafValues></_>
        <_>
          <internalNodes>
            0 -1 457 -706746337 -773901660 531626208 1909848510
            -1117341244 -1041860785 -708329793 -116676165</internalNodes>
          <leafValues>
            -7.6753295958042145e-02 2.6221391558647156e-01</leafValues></_>
        <_>
          <internalNodes>
            0 -1 308 -979300560 364156927 894018256 1036552320 306490208
            1523453505 -20440014 1690258502</internalNodes>
          <leafValues>
            -1.9641858339309692e-01 1.0216259956359863e-01</leafValues></_>
        <_>
          <internalNodes>
            0 -1 91 1252824671 1009861242 -1099801091 1025679356
            -1386084770 1827747700 -449520628 -96113698</internalNodes>
          <leafValues>
            -1.3748742640018463e-01 1.4247268438339233e-01</leafValues></_>
        <_>
          <internalNodes>
            0 -1 473 1696577056 839969740 -494731432 1148115740
            1952673917 159346821 1033377920 -1941737894</internalNodes>
          <leafValues>
            -2.1975336968898773e-01 8.5952021181583405e-02</leafValues></_>
        <_>
          <internalNodes>
            0 -1 171 1224370235 444218675 1934294394 755144230
            1565553112 -1453957812 1716672744 1298650718</internalNodes>
          <leafValues>
            -1.5660503506660461e-01 1.2137592583894730e-01</leafValues></_>
        <_>
          <internalNodes>
            0 -1 230 1151267380 694648588 -586330945 170066567
            2102694944 -40872972 1832914052 -64988591</internalNodes>
          <leafValues>
            -1.7848305404186249e-01 1.0700361430644989e-01</leafValues></_>
        <_>
          <internalNodes>
            0 -1 849 -25179541 -213955993 -1328712622 1349110234
            -1584939568 -1202979511 -1104362242 -201589793</internalNodes>
          <leafValues>
            -8.7857738137245178e-02 2.2663618624210358e-01</leafValues></_>
        <_>
          <internalNodes>
            0 -1 67 1751264762 236997326 366289502 764521003 -1873275112
            788463168 -1306826556 1138191588</internalNodes>
          <leafValues>
            -2.0539730787277222e-01 9.5478050410747528e-02</leafValues></_>
        <_>
          <internalNodes>
            0 -1 264 508025691 386946140 664557989 1046253373 745961358
            -1443471886 -925170163 -1198754533</internalNodes>
          <leafValues>
            -1.3334743678569794e-01 1.4791770279407501e-01</leafValues></_>
        <_>
          <internalNodes>
            0 -1 124 -501183776 149612706 475213432 1097210593
            -1436711114 -1346069461 1148566957 675332404</internalNodes>
          <leafValues>
            -2.1628324687480927e-01 9.0975902974605560e-02</leafValues></_>
        <_>
          <internalNodes>
            0 -1 624 2010629631 368187007 1741520375 -34497607
            1758948845 -43143 -13411234 -1459921429</internalNodes>
          <leafValues>
            -8.7336264550685883e-02 2.2545588016510010e-01</leafValues></_>
        <_>
          <internalNodes>
            0 -1 409 -632886845 2081567703 200672305 1344604150
            1646081682 1511226716 -917514902 -174602641</internalNodes>
          <leafValues>
            -1.1445137113332748e-01 1.6952122747898102e-01</leafValues></_>
        <_>
          <internalNodes>
            0 -1 371 1575406865 -1719112158 -446686927 -957958432
            1739637204 -1200085904 -1568908316 -1348724980</internalNodes>
          <leafValues>
            -1.5113930404186249e-01 1.2606489658355713e-01</leafValues></_>
        <_>
          <internalNodes>
            0 -1 372 -604266029 371068631 -986419819 -1989379055
            413051574 519853490 155030730 749198095</internalNodes>
          <leafValues>
            -1.2568359076976776e-01 1.5669429302215576e-01</leafValues></_>
        <_>
          <internalNodes>
            0 -1 824 589273890 797589448 698671863 212606846 -1894682135
            -1979648490 388072693 1075829928</internalNodes>
          <leafValues>
            -2.1064910292625427e-01 9.3561097979545593e-02</leafValues></_>
        <_>
          <internalNodes>
            0 -1 197 -961548255 -188414118 1867290093 -642918959
            1853341101 495461658 124444765 -1792544238</internalNodes>
          <leafValues>
            -1.1883882433176041e-01 1.6907691955566406e-01</leafValues></_>
        <_>
          <internalNodes>
            0 -1 779 -150074855 2137742953 2062834077 1376099164
            -1979978624 1475213453 -1171593525 -1691202069</internalNodes>
          <leafValues>
            -1.1452269554138184e-01 1.7088977992534637e-01</leafValues></_>
        <_>
          <internalNodes>
            0 -1 531 141021184 714985604 -1984263900 -1330865088
            1255023636 1366715580 446766592 271578388</internalNodes>
          <leafValues>
            -3.1779134273529053e-01 6.0117851942777634e-02</leafValues></_>
        <_>
          <internalNodes>
            0 -1 331 -127954254 -102163945 1794351703 1343139044
            660513496 804403219 1572952679 1259567623</internalNodes>
          <leafValues>
            -1.5566471219062805e-01 1.2493249773979187e-01</leafValues></_>
        <_>
          <internalNodes>
            0 -1 632 171240258 538496024 -1921696736 -1677557648
            1581520776 2074270804 1167394965 87049576</internalNodes>
          <leafValues>
            -2.8694012761116028e-01 6.8036116659641266e-02</leafValues></_>
        <_>
          <internalNodes>
            0 -1 186 2097760 -1342094676 1589403708 548432513 46796963
            -1593004644 340385588 540108321</internalNodes>
          <leafValues>
            -3.0981582403182983e-01 6.1947077512741089e-02</leafValues></_>
        <_>
          <internalNodes>
            0 -1 326 -689180349 1353926180 1284726773 -706085108
            1030340034 -1352605734 1323729537 247155487</internalNodes>
          <leafValues>
            -1.1862444132566452e-01 1.6297937929630280e-01</leafValues></_>
        <_>
          <internalNodes>
            0 -1 258 1830813788 -2038128818 -727911880 -1882177103
            303108048 1113073772 -498751714 1598004</internalNodes>
          <leafValues>
            -2.9082152247428894e-01 6.9932132959365845e-02</leafValues></_>
        <_>
          <internalNodes>
            0 -1 683 377223060 859692277 1057140208 -1708621674
            1562127523 -928679430 -1602611393 -641764090</internalNodes>
          <leafValues>
            -1.3909044861793518e-01 1.4383344352245331e-01</leafValues></_>
        <_>
          <internalNodes>
            0 -1 288 -1572700160 1076939213 -1011184326 755027585
            1381337904 2138445191 65084492 6447208</internalNodes>
          <leafValues>
            -2.8132131695747375e-01 7.0481114089488983e-02</leafValues></_>
        <_>
          <internalNodes>
            0 -1 401 89404976 -1990188826 -1219455677 -1254106160
            -1744931351 -1610946592 1386494402 910589990</internalNodes>
          <leafValues>
            -2.1412000060081482e-01 9.2286504805088043e-02</leafValues></_>
        <_>
          <internalNodes>
            0 -1 816 -1074021980 374514415 257958140 1638664760
            1863857817 442682332 1760680636 -1782266295</internalNodes>
          <leafValues>
            -1.5298873186111450e-01 1.3148070871829987e-01</leafValues></_>
        <_>
          <internalNodes>
            0 -1 859 -4738269 -965429579 632251936 -1313931659
            -1745404027 -1505182917 284423826 -942213381</internalNodes>
          <leafValues>
            -1.1978336423635483e-01 1.7212277650833130e-01</leafValues></_>
        <_>
          <internalNodes>
            0 -1 175 38953034 -1503918625 1916072056 308824931
            -560594878 -1354102209 -1349503132 355485840</internalNodes>
          <leafValues>
            -2.8869110345840454e-01 7.0716984570026398e-02</leafValues></_>
        <_>
          <internalNodes>
            0 -1 350 -101724577 -1625113171 -461541029 1367331095
            -890000160 -405143695 -765795661 -896549957</internalNodes>
          <leafValues>
            -8.7442435324192047e-02 2.3741905391216278e-01</leafValues></_>
        <_>
          <internalNodes>
            0 -1 691 -882419237 2137114806 1788468076 1815452920
            -469693463 -1153827402 -1934027334 -649072246</internalNodes>
          <leafValues>
            -9.7557522356510162e-02 2.1171304583549500e-01</leafValues></_>
        <_>
          <internalNodes>
            0 -1 637 212600112 -1457506884 953994286 2022995452
            2067342597 -1479033892 103903408 221252928</internalNodes>
          <leafValues>
            -3.7987911701202393e-01 5.4061125963926315e-02</leafValues></_>
        <_>
          <internalNodes>
            0 -1 748 -872887623 -1091672856 -1387056300 -605276682
            -1356424963 426288499 -1846088787 -773899397</internalNodes>
          <leafValues>
            -9.7437791526317596e-02 2.1468497812747955e-01</leafValues></_>
        <_>
          <internalNodes>
            0 -1 369 -628187484 1437243154 -1879258258 633706248
            -275766531 1312447140 -555093923 -326716618</internalNodes>
          <leafValues>
            -1.4182601869106293e-01 1.4479355514049530e-01</leafValues></_>
        <_>
          <internalNodes>
            0 -1 166 1234643210 1090402275 35686977 13028940 -1839708724
            1254851542 143326549 1191763536</internalNodes>
          <leafValues>
            -2.3793277144432068e-01 8.6630865931510925e-02</leafValues></_>
        <_>
          <internalNodes>
            0 -1 293 -720706496 -71798266 -1326997917 -579635085
            -1636900993 -1920250466 2677663 -559213191</internalNodes>
          <leafValues>
            -1.0588635504245758e-01 1.9616138935089111e-01</leafValues></_>
        <_>
          <internalNodes>
            0 -1 201 1321296703 1789719794 1154066686 -284566296
            1151130169 -20410046 -1101151916 936120064</internalNodes>
          <leafValues>
            -1.5178415179252625e-01 1.3555623590946198e-01</leafValues></_></weakClassifiers></_>
    <!-- stage 7 -->
    <_>
      <maxWeakCount>68</maxWeakCount>
      <stageThreshold>-1.3791640996932983e+00</stageThreshold>
      <weakClassifiers>
        <_>
          <internalNodes>
            0 -1 395 -671097633 -30465 -1113014819 -116375841 -87894818
            -67232195 -547160353 -550838785</internalNodes>
          <leafValues>
            -5.6565719842910767e-01 -2.5173321366310120e-01</leafValues></_>
        <_>
          <internalNodes>
            0 -1 734 -110627917 1560908448 320291313 2066611856
            -1105200398 -661348450 420861553 -552871541</internalNodes>
          <leafValues>
            -1.8087020516395569e-01 1.4657439291477203e-01</leafValues></_>
        <_>
          <internalNodes>
            0 -1 725 -446958340 -687833830 1568261180 -1641415806
            -830513928 445439464 1300221020 -1347427598</internalNodes>
          <leafValues>
            -1.4476716518402100e-01 1.3751423358917236e-01</leafValues></_>
        <_>
          <internalNodes>
            0 -1 344 285212708 -791074287 555888010 1740186076 570207657
            1051786892 663587336 157092364</internalNodes>
          <leafValues>
            -2.4055261909961700e-01 8.0574810504913330e-02</leafValues></_>
        <_>
          <internalNodes>
            0 -1 19 -873467165 -878542336 112419906 1426353777
            -1423444021 1155844587 1205310879 -143405049</internalNodes>
          <leafValues>
            -7.9249754548072815e-02 2.1066339313983917e-01</leafValues></_>
        <_>
          <internalNodes>
            0 -1 121 -78134162 1534525539 -1359569320 1882229887
            583223824 -1336732074 -620202757 -552337873</internalNodes>
          <leafValues>
            -9.2857837677001953e-02 1.8888321518898010e-01</leafValues></_>
        <_>
          <internalNodes>
            0 -1 438 -849837578 -579007089 -650678178 -683977289
            1421101260 -33677444 -548340082 -1928671495</internalNodes>
          <leafValues>
            -1.2764956057071686e-01 1.4438936114311218e-01</leafValues></_>
        <_>
          <internalNodes>
            0 -1 113 -759317526 1668801166 -1142043089 -16024501
            307038190 364961686 2126181839 1397618697</internalNodes>
          <leafValues>
            -1.2604722380638123e-01 1.4110273122787476e-01</leafValues></_>
        <_>
          <internalNodes>
            0 -1 563 -524281190 1529933331 73140032 -1682038920
            1348207917 523676268 -353026561 1002392079</internalNodes>
          <leafValues>
            -1.5641491115093231e-01 1.1475403606891632e-01</leafValues></_>
        <_>
          <internalNodes>
            0 -1 864 101690018 -1968247262 -2107366400 542252712
            -1922314363 105577282 1350263872 1888708</internalNodes>
          <leafValues>
            -3.0987581610679626e-01 5.4825037717819214e-02</leafValues></_>
        <_>
          <internalNodes>
            0 -1 97 -1921636746 523273221 706280798 -1424442190
            -428340328 1852974580 -841999448 2055273128</internalNodes>
          <leafValues>
            -2.0563469827175140e-01 8.4745466709136963e-02</leafValues></_>
        <_>
          <internalNodes>
            0 -1 83 1452254931 2116708008 108549750 1493729062
            -700704770 -702927231 1511157711 -61342882</internalNodes>
          <leafValues>
            -9.8938681185245514e-02 1.7334133386611938e-01</leafValues></_>
        <_>
          <internalNodes>
            0 -1 711 -1600715264 2043849685 1008342320 -1047609660
            758712454 887302492 881131564 811726614</internalNodes>
          <leafValues>
            -2.2297325730323792e-01 7.8986883163452148e-02</leafValues></_>
        <_>
          <internalNodes>
            0 -1 764 201589296 1010871100 450761087 112202772 86508380
            -1397880492 770185204 395586800</internalNodes>
          <leafValues>
            -4.4257116317749023e-01 3.8968835026025772e-02</leafValues></_>
        <_>
          <internalNodes>
            0 -1 649 -666504449 -300103058 -718258827 -191021426
            -847460172 -1471389836 -36322049 -1351879589</internalNodes>
          <leafValues>
            -8.9432902634143829e-02 1.9942717254161835e-01</leafValues></_>
        <_>
          <internalNodes>
            0 -1 7 1263307942 368102290 1731965749 566370193 1124374201
            -982062937 2125800548 1807889506</internalNodes>
          <leafValues>
            -1.8369129300117493e-01 9.6943616867065430e-02</leafValues></_>
        <_>
          <internalNodes>
            0 -1 437 -1664828601 1534599435 889101819 -1424223392
            -623342352 -34557986 -16909448 -543982495</internalNodes>
          <leafValues>
            -1.1468428373336792e-01 1.5406927466392517e-01</leafValues></_>
        <_>
          <internalNodes>
            0 -1 4 -964132054 1540265474 670853405 -1180159322 153401748
            784015571 -935214900 1081152661</internalNodes>
          <leafValues>
            -1.8709443509578705e-01 9.6434898674488068e-02</leafValues></_>
        <_>
          <internalNodes>
            0 -1 421 1229685120 473735691 182261048 94458160 -1128239232
            1021197352 525880300 50273767</internalNodes>
          <leafValues>
            -1.8727046251296997e-01 9.4757869839668274e-02</leafValues></_>
        <_>
          <internalNodes>
            0 -1 627 1085276784 360604933 -682062923 -318861335
            638127492 -1921220767 119893639 403730428</internalNodes>
          <leafValues>
            -2.2174447774887085e-01 7.8416936099529266e-02</leafValues></_>
        <_>
          <internalNodes>
            0 -1 787 -105124606 1389690847 938554152 295082943
            -626623068 209655773 -1350177656 -1046749220</internalNodes>
          <leafValues>
            -1.2741027772426605e-01 1.3921593129634857e-01</leafValues></_>
        <_>
          <internalNodes>
            0 -1 811 -1456338272 -1455356012 1124556225 1912493149
            115306413 670156977 486741945 1299963357</internalNodes>
          <leafValues>
            -1.7001515626907349e-01 1.0320335626602173e-01</leafValues></_>
        <_>
          <internalNodes>
            0 -1 256 1711579136 682862772 870363808 -1182428016
            1760372484 1826238822 -1423553270 844419088</internalNodes>
          <leafValues>
            -2.7271163463592529e-01 6.5369211137294769e-02</leafValues></_>
        <_>
          <internalNodes>
            0 -1 790 2047858049 -535919813 355457104 -1131509360
            1348928280 -1181759486 499406776 -1810301270</internalNodes>
          <leafValues>
            -1.3955402374267578e-01 1.2699086964130402e-01</leafValues></_>
        <_>
          <internalNodes>
            0 -1 54 -832049521 1541369361 846867539 -1853329842
            -665905976 -481485071 1089482458 -718018879</internalNodes>
          <leafValues>
            -1.0075210779905319e-01 1.8077053129673004e-01</leafValues></_>
        <_>
          <internalNodes>
            0 -1 539 -2012217973 1345893241 -2113939524 2092882624
            1978484584 -752501383 -1922594104 -1641186133</internalNodes>
          <leafValues>
            -1.2158861011266708e-01 1.4373780786991119e-01</leafValues></_>
        <_>
          <internalNodes>
            0 -1 636 -600155663 504681840 -1624676939 -13772610
            1276648379 -1544043367 1334667719 -1892953349</internalNodes>
          <leafValues>
            -9.7951807081699371e-02 1.8799792230129242e-01</leafValues></_>
        <_>
          <internalNodes>
            0 -1 482 1872224673 511290566 -1236565092 -1264784506
            1139270114 1957123749 -1994075574 -473512176</internalNodes>
          <leafValues>
            -1.3074156641960144e-01 1.3996541500091553e-01</leafValues></_>
        <_>
          <internalNodes>
            0 -1 678 -561192954 -1097751350 192764441 -570916037
            1445306501 -1184520007 -154047331 6647811</internalNodes>
          <leafValues>
            -1.5547819435596466e-01 1.1209680140018463e-01</leafValues></_>
        <_>
          <internalNodes>
            0 -1 533 567286336 232534206 2046824445 763661101 603990388
            1550511513 2042918876 771752288</internalNodes>
          <leafValues>
            -3.3392074704170227e-01 5.3284794092178345e-02</leafValues></_>
        <_>
          <internalNodes>
            0 -1 217 138689490 -420835566 885260347 -687881212
            -1294647052 -1586439254 -2104984277 2128605701</internalNodes>
          <leafValues>
            -1.5533408522605896e-01 1.1634935438632965e-01</leafValues></_>
        <_>
          <internalNodes>
            0 -1 591 -222569217 -1126353185 -860043698 -848185449
            -2123261471 -146907780 -344437666 -1192510221</internalNodes>
          <leafValues>
            -8.8276349008083344e-02 2.2447669506072998e-01</leafValues></_>
        <_>
          <internalNodes>
            0 -1 303 553656320 697836355 835979160 1391263802 1475735372
            760244972 9111552 62165891</internalNodes>
          <leafValues>
            -2.9200890660285950e-01 6.5313838422298431e-02</leafValues></_>
        <_>
          <internalNodes>
            0 -1 336 -1003823096 -628205793 -721420421 990131478
            1671886070 -309153303 515210202 -90017769</internalNodes>
          <leafValues>
            -1.3019523024559021e-01 1.3966012001037598e-01</leafValues></_>
        <_>
          <internalNodes>
            0 -1 243 1076405776 1387328051 -2015987939 -658729071
            1573468348 -86845186 -1781003014 -1930448123</internalNodes>
          <leafValues>
            -1.5265771746635437e-01 1.1897027492523193e-01</leafValues></_>
        <_>
          <internalNodes>
            0 -1 45 -1065074062 1531731713 -894239567 -1787562422
            39732824 -337465836 -570949974 -1732942415</internalNodes>
          <leafValues>
            -1.5887190401554108e-01 1.1181085556745529e-01</leafValues></_>
        <_>
          <internalNodes>
            0 -1 2 -1895054641 -288966852 -1844595050 1598105520
            -961311239 -579968635 456095735 -961215115</internalNodes>
          <leafValues>
            -1.2858922779560089e-01 1.3915495574474335e-01</leafValues></_>
        <_>
          <internalNodes>
            0 -1 216 139354155 935420052 445404410 303070723 1737887012
            381499725 -1831599030 1327767320</internalNodes>
          <leafValues>
            -2.1985724568367004e-01 8.3444461226463318e-02</leafValues></_>
        <_>
          <internalNodes>
            0 -1 640 1076003844 1367259158 157722971 -2076215544
            -58035710 -605339964 770918636 1083487347</internalNodes>
          <leafValues>
            -2.0095363259315491e-01 9.2474527657032013e-02</leafValues></_>
        <_>
          <internalNodes>
            0 -1 525 1694824423 459034150 246947829 1170123672 449335691
            -1748177437 -270176696 -858515712</internalNodes>
          <leafValues>
            -1.3323457539081573e-01 1.3909788429737091e-01</leafValues></_>
        <_>
          <internalNodes>
            0 -1 402 -2013036542 282240390 -1666026908 113391638
            -840595262 948767865 -362272583 697453392</internalNodes>
          <leafValues>
            -2.1897861361503601e-01 8.3441466093063354e-02</leafValues></_>
        <_>
          <internalNodes>
            0 -1 251 343388726 73842984 1586764101 -1290993892
            -585267300 -1129406059 -1806932588 112156106</internalNodes>
          <leafValues>
            -1.7088365554809570e-01 1.1099468916654587e-01</leafValues></_>
        <_>
          <internalNodes>
            0 -1 317 1611801604 515113550 1772105148 -838787388
            326960656 764555206 478729100 451281972</internalNodes>
          <leafValues>
            -2.6772493124008179e-01 6.9016240537166595e-02</leafValues></_>
        <_>
          <internalNodes>
            0 -1 791 1431042583 2082174875 424232221 -663759619
            753342390 949706680 -1697205875 -649868378</internalNodes>
          <leafValues>
            -1.0563791543245316e-01 1.7983850836753845e-01</leafValues></_>
        <_>
          <internalNodes>
            0 -1 852 -220204406 -97714481 2119686406 -1244537189
            -542183464 1378144214 -1487735654 -354687089</internalNodes>
          <leafValues>
            -8.1657901406288147e-02 2.2729972004890442e-01</leafValues></_>
        <_>
          <internalNodes>
            0 -1 586 -25305157 824745819 686351383 -545878246 1769621423
            -597545555 -1973751992 -126355858</internalNodes>
          <leafValues>
            -8.7351121008396149e-02 2.1423563361167908e-01</leafValues></_>
        <_>
          <internalNodes>
            0 -1 538 -900870144 2668336 493833216 -909590524 855355904
            664080280 -593223424 3036189</internalNodes>
          <leafValues>
            -3.2996922731399536e-01 5.7431697845458984e-02</leafValues></_>
        <_>
          <internalNodes>
            0 -1 527 -1195280485 -401229259 -1811256293 -257888855
            1280087250 901834890 -251002729 -47778194</internalNodes>
          <leafValues>
            -1.0804816335439682e-01 1.7865404486656189e-01</leafValues></_>
        <_>
          <internalNodes>
            0 -1 665 -29877840 -1105949248 1171196273 -1725826630
            2084810385 -1381771100 -2058658339 -1985275828</internalNodes>
          <leafValues>
            -1.3883274793624878e-01 1.4389874041080475e-01</leafValues></_>
        <_>
          <internalNodes>
            0 -1 699 69739376 1210100152 -1428376268 674708720 191973600
            1419610547 1294301402 628769937</internalNodes>
          <leafValues>
            -3.0663430690765381e-01 6.0846585780382156e-02</leafValues></_>
        <_>
          <internalNodes>
            0 -1 108 -829434300 -677704415 650932398 283276903 199690496
            1314186566 1083061778 1162018418</internalNodes>
          <leafValues>
            -2.1293996274471283e-01 8.7432116270065308e-02</leafValues></_>
        <_>
          <internalNodes>
            0 -1 742 283943816 -860251134 837914041 205924653 1157590184
            -92695085 1718841060 1368474704</internalNodes>
          <leafValues>
            -1.9828219711780548e-01 9.4745919108390808e-02</leafValues></_>
        <_>
          <internalNodes>
            0 -1 543 2130301265 735621532 -3359201 -2030555852
            2018012672 -1108825355 914119931 -1362994059</internalNodes>
          <leafValues>
            -1.4930407702922821e-01 1.2620495259761810e-01</leafValues></_>
        <_>
          <internalNodes>
            0 -1 798 -1388865235 1560865691 -189101776 526111388
            648648620 -1666712998 2098584616 -2115140937</internalNodes>
          <leafValues>
            -1.3076785206794739e-01 1.4743971824645996e-01</leafValues></_>
        <_>
          <internalNodes>
            0 -1 341 -184536865 -564288654 979209999 -1141728771
            -271529734 -1245051122 1498210286 -538062329</internalNodes>
          <leafValues>
            -8.5548616945743561e-02 2.2942154109477997e-01</leafValues></_>
        <_>
          <internalNodes>
            0 -1 285 -587511113 -540816793 -1016985665 488148863
            -169909342 -44347501 -898748708 -1082396854</internalNodes>
          <leafValues>
            -8.8184162974357605e-02 2.2430185973644257e-01</leafValues></_>
        <_>
          <internalNodes>
            0 -1 673 -239689321 1768749789 -798022757 2050551209
            768817443 -1430501449 -1407293848 -72878770</internalNodes>
          <leafValues>
            -1.0330627858638763e-01 1.8019072711467743e-01</leafValues></_>
        <_>
          <internalNodes>
            0 -1 512 -1178112328 -798887252 1420058111 -426048968
            1361009549 -104869942 -1334260773 1386079415</internalNodes>
          <leafValues>
            -1.3326522707939148e-01 1.4258688688278198e-01</leafValues></_>
        <_>
          <internalNodes>
            0 -1 634 1013784152 -1256992448 1840232735 -537625808
            1694496943 527190410 -1925997261 -1907789795</internalNodes>
          <leafValues>
            -1.3150466978549957e-01 1.4138604700565338e-01</leafValues></_>
        <_>
          <internalNodes>
            0 -1 35 -399939058 -527816026 731409706 102141768 456734176
            2146015922 1859262031 34715077</internalNodes>
          <leafValues>
            -2.4498951435089111e-01 7.7152445912361145e-02</leafValues></_>
        <_>
          <internalNodes>
            0 -1 29 -150221387 -70015055 701403007 -75769012 1820246954
