<?xml version="1.0"?>
<opencv_storage>
<stage6>
  <maxWeakCount>62</maxWeakCount>
  <stageThreshold>-1.3947328329086304e+00</stageThreshold>
  <weakClassifiers>
    <_>
      <internalNodes>
        0 -1 7633 -71697411 -608704804 -42207781 -4858391 -1623932929
        -1073743907 -1690633281 -11111</internalNodes>
      <leafValues>
        -5.6944876909255981e-01 -2.1412125229835510e-01</leafValues></_>
    <_>
      <internalNodes>
        0 -1 698 -16779521 2003524349 -221577601 1923342935 -404490570
        -30286992 -336601141 -142610689</internalNodes>
      <leafValues>
        -1.6223144531250000e-01 1.9138848781585693e-01</leafValues></_>
    <_>
      <internalNodes>
        0 -1 7998 -214171909 -139470872 790197745 -7864839 -1556884037
        -1963987716 192131327 -551823987</internalNodes>
      <leafValues>
        -8.7227992713451385e-02 2.7313578128814697e-01</leafValues></_>
    <_>
      <internalNodes>
        0 -1 8386 -15467216 -182276474 2140929269 758848194 122723616
        521964836 -886350360 -669517061</internalNodes>
      <leafValues>
        -1.2443309277296066e-01 1.7674881219863892e-01</leafValues></_>
    <_>
      <internalNodes>
        0 -1 7530 -871538352 -1252985037 217433201 -1984103378
        1432813664 -1929267428 -530066120 513789643</internalNodes>
      <leafValues>
        -1.8348577618598938e-01 1.0905554890632629e-01</leafValues></_>
    <_>
      <internalNodes>
        0 -1 177 -942937457 -234166174 1576567634 -251360702 2013759402
        -834436886 1473201863 -707276338</internalNodes>
      <leafValues>
        -4.9379855394363403e-02 2.5991266965866089e-01</leafValues></_>
    <_>
      <internalNodes>
        0 -1 1366 -33985841 -10534059 1755102330 1969772670 2052474584
        -285533152 321052847 -551878773</internalNodes>
      <leafValues>
        -1.1714272946119308e-01 1.7549917101860046e-01</leafValues></_>
    <_>
      <internalNodes>
        0 -1 3216 -603550980 -1820708322 418047549 537035885 -932181500
        -902802862 -868452584 218187883</internalNodes>
      <leafValues>
        -2.0157718658447266e-01 9.0802662074565887e-02</leafValues></_>
    <_>
      <internalNodes>
        0 -1 1480 860160136 -1579319047 117999628 2048381576 1033285001
        465446824 -364903025 -1982419410</internalNodes>
      <leafValues>
        -1.5102696418762207e-01 1.3843779265880585e-01</leafValues></_>
    <_>
      <internalNodes>
        0 -1 6126 -873045374 -425549163 1219866572 2073239230 1995903618
        985228247 1282351580 9642892</internalNodes>
      <leafValues>
        -1.9935861229896545e-01 9.5282539725303650e-02</leafValues></_>
    <_>
      <internalNodes>
        0 -1 462 -523247409 -202469842 -429257553 568600757 1189767123
        -8488447 -461906476 -539021</internalNodes>
      <leafValues>
        -1.0593660175800323e-01 1.7913024127483368e-01</leafValues></_>
    <_>
      <internalNodes>
        0 -1 583 -1149600900 804832850 1593102046 -22819104 2018823124
        1507582863 265680198 1241997248</internalNodes>
      <leafValues>
        -1.8859654664993286e-01 9.9393561482429504e-02</leafValues></_>
    <_>
      <internalNodes>
        0 -1 6698 -34087425 -501827 2084666807 -136644 -848343928
        -230021 -1431740677 -805313957</internalNodes>
      <leafValues>
        -6.8728037178516388e-02 2.7748316526412964e-01</leafValues></_>
    <_>
      <internalNodes>
        0 -1 3220 -1431699351 -707957359 -818565002 -135200400
        -1173896023 -493809689 924099838 -1992162924</internalNodes>
      <leafValues>
        -1.3520380854606628e-01 1.4273035526275635e-01</leafValues></_>
    <_>
      <internalNodes>
        0 -1 711 1861197766 -1433940286 1736764040 -1514229143 494881828
        130338245 -861419890 1078981260</internalNodes>
      <leafValues>
        -2.1871361136436462e-01 8.6551427841186523e-02</leafValues></_>
    <_>
      <internalNodes>
        0 -1 7348 1058058221 -1014961796 1204900437 -846343971
        -2087600199 1039456146 456742137 -40047430</internalNodes>
      <leafValues>
        -1.2451869994401932e-01 1.5121443569660187e-01</leafValues></_>
    <_>
      <internalNodes>
        0 -1 8457 -571643997 -982974808 1907195250 -1983513619 366724771
        -1894994456 1165997025 -955530497</internalNodes>
      <leafValues>
        -1.1309893429279327e-01 1.6878846287727356e-01</leafValues></_>
    <_>
      <internalNodes>
        0 -1 1680 -966807968 319126548 1123351171 766391126 1321701024
        771161581 1144071405 67393382</internalNodes>
      <leafValues>
        -2.0869025588035583e-01 9.7439132630825043e-02</leafValues></_>
    <_>
      <internalNodes>
        0 -1 6869 1688445572 218820361 400326563 -1715335440 1603552419
        -104186650 809282394 337859443</internalNodes>
      <leafValues>
        -1.9370967149734497e-01 9.6438691020011902e-02</leafValues></_>
    <_>
      <internalNodes>
        0 -1 7609 -612830991 1983118539 -148210477 2133275755
        -1966792517 -1249425844 1358077897 265822265</internalNodes>
      <leafValues>
        -1.3400721549987793e-01 1.4094521105289459e-01</leafValues></_>
    <_>
      <internalNodes>
        0 -1 8361 34827706 -1540173256 -1952618023 -641992048 57620019
        -1600084056 155321612 1146412184</internalNodes>
      <leafValues>
        -2.1025969088077545e-01 9.1088689863681793e-02</leafValues></_>
    <_>
      <internalNodes>
        0 -1 7512 -1068778496 -1858953968 -2013666524 745488376
        1355071617 146624051 1555540368 613739360</internalNodes>
      <leafValues>
        -2.3528701066970825e-01 8.1104665994644165e-02</leafValues></_>
    <_>
      <internalNodes>
        0 -1 7741 -1994084586 981460644 503358252 -1795771290 456680677
        -1428033315 2030899960 -1103155957</internalNodes>
      <leafValues>
        -1.3964669406414032e-01 1.3467277586460114e-01</leafValues></_>
    <_>
      <internalNodes>
        0 -1 6748 860363737 328405284 1795016507 459612826 -120631564
        805158088 506729835 71052125</internalNodes>
      <leafValues>
        -2.0012293756008148e-01 9.3189738690853119e-02</leafValues></_>
    <_>
      <internalNodes>
        0 -1 2871 -2012685752 -172759436 1889809008 1249227442
        1356669200 895425600 -436018850 1377338636</internalNodes>
      <leafValues>
        -2.3143514990806580e-01 8.3377264440059662e-02</leafValues></_>
    <_>
      <internalNodes>
        0 -1 4559 -706746337 -773901660 531626208 1909848510 -1117341244
        -1041860785 -708329793 -116676165</internalNodes>
      <leafValues>
        -7.6753295958042145e-02 2.6221391558647156e-01</leafValues></_>
    <_>
      <internalNodes>
        0 -1 2899 -979300560 364156927 894018256 1036552320 306490208
        1523453505 -20440014 1690258502</internalNodes>
      <leafValues>
        -1.9641858339309692e-01 1.0216259956359863e-01</leafValues></_>
    <_>
      <internalNodes>
        0 -1 535 1252824671 1009861242 -1099801091 1025679356
        -1386084770 1827747700 -449520628 -96113698</internalNodes>
      <leafValues>
        -1.3748742640018463e-01 1.4247268438339233e-01</leafValues></_>
    <_>
      <internalNodes>
        0 -1 4783 1696577056 839969740 -494731432 1148115740 1952673917
        159346821 1033377920 -1941737894</internalNodes>
      <leafValues>
        -2.1975336968898773e-01 8.5952021181583405e-02</leafValues></_>
    <_>
      <internalNodes>
        0 -1 1304 1224370235 444218675 1934294394 755144230 1565553112
        -1453957812 1716672744 1298650718</internalNodes>
      <leafValues>
        -1.5660503506660461e-01 1.2137592583894730e-01</leafValues></_>
    <_>
      <internalNodes>
        0 -1 1978 1151267380 694648588 -586330945 170066567 2102694944
        -40872972 1832914052 -64988591</internalNodes>
      <leafValues>
        -1.7848305404186249e-01 1.0700361430644989e-01</leafValues></_>
    <_>
      <internalNodes>
        0 -1 8407 -25179541 -213955993 -1328712622 1349110234
        -1584939568 -1202979511 -1104362242 -201589793</internalNodes>
      <leafValues>
        -8.7857738137245178e-02 2.2663618624210358e-01</leafValues></_>
    <_>
      <internalNodes>
        0 -1 434 1751264762 236997326 366289502 764521003 -1873275112
        788463168 -1306826556 1138191588</internalNodes>
      <leafValues>
        -2.0539730787277222e-01 9.5478050410747528e-02</leafValues></_>
    <_>
      <internalNodes>
        0 -1 2464 508025691 386946140 664557989 1046253373 745961358
        -1443471886 -925170163 -1198754533</internalNodes>
      <leafValues>
        -1.3334743678569794e-01 1.4791770279407501e-01</leafValues></_>
    <_>
      <internalNodes>
        0 -1 753 -501183776 149612706 475213432 1097210593 -1436711114
        -1346069461 1148566957 675332404</internalNodes>
      <leafValues>
        -2.1628324687480927e-01 9.0975902974605560e-02</leafValues></_>
    <_>
      <internalNodes>
        0 -1 6740 2010629631 368187007 1741520375 -34497607 1758948845
        -43143 -13411234 -1459921429</internalNodes>
      <leafValues>
        -8.7336264550685883e-02 2.2545588016510010e-01</leafValues></_>
    <_>
      <internalNodes>
        0 -1 3952 -632886845 2081567703 200672305 1344604150 1646081682
        1511226716 -917514902 -174602641</internalNodes>
      <leafValues>
        -1.1445137113332748e-01 1.6952122747898102e-01</leafValues></_>
    <_>
      <internalNodes>
        0 -1 3569 1575406865 -1719112158 -446686927 -957958432
        1739637204 -1200085904 -1568908316 -1348724980</internalNodes>
      <leafValues>
        -1.5113930404186249e-01 1.2606489658355713e-01</leafValues></_>
    <_>
      <internalNodes>
        0 -1 3573 -604266029 371068631 -986419819 -1989379055 413051574
        519853490 155030730 749198095</internalNodes>
      <leafValues>
        -1.2568359076976776e-01 1.5669429302215576e-01</leafValues></_>
    <_>
      <internalNodes>
        0 -1 8275 589273890 797589448 698671863 212606846 -1894682135
        -1979648490 388072693 1075829928</internalNodes>
      <leafValues>
        -2.1064910292625427e-01 9.3561097979545593e-02</leafValues></_>
    <_>
      <internalNodes>
        0 -1 1541 -961548255 -188414118 1867290093 -642918959 1853341101
        495461658 124444765 -1792544238</internalNodes>
      <leafValues>
        -1.1883882433176041e-01 1.6907691955566406e-01</leafValues></_>
    <_>
      <internalNodes>
        0 -1 8020 -150074855 2137742953 2062834077 1376099164
        -1979978624 1475213453 -1171593525 -1691202069</internalNodes>
      <leafValues>
        -1.1452269554138184e-01 1.7088977992534637e-01</leafValues></_>
    <_>
      <internalNodes>
        0 -1 5612 141021184 714985604 -1984263900 -1330865088 1255023636
        1366715580 446766592 271578388</internalNodes>
      <leafValues>
        -3.1779134273529053e-01 6.0117851942777634e-02</leafValues></_>
    <_>
      <internalNodes>
        0 -1 3203 -127954254 -102163945 1794351703 1343139044 660513496
        804403219 1572952679 1259567623</internalNodes>
      <leafValues>
        -1.5566471219062805e-01 1.2493249773979187e-01</leafValues></_>
    <_>
      <internalNodes>
        0 -1 6793 171240258 538496024 -1921696736 -1677557648 1581520776
        2074270804 1167394965 87049576</internalNodes>
      <leafValues>
        -2.8694012761116028e-01 6.8036116659641266e-02</leafValues></_>
    <_>
      <internalNodes>
        0 -1 1398 2097760 -1342094676 1589403708 548432513 46796963
        -1593004644 340385588 540108321</internalNodes>
      <leafValues>
        -3.0981582403182983e-01 6.1947077512741089e-02</leafValues></_>
    <_>
      <internalNodes>
        0 -1 3141 -689180349 1353926180 1284726773 -706085108 1030340034
        -1352605734 1323729537 247155487</internalNodes>
      <leafValues>
        -1.1862444132566452e-01 1.6297937929630280e-01</leafValues></_>
    <_>
      <internalNodes>
        0 -1 2340 1830813788 -2038128818 -727911880 -1882177103
        303108048 1113073772 -498751714 1598004</internalNodes>
      <leafValues>
        -2.9082152247428894e-01 6.9932132959365845e-02</leafValues></_>
    <_>
      <internalNodes>
        0 -1 7247 377223060 859692277 1057140208 -1708621674 1562127523
        -928679430 -1602611393 -641764090</internalNodes>
      <leafValues>
        -1.3909044861793518e-01 1.4383344352245331e-01</leafValues></_>
    <_>
      <internalNodes>
        0 -1 2686 -1572700160 1076939213 -1011184326 755027585
        1381337904 2138445191 65084492 6447208</internalNodes>
      <leafValues>
        -2.8132131695747375e-01 7.0481114089488983e-02</leafValues></_>
    <_>
      <internalNodes>
        0 -1 3817 89404976 -1990188826 -1219455677 -1254106160
        -1744931351 -1610946592 1386494402 910589990</internalNodes>
      <leafValues>
        -2.1412000060081482e-01 9.2286504805088043e-02</leafValues></_>
    <_>
      <internalNodes>
        0 -1 8224 -1074021980 374514415 257958140 1638664760 1863857817
        442682332 1760680636 -1782266295</internalNodes>
      <leafValues>
        -1.5298873186111450e-01 1.3148070871829987e-01</leafValues></_>
    <_>
      <internalNodes>
        0 -1 8446 -4738269 -965429579 632251936 -1313931659 -1745404027
        -1505182917 284423826 -942213381</internalNodes>
      <leafValues>
        -1.1978336423635483e-01 1.7212277650833130e-01</leafValues></_>
    <_>
      <internalNodes>
        0 -1 1345 38953034 -1503918625 1916072056 308824931 -560594878
        -1354102209 -1349503132 355485840</internalNodes>
      <leafValues>
        -2.8869110345840454e-01 7.0716984570026398e-02</leafValues></_>
    <_>
      <internalNodes>
        0 -1 3401 -101724577 -1625113171 -461541029 1367331095
        -890000160 -405143695 -765795661 -896549957</internalNodes>
      <leafValues>
        -8.7442435324192047e-02 2.3741905391216278e-01</leafValues></_>
    <_>
      <internalNodes>
        0 -1 7336 -882419237 2137114806 1788468076 1815452920 -469693463
        -1153827402 -1934027334 -649072246</internalNodes>
      <leafValues>
        -9.7557522356510162e-02 2.1171304583549500e-01</leafValues></_>
    <_>
      <internalNodes>
        0 -1 6804 212600112 -1457506884 953994286 2022995452 2067342597
        -1479033892 103903408 221252928</internalNodes>
      <leafValues>
        -3.7987911701202393e-01 5.4061125963926315e-02</leafValues></_>
    <_>
      <internalNodes>
        0 -1 7740 -872887623 -1091672856 -1387056300 -605276682
        -1356424963 426288499 -1846088787 -773899397</internalNodes>
      <leafValues>
        -9.7437791526317596e-02 2.1468497812747955e-01</leafValues></_>
    <_>
      <internalNodes>
        0 -1 3538 -628187484 1437243154 -1879258258 633706248 -275766531
        1312447140 -555093923 -326716618</internalNodes>
      <leafValues>
        -1.4182601869106293e-01 1.4479355514049530e-01</leafValues></_>
    <_>
      <internalNodes>
        0 -1 1279 1234643210 1090402275 35686977 13028940 -1839708724
        1254851542 143326549 1191763536</internalNodes>
      <leafValues>
        -2.3793277144432068e-01 8.6630865931510925e-02</leafValues></_>
    <_>
      <internalNodes>
        0 -1 2716 -720706496 -71798266 -1326997917 -579635085
        -1636900993 -1920250466 2677663 -559213191</internalNodes>
      <leafValues>
        -1.0588635504245758e-01 1.9616138935089111e-01</leafValues></_>
    <_>
      <internalNodes>
        0 -1 1617 1321296703 1789719794 1154066686 -284566296 1151130169
        -20410046 -1101151916 936120064</internalNodes>
      <leafValues>
        -1.5178415179252625e-01 1.3555623590946198e-01</leafValues></_></weakClassifiers></stage6>
</opencv_storage>
