<?xml version="1.0"?>
<opencv_storage>
<stage3>
  <maxWeakCount>45</maxWeakCount>
  <stageThreshold>-1.5258871316909790e+00</stageThreshold>
  <weakClassifiers>
    <_>
      <internalNodes>
        0 -1 4319 -573124355 -536925571 -3088929 1596992767 -610738948
        -52815412 -121045506 -609563957</internalNodes>
      <leafValues>
        -5.9594941139221191e-01 -1.2801755964756012e-01</leafValues></_>
    <_>
      <internalNodes>
        0 -1 709 -204539426 -3477482 -169592070 -41748312 1518985199
        -45823518 -872485637 -883964085</internalNodes>
      <leafValues>
        -2.4638287723064423e-01 2.0278161764144897e-01</leafValues></_>
    <_>
      <internalNodes>
        0 -1 7383 2135029264 -24000317 1478634772 -307133541 1360020244
        -1175717856 1510365676 487039383</internalNodes>
      <leafValues>
        -2.5058147311210632e-01 1.5602079033851624e-01</leafValues></_>
    <_>
      <internalNodes>
        0 -1 280 -500699486 -488477206 -453078912 -743681342 -1557946933
        1078007414 292025478 -239341493</internalNodes>
      <leafValues>
        -1.6856028139591217e-01 2.2591356933116913e-01</leafValues></_>
    <_>
      <internalNodes>
        0 -1 2747 1359061162 1997606116 865347724 1434534799 2127856062
        428088972 -1148347761 1000032971</internalNodes>
      <leafValues>
        -2.1283496916294098e-01 1.6910612583160400e-01</leafValues></_>
    <_>
      <internalNodes>
        0 -1 3214 1312296960 -76341194 1312757503 1964508259 -1540877952
        -21418908 -1924506664 -617992578</internalNodes>
      <leafValues>
        -1.6607947647571564e-01 2.0661230385303497e-01</leafValues></_>
    <_>
      <internalNodes>
        0 -1 357 -800928010 848330914 -597374128 1333917376 1864495026
        1583680796 -367934886 1833394001</internalNodes>
      <leafValues>
        -2.1459618210792542e-01 1.7284412682056427e-01</leafValues></_>
    <_>
      <internalNodes>
        0 -1 8177 -549722181 -1425741264 627564372 -35668560 -92490306
        -1966161437 1171734680 -811606821</internalNodes>
      <leafValues>
        -1.3522054255008698e-01 2.6674064993858337e-01</leafValues></_>
    <_>
      <internalNodes>
        0 -1 7818 -1474174062 -576576112 -4726921 -78275956 -1423781969
        -1442781709 44711389 -541369096</internalNodes>
      <leafValues>
        -1.4134848117828369e-01 2.2181013226509094e-01</leafValues></_>
    <_>
      <internalNodes>
        0 -1 8189 -667418624 -75890368 -1744409161 -1713420381
        -554790724 -638182602 574417310 -2112724149</internalNodes>
      <leafValues>
        -1.9193673133850098e-01 1.6484844684600830e-01</leafValues></_>
    <_>
      <internalNodes>
        0 -1 289 1114246730 1414147618 -1976040957 1329095232 1112950705
        854888402 -77313894 1937077847</internalNodes>
      <leafValues>
        -2.4623765051364899e-01 1.2051372975111008e-01</leafValues></_>
    <_>
      <internalNodes>
        0 -1 6909 -280829432 292915892 -2023132012 1908350322 609751512
        715145398 1685147420 79848098</internalNodes>
      <leafValues>
        -2.4713753163814545e-01 1.1665025353431702e-01</leafValues></_>
    <_>
      <internalNodes>
        0 -1 8438 -671095006 -1446594746 -975203840 -1315572238
        -1785487084 12582188 771634564 -326374097</internalNodes>
      <leafValues>
        -1.6142217814922333e-01 1.7708356678485870e-01</leafValues></_>
    <_>
      <internalNodes>
        0 -1 651 -690320266 -1655301120 2029674107 1006813810 2068477656
        -4962696 -877213110 -349748713</internalNodes>
      <leafValues>
        -1.8135647475719452e-01 1.6075839102268219e-01</leafValues></_>
    <_>
      <internalNodes>
        0 -1 1962 -789100332 -612711876 -286075330 891164491 -1516494652
        -638891916 -72050852 2047928186</internalNodes>
      <leafValues>
        -2.1324156224727631e-01 1.3155703246593475e-01</leafValues></_>
    <_>
      <internalNodes>
        0 -1 2929 1220977650 362808359 686300888 732265376 1660964764
        -1187500868 -588764584 782466874</internalNodes>
      <leafValues>
        -2.2217370569705963e-01 1.2989373505115509e-01</leafValues></_>
    <_>
      <internalNodes>
        0 -1 64 -289757790 -1031230752 -1401497904 -671767368
        -2099784808 -1985781688 -683358761 -948973163</internalNodes>
      <leafValues>
        -1.5181218087673187e-01 1.9731938838958740e-01</leafValues></_>
    <_>
      <internalNodes>
        0 -1 4083 -785993728 1208758932 923122384 -989894473 1913567960
        683205304 1861520206 674595970</internalNodes>
      <leafValues>
        -2.5675112009048462e-01 1.1336226016283035e-01</leafValues></_>
    <_>
      <internalNodes>
        0 -1 128 -1029003205 325750506 86932777 -152182239 269025259
        -544132420 1598252027 -613319585</internalNodes>
      <leafValues>
        -1.3419763743877411e-01 2.0996977388858795e-01</leafValues></_>
    <_>
      <internalNodes>
        0 -1 6438 1132686851 472163728 477937141 1579083088 -896608783
        -1584679875 -1981129487 -316945249</internalNodes>
      <leafValues>
        -1.4785265922546387e-01 1.8989975750446320e-01</leafValues></_>
    <_>
      <internalNodes>
        0 -1 2097 1525522448 313696737 803933629 1221732382 1982568378
        -1112835159 78102493 3143299</internalNodes>
      <leafValues>
        -2.0522251725196838e-01 1.3365089893341064e-01</leafValues></_>
    <_>
      <internalNodes>
        0 -1 6655 -588061508 2046471074 503332381 498872828 1331480993
        1547465721 1584749882 -1448128940</internalNodes>
      <leafValues>
        -1.7226283252239227e-01 1.6087223589420319e-01</leafValues></_>
    <_>
      <internalNodes>
        0 -1 7327 2050208564 285259688 -1516441067 261520297 1878134176
        -1099101528 1681111487 -1929714675</internalNodes>
      <leafValues>
        -1.4292943477630615e-01 1.8882267177104950e-01</leafValues></_>
    <_>
      <internalNodes>
        0 -1 7081 -1558172688 -1280623460 1744113659 1196298460
        102202805 -1076166723 -1648852993 -1954001655</internalNodes>
      <leafValues>
        -1.9073595106601715e-01 1.4036609232425690e-01</leafValues></_>
    <_>
      <internalNodes>
        0 -1 7093 -399261564 2007445046 566122999 -715235946 371170256
        -1649699340 925706378 207819002</internalNodes>
      <leafValues>
        -1.7281579971313477e-01 1.5693807601928711e-01</leafValues></_>
    <_>
      <internalNodes>
        0 -1 8461 -74714205 699440672 -814229805 -550573383 -2018793053
        -2136034379 -2124548651 -134227733</internalNodes>
      <leafValues>
        -1.0891572386026382e-01 2.5560548901557922e-01</leafValues></_>
    <_>
      <internalNodes>
        0 -1 617 -671096177 1530605103 -361861448 843749111 1550479996
        -562948644 -1782146594 -1008561465</internalNodes>
      <leafValues>
        -1.2601040303707123e-01 2.1517507731914520e-01</leafValues></_>
    <_>
      <internalNodes>
        0 -1 6041 1678749808 100986040 -1928628041 -1358302185 950587805
        546976504 512448517 136881426</internalNodes>
      <leafValues>
        -2.3342880606651306e-01 1.1710999161005020e-01</leafValues></_>
    <_>
      <internalNodes>
        0 -1 3039 -1056005568 494818913 927467540 -146246625 742888372
        424680136 -1499140376 680262242</internalNodes>
      <leafValues>
        -2.4405167996883392e-01 1.1154071241617203e-01</leafValues></_>
    <_>
      <internalNodes>
        0 -1 7726 694206480 500964400 296492856 464066170 100797312
        802202020 12330232 234904880</internalNodes>
      <leafValues>
        -3.3256852626800537e-01 8.2854524254798889e-02</leafValues></_>
    <_>
      <internalNodes>
        0 -1 5704 -1398269776 -794682276 2096090707 -122070667
        1036160477 1295216634 -1544886374 -1744150511</internalNodes>
      <leafValues>
        -1.7944820225238800e-01 1.6286526620388031e-01</leafValues></_>
    <_>
      <internalNodes>
        0 -1 5314 -125927388 69026206 -1677648369 1471152107 1543336370
        -119656040 -924791233 1753694737</internalNodes>
      <leafValues>
        -1.9274550676345825e-01 1.4196769893169403e-01</leafValues></_>
    <_>
      <internalNodes>
        0 -1 8115 -211840735 1161733905 1562990864 -1549097200
        2122262475 1082828594 -595246200 -664080497</internalNodes>
      <leafValues>
        -1.4127397537231445e-01 1.9232220947742462e-01</leafValues></_>
    <_>
      <internalNodes>
        0 -1 1077 -886657514 152273186 -911776720 1067436663 21316764
        472426660 1236548860 1794012694</internalNodes>
      <leafValues>
        -2.1201042830944061e-01 1.3030806183815002e-01</leafValues></_>
    <_>
      <internalNodes>
        0 -1 3215 -905982885 -422276 -1107567105 2067943167 -22264598
        -94088667 -352545842 -79992581</internalNodes>
      <leafValues>
        -9.1230235993862152e-02 3.0319190025329590e-01</leafValues></_>
    <_>
      <internalNodes>
        0 -1 103 577938230 1311360647 671100732 1568740930 -517871932
        -558519312 -137254731 1989754880</internalNodes>
      <leafValues>
        -2.2867298126220703e-01 1.2311232835054398e-01</leafValues></_>
    <_>
      <internalNodes>
        0 -1 5833 -290724626 -595418346 92738100 225632516 1345610681
        496532120 1298202664 -758779337</internalNodes>
      <leafValues>
        -1.7809464037418365e-01 1.6180586814880371e-01</leafValues></_>
    <_>
      <internalNodes>
        0 -1 699 -21019361 -719944017 497743112 1024116654 1421614973
        -572360906 -565257191 -6128998</internalNodes>
      <leafValues>
        -1.4523319900035858e-01 1.8761026859283447e-01</leafValues></_>
    <_>
      <internalNodes>
        0 -1 4018 -652490724 -196967321 -1613105126 -541080468
        -667021392 -410256223 -262985768 -1642409601</internalNodes>
      <leafValues>
        -1.1697715520858765e-01 2.3854081332683563e-01</leafValues></_>
    <_>
      <internalNodes>
        0 -1 2831 852482 370444640 1640020418 71871050 458039777
        2127070048 858992396 1753252512</internalNodes>
      <leafValues>
        -3.3659529685974121e-01 8.4209039807319641e-02</leafValues></_>
    <_>
      <internalNodes>
        0 -1 8157 522712723 1596121402 -170548207 -334964550 1848891185
        -1232876112 1084184508 -1960319636</internalNodes>
      <leafValues>
        -1.5684500336647034e-01 1.6910044848918915e-01</leafValues></_>
    <_>
      <internalNodes>
        0 -1 3406 -607008663 -705779767 1085979378 2005313286 1965200268
        1856263303 -1577261879 -899493309</internalNodes>
      <leafValues>
        -1.3664598762989044e-01 2.0309092104434967e-01</leafValues></_>
    <_>
      <internalNodes>
        0 -1 7072 1275215720 637571256 -1921303428 -1348027276 67981164
        -1096364428 130811808 403213545</internalNodes>
      <leafValues>
        -3.0010676383972168e-01 8.9901976287364960e-02</leafValues></_>
    <_>
      <internalNodes>
        0 -1 7800 -796199242 761958688 -1215250256 -1753166732
        -1065008749 -1298474322 70078513 155602939</internalNodes>
      <leafValues>
        -2.0412355661392212e-01 1.3428303599357605e-01</leafValues></_>
    <_>
      <internalNodes>
        0 -1 5864 1611804800 480413496 142951958 1595965218 5329906
        -1004420720 211188432 108250678</internalNodes>
      <leafValues>
        -2.7219545841217041e-01 9.8946966230869293e-02</leafValues></_></weakClassifiers></stage3>
</opencv_storage>
