<?xml version="1.0"?>
<opencv_storage>
<stage1>
  <maxWeakCount>27</maxWeakCount>
  <stageThreshold>-1.8091582059860229e+00</stageThreshold>
  <weakClassifiers>
    <_>
      <internalNodes>
        0 -1 5701 -586614824 -82310700 -1220225571 -45075176 -611782148
        -1147346552 -1993828136 -1618329592</internalNodes>
      <leafValues>
        -6.6897505521774292e-01 -6.1151079833507538e-02</leafValues></_>
    <_>
      <internalNodes>
        0 -1 8117 -78643536 1598081424 -1753182192 -721300336 -986659400
        -1701664672 1543573656 -7342405</internalNodes>
      <leafValues>
        -3.2264715433120728e-01 2.7916833758354187e-01</leafValues></_>
    <_>
      <internalNodes>
        0 -1 4779 -638565128 -139957124 418930047 -612890292 -2079290180
        -65386936 -1686070024 -1146483558</internalNodes>
      <leafValues>
        -2.2881567478179932e-01 3.4911453723907471e-01</leafValues></_>
    <_>
      <internalNodes>
        0 -1 1433 1628480008 -167983835 625017737 2144833871 -1290933317
        -539391827 -1104311381 -70542709</internalNodes>
      <leafValues>
        -2.3364855349063873e-01 3.0474272370338440e-01</leafValues></_>
    <_>
      <internalNodes>
        0 -1 8002 -1291666118 -545241552 -1828848811 -679538540
        -1442662982 -1432646680 -1732081416 -1078247268</internalNodes>
      <leafValues>
        -1.8975122272968292e-01 3.4533008933067322e-01</leafValues></_>
    <_>
      <internalNodes>
        0 -1 425 -188035334 1345370348 547376222 17991764 1952187544
        206849456 2017213642 -36190337</internalNodes>
      <leafValues>
        -2.2546859085559845e-01 2.7600327134132385e-01</leafValues></_>
    <_>
      <internalNodes>
        0 -1 7360 -1870658544 -751560656 -2028059279 -172339651
        -2005616726 -834521314 -1229659480 -1735917432</internalNodes>
      <leafValues>
        -1.9814653694629669e-01 2.6621210575103760e-01</leafValues></_>
    <_>
      <internalNodes>
        0 -1 137 -1037374814 1425017422 -445903593 1996694528 -851410742
        -1736137785 -881631235 1841816579</internalNodes>
      <leafValues>
        -2.2077418863773346e-01 2.4186289310455322e-01</leafValues></_>
    <_>
      <internalNodes>
        0 -1 8459 -365953902 -1516096854 833222000 1427028398
        -1543781389 -2058727454 -1812204063 -673464081</internalNodes>
      <leafValues>
        -1.6804520785808563e-01 3.1795027852058411e-01</leafValues></_>
    <_>
      <internalNodes>
        0 -1 490 1346811864 -69670286 1283484030 -1085784062 1172949488
        1523388098 1305963230 1137537026</internalNodes>
      <leafValues>
        -2.9017886519432068e-01 1.6906216740608215e-01</leafValues></_>
    <_>
      <internalNodes>
        0 -1 8394 -628194296 -266284210 -1561433084 274795259 720212488
        1111325964 -2136860520 -1333016630</internalNodes>
      <leafValues>
        -2.0533169806003571e-01 2.3662275075912476e-01</leafValues></_>
    <_>
      <internalNodes>
        0 -1 394 -966594674 455272610 -2025011379 1599963658 1088161272
        -20698980 1859141244 1875333839</internalNodes>
      <leafValues>
        -2.3171672224998474e-01 1.9882172346115112e-01</leafValues></_>
    <_>
      <internalNodes>
        0 -1 2042 -1037926400 -734529406 826526077 1560914393 343258272
        -101152530 -1958614898 221218</internalNodes>
      <leafValues>
        -2.7688655257225037e-01 1.6954138875007629e-01</leafValues></_>
    <_>
      <internalNodes>
        0 -1 7443 -581703808 2069355422 496867216 -46745032 1549657784
        1755528332 -25432086 -370410689</internalNodes>
      <leafValues>
        -1.5687210857868195e-01 2.7546498179435730e-01</leafValues></_>
    <_>
      <internalNodes>
        0 -1 696 -19937238 -722067290 36953258 270039018 -891343356
        -649781916 -446243618 -155523141</internalNodes>
      <leafValues>
        -1.8496574461460114e-01 2.4381133913993835e-01</leafValues></_>
    <_>
      <internalNodes>
        0 -1 7357 -1280654672 -11001952 -811246371 -48858632 -2055033892
        -585548296 758459597 -1953821644</internalNodes>
      <leafValues>
        -1.8102030456066132e-01 2.3888143897056580e-01</leafValues></_>
    <_>
      <internalNodes>
        0 -1 2024 -1601666408 -270456992 -1845841039 -687307658
        -2003567880 1388328902 -1789267010 -1994243696</internalNodes>
      <leafValues>
        -2.0165304839611053e-01 2.1893416345119476e-01</leafValues></_>
    <_>
      <internalNodes>
        0 -1 414 1644208226 -187430374 1075853997 -1378248002 2071897588
        -117488158 -1121669816 1198105088</internalNodes>
      <leafValues>
        -2.8427657485008240e-01 1.5044274926185608e-01</leafValues></_>
    <_>
      <internalNodes>
        0 -1 496 -20460382 -362618136 1313244248 1342986674 1325114818
        157518 671077860 -830269</internalNodes>
      <leafValues>
        -1.8676337599754333e-01 2.3456577956676483e-01</leafValues></_>
    <_>
      <internalNodes>
        0 -1 4941 -97655168 -682021248 493355152 -251498358 -865186372
        1418027952 273211534 -1818035422</internalNodes>
      <leafValues>
        -1.9484873116016388e-01 2.1789674460887909e-01</leafValues></_>
    <_>
      <internalNodes>
        0 -1 8156 -583010541 656558472 -2014415597 2133291697 2092406777
        -1969311818 1294332004 -903876261</internalNodes>
      <leafValues>
        -1.6293185949325562e-01 2.5770294666290283e-01</leafValues></_>
    <_>
      <internalNodes>
        0 -1 699 -59817903 1442597935 1560331676 457233099 -1264183836
        -807647961 -98411208 1244855899</internalNodes>
      <leafValues>
        -2.2673818469047546e-01 1.9280101358890533e-01</leafValues></_>
    <_>
      <internalNodes>
        0 -1 5676 1582559961 354004240 -236348965 2132925621 1183118772
        -1616531788 213177789 -1206918469</internalNodes>
      <leafValues>
        -1.3554452359676361e-01 2.9982718825340271e-01</leafValues></_>
    <_>
      <internalNodes>
        0 -1 7157 -503855402 1521456800 280654423 1912430067 1146797988
        -841754939 -1698372353 -1453899322</internalNodes>
      <leafValues>
        -1.3852712512016296e-01 2.9045388102531433e-01</leafValues></_>
    <_>
      <internalNodes>
        0 -1 8396 -369391605 -198232285 1752085976 -1761368426
        1383525516 -1980535248 1329325192 -648300549</internalNodes>
      <leafValues>
        -1.1523839831352234e-01 3.3315497636795044e-01</leafValues></_>
    <_>
      <internalNodes>
        0 -1 7332 -811079756 222886506 -581746315 -809934316 1340858300
        -1091007701 350573976 -1718127112</internalNodes>
      <leafValues>
        -2.0289896428585052e-01 1.9195644557476044e-01</leafValues></_>
    <_>
      <internalNodes>
        0 -1 800 -812733934 -703714238 -1804961672 -551256702 655483594
        -51744366 570104251 -547134459</internalNodes>
      <leafValues>
        -1.8378657102584839e-01 2.1490079164505005e-01</leafValues></_></weakClassifiers></stage1>
</opencv_storage>
