<?xml version="1.0"?>
<opencv_storage>
<stage9>
  <maxWeakCount>78</maxWeakCount>
  <stageThreshold>-1.3161896467208862e+00</stageThreshold>
  <weakClassifiers>
    <_>
      <internalNodes>
        0 -1 5701 -180292656 -585331244 -1380078219 -1084605044
        -573702668 -1155730776 -1687610984 -1383073719</internalNodes>
      <leafValues>
        -5.9172618389129639e-01 -3.5704234242439270e-01</leafValues></_>
    <_>
      <internalNodes>
        0 -1 4319 -842235716 469510709 -142844225 1433939151 -980903686
        -36823460 -1714905704 -617985365</internalNodes>
      <leafValues>
        -1.7547546327114105e-01 9.3019515275955200e-02</leafValues></_>
    <_>
      <internalNodes>
        0 -1 8449 -141034574 -139986755 -404378958 -672269875 -726599778
        -886118573 1434448291 -716463633</internalNodes>
      <leafValues>
        -8.8858559727668762e-02 1.9199928641319275e-01</leafValues></_>
    <_>
      <internalNodes>
        0 -1 3386 -305290294 2140641471 279018220 -839425037 -535876801
        1452258848 2079584671 -438992641</internalNodes>
      <leafValues>
        -1.1356855928897858e-01 1.4724293351173401e-01</leafValues></_>
    <_>
      <internalNodes>
        0 -1 8372 -875094936 1918134092 -361828168 275830890 2116591680
        1954231051 1621278362 35963642</internalNodes>
      <leafValues>
        -1.8858171999454498e-01 8.4358140826225281e-02</leafValues></_>
    <_>
      <internalNodes>
        0 -1 8372 338543127 -1513937231 -252354067 -513336335
        -1571286834 -2107459831 -1681515472 -108318379</internalNodes>
      <leafValues>
        -4.9968931823968887e-02 2.3359078168869019e-01</leafValues></_>
    <_>
      <internalNodes>
        0 -1 8372 -338551576 2054997836 -95489992 280026222 1587601744
        1971004418 1612883595 37012218</internalNodes>
      <leafValues>
        -1.9296745955944061e-01 8.1715218722820282e-02</leafValues></_>
    <_>
      <internalNodes>
        0 -1 384 2052050559 -607342979 -890631029 -1916276397 -139884045
        -68466507 -874783013 -5282209</internalNodes>
      <leafValues>
        -8.6525470018386841e-02 2.0097218453884125e-01</leafValues></_>
    <_>
      <internalNodes>
        0 -1 7680 -2143763806 -491912907 190399026 535330422 -1482496315
        -1912930891 1095293118 -2062416859</internalNodes>
      <leafValues>
        -1.3625401258468628e-01 1.1831343173980713e-01</leafValues></_>
    <_>
      <internalNodes>
        0 -1 8016 1213005840 -679632236 1577387125 1490678715 2097147180
        1034489634 1078931853 105440025</internalNodes>
      <leafValues>
        -1.8768604099750519e-01 8.7867572903633118e-02</leafValues></_>
    <_>
      <internalNodes>
        0 -1 8395 -959474546 1471783771 -1954951200 291960406 2020182400
        1954264851 -527115077 -383517941</internalNodes>
      <leafValues>
        -9.4955764710903168e-02 1.7353317141532898e-01</leafValues></_>
    <_>
      <internalNodes>
        0 -1 2588 1763417259 -1654834369 1763108506 -594240929
        -570991670 -158132548 -723166200 -814540202</internalNodes>
      <leafValues>
        -1.0889875888824463e-01 1.5142409503459930e-01</leafValues></_>
    <_>
      <internalNodes>
        0 -1 7819 -310646349 -1095840324 2132238321 -541353803 704639114
        -877904133 -786754083 -872444737</internalNodes>
      <leafValues>
        -7.7796056866645813e-02 2.0342215895652771e-01</leafValues></_>
    <_>
      <internalNodes>
        0 -1 421 -387264790 -662025534 -1527099866 2039261166 1278153039
        1947618534 787675477 -161192196</internalNodes>
      <leafValues>
        -1.5289667248725891e-01 1.0240289568901062e-01</leafValues></_>
    <_>
      <internalNodes>
        0 -1 49 168755210 416927323 789325758 -172447107 1858046975
        -1147859809 -1780956420 -16539062</internalNodes>
      <leafValues>
        -1.2839739024639130e-01 1.2252560257911682e-01</leafValues></_>
    <_>
      <internalNodes>
        0 -1 3449 -676215305 1427244159 -1778449083 -707542365
        -1093944671 1172085155 -269031589 -336609393</internalNodes>
      <leafValues>
        -7.3075711727142334e-02 2.1717794239521027e-01</leafValues></_>
    <_>
      <internalNodes>
        0 -1 7069 671117360 84435164 1587100449 67399161 -2126830512
        -1825185102 881917620 202906656</internalNodes>
      <leafValues>
        -3.0683037638664246e-01 5.1927156746387482e-02</leafValues></_>
    <_>
      <internalNodes>
        0 -1 2010 -281048911 -176479177 -290655233 -573335715 -749158261
        -277399968 1067507096 -79954177</internalNodes>
      <leafValues>
        -6.4836680889129639e-02 2.4902918934822083e-01</leafValues></_>
    <_>
      <internalNodes>
        0 -1 2762 -1488444672 355741052 -824779275 -1514234053 809327522
        -1788936451 2050325180 330697716</internalNodes>
      <leafValues>
        -2.4577273428440094e-01 6.4337536692619324e-02</leafValues></_>
    <_>
      <internalNodes>
        0 -1 1288 -329216208 -2033319774 212091468 614465666 1637242676
        2093399093 400940617 1521107543</internalNodes>
      <leafValues>
        -2.2815959155559540e-01 6.8934254348278046e-02</leafValues></_>
    <_>
      <internalNodes>
        0 -1 2524 -686309489 -545007990 245616913 -240968391 863552312
        -1080406072 -338120732 -75276463</internalNodes>
      <leafValues>
        -8.3629280328750610e-02 1.8938334286212921e-01</leafValues></_>
    <_>
      <internalNodes>
        0 -1 7447 -595400184 -238371244 -461062763 -137244718
        -1974669168 259782583 321287389 -1144175501</internalNodes>
      <leafValues>
        -1.0000534355640411e-01 1.5726347267627716e-01</leafValues></_>
    <_>
      <internalNodes>
        0 -1 4769 -1637821414 464149879 -1805144850 -1299269598
        919996510 451653466 1394101848 420485607</internalNodes>
      <leafValues>
        -1.8836344778537750e-01 8.4180742502212524e-02</leafValues></_>
    <_>
      <internalNodes>
        0 -1 7303 123093264 1477521866 -131089100 958707940 1296115204
        1511969454 -2122316963 149906816</internalNodes>
      <leafValues>
        -1.9812360405921936e-01 8.1839911639690399e-02</leafValues></_>
    <_>
      <internalNodes>
        0 -1 5141 343641873 244891120 1533285073 -1882950040 1997299581
        -1893420663 -1182785830 -1701153188</internalNodes>
      <leafValues>
        -1.4809930324554443e-01 1.0690301656723022e-01</leafValues></_>
    <_>
      <internalNodes>
        0 -1 2429 1550907248 404252326 1925084332 226717206 1820405228
        348014356 781302172 734594663</internalNodes>
      <leafValues>
        -1.6590955853462219e-01 9.9698059260845184e-02</leafValues></_>
    <_>
      <internalNodes>
        0 -1 713 180067948 70209058 49980486 6482615 -679512575
        1497905475 1192577063 1348742514</internalNodes>
      <leafValues>
        -3.0289688706398010e-01 5.4177571088075638e-02</leafValues></_>
    <_>
      <internalNodes>
        0 -1 7636 -1675964416 -825984016 1171501821 422926397 -899303459
        -339126734 906801866 -1583610459</internalNodes>
      <leafValues>
        -1.2926140427589417e-01 1.3002336025238037e-01</leafValues></_>
    <_>
      <internalNodes>
        0 -1 2202 100928768 -2129610204 803472948 357612138 509489104
        487882048 2121347336 1073892868</internalNodes>
      <leafValues>
        -2.8637686371803284e-01 5.7271454483270645e-02</leafValues></_>
    <_>
      <internalNodes>
        0 -1 3298 -773856281 1581782271 1293430171 -1797481989
        -181758073 -250355546 -56639734 -71311313</internalNodes>
      <leafValues>
        -8.1577301025390625e-02 2.0514640212059021e-01</leafValues></_>
    <_>
      <internalNodes>
        0 -1 6550 1807221252 881106514 89331726 537980450 1511353472
        108225418 893664048 108012228</internalNodes>
      <leafValues>
        -2.8905183076858521e-01 5.5098511278629303e-02</leafValues></_>
    <_>
      <internalNodes>
        0 -1 1031 1142235170 329920061 587064094 -1217380943 1656016572
        808651240 -1696169999 1246936146</internalNodes>
      <leafValues>
        -1.7401523888111115e-01 9.2281594872474670e-02</leafValues></_>
    <_>
      <internalNodes>
        0 -1 6119 -118756910 1001323650 -387209945 18127162 -148578729
        -355256346 728947662 -924094209</internalNodes>
      <leafValues>
        -1.0387785732746124e-01 1.5579524636268616e-01</leafValues></_>
    <_>
      <internalNodes>
        0 -1 1973 1534298112 170196100 -1471434238 149335368 -969855168
        797109452 -1028719040 6280578</internalNodes>
      <leafValues>
        -3.7814077734947205e-01 4.4109519571065903e-02</leafValues></_>
    <_>
      <internalNodes>
        0 -1 4279 1744183484 1948284465 -1953268415 766199565 7087746
        1008386030 756503819 1191901973</internalNodes>
      <leafValues>
        -1.5755102038383484e-01 1.0807958990335464e-01</leafValues></_>
    <_>
      <internalNodes>
        0 -1 6047 -669775320 210867764 1008552949 765248108 -666368617
        -50528307 -1074438412 -2002571736</internalNodes>
      <leafValues>
        -1.6640937328338623e-01 9.9020354449748993e-02</leafValues></_>
    <_>
      <internalNodes>
        0 -1 1435 71842600 612418581 626274606 685546814 1909190560
        1162775910 685049667 46137344</internalNodes>
      <leafValues>
        -2.9006236791610718e-01 5.5517036467790604e-02</leafValues></_>
    <_>
      <internalNodes>
        0 -1 2379 -104081921 -11691751 1195092319 -37889569 -454708993
        -21689496 -1089835633 -1157773379</internalNodes>
      <leafValues>
        -5.2814088761806488e-02 3.2168519496917725e-01</leafValues></_>
    <_>
      <internalNodes>
        0 -1 6433 -1034951184 151302352 714100507 236508691 1345808682
        -1690769168 1974426882 -1808101130</internalNodes>
      <leafValues>
        -1.4979048073291779e-01 1.1093483865261078e-01</leafValues></_>
    <_>
      <internalNodes>
        0 -1 6645 -1270775504 580073750 99396394 187927324 949443332
        1592293350 989409675 79289162</internalNodes>
      <leafValues>
        -2.0239067077636719e-01 8.2664936780929565e-02</leafValues></_>
    <_>
      <internalNodes>
        0 -1 1301 1453084536 -1302801836 -352958359 623437150 1444565092
        -218255531 -840692940 -1990174632</internalNodes>
      <leafValues>
        -2.1452841162681580e-01 7.6462365686893463e-02</leafValues></_>
    <_>
      <internalNodes>
        0 -1 6820 9864720 2104863142 954548085 -1782139117 -714126252
        1957084647 -1388192448 8408599</internalNodes>
      <leafValues>
        -2.2752577066421509e-01 7.3155246675014496e-02</leafValues></_>
    <_>
      <internalNodes>
        0 -1 2536 -706375470 -1891987293 42277146 -894859581 776907640
        1452895544 -196111160 250055017</internalNodes>
      <leafValues>
        -1.5977555513381958e-01 1.0517102479934692e-01</leafValues></_>
    <_>
      <internalNodes>
        0 -1 8151 246228388 121023640 455897156 -1625162040 -878037511
        1988537896 148833304 -1786363312</internalNodes>
      <leafValues>
        -2.2035017609596252e-01 8.0771870911121368e-02</leafValues></_>
    <_>
      <internalNodes>
        0 -1 7472 -203898616 437287944 1114961904 511531825 258301680
        1417196359 224780103 17256660</internalNodes>
      <leafValues>
        -2.0318399369716644e-01 8.6429521441459656e-02</leafValues></_>
    <_>
      <internalNodes>
        0 -1 2778 103524562 1184413664 11949712 899473168 1532569989
        -1132755227 1022678237 1528028210</internalNodes>
      <leafValues>
        -1.6446842253208160e-01 1.0131173580884933e-01</leafValues></_>
    <_>
      <internalNodes>
        0 -1 1466 -711257731 -88755459 798403504 -41406675 1506626483
        -1080722000 -323572603 -103144450</internalNodes>
      <leafValues>
        -8.4460176527500153e-02 1.9848923385143280e-01</leafValues></_>
    <_>
      <internalNodes>
        0 -1 6800 4112 201328577 424032393 67112680 11811092 624720752
        190913136 4215124</internalNodes>
      <leafValues>
        -5.3765374422073364e-01 3.1366836279630661e-02</leafValues></_>
    <_>
      <internalNodes>
        0 -1 1436 -385093137 -543004596 1728034486 -704786717 -4461571
        -401362198 -444990294 -276855586</internalNodes>
      <leafValues>
        -6.7440271377563477e-02 2.6449090242385864e-01</leafValues></_>
    <_>
      <internalNodes>
        0 -1 7479 671419136 -363800272 -1126370543 -1943622068
        1343179936 1039001404 1632898052 8782384</internalNodes>
      <leafValues>
        -2.8798693418502808e-01 5.9520483016967773e-02</leafValues></_>
    <_>
      <internalNodes>
        0 -1 5253 -1072396261 1331526795 286724573 -1803706146 395024830
        -449204263 917871067 -798424731</internalNodes>
      <leafValues>
        -1.1586347222328186e-01 1.4694331586360931e-01</leafValues></_>
    <_>
      <internalNodes>
        0 -1 7809 -56638125 -80295764 1362590675 -545653648 1988418527
        -1130106213 1428125067 -602932021</internalNodes>
      <leafValues>
        -7.5647473335266113e-02 2.2469851374626160e-01</leafValues></_>
    <_>
      <internalNodes>
        0 -1 3953 1224707538 -1809388156 1678389477 1400647631
        -1690251392 -1430098506 2022152366 1778122577</internalNodes>
      <leafValues>
        -1.2995724380016327e-01 1.3056524097919464e-01</leafValues></_>
    <_>
      <internalNodes>
        0 -1 6438 -1005076549 -31840331 -655364739 -1088686179
        -389839693 -2033470273 704405501 -272908129</internalNodes>
      <leafValues>
        -7.2018839418888092e-02 2.4091495573520660e-01</leafValues></_>
    <_>
      <internalNodes>
        0 -1 3310 -73002331 -22930947 599414153 -122069521 -1491444452
        -1950486737 -912164 -115626453</internalNodes>
      <leafValues>
        -9.0370506048202515e-02 1.9711145758628845e-01</leafValues></_>
    <_>
      <internalNodes>
        0 -1 7277 1145759818 -2045638076 -1870342082 391326193
        -951778170 -1921860122 -359892931 -1463727664</internalNodes>
      <leafValues>
        -1.6483777761459351e-01 1.0690220445394516e-01</leafValues></_>
    <_>
      <internalNodes>
        0 -1 5567 -2079708672 337646784 685971496 684462222 1141122304
        210014518 1078264912 538988868</internalNodes>
      <leafValues>
        -4.4087961316108704e-01 3.9973046630620956e-02</leafValues></_>
    <_>
      <internalNodes>
        0 -1 6729 1976543739 902490014 630161479 -1693791307 853611931
        -1268987115 1713863595 96504638</internalNodes>
      <leafValues>
        -1.1700010299682617e-01 1.5277467668056488e-01</leafValues></_>
    <_>
      <internalNodes>
        0 -1 8332 -796622590 934639386 654230194 -257569512 1338743436
        598750733 -164448551 -559227400</internalNodes>
      <leafValues>
        -1.2006833404302597e-01 1.4956599473953247e-01</leafValues></_>
    <_>
      <internalNodes>
        0 -1 5572 -1506107646 500469956 1391933732 387890321 1712758016
        698843247 -1095082267 -201390029</internalNodes>
      <leafValues>
        -1.6603344678878784e-01 1.0774929821491241e-01</leafValues></_>
    <_>
      <internalNodes>
        0 -1 6674 -706483017 855506519 752290325 132983580 257074165
        2037348232 -1888684630 -383330304</internalNodes>
      <leafValues>
        -1.0660663992166519e-01 1.7318305373191833e-01</leafValues></_>
    <_>
      <internalNodes>
        0 -1 2725 -2013232030 277351914 -1496163558 -536719920 828710157
        -827630448 1081025192 67453994</internalNodes>
      <leafValues>
        -2.4001917243003845e-01 7.5902275741100311e-02</leafValues></_>
    <_>
      <internalNodes>
        0 -1 2269 -340729620 -803206522 -227055046 -1859183373
        -1282559615 -1093189702 -994191746 -1237643419</internalNodes>
      <leafValues>
        -1.1422417312860489e-01 1.5763454139232635e-01</leafValues></_>
    <_>
      <internalNodes>
        0 -1 5703 -620813056 245868427 -319105660 -2099632659
        -1190319328 916289537 1828102144 31609345</internalNodes>
      <leafValues>
        -3.1616204977035522e-01 5.6537274271249771e-02</leafValues></_>
    <_>
      <internalNodes>
        0 -1 351 1490168720 1132387090 -464233232 1053180480 1346125353
        -1805891091 -723339104 831741955</internalNodes>
      <leafValues>
        -2.0881690084934235e-01 8.4721855819225311e-02</leafValues></_>
    <_>
      <internalNodes>
        0 -1 3134 1645000343 799673877 -952011307 74546006 -667459213
        -1353256198 -1332389381 725664786</internalNodes>
      <leafValues>
        -1.5256527066230774e-01 1.1740294098854065e-01</leafValues></_>
    <_>
      <internalNodes>
        0 -1 3214 37239808 -1330970578 775075558 2034044514 -1599285996
        -137291179 -1374006704 403215144</internalNodes>
      <leafValues>
        -2.3974435031414032e-01 7.2293996810913086e-02</leafValues></_>
    <_>
      <internalNodes>
        0 -1 7595 2099737649 1057915894 2124930647 1338271577 -23510546
        670258358 -1134477298 268886818</internalNodes>
      <leafValues>
        -1.4298649132251740e-01 1.2215975672006607e-01</leafValues></_>
    <_>
      <internalNodes>
        0 -1 1975 498680938 -784159698 909537840 304230634 -310324156
        57095232 1031415006 1392520980</internalNodes>
      <leafValues>
        -2.2550003230571747e-01 7.9414658248424530e-02</leafValues></_>
    <_>
      <internalNodes>
        0 -1 7462 1329108615 811998901 1559055896 -51300400 1549599711
        -1375854820 584445581 -1413286174</internalNodes>
      <leafValues>
        -1.1059609055519104e-01 1.5812489390373230e-01</leafValues></_>
    <_>
      <internalNodes>
        0 -1 4607 -1315860948 -910392304 1383158448 -1461080718
        693174456 67265250 -2119700986 410372372</internalNodes>
      <leafValues>
        -2.0226418972015381e-01 8.7640300393104553e-02</leafValues></_>
    <_>
      <internalNodes>
        0 -1 497 -889459489 -237161901 -361075389 -244595873 -266382758
        -150320089 -928138789 -5254523</internalNodes>
      <leafValues>
        -7.1931429207324982e-02 2.4661946296691895e-01</leafValues></_>
    <_>
      <internalNodes>
        0 -1 835 1111590990 1061618815 401498473 947655710 -581357220
        -1278867343 -1675608384 1698946946</internalNodes>
      <leafValues>
        -1.7866176366806030e-01 9.8191566765308380e-02</leafValues></_>
    <_>
      <internalNodes>
        0 -1 2556 2028702719 -1956561322 701593941 -131985 -427428261
        -1480251139 -1161233109 -607134753</internalNodes>
      <leafValues>
        -6.9200560450553894e-02 2.6160186529159546e-01</leafValues></_>
    <_>
      <internalNodes>
        0 -1 1985 1164769668 -2031167146 1313000448 772458022 1591127412
        886343820 657414912 340878675</internalNodes>
      <leafValues>
        -3.5574516654014587e-01 5.3607929497957230e-02</leafValues></_>
    <_>
      <internalNodes>
        0 -1 3521 -654955726 1398434897 -1242199472 708056198 1398550137
        1805051658 -1265267392 940594806</internalNodes>
      <leafValues>
        -2.0448249578475952e-01 9.1413624584674835e-02</leafValues></_>
    <_>
      <internalNodes>
        0 -1 559 -20499638 -1499559075 612372639 281794346 -1815675147
        -127441498 1674784657 26007054</internalNodes>
      <leafValues>
        -1.7710471153259277e-01 1.0720762610435486e-01</leafValues></_>
    <_>
      <internalNodes>
        0 -1 13 573490748 2037762656 -1834980179 87381558 -1385306891
        -55808305 1004870357 -1395628148</internalNodes>
      <leafValues>
        -1.7878448963165283e-01 1.0493642091751099e-01</leafValues></_></weakClassifiers></stage9>
</opencv_storage>
