<?xml version="1.0"?>
<opencv_storage>
<stage17>
  <maxWeakCount>100</maxWeakCount>
  <stageThreshold>-1.3744895458221436e+00</stageThreshold>
  <weakClassifiers>
    <_>
      <internalNodes>
        0 -1 416 -69468161 -147846920 -434179 -4346120 -98959361
        1337634815 -578159873 -13125</internalNodes>
      <leafValues>
        -5.2999126911163330e-01 -3.2099303603172302e-01</leafValues></_>
    <_>
      <internalNodes>
        0 -1 415 -714106661 -105026155 -1519387549 -108660401 -186187888
        -91496936 1068364930 -543294069</internalNodes>
      <leafValues>
        -1.1676599830389023e-01 7.3942050337791443e-02</leafValues></_>
    <_>
      <internalNodes>
        0 -1 80 -721490274 -657634369 -125129518 1914740475 -793521974
        -151183037 -387232006 -684458805</internalNodes>
      <leafValues>
        -7.4914731085300446e-02 9.0406365692615509e-02</leafValues></_>
    <_>
      <internalNodes>
        0 -1 442 1163691934 1956930191 1056648333 -1199975490 1508421768
        1005959615 1256103421 1539804834</internalNodes>
      <leafValues>
        -8.2632251083850861e-02 8.2832805812358856e-02</leafValues></_>
    <_>
      <internalNodes>
        0 -1 136 -136710197 -817245950 -308423777 -710550825 -632768049
        -1410281923 -322049820 -4996513</internalNodes>
      <leafValues>
        -4.4158790260553360e-02 1.4827482402324677e-01</leafValues></_>
    <_>
      <internalNodes>
        0 -1 103 -1862536052 -1206417040 -276032015 1897241796
        -1396851300 -1459727889 1226672346 -1460947093</internalNodes>
      <leafValues>
        -6.7668780684471130e-02 9.2830494046211243e-02</leafValues></_>
    <_>
      <internalNodes>
        0 -1 248 606613792 -1564599952 1082918276 -1754482199 1216178079
        -1680863614 485951675 404226240</internalNodes>
      <leafValues>
        -1.0198379307985306e-01 8.2345820963382721e-02</leafValues></_>
    <_>
      <internalNodes>
        0 -1 248 -93467233 2112997404 1061141343 1778077862 -1599359648
        2020327057 117857344 -404238033</internalNodes>
      <leafValues>
        -6.1008218675851822e-02 1.1568926274776459e-01</leafValues></_>
    <_>
      <internalNodes>
        0 -1 415 -461419516 778409928 -1317228720 167836836 -529901301
        541781695 -738779383 610467460</internalNodes>
      <leafValues>
        -1.0419398546218872e-01 7.2217240929603577e-02</leafValues></_>
    <_>
      <internalNodes>
        0 -1 109 -1063149534 1963763382 689207316 -46321677 676110488
        -1469032420 355748160 -738987769</internalNodes>
      <leafValues>
        -7.9727873206138611e-02 8.2546383142471313e-02</leafValues></_>
    <_>
      <internalNodes>
        0 -1 439 -552540175 -223237900 -1644214935 -273428228
        -2029996036 -1344162668 -1477487462 -13661048</internalNodes>
      <leafValues>
        -6.9604851305484772e-02 9.4568051397800446e-02</leafValues></_>
    <_>
      <internalNodes>
        0 -1 428 -454654336 1597258834 -1887091417 1437189744 324927973
        502683334 1997871495 -1111137776</internalNodes>
      <leafValues>
        -9.1141656041145325e-02 6.6967226564884186e-02</leafValues></_>
    <_>
      <internalNodes>
        0 -1 157 1152156730 163458026 -1952272662 530584244 1877971978
        1754347581 2109393370 953847562</internalNodes>
      <leafValues>
        -1.1113701760768890e-01 5.8745920658111572e-02</leafValues></_>
    <_>
      <internalNodes>
        0 -1 91 498439192 310054684 833883519 355433238 1332299828
        -615035096 -742550798 2091319728</internalNodes>
      <leafValues>
        -1.0154509544372559e-01 6.6165082156658173e-02</leafValues></_>
    <_>
      <internalNodes>
        0 -1 70 -469586181 1860357318 -1434270681 975317740 1682111229
        -100938569 -305697505 -148422617</internalNodes>
      <leafValues>
        -8.0666616559028625e-02 8.0497257411479950e-02</leafValues></_>
    <_>
      <internalNodes>
        0 -1 277 -784334985 -539976315 1339416181 -1627260985 -26166096
        -1075556517 794124025 -1615392165</internalNodes>
      <leafValues>
        -5.0815392285585403e-02 1.2680585682392120e-01</leafValues></_>
    <_>
      <internalNodes>
        0 -1 475 -19139711 -1671594182 426614292 -541205003 -1712669001
        566785963 2052359818 -627114021</internalNodes>
      <leafValues>
        -5.3116377443075180e-02 1.1485075205564499e-01</leafValues></_>
    <_>
      <internalNodes>
        0 -1 182 384835624 1532869777 -1820284572 1739016080 -991042791
        1183062438 -1743131993 268673</internalNodes>
      <leafValues>
        -1.3263620436191559e-01 4.4455341994762421e-02</leafValues></_>
    <_>
      <internalNodes>
        0 -1 288 -605029409 282175915 -1823653933 -103039842 -27529527
        -1230539030 -462460210 -45749901</internalNodes>
      <leafValues>
        -3.3884804695844650e-02 1.8610054254531860e-01</leafValues></_>
    <_>
      <internalNodes>
        0 -1 371 -1822886507 1889251391 1559174899 -349262332 -178683497
        899661243 -203308893 -368643157</internalNodes>
      <leafValues>
        -5.8706834912300110e-02 1.0276561975479126e-01</leafValues></_>
    <_>
      <internalNodes>
        0 -1 466 -514141177 -606156639 -1724459168 -714708003 -614467832
        -317264672 -563704678 -352325633</internalNodes>
      <leafValues>
        -5.3772415965795517e-02 1.0761744529008865e-01</leafValues></_>
    <_>
      <internalNodes>
        0 -1 300 -778574933 -6299 39070427 1363798603 -639668645
        -170272394 -361498994 -271847441</internalNodes>
      <leafValues>
        -4.0832392871379852e-02 1.4410832524299622e-01</leafValues></_>
    <_>
      <internalNodes>
        0 -1 209 1069804251 -1223421596 1697144079 -1089815281
        -1373197319 -55451875 -625873255 -1078019159</internalNodes>
      <leafValues>
        -4.2874425649642944e-02 1.3886348903179169e-01</leafValues></_>
    <_>
      <internalNodes>
        0 -1 87 577189370 582438851 1080281896 -1248012728 936988806
        836009191 -1166785969 709588431</internalNodes>
      <leafValues>
        -1.0443579405546188e-01 5.6650873273611069e-02</leafValues></_>
    <_>
      <internalNodes>
        0 -1 144 -572689959 -694204933 2077258235 -26401 -219992625
        -1806681870 -275254801 -892628295</internalNodes>
      <leafValues>
        -3.9513245224952698e-02 1.5498779714107513e-01</leafValues></_>
    <_>
      <internalNodes>
        0 -1 252 203949912 -1207423068 -1649664092 -1871938688 375130704
        -695592156 448307176 586286688</internalNodes>
      <leafValues>
        -1.9206756353378296e-01 3.0917491763830185e-02</leafValues></_>
    <_>
      <internalNodes>
        0 -1 195 -678298661 -705339467 -1309937017 -71100463 -1213882885
        -1243354397 -396632325 -4244833</internalNodes>
      <leafValues>
        -3.1954415142536163e-02 1.9190828502178192e-01</leafValues></_>
    <_>
      <internalNodes>
        0 -1 129 69926944 80131158 6822950 70262828 91062576 941411414
        406789168 7660900</internalNodes>
      <leafValues>
        -2.1835371851921082e-01 2.6871250942349434e-02</leafValues></_>
    <_>
      <internalNodes>
        0 -1 130 -135436307 -672187774 -2119594217 1979150933
        -1572556874 2100995759 -1835937862 -100664953</internalNodes>
      <leafValues>
        -4.4290140271186829e-02 1.3688592612743378e-01</leafValues></_>
    <_>
      <internalNodes>
        0 -1 403 -278187951 1080320711 -1800578019 -1867047254
        2051463436 618622950 -34309590 660332065</internalNodes>
      <leafValues>
        -8.2828275859355927e-02 7.0876561105251312e-02</leafValues></_>
    <_>
      <internalNodes>
        0 -1 315 -771429385 -1729251802 632907833 983557248 -1102981650
        -1460209844 -517541970 -859375914</internalNodes>
      <leafValues>
        -5.5829040706157684e-02 1.0721059143543243e-01</leafValues></_>
    <_>
      <internalNodes>
        0 -1 330 -268252737 -955291145 -1289143299 -690680629 -113115149
        1877452052 2135195871 -3422465</internalNodes>
      <leafValues>
        -4.0973551571369171e-02 1.5140168368816376e-01</leafValues></_>
    <_>
      <internalNodes>
        0 -1 479 -217161470 369685525 61158976 294502088 -1826406106
        24586939 1104109824 206365428</internalNodes>
      <leafValues>
        -1.4172686636447906e-01 4.2178429663181305e-02</leafValues></_>
    <_>
      <internalNodes>
        0 -1 387 186061458 -493867612 1336676146 467411611 -411106158
        -1957744505 1954370790 704144051</internalNodes>
      <leafValues>
        -1.0125660896301270e-01 5.9450775384902954e-02</leafValues></_>
    <_>
      <internalNodes>
        0 -1 352 1841043012 582033990 2129931557 -2017888416 1608982420
        -1363778196 1648656924 445383680</internalNodes>
      <leafValues>
        -1.6432546079158783e-01 3.7841010838747025e-02</leafValues></_>
    <_>
      <internalNodes>
        0 -1 396 -546067657 -834949313 -1699979400 -1351616628
        -672409649 -1464174753 -271395241 -1061905</internalNodes>
      <leafValues>
        -3.4641649574041367e-02 1.8385858833789825e-01</leafValues></_>
    <_>
      <internalNodes>
        0 -1 462 -33561121 -167790834 -67830915 -126357383 -26099016
        -17237572 -1415906390 -76284974</internalNodes>
      <leafValues>
        -3.6287289112806320e-02 1.6421318054199219e-01</leafValues></_>
    <_>
      <internalNodes>
        0 -1 401 78675968 1952208608 741099352 764181401 202118212
        1010041653 277873676 3151184</internalNodes>
      <leafValues>
        -2.3479901254177094e-01 2.6236470788717270e-02</leafValues></_>
    <_>
      <internalNodes>
        0 -1 42 82318368 25184756 278926386 17859828 1479279888
        -651128640 1836077600 2361604</internalNodes>
      <leafValues>
        -2.5465959310531616e-01 2.3057412356138229e-02</leafValues></_>
    <_>
      <internalNodes>
        0 -1 75 710025224 1120184332 1732557712 378013964 902897948
        1157659400 987197504 1729500763</internalNodes>
      <leafValues>
        -1.7297624051570892e-01 3.4951459616422653e-02</leafValues></_>
    <_>
      <internalNodes>
        0 -1 149 -629942625 1599618767 786265755 -1211917701 -479854608
        -1276621509 -294535456 -743847081</internalNodes>
      <leafValues>
        -4.8389129340648651e-02 1.2770478427410126e-01</leafValues></_>
    <_>
      <internalNodes>
        0 -1 82 -234570992 -2120063389 1171095422 552649258 1838159687
        1883953395 -2007862305 1040665686</internalNodes>
      <leafValues>
        -1.1936815083026886e-01 5.3230658173561096e-02</leafValues></_>
    <_>
      <internalNodes>
        0 -1 230 29139592 -2116731941 -444396301 883517904 20186404
        -886444 317464788 178688036</internalNodes>
      <leafValues>
        -1.2939316034317017e-01 4.7058105468750000e-02</leafValues></_>
    <_>
      <internalNodes>
        0 -1 122 -265098872 -1608400438 1718879320 -689323082
        -1906554271 -322329314 -1347788480 963342185</internalNodes>
      <leafValues>
        -1.0160805284976959e-01 6.4743846654891968e-02</leafValues></_>
    <_>
      <internalNodes>
        0 -1 236 -992671484 925923566 1973103251 -971095525 1810574439
        1887447160 1847853848 1822984793</internalNodes>
      <leafValues>
        -1.1040852963924408e-01 5.6474879384040833e-02</leafValues></_>
    <_>
      <internalNodes>
        0 -1 250 -583022849 -572143975 1297981269 1500438001 1488447146
        -1285233179 712441535 -69206293</internalNodes>
      <leafValues>
        -3.8366440683603287e-02 1.6717429459095001e-01</leafValues></_>
    <_>
      <internalNodes>
        0 -1 394 -900737603 1535140593 1637142013 -674397517 -211310914
        -1102611211 -1486494022 -117742986</internalNodes>
      <leafValues>
        -4.5413434505462646e-02 1.3203525543212891e-01</leafValues></_>
    <_>
      <internalNodes>
        0 -1 121 207814912 68181696 653528200 607127584 537198849
        345142292 1022443840 2457120</internalNodes>
      <leafValues>
        -2.5292465090751648e-01 2.4142665788531303e-02</leafValues></_>
    <_>
      <internalNodes>
        0 -1 117 -12590209 -940123113 634497371 983561405 2003432343
        -314660766 -1405882661 -69344582</internalNodes>
      <leafValues>
        -3.9506677538156509e-02 1.5676927566528320e-01</leafValues></_>
    <_>
      <internalNodes>
        0 -1 198 1108354048 -2106054640 827675136 -1483704742 792767776
        1523888392 581320292 269336756</internalNodes>
      <leafValues>
        -1.9017963111400604e-01 3.4253537654876709e-02</leafValues></_>
    <_>
      <internalNodes>
        0 -1 100 -358166384 -723469066 -1003007818 -2116193291
        -1034181160 1821667324 1071583950 -105168381</internalNodes>
      <leafValues>
        -6.7281335592269897e-02 9.0489432215690613e-02</leafValues></_>
    <_>
      <internalNodes>
        0 -1 154 -86053476 -48384641 -864400922 -571750833 -553956196
        -1100305588 -849240654 -632637794</internalNodes>
      <leafValues>
        -5.3954795002937317e-02 1.1697816848754883e-01</leafValues></_>
    <_>
      <internalNodes>
        0 -1 224 33685762 -2126434620 1717089164 952152994 -1639995850
        611093060 483239488 809644864</internalNodes>
      <leafValues>
        -1.6640947759151459e-01 3.7497010082006454e-02</leafValues></_>
    <_>
      <internalNodes>
        0 -1 480 789440757 1941613996 1512806141 -165815056 -876726963
        -869994583 1240957342 -1347007276</internalNodes>
      <leafValues>
        -8.0945484340190887e-02 7.7194318175315857e-02</leafValues></_>
    <_>
      <internalNodes>
        0 -1 458 -1219447329 -617717943 1600849883 1602948468 -912777858
        -1632703244 -343156761 -270578737</internalNodes>
      <leafValues>
        -4.8920176923274994e-02 1.4630828797817230e-01</leafValues></_>
    <_>
      <internalNodes>
        0 -1 473 1477779732 1443353857 1865306165 -29170274 239551161
        24460443 -1052151037 1164102896</internalNodes>
      <leafValues>
        -1.0828995704650879e-01 6.1962008476257324e-02</leafValues></_>
    <_>
      <internalNodes>
        0 -1 342 -906224640 -1025493771 1429894160 1832051420
        -1505453595 -59358738 1304813773 512827356</internalNodes>
      <leafValues>
        -1.0696232318878174e-01 5.9085417538881302e-02</leafValues></_>
    <_>
      <internalNodes>
        0 -1 336 588719615 1850649829 801286181 -250335621 1785304571
        2061537171 -778067154 -426316266</internalNodes>
      <leafValues>
        -6.0457490384578705e-02 1.0737434774637222e-01</leafValues></_>
    <_>
      <internalNodes>
        0 -1 134 1291252287 795138508 2060905496 -1283210931 1207175426
        -814585467 1535786941 -951822286</internalNodes>
      <leafValues>
        -8.3166420459747314e-02 7.5037196278572083e-02</leafValues></_>
    <_>
      <internalNodes>
        0 -1 200 1398746571 -772424319 1821120959 -1720767 -191108168
        -1416034564 -770163268 -335555169</internalNodes>
      <leafValues>
        -4.6764105558395386e-02 1.4677780866622925e-01</leafValues></_>
    <_>
      <internalNodes>
        0 -1 271 -1791177453 -1809043939 114347423 -2035896343 943118334
        -1461674571 -1743815187 -1936939747</internalNodes>
      <leafValues>
        -7.7656492590904236e-02 8.4644466638565063e-02</leafValues></_>
    <_>
      <internalNodes>
        0 -1 459 -620307133 39759480 -844222447 1533334128 708463636
        2039117654 341624066 340099266</internalNodes>
      <leafValues>
        -1.0802374780178070e-01 5.8454539626836777e-02</leafValues></_>
    <_>
      <internalNodes>
        0 -1 10 1090563076 1103075504 -363320474 58012246 -229109758
        -6125880 -2066971632 370092545</internalNodes>
      <leafValues>
        -1.3610140979290009e-01 4.6199187636375427e-02</leafValues></_>
    <_>
      <internalNodes>
        0 -1 349 -1198790177 1926733223 -1596724957 -699974790
        -929655070 -1606464141 -355606625 -402744581</internalNodes>
      <leafValues>
        -4.2145941406488419e-02 1.5482392907142639e-01</leafValues></_>
    <_>
      <internalNodes>
        0 -1 481 578712324 1308846918 1105024625 1311439295 -1431129980
        -871410260 -992086944 1078522008</internalNodes>
      <leafValues>
        -1.2824447453022003e-01 4.9099825322628021e-02</leafValues></_>
    <_>
      <internalNodes>
        0 -1 64 1900153899 1426353026 -824029243 -369427554 -1107211531
        -1434546183 -1418261037 2002671363</internalNodes>
      <leafValues>
        -7.9691819846630096e-02 8.1065699458122253e-02</leafValues></_>
    <_>
      <internalNodes>
        0 -1 257 205619200 -1810690580 -1889017068 -2145223586
        -808632536 -579896027 440731712 1160544896</internalNodes>
      <leafValues>
        -1.5048633515834808e-01 4.1668325662612915e-02</leafValues></_>
    <_>
      <internalNodes>
        0 -1 97 -226364421 -239472970 1442512570 -516505686 -13580035
        -4933165 -388654540 -1310898</internalNodes>
      <leafValues>
        -4.5862089842557907e-02 1.4634501934051514e-01</leafValues></_>
    <_>
      <internalNodes>
        0 -1 281 -272846219 -671590055 1144901511 -174194863 27585231
        -136581959 987741111 -1618408485</internalNodes>
      <leafValues>
        -4.6882342547178268e-02 1.3266989588737488e-01</leafValues></_>
    <_>
      <internalNodes>
        0 -1 331 0 -1605874896 961890618 507780884 87376578 488446677
        624953344 263976</internalNodes>
      <leafValues>
        -2.7031770348548889e-01 2.3224174976348877e-02</leafValues></_>
    <_>
      <internalNodes>
        0 -1 363 -925563800 2026705106 -455635700 1703244816 5022280
        -1445528406 1688584898 141913026</internalNodes>
      <leafValues>
        -1.1393585801124573e-01 5.5123787373304367e-02</leafValues></_>
    <_>
      <internalNodes>
        0 -1 427 -2114305 -1696014751 -1514177155 1474018871 -2373973
        -1888949429 -532172113 -134743361</internalNodes>
      <leafValues>
        -3.0330473557114601e-02 2.1184673905372620e-01</leafValues></_>
    <_>
      <internalNodes>
        0 -1 29 -563616165 -566880281 -298244905 -550786333 -716210261
        -337006539 -186328659 -2630310</internalNodes>
      <leafValues>
        -4.4756010174751282e-02 1.4333714544773102e-01</leafValues></_>
    <_>
      <internalNodes>
        0 -1 119 308885203 454199936 -1495938185 -1084792082 -467688690
        -1233331028 -1067340369 -1529414756</internalNodes>
      <leafValues>
        -6.7820772528648376e-02 9.4805814325809479e-02</leafValues></_>
    <_>
      <internalNodes>
        0 -1 283 -980449953 1219236852 -1141535617 -1087271689
        1582351799 -2511860 2074136264 -3421462</internalNodes>
      <leafValues>
        -4.9868166446685791e-02 1.2655720114707947e-01</leafValues></_>
    <_>
      <internalNodes>
        0 -1 282 -1650460547 -256590596 -945321595 -1121789174
        -1258453620 -1395597481 415221928 -91798729</internalNodes>
      <leafValues>
        -5.8223865926265717e-02 1.1053204536437988e-01</leafValues></_>
    <_>
      <internalNodes>
        0 -1 53 -33564133 -743031077 1591156503 -69346661 -778700036
        1220857199 -537017415 -140539654</internalNodes>
      <leafValues>
        -4.0588192641735077e-02 1.5977472066879272e-01</leafValues></_>
    <_>
      <internalNodes>
        0 -1 433 1816854519 -844520190 212136757 -1321381633 -554339148
        1860159487 -167936203 -872585520</internalNodes>
      <leafValues>
        -6.4160168170928955e-02 9.7017012536525726e-02</leafValues></_>
    <_>
      <internalNodes>
        0 -1 95 205526544 1189120721 -916594848 -1324309718 807339280
        1051461648 1314476768 80086038</internalNodes>
      <leafValues>
        -1.7916014790534973e-01 3.5050496459007263e-02</leafValues></_>
    <_>
      <internalNodes>
        0 -1 114 -1284269465 1402992245 -463921969 121456431 -1539469378
        -890166327 1640975839 -331631522</internalNodes>
      <leafValues>
        -5.0308708101511002e-02 1.2824809551239014e-01</leafValues></_>
    <_>
      <internalNodes>
        0 -1 205 -784599623 -1702680655 713063258 -528215225 -799857952
        -1426531518 731407774 1713393897</internalNodes>
      <leafValues>
        -8.2210682332515717e-02 7.5774379074573517e-02</leafValues></_>
    <_>
      <internalNodes>
        0 -1 265 730462005 -1789461133 -343323340 564738628 1123044
        846815978 -79241776 -1285042881</internalNodes>
      <leafValues>
        -7.3450267314910889e-02 8.8744744658470154e-02</leafValues></_>
    <_>
      <internalNodes>
        0 -1 275 522042141 -1680657132 1451751205 -360311731 -2120504070
        1960043109 1005989807 -1125388198</internalNodes>
      <leafValues>
        -5.7284370064735413e-02 1.1313674598932266e-01</leafValues></_>
    <_>
      <internalNodes>
        0 -1 454 -1643646515 -544131689 -1740787728 -1133117930
        -85614932 -840153097 -1400647351 -1095784566</internalNodes>
      <leafValues>
        -5.6682929396629333e-02 1.1697716265916824e-01</leafValues></_>
    <_>
      <internalNodes>
        0 -1 464 -835943000 1498592354 773878267 2134702346 -548630385
        -1506502053 1749268377 -346242101</internalNodes>
      <leafValues>
        -7.2661161422729492e-02 8.7904386222362518e-02</leafValues></_>
    <_>
      <internalNodes>
        0 -1 360 -1940054087 159232953 331112827 477050799 -59087426
        -1636469699 241501969 -428522470</internalNodes>
      <leafValues>
        -7.8323334455490112e-02 8.1451378762722015e-02</leafValues></_>
    <_>
      <internalNodes>
        0 -1 307 -870317873 -295642177 -959326118 1528901745 94720347
        -1893409154 -61887898 1554181514</internalNodes>
      <leafValues>
        -7.7831283211708069e-02 8.6295962333679199e-02</leafValues></_>
    <_>
      <internalNodes>
        0 -1 358 -506761997 -41431387 1698132073 -269753225 -189705161
        -1080257579 -1544552549 -78156217</internalNodes>
      <leafValues>
        -4.9565039575099945e-02 1.2803006172180176e-01</leafValues></_>
    <_>
      <internalNodes>
        0 -1 365 67371096 47987456 542387770 -2003822384 674234916
        658248848 698355472 3120</internalNodes>
      <leafValues>
        -3.4582096338272095e-01 1.8059140071272850e-02</leafValues></_>
    <_>
      <internalNodes>
        0 -1 274 324515811 2006171571 2139914885 -1378526344 1734993999
        -1558441825 -178336114 -18896641</internalNodes>
      <leafValues>
        -4.5318540185689926e-02 1.4208060503005981e-01</leafValues></_>
    <_>
      <internalNodes>
        0 -1 414 2084293023 85989316 236576720 874879722 -3218399
        -1080380691 -1344594053 220672561</internalNodes>
      <leafValues>
        -8.6692564189434052e-02 7.3696337640285492e-02</leafValues></_>
    <_>
      <internalNodes>
        0 -1 41 -2109963742 160312418 1243494531 -390133694 1478516422
        114313426 1372865324 1590056509</internalNodes>
      <leafValues>
        -1.3034556806087494e-01 4.8550464212894440e-02</leafValues></_>
    <_>
      <internalNodes>
        0 -1 17 -118497313 -13634369 1916580917 -137496847 -797066177
        -51674171 -770332433 -2375</internalNodes>
      <leafValues>
        -3.2484564930200577e-02 2.0308777689933777e-01</leafValues></_>
    <_>
      <internalNodes>
        0 -1 417 1237055219 7207834 1521158740 463969148 1328406560
        -1741262187 -643950464 -1601253633</internalNodes>
      <leafValues>
        -9.2029944062232971e-02 7.1436211466789246e-02</leafValues></_>
    <_>
      <internalNodes>
        0 -1 461 -567739003 -94903602 -8583281 -123220292 -1818711617
        1060543198 -941126945 -1885669238</internalNodes>
      <leafValues>
        -5.0797417759895325e-02 1.3539330661296844e-01</leafValues></_>
    <_>
      <internalNodes>
        0 -1 175 -554851798 1075892976 2118088880 -125239754 -115592063
        1639714612 -659438070 -1321867201</internalNodes>
      <leafValues>
        -7.9142346978187561e-02 7.9014971852302551e-02</leafValues></_>
    <_>
      <internalNodes>
        0 -1 19 -1083452705 -562594244 2095816477 -180750790 -1680869386
        -33639059 -313549313 -4206856</internalNodes>
      <leafValues>
        -3.4299124032258987e-02 1.8504379689693451e-01</leafValues></_>
    <_>
      <internalNodes>
        0 -1 142 -588352257 -648126189 976525122 -67659112 -725045287
        -890014318 99423830 -52966448</internalNodes>
      <leafValues>
        -6.1349552124738693e-02 1.0232677310705185e-01</leafValues></_>
    <_>
      <internalNodes>
        0 -1 238 785604350 -2030445511 -181088852 -268706062 -506931801
        -1128093190 -1266837333 -1163157075</internalNodes>
      <leafValues>
        -5.8615755289793015e-02 1.0951633006334305e-01</leafValues></_>
    <_>
      <internalNodes>
        0 -1 341 -760743421 258795171 -542352554 472812030 1769281622
        -603413061 1296282284 1909809685</internalNodes>
      <leafValues>
        -9.1761931777000427e-02 6.8757541477680206e-02</leafValues></_></weakClassifiers></stage17>
</opencv_storage>
