<?xml version="1.0"?>
<opencv_storage>
<stage14>
  <maxWeakCount>80</maxWeakCount>
  <stageThreshold>-1.2398949861526489e+00</stageThreshold>
  <weakClassifiers>
    <_>
      <internalNodes>
        0 -1 76 -547369285 -738254157 -1676049541 2037863097 -142613106
        -16933123 -429395985 -12613</internalNodes>
      <leafValues>
        -5.3910088539123535e-01 -2.7091905474662781e-01</leafValues></_>
    <_>
      <internalNodes>
        0 -1 4779 -302742332 -38001412 435788605 2138900943 -1988319836
        -578861448 -745505347 -1154868165</internalNodes>
      <leafValues>
        -1.6930925846099854e-01 7.4693195521831512e-02</leafValues></_>
    <_>
      <internalNodes>
        0 -1 792 -76946711 -607165502 1882570864 -780352800 -1425016904
        -1043804699 1399707115 -547925621</internalNodes>
      <leafValues>
        -7.2190999984741211e-02 1.8887026607990265e-01</leafValues></_>
    <_>
      <internalNodes>
        0 -1 7815 -43001285 -1302482934 1535726178 2064296448
        -1679883161 -2052538464 1203233731 -549978177</internalNodes>
      <leafValues>
        -1.0033243894577026e-01 1.2857051193714142e-01</leafValues></_>
    <_>
      <internalNodes>
        0 -1 3696 -2088983563 2006445375 1828729311 -30562987 -87434839
        -1294875976 -1618284661 1397688298</internalNodes>
      <leafValues>
        -8.9575283229351044e-02 1.4212743937969208e-01</leafValues></_>
    <_>
      <internalNodes>
        0 -1 5019 -223102071 -772436297 653106000 1943000535 -355164277
        -2141241369 686423259 -70533205</internalNodes>
      <leafValues>
        -5.6000806391239166e-02 2.2497811913490295e-01</leafValues></_>
    <_>
      <internalNodes>
        0 -1 4263 -509928536 -1973629468 -193196280 -1256670443 26208498
        1825897596 2085129784 -1974961339</internalNodes>
      <leafValues>
        -1.0514037311077118e-01 1.3727296888828278e-01</leafValues></_>
    <_>
      <internalNodes>
        0 -1 7968 1188712499 -1644359940 1793312587 1238661589
        2017874424 -1704711197 -883469244 203966816</internalNodes>
      <leafValues>
        -1.7609463632106781e-01 6.9765545427799225e-02</leafValues></_>
    <_>
      <internalNodes>
        0 -1 528 -1494604222 616433708 -421268992 643959086 620131876
        1212963588 754333954 290513936</internalNodes>
      <leafValues>
        -2.9718312621116638e-01 5.4074339568614960e-02</leafValues></_>
    <_>
      <internalNodes>
        0 -1 7501 -115086702 -623896530 -1735690000 2077701208 519236255
        -616026149 1830564799 -901817149</internalNodes>
      <leafValues>
        -8.2936957478523254e-02 1.6217607259750366e-01</leafValues></_>
    <_>
      <internalNodes>
        0 -1 528 2016925101 -3174865 -1226677510 -772843816 -680466814
        -212935852 -232398183 -293110049</internalNodes>
      <leafValues>
        -6.3999533653259277e-02 2.3760542273521423e-01</leafValues></_>
    <_>
      <internalNodes>
        0 -1 1966 -356924427 -1777343933 -655601135 -31474981 449595131
        -847157699 -705901430 -10629482</internalNodes>
      <leafValues>
        -9.1391116380691528e-02 1.5376718342304230e-01</leafValues></_>
    <_>
      <internalNodes>
        0 -1 2187 101326848 20331563 1157353045 -1583208191 390110524
        952040130 1525357864 69227794</internalNodes>
      <leafValues>
        -2.5761383771896362e-01 5.3278852254152298e-02</leafValues></_>
    <_>
      <internalNodes>
        0 -1 381 -299342238 9357318 761693346 -402216414 273564932
        1145463299 1445136181 1379942929</internalNodes>
      <leafValues>
        -3.2855358719825745e-01 3.9050795137882233e-02</leafValues></_>
    <_>
      <internalNodes>
        0 -1 2686 -1606549504 1208084044 1915228122 -2004492597
        1632912072 1037444815 -1994179456 171549666</internalNodes>
      <leafValues>
        -1.9979657232761383e-01 6.3445255160331726e-02</leafValues></_>
    <_>
      <internalNodes>
        0 -1 6775 335676548 73405428 1285133024 9236608 1409568784
        208170589 315299840 69209136</internalNodes>
      <leafValues>
        -3.6949518322944641e-01 3.5540547221899033e-02</leafValues></_>
    <_>
      <internalNodes>
        0 -1 281 -150995017 -245188146 137866105 1602537113 1395103743
        1876720229 1475183308 -542326537</internalNodes>
      <leafValues>
        -7.1117959916591644e-02 1.9132788479328156e-01</leafValues></_>
    <_>
      <internalNodes>
        0 -1 3166 205439642 494854325 -1631986151 1696226842 1039591894
        -606789908 330003494 1460716641</internalNodes>
      <leafValues>
        -1.4932177960872650e-01 8.9656762778759003e-02</leafValues></_>
    <_>
      <internalNodes>
        0 -1 2496 1434678954 1485482272 -1807692995 -215502018
        1248810255 2075315411 -364108468 -1772157857</internalNodes>
      <leafValues>
        -1.1324859410524368e-01 1.2080924957990646e-01</leafValues></_>
    <_>
      <internalNodes>
        0 -1 8184 -165498736 -1193804560 1476360561 -2126934536
        1848268587 -1420383571 -1145588805 -832857956</internalNodes>
      <leafValues>
        -1.0339388251304626e-01 1.3537332415580750e-01</leafValues></_>
    <_>
      <internalNodes>
        0 -1 7591 1479743618 -2117845424 -698818565 1031421817
        -1288362478 956189917 603188528 151685576</internalNodes>
      <leafValues>
        -1.6911128163337708e-01 8.0125354230403900e-02</leafValues></_>
    <_>
      <internalNodes>
        0 -1 3152 -1777571197 2931870 187924991 -504482549 -732003308
        -1751249773 396609921 2002484046</internalNodes>
      <leafValues>
        -1.2125875055789948e-01 1.1353449523448944e-01</leafValues></_>
    <_>
      <internalNodes>
        0 -1 8379 2136085816 1504042543 -1915701579 614001513 1601686329
        -297001588 -937645220 -1197110758</internalNodes>
      <leafValues>
        -1.5112653374671936e-01 9.2523038387298584e-02</leafValues></_>
    <_>
      <internalNodes>
        0 -1 3466 -190649306 -780192951 -1226642851 434995106 911951560
        -885295495 1581262939 -1288473407</internalNodes>
      <leafValues>
        -1.0085276514291763e-01 1.3764072954654694e-01</leafValues></_>
    <_>
      <internalNodes>
        0 -1 7606 979362560 -1533149639 1983307520 8305154 1078682144
        628188690 871744768 391777</internalNodes>
      <leafValues>
        -3.4532508254051208e-01 3.9827730506658554e-02</leafValues></_>
    <_>
      <internalNodes>
        0 -1 1517 765894408 -29510326 -1337673468 1385474299 -706421738
        -1632548538 2095537517 807176768</internalNodes>
      <leafValues>
        -1.7081703245639801e-01 8.2389511168003082e-02</leafValues></_>
    <_>
      <internalNodes>
        0 -1 699 1180633156 547104291 472638522 134371262 1437865476
        1338138885 -1836426240 35842662</internalNodes>
      <leafValues>
        -2.6283806562423706e-01 5.3354930132627487e-02</leafValues></_>
    <_>
      <internalNodes>
        0 -1 7225 -648558102 -75899890 -1798656446 2136253996 1040721563
        2104336181 -1082169894 -1344317589</internalNodes>
      <leafValues>
        -8.1831559538841248e-02 1.7606352269649506e-01</leafValues></_>
    <_>
      <internalNodes>
        0 -1 111 2094658555 -1950384907 835936777 -543581245 -231383083
        -1924344581 -411625825 -2920197</internalNodes>
      <leafValues>
        -6.5311536192893982e-02 2.2378295660018921e-01</leafValues></_>
    <_>
      <internalNodes>
        0 -1 4008 581511680 -1176498854 755067656 -56380913 -65468029
        632819004 664279560 245661728</internalNodes>
      <leafValues>
        -2.2120018303394318e-01 6.5454326570034027e-02</leafValues></_>
    <_>
      <internalNodes>
        0 -1 6258 -372262693 1157209151 -2005859759 -1348384682
        -1425235888 -352710693 1894035419 2056732362</internalNodes>
      <leafValues>
        -9.4821073114871979e-02 1.5813623368740082e-01</leafValues></_>
    <_>
      <internalNodes>
        0 -1 4002 531874399 2120340383 1982925446 -994436443 1858817433
        -1066204828 -652485153 -439863301</internalNodes>
      <leafValues>
        -9.8419152200222015e-02 1.5227860212326050e-01</leafValues></_>
    <_>
      <internalNodes>
        0 -1 7023 90627176 341740124 -826388161 490252883 -1025485497
        -1101521474 2000971344 -1380156151</internalNodes>
      <leafValues>
        -1.5111389756202698e-01 9.5187611877918243e-02</leafValues></_>
    <_>
      <internalNodes>
        0 -1 5961 -127247207 347094656 -1296267411 762160445 1290950135
        -1309539045 712379786 1189823436</internalNodes>
      <leafValues>
        -1.2055175006389618e-01 1.1888690292835236e-01</leafValues></_>
    <_>
      <internalNodes>
        0 -1 7358 -77071877 -539496261 -1520437507 -536921253 708042651
        -1157743849 -877152801 -542384897</internalNodes>
      <leafValues>
        -4.6950448304414749e-02 3.0981820821762085e-01</leafValues></_>
    <_>
      <internalNodes>
        0 -1 2585 216139380 141838092 1335636566 36181352 -1972490200
        1094198096 1954042928 67135252</internalNodes>
      <leafValues>
        -3.9075511693954468e-01 3.7457201629877090e-02</leafValues></_>
    <_>
      <internalNodes>
        0 -1 7379 1144684966 1332586154 -814437955 -1686048930
        -801733984 -1144399402 699195778 382524312</internalNodes>
      <leafValues>
        -1.4262688159942627e-01 9.9934220314025879e-02</leafValues></_>
    <_>
      <internalNodes>
        0 -1 540 1794023462 176205932 771910728 48245192 32916788
        1457153150 234176560 6505559</internalNodes>
      <leafValues>
        -4.5210540294647217e-01 3.1481698155403137e-02</leafValues></_>
    <_>
      <internalNodes>
        0 -1 4667 -569141289 -10689496 -1741212017 -4720921 -819200577
        -68106645 -1887179319 -1077778897</internalNodes>
      <leafValues>
        -6.4559251070022583e-02 2.2443249821662903e-01</leafValues></_>
    <_>
      <internalNodes>
        0 -1 4152 -565057926 110209027 1621964112 839184506 30605636
        497736089 219176759 -1040240590</internalNodes>
      <leafValues>
        -1.6031262278556824e-01 9.1003015637397766e-02</leafValues></_>
    <_>
      <internalNodes>
        0 -1 7368 -46676959 -69562641 332742263 1072008255 37397476
        -817858576 1079295915 -483016335</internalNodes>
      <leafValues>
        -9.1893009841442108e-02 1.6004605591297150e-01</leafValues></_>
    <_>
      <internalNodes>
        0 -1 5898 1268673844 415765158 102393396 547361883 105911796
        1410211897 1079514625 217373188</internalNodes>
      <leafValues>
        -2.1518313884735107e-01 6.8007662892341614e-02</leafValues></_>
    <_>
      <internalNodes>
        0 -1 483 1649568038 166342049 -2055108668 -985458955 1279541800
        -1906295195 -1397340917 84668548</internalNodes>
      <leafValues>
        -1.8848723173141479e-01 7.9015083611011505e-02</leafValues></_>
    <_>
      <internalNodes>
        0 -1 6357 344445204 44455617 -191357054 1156081632 1457802384
        1839428799 -763237160 1180700</internalNodes>
      <leafValues>
        -2.0389983057975769e-01 7.2503432631492615e-02</leafValues></_>
    <_>
      <internalNodes>
        0 -1 3456 545261988 574371928 -1609295355 1369538226 1496088832
        1695860380 -9648625 50331656</internalNodes>
      <leafValues>
        -2.2309516370296478e-01 6.6379077732563019e-02</leafValues></_>
    <_>
      <internalNodes>
        0 -1 5187 -610738545 -1730733956 -294875625 994791055 -340726095
        -2080393217 570476895 -1970791193</internalNodes>
      <leafValues>
        -8.9011922478675842e-02 1.6967624425888062e-01</leafValues></_>
    <_>
      <internalNodes>
        0 -1 3582 -583279393 1037476645 1900818907 -608714361
        -1485667378 -51520022 1043029677 -1394659159</internalNodes>
      <leafValues>
        -5.8468155562877655e-02 2.5905475020408630e-01</leafValues></_>
    <_>
      <internalNodes>
        0 -1 1344 -1115241950 1652589460 1690714112 705219622 202314758
        21342179 -1269578752 1376767308</internalNodes>
      <leafValues>
        -3.1366154551506042e-01 5.0909463316202164e-02</leafValues></_>
    <_>
      <internalNodes>
        0 -1 6768 2016261356 -1688088392 -175338072 705267768 -79148664
        -1935904539 30059914 1158310587</internalNodes>
      <leafValues>
        -1.4680382609367371e-01 1.0289499908685684e-01</leafValues></_>
    <_>
      <internalNodes>
        0 -1 8266 239469624 320367746 -1774636556 84196384 240668766
        -1405664515 351093124 1278786032</internalNodes>
      <leafValues>
        -2.4017974734306335e-01 6.3080310821533203e-02</leafValues></_>
    <_>
      <internalNodes>
        0 -1 606 -1840365700 -475492856 -1736401079 -27295153 -772375580
        1169317123 -1708570736 1168687687</internalNodes>
      <leafValues>
        -1.5220224857330322e-01 9.8418332636356354e-02</leafValues></_>
    <_>
      <internalNodes>
        0 -1 7405 -1199397416 1811547834 -1689210645 -1721687097
        -822566040 -1201340818 1785202267 -1706425224</internalNodes>
      <leafValues>
        -1.2379597872495651e-01 1.2373015284538269e-01</leafValues></_>
    <_>
      <internalNodes>
        0 -1 3098 -112431229 663793863 1610640792 -1962086566
        -1268418634 1072856240 -372745719 -405329804</internalNodes>
      <leafValues>
        -1.2128188461065292e-01 1.2638629972934723e-01</leafValues></_>
    <_>
      <internalNodes>
        0 -1 5614 -567765039 1748275373 1688689148 1030717129 871832252
        -1993604114 463666393 1831357191</internalNodes>
      <leafValues>
        -1.3080075383186340e-01 1.1478937417268753e-01</leafValues></_>
    <_>
      <internalNodes>
        0 -1 6853 -165172029 -743703330 -114036238 -213461671 1139729862
        -1443319957 2075058827 -570434049</internalNodes>
      <leafValues>
        -6.5589360892772675e-02 2.3280601203441620e-01</leafValues></_>
    <_>
      <internalNodes>
        0 -1 7718 -2008493658 -1074791955 506873829 -1248208812
        856817548 1675554401 454366556 -630991406</internalNodes>
      <leafValues>
        -1.0664594173431396e-01 1.4163786172866821e-01</leafValues></_>
    <_>
      <internalNodes>
        0 -1 1136 -1068227188 2061182699 -1600443658 -1510619854
        104203004 1776507890 -1590894851 -579830988</internalNodes>
      <leafValues>
        -1.3966658711433411e-01 1.0919863730669022e-01</leafValues></_>
    <_>
      <internalNodes>
        0 -1 7149 1750042623 1544894103 -734069507 -24842479 2016781967
        -111411673 1486344187 -69503569</internalNodes>
      <leafValues>
        -6.5584011375904083e-02 2.3950816690921783e-01</leafValues></_>
    <_>
      <internalNodes>
        0 -1 5439 -822713076 831129686 -1717436330 -2048403095
        -1359297810 1205866913 1970808848 1142105910</internalNodes>
      <leafValues>
        -1.7753776907920837e-01 8.7351210415363312e-02</leafValues></_>
    <_>
      <internalNodes>
        0 -1 778 864295983 1423076951 -836928516 -62367750 -1805102253
        -1008384011 -1259686142 -1311920359</internalNodes>
      <leafValues>
        -1.1640938371419907e-01 1.3419274985790253e-01</leafValues></_>
    <_>
      <internalNodes>
        0 -1 1967 -1623308647 -88365449 -152256540 -1073802116
        -415080451 1067324796 -607954978 -115777373</internalNodes>
      <leafValues>
        -8.8058024644851685e-02 1.8040329217910767e-01</leafValues></_>
    <_>
      <internalNodes>
        0 -1 8271 1928451695 -1318093334 -582894729 1228105005
        -1481936927 -440598766 376698290 -178341505</internalNodes>
      <leafValues>
        -9.5964677631855011e-02 1.6385293006896973e-01</leafValues></_>
    <_>
      <internalNodes>
        0 -1 1636 1485852340 533767336 1924166201 1750917448 2041331983
        1116341464 1457474296 76999315</internalNodes>
      <leafValues>
        -2.0425890386104584e-01 7.7142670750617981e-02</leafValues></_>
    <_>
      <internalNodes>
        0 -1 5809 -293620225 -488387173 497557939 -1345790903
        -1533686489 -23879974 -257179943 -43141178</internalNodes>
      <leafValues>
        -7.3613286018371582e-02 2.1937111020088196e-01</leafValues></_>
    <_>
      <internalNodes>
        0 -1 3569 -390383175 177335305 -1587507661 -840012576 1441087814
        -1771945611 -1501950271 714344455</internalNodes>
      <leafValues>
        -1.4629435539245605e-01 1.0678024590015411e-01</leafValues></_>
    <_>
      <internalNodes>
        0 -1 2713 25174560 137642789 582300489 -1495752476 470499612
        1314762247 -1255727531 21059910</internalNodes>
      <leafValues>
        -2.7405473589897156e-01 5.6409738957881927e-02</leafValues></_>
    <_>
      <internalNodes>
        0 -1 3896 -96273449 -1176809857 293306347 -2271449 1044014807
        -587810557 -1418315215 -1493771920</internalNodes>
      <leafValues>
        -8.1043884158134460e-02 1.9345982372760773e-01</leafValues></_>
    <_>
      <internalNodes>
        0 -1 2977 557329158 -1064444584 283478768 378048794 1009081478
        -1530762940 595222345 1377884024</internalNodes>
      <leafValues>
        -2.1804343163967133e-01 7.5976140797138214e-02</leafValues></_>
    <_>
      <internalNodes>
        0 -1 1645 -1937201472 443149209 605230456 680657767 1432733488
        -1676248142 1426611993 4657342</internalNodes>
      <leafValues>
        -2.1727892756462097e-01 7.2708219289779663e-02</leafValues></_>
    <_>
      <internalNodes>
        0 -1 4371 -94387013 -103251681 -261428420 1019215865 -956322167
        -629814668 -1048970041 -1995855227</internalNodes>
      <leafValues>
        -9.1154277324676514e-02 1.7723351716995239e-01</leafValues></_>
    <_>
      <internalNodes>
        0 -1 7059 -607273227 920099605 1222599445 261451229 -759868518
        2116016905 1058814662 -1114699375</internalNodes>
      <leafValues>
        -9.3297764658927917e-02 1.6756963729858398e-01</leafValues></_>
    <_>
      <internalNodes>
        0 -1 7117 -1041593955 -523113006 -1935804953 1066168310
        -572435395 1823975416 -2078806452 -320644177</internalNodes>
      <leafValues>
        -9.6476227045059204e-02 1.6137954592704773e-01</leafValues></_>
    <_>
      <internalNodes>
        0 -1 7945 761268656 1027026293 1070736480 99374402 353310325
        -1364047039 155465557 406871801</internalNodes>
      <leafValues>
        -2.5602135062217712e-01 6.0487814247608185e-02</leafValues></_>
    <_>
      <internalNodes>
        0 -1 4631 -1612008581 -547813679 369560967 602494682 -1986878001
        349709981 -516672629 -562696289</internalNodes>
      <leafValues>
        -8.3071485161781311e-02 1.8965406715869904e-01</leafValues></_>
    <_>
      <internalNodes>
        0 -1 530 -2067004926 442667228 550924438 944781466 1199012424
        574635328 1231039946 157548928</internalNodes>
      <leafValues>
        -2.7446159720420837e-01 5.7594235986471176e-02</leafValues></_>
    <_>
      <internalNodes>
        0 -1 6224 1651136782 256347292 767587762 948043847 1079664960
        943199926 1683178628 1112802263</internalNodes>
      <leafValues>
        -2.4162390828132629e-01 6.4697213470935822e-02</leafValues></_>
    <_>
      <internalNodes>
        0 -1 4838 -346674262 173364985 296312917 2056815276 1853266560
        2038975055 22059577 1715143511</internalNodes>
      <leafValues>
        -1.6752773523330688e-01 9.5551185309886932e-02</leafValues></_>
    <_>
      <internalNodes>
        0 -1 8145 69219328 -1542410672 137394418 237783676 188227616
        -1501921808 891817988 152326148</internalNodes>
      <leafValues>
        -4.3265378475189209e-01 3.5612814128398895e-02</leafValues></_>
    <_>
      <internalNodes>
        0 -1 7660 1421409721 1950530979 497074367 2103818043 -74917111
        -1203792224 -1334005889 -572737649</internalNodes>
      <leafValues>
        -8.6904607713222504e-02 1.8360091745853424e-01</leafValues></_>
    <_>
      <internalNodes>
        0 -1 2246 -73935649 -2908391 -1764827321 -571610415 1155383220
        -138208622 1066900429 -1315892</internalNodes>
      <leafValues>
        -5.7893153280019760e-02 2.7211928367614746e-01</leafValues></_></weakClassifiers></stage14>
</opencv_storage>
