<?xml version="1.0"?>
<opencv_storage>
<stage0>
  <maxWeakCount>14</maxWeakCount>
  <stageThreshold>-1.8134369850158691e+00</stageThreshold>
  <weakClassifiers>
    <_>
      <internalNodes>
        0 -1 7081 -80702992 -147842640 1037307389 -581888556 -1541621576
        -1593529839 -1649357832 -1148583808</internalNodes>
      <leafValues>
        -7.1740174293518066e-01 8.4670722484588623e-02</leafValues></_>
    <_>
      <internalNodes>
        0 -1 231 -788213632 -138225018 8200 -707980200 -987956552
        -24202360 1870780650 -540018005</internalNodes>
      <leafValues>
        -4.7241356968879700e-01 3.5014283657073975e-01</leafValues></_>
    <_>
      <internalNodes>
        0 -1 6068 -1736441776 1463289028 1510489469 -1853879164 69224680
        -1912598472 -1891599364 -1467481944</internalNodes>
      <leafValues>
        -4.2102909088134766e-01 3.0962330102920532e-01</leafValues></_>
    <_>
      <internalNodes>
        0 -1 416 -1029444990 -2138961912 -1610596352 -1832737792
        -1039958008 16908820 1074008464 -740589497</internalNodes>
      <leafValues>
        -3.4935000538825989e-01 3.3840528130531311e-01</leafValues></_>
    <_>
      <internalNodes>
        0 -1 8413 -624964606 -762830840 14827552 273250816 -1507095552
        4490305 34521220 -2105032054</internalNodes>
      <leafValues>
        -3.0166590213775635e-01 3.2653710246086121e-01</leafValues></_>
    <_>
      <internalNodes>
        0 -1 6735 -103809104 521144848 1062508628 -1660852660 -866073896
        -1682412316 -1658398328 -1886395650</internalNodes>
      <leafValues>
        -2.1457172930240631e-01 3.6343681812286377e-01</leafValues></_>
    <_>
      <internalNodes>
        0 -1 1423 1073783424 2098400438 1154487003 1963299208 772115194
        -72078714 6404779 -888948086</internalNodes>
      <leafValues>
        -2.5355836749076843e-01 2.9216924309730530e-01</leafValues></_>
    <_>
      <internalNodes>
        0 -1 2025 -1566538624 -1127342656 1238653941 1434715424
        -2122284310 -1140455262 430354634 -2127362948</internalNodes>
      <leafValues>
        -3.0848073959350586e-01 2.2393566370010376e-01</leafValues></_>
    <_>
      <internalNodes>
        0 -1 648 -579677026 -13613962 810178938 956445854 1283064052
        -1130603692 1226853976 -133998998</internalNodes>
      <leafValues>
        -2.4927747249603271e-01 2.7101197838783264e-01</leafValues></_>
    <_>
      <internalNodes>
        0 -1 7626 -1020538480 -1425739680 71286740 1261920400 436961473
        2160696 22877584 -2065695566</internalNodes>
      <leafValues>
        -3.0752468109130859e-01 2.1744234859943390e-01</leafValues></_>
    <_>
      <internalNodes>
        0 -1 7461 -38952448 1931034624 341091865 425704115 9291912
        -2137394866 1959643306 210199099</internalNodes>
      <leafValues>
        -2.6816049218177795e-01 2.2820341587066650e-01</leafValues></_>
    <_>
      <internalNodes>
        0 -1 5292 -266485602 1426937682 72705940 1396908138 -904342392
        -628835192 1174973853 -1739915262</internalNodes>
      <leafValues>
        -2.0208284258842468e-01 2.9560753703117371e-01</leafValues></_>
    <_>
      <internalNodes>
        0 -1 7358 -1288981574 59670696 85914233 -677045997 -1434284102
        -1741014384 141993404 -611591124</internalNodes>
      <leafValues>
        -1.8709726631641388e-01 3.0761402845382690e-01</leafValues></_>
    <_>
      <internalNodes>
        0 -1 135 -964189598 1417683076 -456754766 -1828537629 143999226
        -1947129716 1491738255 -248302669</internalNodes>
      <leafValues>
        -2.2739234566688538e-01 2.5805729627609253e-01</leafValues></_></weakClassifiers></stage0>
</opencv_storage>
