<?xml version="1.0"?>
<opencv_storage>
<stage12>
  <maxWeakCount>78</maxWeakCount>
  <stageThreshold>-1.2961267232894897e+00</stageThreshold>
  <weakClassifiers>
    <_>
      <internalNodes>
        0 -1 1989 -738199841 -536919109 -295803042 -105153609 -560998258
        -60876202 -14705009 -3416129</internalNodes>
      <leafValues>
        -5.3385460376739502e-01 -1.8962886929512024e-01</leafValues></_>
    <_>
      <internalNodes>
        0 -1 66 -486298998 -609361606 125887171 -752367038 1120127208
        -1197848858 -1980770932 -714747690</internalNodes>
      <leafValues>
        -1.5545243024826050e-01 1.1070737242698669e-01</leafValues></_>
    <_>
      <internalNodes>
        0 -1 7818 -719261768 -98425452 1841287157 -616084779 -1356666266
        665830869 187621263 -608185079</internalNodes>
      <leafValues>
        -1.0748593509197235e-01 1.5270212292671204e-01</leafValues></_>
    <_>
      <internalNodes>
        0 -1 1667 -154688992 -95983392 -1173867982 1373980246 612676042
        -685420177 878441726 -12906149</internalNodes>
      <leafValues>
        -9.1997332870960236e-02 1.6533723473548889e-01</leafValues></_>
    <_>
      <internalNodes>
        0 -1 4766 -329795081 -585241091 -2278809 -33572739 -698371332
        -111349096 -1636476741 -6301793</internalNodes>
      <leafValues>
        -5.4214131087064743e-02 2.6761242747306824e-01</leafValues></_>
    <_>
      <internalNodes>
        0 -1 1359 -609253173 -607163793 787283559 1397213949 -1573979966
        -1586559403 -111489734 -11798069</internalNodes>
      <leafValues>
        -6.1767917126417160e-02 2.2696259617805481e-01</leafValues></_>
    <_>
      <internalNodes>
        0 -1 8425 -552607197 -48644290 846009904 -671416359 10401418
        -853066417 1526701705 -638583813</internalNodes>
      <leafValues>
        -7.2082951664924622e-02 1.9707383215427399e-01</leafValues></_>
    <_>
      <internalNodes>
        0 -1 6404 -392106816 1525942005 962736227 -543068128 351622384
        533626477 673221267 265815120</internalNodes>
      <leafValues>
        -1.6527600586414337e-01 8.5840210318565369e-02</leafValues></_>
    <_>
      <internalNodes>
        0 -1 1350 1306673384 -1550141315 -1129650580 637709594
        -1772726066 1055973288 -128820024 -1119454326</internalNodes>
      <leafValues>
        -1.5188816189765930e-01 1.0159321874380112e-01</leafValues></_>
    <_>
      <internalNodes>
        0 -1 989 1646859794 522505198 2044994325 827337239 1551517882
        -1627616620 1434197932 1880567598</internalNodes>
      <leafValues>
        -1.2862032651901245e-01 1.1943583190441132e-01</leafValues></_>
    <_>
      <internalNodes>
        0 -1 3789 1480992407 -448902404 164976536 1957666707 1567476843
        -242592537 -1288312427 -91317686</internalNodes>
      <leafValues>
        -9.6414618194103241e-02 1.4644867181777954e-01</leafValues></_>
    <_>
      <internalNodes>
        0 -1 3501 587737920 41948526 537172136 1716154470 926454384
        1213708862 1346635720 21536</internalNodes>
      <leafValues>
        -3.3250588178634644e-01 4.2788255959749222e-02</leafValues></_>
    <_>
      <internalNodes>
        0 -1 7116 -2000640462 -1916000847 1103301932 523369102 744705312
        -1163363918 153597121 206710429</internalNodes>
      <leafValues>
        -1.8680039048194885e-01 7.6693326234817505e-02</leafValues></_>
    <_>
      <internalNodes>
        0 -1 5547 -789971233 -809069209 -369680393 -287611717 1090046106
        -1745949153 -392522209 -269525057</internalNodes>
      <leafValues>
        -6.4201138913631439e-02 2.3325254023075104e-01</leafValues></_>
    <_>
      <internalNodes>
        0 -1 8459 1646960802 612397224 546929680 1445099566 239043491
        38323952 334959616 1141745758</internalNodes>
      <leafValues>
        -2.0386295020580292e-01 7.3861695826053619e-02</leafValues></_>
    <_>
      <internalNodes>
        0 -1 6956 1565304500 1018185208 1158164054 -1078658399
        1142181261 1842795407 -1794877886 -1271642985</internalNodes>
      <leafValues>
        -1.4868134260177612e-01 9.7950339317321777e-02</leafValues></_>
    <_>
      <internalNodes>
        0 -1 2950 -901649264 2062965231 -722409564 -614648947 -25557116
        -550600752 -11484517 -1138850265</internalNodes>
      <leafValues>
        -9.2671014368534088e-02 1.5640391409397125e-01</leafValues></_>
    <_>
      <internalNodes>
        0 -1 670 715524710 -1467456856 1778835564 1111535202 1696682064
        5785650 -1645927420 74506054</internalNodes>
      <leafValues>
        -4.3807518482208252e-01 3.3042982220649719e-02</leafValues></_>
    <_>
      <internalNodes>
        0 -1 5279 299630592 1061214 620702774 276300522 75105488
        -1411889240 1432438611 1023680576</internalNodes>
      <leafValues>
        -2.6219233870506287e-01 5.2665520459413528e-02</leafValues></_>
    <_>
      <internalNodes>
        0 -1 2927 2025841924 1230374114 -876333260 1773117314 546105784
        -729778645 -1806485628 538573431</internalNodes>
      <leafValues>
        -1.5877731144428253e-01 9.0262591838836670e-02</leafValues></_>
    <_>
      <internalNodes>
        0 -1 4422 -3225409 -448806999 1892760093 1320467497 870375153
        2096936842 767011252 -957484389</internalNodes>
      <leafValues>
        -8.7822906672954559e-02 1.6462172567844391e-01</leafValues></_>
    <_>
      <internalNodes>
        0 -1 2174 890047234 67268732 1511557259 279589090 331130117
        839921372 -399504224 1086066692</internalNodes>
      <leafValues>
        -2.4241599440574646e-01 6.0201350599527359e-02</leafValues></_>
    <_>
      <internalNodes>
        0 -1 8309 -40124149 -941742486 -218105749 -1863885286 2018489804
        -1802977726 281587146 -91230637</internalNodes>
      <leafValues>
        -8.4179662168025970e-02 1.7488324642181396e-01</leafValues></_>
    <_>
      <internalNodes>
        0 -1 7104 -1881881093 -757533254 -837261513 -37490060 1699093802
        -17523269 -906047847 1540090051</internalNodes>
      <leafValues>
        -8.9242994785308838e-02 1.6705794632434845e-01</leafValues></_>
    <_>
      <internalNodes>
        0 -1 7542 718459648 78919222 1525766420 202529647 235946528
        1010254820 1835533088 82166101</internalNodes>
      <leafValues>
        -2.8204479813575745e-01 5.3180053830146790e-02</leafValues></_>
    <_>
      <internalNodes>
        0 -1 7872 -411691008 171854099 1505418548 1096861424 -352686964
        2054686060 -1602486898 461599248</internalNodes>
      <leafValues>
        -1.7105212807655334e-01 8.7992362678050995e-02</leafValues></_>
    <_>
      <internalNodes>
        0 -1 4780 -984610122 1339351807 940371927 494614139 -1234150184
        -348250959 -300621924 -83124677</internalNodes>
      <leafValues>
        -9.0579889714717865e-02 1.6330797970294952e-01</leafValues></_>
    <_>
      <internalNodes>
        0 -1 5680 275778612 1248638836 1236604435 2091146012 1953513692
        -480636163 500181940 134217812</internalNodes>
      <leafValues>
        -4.1401964426040649e-01 3.9475403726100922e-02</leafValues></_>
    <_>
      <internalNodes>
        0 -1 3318 -1051856737 502477743 -250097835 -719392705 902419673
        -1475910 -394302822 -881083465</internalNodes>
      <leafValues>
        -7.7713236212730408e-02 2.0642079412937164e-01</leafValues></_>
    <_>
      <internalNodes>
        0 -1 3702 143130624 18615344 -281239688 885525312 1415326884
        -341300592 1937247184 136317200</internalNodes>
      <leafValues>
        -5.4892557859420776e-01 2.7790268883109093e-02</leafValues></_>
    <_>
      <internalNodes>
        0 -1 4722 -1899867864 365186464 84094510 -1587364587 -289225004
        -273085647 1538809307 503954891</internalNodes>
      <leafValues>
        -1.4567275345325470e-01 1.0323725640773773e-01</leafValues></_>
    <_>
      <internalNodes>
        0 -1 1286 -1614692509 -775164248 1593815887 -284833053
        1225910237 -307839529 -260079791 -574111038</internalNodes>
      <leafValues>
        -7.8452557325363159e-02 2.0395532250404358e-01</leafValues></_>
    <_>
      <internalNodes>
        0 -1 7848 218103856 210079402 376585876 -1339545052 538522888
        2133161521 139989312 137371664</internalNodes>
      <leafValues>
        -4.2427504062652588e-01 3.6235772073268890e-02</leafValues></_>
    <_>
      <internalNodes>
        0 -1 398 -1499109848 -1350421820 1134573688 226460205 180708213
        -1118156593 -461480860 120999521</internalNodes>
      <leafValues>
        -2.0624461770057678e-01 7.3089711368083954e-02</leafValues></_>
    <_>
      <internalNodes>
        0 -1 8250 -1234189312 -1490261776 -1090626967 1356397308
        1336041691 671501086 51945716 7231864</internalNodes>
      <leafValues>
        -1.9209475815296173e-01 7.9098552465438843e-02</leafValues></_>
    <_>
      <internalNodes>
        0 -1 6358 1751205687 -426989906 -1099125536 875847472 -114287275
        1894307628 541363553 -1534828163</internalNodes>
      <leafValues>
        -1.5104079246520996e-01 1.0257031023502350e-01</leafValues></_>
    <_>
      <internalNodes>
        0 -1 5521 -1365836849 -612889679 900344559 -1717642036
        -975071776 771968701 -27156839 -1306537273</internalNodes>
      <leafValues>
        -9.0592160820960999e-02 1.7050047218799591e-01</leafValues></_>
    <_>
      <internalNodes>
        0 -1 6687 -618290771 -133732623 -2106503335 -991404913
        1802144900 1333698189 -1249476893 -1424763205</internalNodes>
      <leafValues>
        -1.0111936926841736e-01 1.5520250797271729e-01</leafValues></_>
    <_>
      <internalNodes>
        0 -1 6426 1542453267 -7225377 -21250639 1429202705 1668187675
        1469576607 1668205963 -552600186</internalNodes>
      <leafValues>
        -7.5107105076313019e-02 2.0889395475387573e-01</leafValues></_>
    <_>
      <internalNodes>
        0 -1 8081 1457528832 497528315 1263270626 1212421968 1371408656
        526833780 -862179319 1140916027</internalNodes>
      <leafValues>
        -2.2248433530330658e-01 7.0615112781524658e-02</leafValues></_>
    <_>
      <internalNodes>
        0 -1 7706 -653339517 1388749444 -335877030 -237549158 -550134884
        -1743231525 -1644497720 -1456862004</internalNodes>
      <leafValues>
        -9.2795126140117645e-02 1.7135475575923920e-01</leafValues></_>
    <_>
      <internalNodes>
        0 -1 496 715640006 -1979530498 -798326656 1078864492 -823007920
        1389002252 -216215164 1129910340</internalNodes>
      <leafValues>
        -2.1989554166793823e-01 7.0006914436817169e-02</leafValues></_>
    <_>
      <internalNodes>
        0 -1 5834 1844186248 627355472 1843662236 -1208435526 1953812626
        -1318013329 -819974604 35908435</internalNodes>
      <leafValues>
        -1.8373243510723114e-01 8.5152715444564819e-02</leafValues></_>
    <_>
      <internalNodes>
        0 -1 4356 -282692007 1931582643 120575487 -139350279 -324143205
        -33065016 -1615339880 -1093078969</internalNodes>
      <leafValues>
        -6.6197440028190613e-02 2.3906362056732178e-01</leafValues></_>
    <_>
      <internalNodes>
        0 -1 2317 -365959084 -659526549 1248372527 -318456654
        -1488242463 -218220419 2067421775 -1738594654</internalNodes>
      <leafValues>
        -1.0847500711679459e-01 1.4748872816562653e-01</leafValues></_>
    <_>
      <internalNodes>
        0 -1 3838 -861689186 166763338 62009376 1175237314 1342056612
        -1644821462 -772012385 214032514</internalNodes>
      <leafValues>
        -1.5999147295951843e-01 1.0200150310993195e-01</leafValues></_>
    <_>
      <internalNodes>
        0 -1 7066 -885788735 244906544 -397230140 -983200644 1447897476
        1015695831 2141422661 -2009404196</internalNodes>
      <leafValues>
        -1.5064017474651337e-01 1.0766775906085968e-01</leafValues></_>
    <_>
      <internalNodes>
        0 -1 5230 -628452751 552543380 638175442 -2001766575 211148419
        1397301420 1546235842 723207189</internalNodes>
      <leafValues>
        -1.4287461340427399e-01 1.1129257827997208e-01</leafValues></_>
    <_>
      <internalNodes>
        0 -1 533 -161028193 -42735939 -530211945 2078625551 -675849286
        -576214235 -298475576 -331417890</internalNodes>
      <leafValues>
        -7.3669917881488800e-02 2.1533110737800598e-01</leafValues></_>
    <_>
      <internalNodes>
        0 -1 7000 1710030451 -1163860164 -1724350883 -841716426
        738015964 -1577434392 -1646670487 1325291811</internalNodes>
      <leafValues>
        -1.2519085407257080e-01 1.2798513472080231e-01</leafValues></_>
    <_>
      <internalNodes>
        0 -1 7552 1484121811 431515987 415649552 243894952 -328773925
        -8581121 -107104699 -1717574755</internalNodes>
      <leafValues>
        -9.8804503679275513e-02 1.5845368802547455e-01</leafValues></_>
    <_>
      <internalNodes>
        0 -1 4810 -178260545 -372890962 -688931990 -205325219 1936441853
        -1648511057 -15740754 -17828401</internalNodes>
      <leafValues>
        -6.3650414347648621e-02 2.4828359484672546e-01</leafValues></_>
    <_>
      <internalNodes>
        0 -1 3627 -1835813619 959179942 -395008307 -2031940464
        -1541768472 267959354 -1528549306 -1670290370</internalNodes>
      <leafValues>
        -1.2255383282899857e-01 1.3254730403423309e-01</leafValues></_>
    <_>
      <internalNodes>
        0 -1 8279 -769939461 -653666388 -1210735161 -146932715
        -2139442277 -485228600 585999806 -540046913</internalNodes>
      <leafValues>
        -6.1320655047893524e-02 2.6701769232749939e-01</leafValues></_>
    <_>
      <internalNodes>
        0 -1 1768 545530904 538968482 -2004343536 1784737361 -389655262
        -2096810691 1701416512 2642192</internalNodes>
      <leafValues>
        -3.1328862905502319e-01 5.4106459021568298e-02</leafValues></_>
    <_>
      <internalNodes>
        0 -1 8259 1728669171 1596330930 -1084330157 -1595009106
        -1442812262 -562855996 1349403977 -656041506</internalNodes>
      <leafValues>
        -1.0701058059930801e-01 1.5423306822776794e-01</leafValues></_>
    <_>
      <internalNodes>
        0 -1 2812 -237510017 1935144167 -298521141 -64545342 1776575901
        395873783 -1474880803 -51389490</internalNodes>
      <leafValues>
        -6.5306745469570160e-02 2.5020691752433777e-01</leafValues></_>
    <_>
      <internalNodes>
        0 -1 1397 -2072050618 846893999 762592670 -115154496 -189366403
        -17111842 -245059160 -1413747508</internalNodes>
      <leafValues>
        -1.2336241453886032e-01 1.3136601448059082e-01</leafValues></_>
    <_>
      <internalNodes>
        0 -1 202 35530252 -1688617436 -1192403117 693628431 926158608
        -631466992 1649518121 563426821</internalNodes>
      <leafValues>
        -1.9549660384654999e-01 8.3388820290565491e-02</leafValues></_>
    <_>
      <internalNodes>
        0 -1 7043 1600213887 1492642045 1504525719 -1783609979
        -339771489 -27914433 -296767863 -1665190454</internalNodes>
      <leafValues>
        -8.9035555720329285e-02 1.8691053986549377e-01</leafValues></_>
    <_>
      <internalNodes>
        0 -1 143 880943140 648104672 -1810936158 1755871528 2033927141
        881267501 1943031649 1076970376</internalNodes>
      <leafValues>
        -2.5474062561988831e-01 6.4113333821296692e-02</leafValues></_>
    <_>
      <internalNodes>
        0 -1 3597 1347055024 -1109739734 -898458571 1172694078
        -832688763 -338325954 441613210 -1003581897</internalNodes>
      <leafValues>
        -1.2878154218196869e-01 1.2531989812850952e-01</leafValues></_>
    <_>
      <internalNodes>
        0 -1 5839 -1007282910 881931138 -345600628 487519173 1683571200
        655714324 904989973 1718437806</internalNodes>
      <leafValues>
        -2.1913096308708191e-01 7.5220242142677307e-02</leafValues></_>
    <_>
      <internalNodes>
        0 -1 2473 -1803006650 1770719272 1688245846 -1183397286
        2135787421 57164404 -1508799787 1086033753</internalNodes>
      <leafValues>
        -1.6566094756126404e-01 9.9767066538333893e-02</leafValues></_>
    <_>
      <internalNodes>
        0 -1 2367 -1757992839 -815941052 1920333884 -367606776
        1418167814 1498685165 -271547870 628634882</internalNodes>
      <leafValues>
        -1.3995163142681122e-01 1.2045799940824509e-01</leafValues></_>
    <_>
      <internalNodes>
        0 -1 7996 64774690 713295756 -752008650 -1970865874 1474543396
        337175813 1610703748 1416494996</internalNodes>
      <leafValues>
        -2.9216840863227844e-01 5.7906866073608398e-02</leafValues></_>
    <_>
      <internalNodes>
        0 -1 6913 -193996095 2129472518 1493168076 -1698177864
        -444220984 113464801 871208442 -50611250</internalNodes>
      <leafValues>
        -8.4144689142704010e-02 2.0623338222503662e-01</leafValues></_>
    <_>
      <internalNodes>
        0 -1 3451 511806094 -235661292 653403184 -1181902797 2002495699
        -299132649 -1495818854 1876570401</internalNodes>
      <leafValues>
        -1.5292730927467346e-01 1.1124988645315170e-01</leafValues></_>
    <_>
      <internalNodes>
        0 -1 5629 -1467968142 962268153 -1148274630 357918775
        -1221241350 265843191 2100157197 339287353</internalNodes>
      <leafValues>
        -1.6680012643337250e-01 1.0204210132360458e-01</leafValues></_>
    <_>
      <internalNodes>
        0 -1 2782 -468197513 -94456161 -979242917 1163996577 1304681931
        -1362187074 1236726036 -436224517</internalNodes>
      <leafValues>
        -8.0389909446239471e-02 2.1528768539428711e-01</leafValues></_>
    <_>
      <internalNodes>
        0 -1 2723 -474231680 -620866291 1727279007 834256978 890130604
        -466954204 -134445763 -2135806100</internalNodes>
      <leafValues>
        -1.2791088223457336e-01 1.3210725784301758e-01</leafValues></_>
    <_>
      <internalNodes>
        0 -1 5956 1774901623 400318453 467558589 -2014504237 -367086089
        -1229365784 -371852182 -922102654</internalNodes>
      <leafValues>
        -8.8752336800098419e-02 1.9024591147899628e-01</leafValues></_>
    <_>
      <internalNodes>
        0 -1 1380 -1039366537 -544486303 -838209513 -7642987 -1375225090
        -2054479799 -1886856813 -648288067</internalNodes>
      <leafValues>
        -8.3866387605667114e-02 2.0719680190086365e-01</leafValues></_>
    <_>
      <internalNodes>
        0 -1 4648 -832290550 381785605 -2051874320 2117460692 140836578
        296305708 720145597 867986950</internalNodes>
      <leafValues>
        -1.7908163368701935e-01 9.5003671944141388e-02</leafValues></_>
    <_>
      <internalNodes>
        0 -1 3760 -77857313 -1120046953 -1610895395 -1089115265
        -151601445 -147649157 1593700351 -79966786</internalNodes>
      <leafValues>
        -5.5820982903242111e-02 3.2379877567291260e-01</leafValues></_>
    <_>
      <internalNodes>
        0 -1 5994 -799587117 -1976248425 -1094455311 1955002636
        1052961861 -167862276 1747332942 1874514355</internalNodes>
      <leafValues>
        -1.1385984718799591e-01 1.5158931910991669e-01</leafValues></_>
    <_>
      <internalNodes>
        0 -1 3945 6400 404759158 778992704 -589928654 -1559219608
        682797984 1682190388 74203181</internalNodes>
      <leafValues>
        -3.5781326889991760e-01 4.8215974122285843e-02</leafValues></_>
    <_>
      <internalNodes>
        0 -1 4046 -145768449 1338183380 -610145549 -1652041707
        -366490389 -1082723665 -1416318417 -268579698</internalNodes>
      <leafValues>
        -6.7935548722743988e-02 2.6693540811538696e-01</leafValues></_></weakClassifiers></stage12>
</opencv_storage>
