<?xml version="1.0"?>
<opencv_storage>
<stage4>
  <maxWeakCount>55</maxWeakCount>
  <stageThreshold>-1.5053526163101196e+00</stageThreshold>
  <weakClassifiers>
    <_>
      <internalNodes>
        0 -1 3770 -74843686 -548218414 -1275084802 -1112620280
        -309527316 -1144196660 -83015464 -68429810</internalNodes>
      <leafValues>
        -6.1768668889999390e-01 -2.6288816332817078e-01</leafValues></_>
    <_>
      <internalNodes>
        0 -1 6795 -1027611432 -1710712576 99436560 -573966512 -550641176
        -1665732135 -1788255232 -845158741</internalNodes>
      <leafValues>
        -2.7531141042709351e-01 1.0287030041217804e-01</leafValues></_>
    <_>
      <internalNodes>
        0 -1 1424 1162945166 2069230463 563293123 -142656850 2145626799
        -86660109 -1107841285 -1080593</internalNodes>
      <leafValues>
        -1.6073647141456604e-01 1.9982478022575378e-01</leafValues></_>
    <_>
      <internalNodes>
        0 -1 3745 1572356220 -1084949961 -284672007 433085724 1511017640
        -23324139 -847765768 -1106752430</internalNodes>
      <leafValues>
        -2.2836880385875702e-01 1.3211070001125336e-01</leafValues></_>
    <_>
      <internalNodes>
        0 -1 529 -159397265 -1340946774 15222342 272822794 -32419236
        1359356754 -433873573 -216535369</internalNodes>
      <leafValues>
        -8.8812440633773804e-02 2.7050316333770752e-01</leafValues></_>
    <_>
      <internalNodes>
        0 -1 8424 -68171774 387902989 184206592 -531114450 -1463965182
        53640764 -980569216 -1026574261</internalNodes>
      <leafValues>
        -1.7321676015853882e-01 1.6748662292957306e-01</leafValues></_>
    <_>
      <internalNodes>
        0 -1 19 -903698782 522234466 1967529913 969478692 114748089
        -61319962 -16036141 1493658181</internalNodes>
      <leafValues>
        -2.0824433863162994e-01 1.3628697395324707e-01</leafValues></_>
    <_>
      <internalNodes>
        0 -1 8184 -1507147853 -1316295040 -1628538699 -684069464
        -1103577157 -1949455387 957823451 -646213447</internalNodes>
      <leafValues>
        -1.2012697011232376e-01 2.1447969973087311e-01</leafValues></_>
    <_>
      <internalNodes>
        0 -1 8387 -665382909 1528785933 -1797492570 1355338043
        -448924672 1415861104 -357643190 -401416677</internalNodes>
      <leafValues>
        -1.5911793708801270e-01 1.6393828392028809e-01</leafValues></_>
    <_>
      <internalNodes>
        0 -1 1702 -196572852 -2449703 1355070232 -652611341 1473632779
        -472814952 -28721367 1373046483</internalNodes>
      <leafValues>
        -1.8988783657550812e-01 1.3458786904811859e-01</leafValues></_>
    <_>
      <internalNodes>
        0 -1 981 -529865050 -1028757270 -492314606 -178121696 203685258
        -616235229 1999512791 -1014266025</internalNodes>
      <leafValues>
        -1.4444023370742798e-01 1.6899085044860840e-01</leafValues></_>
    <_>
      <internalNodes>
        0 -1 6069 152578544 461911321 -1172721411 520100365 470292336
        -1463855708 1847270392 -1701685208</internalNodes>
      <leafValues>
        -1.8829421699047089e-01 1.3199493288993835e-01</leafValues></_>
    <_>
      <internalNodes>
        0 -1 7196 -591729238 -1705203994 736770342 335374280 436685535
        997487833 1956994047 -381300141</internalNodes>
      <leafValues>
        -1.4188835024833679e-01 1.6770516335964203e-01</leafValues></_>
    <_>
      <internalNodes>
        0 -1 7496 1752672002 440185901 -847678190 2025664121 375665280
        962999293 1219789064 15688755</internalNodes>
      <leafValues>
        -2.4162277579307556e-01 9.9908955395221710e-02</leafValues></_>
    <_>
      <internalNodes>
        0 -1 664 -588777475 -136621649 1827207666 -219957553 -141943506
        -1017764541 -905314657 -145757253</internalNodes>
      <leafValues>
        -9.2589862644672394e-02 2.6381886005401611e-01</leafValues></_>
    <_>
      <internalNodes>
        0 -1 841 -357894390 -376795542 -1342211174 -71416092 438202092
        -872405022 601871099 -952180399</internalNodes>
      <leafValues>
        -1.4009064435958862e-01 1.6711895167827606e-01</leafValues></_>
    <_>
      <internalNodes>
        0 -1 4822 1699211280 -429815528 2094820783 1601169895 744059884
        -9651269 1609845775 417827550</internalNodes>
      <leafValues>
        -1.8274630606174469e-01 1.3369019329547882e-01</leafValues></_>
    <_>
      <internalNodes>
        0 -1 2165 -1874345791 501015834 352590078 2068888203 -195247375
        -1244036778 -527644501 -16669050</internalNodes>
      <leafValues>
        -1.3130536675453186e-01 1.8379396200180054e-01</leafValues></_>
    <_>
      <internalNodes>
        0 -1 5654 -123536907 507246109 2004745755 -1129777391 -76703327
        -1141440326 -1402495045 -2012240497</internalNodes>
      <leafValues>
        -1.0164598375558853e-01 2.3799599707126617e-01</leafValues></_>
    <_>
      <internalNodes>
        0 -1 1549 -798579136 280514117 -1593580266 490382848 -932302607
        -122804279 2057545225 841840444</internalNodes>
      <leafValues>
        -2.0063719153404236e-01 1.2258791178464890e-01</leafValues></_>
    <_>
      <internalNodes>
        0 -1 8456 -1424774925 1034737144 -2036518444 -12913152 775088557
        -1608860258 466551164 -763898451</internalNodes>
      <leafValues>
        -1.4912825822830200e-01 1.6448868811130524e-01</leafValues></_>
    <_>
      <internalNodes>
        0 -1 4318 -78621548 484315196 -59096097 1329542458 880676602
        -1353429170 2117618542 -1120211714</internalNodes>
      <leafValues>
        -1.4519464969635010e-01 1.6752840578556061e-01</leafValues></_>
    <_>
      <internalNodes>
        0 -1 254 -502529382 184561340 -2044945154 1035366234 1297491153
        -17093051 -409657758 1710683758</internalNodes>
      <leafValues>
        -2.1967168152332306e-01 1.0493586957454681e-01</leafValues></_>
    <_>
      <internalNodes>
        0 -1 3457 360752034 -1208814160 -1846476360 222163771 -865522694
        1922402754 -276853320 2010421760</internalNodes>
      <leafValues>
        -1.9671569764614105e-01 1.1778738349676132e-01</leafValues></_>
    <_>
      <internalNodes>
        0 -1 1367 1136380145 -1282382809 -1844315681 1349177998
        1506616868 -345872848 1850891566 1129565430</internalNodes>
      <leafValues>
        -1.7870803177356720e-01 1.3060681521892548e-01</leafValues></_>
    <_>
      <internalNodes>
        0 -1 1116 -285231430 -1650792842 -1398637261 -1615648114
        1313156277 -5806108 155080829 -357574026</internalNodes>
      <leafValues>
        -1.2401717156171799e-01 1.9367992877960205e-01</leafValues></_>
    <_>
      <internalNodes>
        0 -1 4477 -70980912 2140478696 -1384825577 -2135985620
        -1989336941 1603012788 1089169656 -1469076833</internalNodes>
      <leafValues>
        -1.3925918936729431e-01 1.7023296654224396e-01</leafValues></_>
    <_>
      <internalNodes>
        0 -1 7569 -279461872 38838460 1066368305 1225559824 -596154364
        -1494238303 1095960000 -1005653483</internalNodes>
      <leafValues>
        -2.1695981919765472e-01 1.1058796942234039e-01</leafValues></_>
    <_>
      <internalNodes>
        0 -1 1929 -134021903 1934379664 609940413 -1075745265 1910671095
        -54438473 -898868278 -14989741</internalNodes>
      <leafValues>
        -1.0261232405900955e-01 2.4086943268775940e-01</leafValues></_>
    <_>
      <internalNodes>
        0 -1 8124 -95044861 364304058 1039728948 234875779 1997796769
        -1262223729 -808849700 -2064341633</internalNodes>
      <leafValues>
        -1.3469092547893524e-01 1.7433619499206543e-01</leafValues></_>
    <_>
      <internalNodes>
        0 -1 288 -902986656 507154142 327829180 -1185635550 1323770761
        1773412952 -569201364 1736327797</internalNodes>
      <leafValues>
        -2.0400433242321014e-01 1.1640692502260208e-01</leafValues></_>
    <_>
      <internalNodes>
        0 -1 7171 -1062559166 -2027548118 -1444523970 -1161374020
        -1732366460 -1661232366 324490887 -80547776</internalNodes>
      <leafValues>
        -1.6361217200756073e-01 1.4308515191078186e-01</leafValues></_>
    <_>
      <internalNodes>
        0 -1 8029 -772143100 1444752927 -1617337454 1322097234
        1619094020 -1662535688 -427668039 3308007</internalNodes>
      <leafValues>
        -2.3338066041469574e-01 1.0178895294666290e-01</leafValues></_>
    <_>
      <internalNodes>
        0 -1 832 239895056 -927740321 557100104 -1440972208 386461441
        -280643591 206709468 756163696</internalNodes>
      <leafValues>
        -2.7668550610542297e-01 8.2972772419452667e-02</leafValues></_>
    <_>
      <internalNodes>
        0 -1 4435 -290744192 1466567738 -293777416 1943489588
        -1442055542 -1980945341 340919289 -133726950</internalNodes>
      <leafValues>
        -1.3187421858310699e-01 1.7637681961059570e-01</leafValues></_>
    <_>
      <internalNodes>
        0 -1 2712 542223002 -1475562659 -1805185364 662082027 1994816172
        -1448875323 727330318 1103926951</internalNodes>
      <leafValues>
        -2.0858982205390930e-01 1.1370112001895905e-01</leafValues></_>
    <_>
      <internalNodes>
        0 -1 771 438840832 277728443 -1279456836 481750116 -467500087
        -52084747 1695891558 1659992328</internalNodes>
      <leafValues>
        -2.3545937240123749e-01 9.6893690526485443e-02</leafValues></_>
    <_>
      <internalNodes>
        0 -1 7359 -73664141 -2095120397 2101287393 -811738541 1256970670
        -880018501 1565757917 -913322245</internalNodes>
      <leafValues>
        -1.0065867751836777e-01 2.3787058889865875e-01</leafValues></_>
    <_>
      <internalNodes>
        0 -1 2012 -133771525 1595928687 -1277149475 -1970042613
        -293027220 1845314632 1516815038 -130829374</internalNodes>
      <leafValues>
        -1.2875334918498993e-01 1.8009240925312042e-01</leafValues></_>
    <_>
      <internalNodes>
        0 -1 5502 862209552 -564614346 758123792 1838980652 1320955716
        -285818763 1820273675 442713411</internalNodes>
      <leafValues>
        -2.3456054925918579e-01 9.8732367157936096e-02</leafValues></_>
    <_>
      <internalNodes>
        0 -1 8161 -1082164606 246937895 -1102406864 -191053306
        -1713653341 -998711062 -470411008 15512847</internalNodes>
      <leafValues>
        -2.2344577312469482e-01 1.0500331223011017e-01</leafValues></_>
    <_>
      <internalNodes>
        0 -1 464 1189531259 -638408311 10879613 -672077798 -1399400724
        -1129753223 -889345170 -814260569</internalNodes>
      <leafValues>
        -1.2284391373395920e-01 1.9115306437015533e-01</leafValues></_>
    <_>
      <internalNodes>
        0 -1 4289 -662198121 1578236880 267299387 -135562023 1061451568
        -28246817 2128091643 1876947531</internalNodes>
      <leafValues>
        -1.1104197055101395e-01 2.1846710145473480e-01</leafValues></_>
    <_>
      <internalNodes>
        0 -1 6423 68699184 302024692 716254716 237792198 1297090464
        -1742938248 570966020 738197764</internalNodes>
      <leafValues>
        -4.3380048871040344e-01 5.8659587055444717e-02</leafValues></_>
    <_>
      <internalNodes>
        0 -1 7038 -842021903 -114180369 813822239 -596772777 1995832518
        461282989 635000283 -1378885194</internalNodes>
      <leafValues>
        -1.0854031145572662e-01 2.2046397626399994e-01</leafValues></_>
    <_>
      <internalNodes>
        0 -1 7645 -239419374 1563938005 -906044995 933181790 -1621523975
        -632635932 405119917 -1187264981</internalNodes>
      <leafValues>
        -1.1091957986354828e-01 2.1161130070686340e-01</leafValues></_>
    <_>
      <internalNodes>
        0 -1 7859 -597707028 -1854941625 -1522636331 -1526407796
        -1093285707 -1416310341 -669913671 -999294145</internalNodes>
      <leafValues>
        -1.1723025143146515e-01 2.0091237127780914e-01</leafValues></_>
    <_>
      <internalNodes>
        0 -1 3835 -800287864 278177683 121776781 1145782552 -1264327622
        -1263090002 -1326183097 780452592</internalNodes>
      <leafValues>
        -1.9543774425983429e-01 1.2765212357044220e-01</leafValues></_>
    <_>
      <internalNodes>
        0 -1 5034 2129256983 2100690425 -1791856577 -546032941
        -164111107 -910140213 327997676 -1177373129</internalNodes>
      <leafValues>
        -8.9186243712902069e-02 2.6794382929801941e-01</leafValues></_>
    <_>
      <internalNodes>
        0 -1 4150 1444400959 -1627353473 -1715988183 1038540289
        2016789932 1842612500 -309520131 -18267202</internalNodes>
      <leafValues>
        -1.1532700061798096e-01 2.0426338911056519e-01</leafValues></_>
    <_>
      <internalNodes>
        0 -1 8126 1330111763 2118187377 -818031579 1034935664 -780217048
        -1586337560 -1654306360 -872153421</internalNodes>
      <leafValues>
        -1.2395295500755310e-01 1.8800060451030731e-01</leafValues></_>
    <_>
      <internalNodes>
        0 -1 814 -529801054 1088348322 1286597237 207262357 1143749749
        -1102590349 1097616433 471458581</internalNodes>
      <leafValues>
        -2.2971464693546295e-01 1.0112154483795166e-01</leafValues></_>
    <_>
      <internalNodes>
        0 -1 1796 -27376982 183695297 249723927 -282491468 1219791286
        -1126777032 1010788936 803332966</internalNodes>
      <leafValues>
        -1.8139804899692535e-01 1.2858846783638000e-01</leafValues></_>
    <_>
      <internalNodes>
        0 -1 2922 1587339804 464771603 771893565 1067335101 -220209736
        -1160743046 -73659316 -274444529</internalNodes>
      <leafValues>
        -1.4418330788612366e-01 1.6071620583534241e-01</leafValues></_>
    <_>
      <internalNodes>
        0 -1 426 1845388834 1115997928 773227558 -218749382 1526357014
        908139874 1903521540 1885430433</internalNodes>
      <leafValues>
        -3.6087638139724731e-01 6.2808930873870850e-02</leafValues></_></weakClassifiers></stage4>
</opencv_storage>
