<?xml version="1.0"?>
<opencv_storage>
<stage10>
  <maxWeakCount>76</maxWeakCount>
  <stageThreshold>-1.3231245279312134e+00</stageThreshold>
  <weakClassifiers>
    <_>
      <internalNodes>
        0 -1 701 -291504133 -719354273 -526067521 170056255 -558383362
        -220846142 -266241 -83374145</internalNodes>
      <leafValues>
        -5.7037776708602905e-01 -3.3566784858703613e-01</leafValues></_>
    <_>
      <internalNodes>
        0 -1 5686 -603266819 -15156080 -1373120748 -1079123879
        -289734670 -1089154640 -320021057 -1389363509</internalNodes>
      <leafValues>
        -1.4359411597251892e-01 1.4354054629802704e-01</leafValues></_>
    <_>
      <internalNodes>
        0 -1 376 -1059598618 2024186554 1850438178 2044117746 1296485006
        1356115815 1907409359 -686303313</internalNodes>
      <leafValues>
        -1.0261942446231842e-01 1.6017673909664154e-01</leafValues></_>
    <_>
      <internalNodes>
        0 -1 8394 -101002195 -244464817 -227775470 1399837630 -793854456
        1448049932 -2009410338 -1334055201</internalNodes>
      <leafValues>
        -9.6895508468151093e-02 1.6145026683807373e-01</leafValues></_>
    <_>
      <internalNodes>
        0 -1 6070 -652312520 151136512 -1012535875 -1355215012 151696854
        588183853 1219483024 -1624314487</internalNodes>
      <leafValues>
        -1.4781604707241058e-01 1.0501254349946976e-01</leafValues></_>
    <_>
      <internalNodes>
        0 -1 8295 -1019350996 1508837636 -21102804 -267962456 838055560
        -552128976 -1728013368 323083775</internalNodes>
      <leafValues>
        -8.6377047002315521e-02 1.6121092438697815e-01</leafValues></_>
    <_>
      <internalNodes>
        0 -1 8061 -937249760 355765406 -1169025195 1037361461 1133865496
        1566600945 -1928749854 1010925498</internalNodes>
      <leafValues>
        -1.8109640479087830e-01 8.8911682367324829e-02</leafValues></_>
    <_>
      <internalNodes>
        0 -1 810 1479737380 694300299 529819253 806451110 -830730694
        -797992854 -1136276677 137294371</internalNodes>
      <leafValues>
        -1.7211337387561798e-01 8.8786169886589050e-02</leafValues></_>
    <_>
      <internalNodes>
        0 -1 8255 2093217747 428371304 155041013 522026677 -1324319301
        -1879515248 505730291 -364921571</internalNodes>
      <leafValues>
        -9.1826841235160828e-02 1.6330090165138245e-01</leafValues></_>
    <_>
      <internalNodes>
        0 -1 3638 -226262384 -218808711 350238039 1840829780 -2086557263
        2092641529 -861702167 745835183</internalNodes>
      <leafValues>
        -1.3825899362564087e-01 1.0770425200462341e-01</leafValues></_>
    <_>
      <internalNodes>
        0 -1 64 -4195097 -202665246 -80296248 -738728772 -1946698786
        -947691192 -683489929 -676346529</internalNodes>
      <leafValues>
        -6.9410383701324463e-02 2.1614338457584381e-01</leafValues></_>
    <_>
      <internalNodes>
        0 -1 2663 -2038475741 -1145090363 1856166751 809658281
        -560379242 -22669161 -579430392 -787767573</internalNodes>
      <leafValues>
        -1.1186482757329941e-01 1.3497981429100037e-01</leafValues></_>
    <_>
      <internalNodes>
        0 -1 6960 1430650534 891092952 1949445980 -445481453 1084433602
        968365055 1197832757 1864868770</internalNodes>
      <leafValues>
        -1.4958298206329346e-01 1.0242284089326859e-01</leafValues></_>
    <_>
      <internalNodes>
        0 -1 1093 83895666 1348385676 964207249 -1483534361 1416167154
        -1507398112 -1923932651 2079064648</internalNodes>
      <leafValues>
        -1.6307245194911957e-01 9.3145504593849182e-02</leafValues></_>
    <_>
      <internalNodes>
        0 -1 1557 1646821920 282701477 -1984852450 616976264 -1982321424
        -1835243071 392664479 887848784</internalNodes>
      <leafValues>
        -1.9907052814960480e-01 7.6793909072875977e-02</leafValues></_>
    <_>
      <internalNodes>
        0 -1 8154 603981908 866395300 -320507119 1854678096 336352664
        -46768760 1831148689 203424788</internalNodes>
      <leafValues>
        -4.0358877182006836e-01 3.8242280483245850e-02</leafValues></_>
    <_>
      <internalNodes>
        0 -1 389 1246224941 -853477026 2052500245 -47291629 1240333111
        1532196556 -1479353148 -29149575</internalNodes>
      <leafValues>
        -1.1115689575672150e-01 1.3952212035655975e-01</leafValues></_>
    <_>
      <internalNodes>
        0 -1 3093 1420424655 427846841 981888925 703953590 1815727828
        -1471217693 460347469 -897245984</internalNodes>
      <leafValues>
        -1.1280401051044464e-01 1.3986156880855560e-01</leafValues></_>
    <_>
      <internalNodes>
        0 -1 2758 -1557623264 -928594751 -223073420 2067836933
        -2006254612 -574828027 -1984924046 345509025</internalNodes>
      <leafValues>
        -1.9236873090267181e-01 8.2777842879295349e-02</leafValues></_>
    <_>
      <internalNodes>
        0 -1 680 116083242 -261190577 283828954 805838974 1133534786
        1281593958 702718470 1459666078</internalNodes>
      <leafValues>
        -2.1283464133739471e-01 7.2192341089248657e-02</leafValues></_>
    <_>
      <internalNodes>
        0 -1 3508 -624439503 -1766332563 1856310932 209513024 135536548
        448949800 -971307570 -521966796</internalNodes>
      <leafValues>
        -1.2226182967424393e-01 1.2678490579128265e-01</leafValues></_>
    <_>
      <internalNodes>
        0 -1 1176 -1710497069 316672188 -2005396846 1829218956 481847718
        1498725051 -1506398245 1375074140</internalNodes>
      <leafValues>
        -1.2488147616386414e-01 1.2537997961044312e-01</leafValues></_>
    <_>
      <internalNodes>
        0 -1 8365 -351546701 1300908770 929397216 -542132053 891090364
        -1599543300 1428652513 -145827941</internalNodes>
      <leafValues>
        -9.8793610930442810e-02 1.5720598399639130e-01</leafValues></_>
    <_>
      <internalNodes>
        0 -1 4407 -261388213 -544110957 764410654 824078637 2099761100
        -11941098 2113903318 -339346513</internalNodes>
      <leafValues>
        -8.6867228150367737e-02 1.8119053542613983e-01</leafValues></_>
    <_>
      <internalNodes>
        0 -1 6702 -998568572 1550116726 104148001 -1927245264 156053256
        -1979863299 1015492628 1617421159</internalNodes>
      <leafValues>
        -1.8875560164451599e-01 8.2983300089836121e-02</leafValues></_>
    <_>
      <internalNodes>
        0 -1 7502 -918314694 313944545 -1320683182 2113447648 253256185
        -2074937294 262692861 -1395240428</internalNodes>
      <leafValues>
        -1.3842816650867462e-01 1.1389275640249252e-01</leafValues></_>
    <_>
      <internalNodes>
        0 -1 1255 -554696961 -548712137 198769399 2100423415 -309401166
        -615588395 -118371638 -67641521</internalNodes>
      <leafValues>
        -5.3435612469911575e-02 2.8981834650039673e-01</leafValues></_>
    <_>
      <internalNodes>
        0 -1 4464 1997395903 -164320555 -851297313 -847796407 -413212699
        -1108246018 804522191 1541368969</internalNodes>
      <leafValues>
        -8.4738500416278839e-02 1.8496116995811462e-01</leafValues></_>
    <_>
      <internalNodes>
        0 -1 7065 809490877 -916798919 -1444336271 430372104 -2018542323
        -1111779405 261969673 -2012232286</internalNodes>
      <leafValues>
        -1.0797314345836639e-01 1.4528858661651611e-01</leafValues></_>
    <_>
      <internalNodes>
        0 -1 438 586950176 545268224 77626886 753571876 101517846
        506110997 1638221636 807947841</internalNodes>
      <leafValues>
        -3.5820806026458740e-01 4.4482417404651642e-02</leafValues></_>
    <_>
      <internalNodes>
        0 -1 3608 -547628835 -1738658680 322573707 -173820949
        -1622706231 -543293219 -32932865 -105906721</internalNodes>
      <leafValues>
        -6.0465458780527115e-02 2.6524040102958679e-01</leafValues></_>
    <_>
      <internalNodes>
        0 -1 4762 4196576 413158488 -1990976046 610817192 441453664
        1968226269 1449676048 2097408</internalNodes>
      <leafValues>
        -4.7125512361526489e-01 3.4574072808027267e-02</leafValues></_>
    <_>
      <internalNodes>
        0 -1 3863 -634462636 -783194057 2079644275 590195030 -1703563593
        -1409517769 -1575055102 -1156876574</internalNodes>
      <leafValues>
        -1.0924080759286880e-01 1.5404134988784790e-01</leafValues></_>
    <_>
      <internalNodes>
        0 -1 4893 -434209765 -354239594 754244794 -665778773 1894114682
        1276616549 2136454571 657080951</internalNodes>
      <leafValues>
        -1.1184013634920120e-01 1.4334920048713684e-01</leafValues></_>
    <_>
      <internalNodes>
        0 -1 5857 1117662988 1066673323 80620048 -1659507474 -868080221
        2040807087 1649559146 -52993466</internalNodes>
      <leafValues>
        -1.5343984961509705e-01 1.1187388002872467e-01</leafValues></_>
    <_>
      <internalNodes>
        0 -1 7033 875390419 -265568927 -1149492225 784625269 -51829021
        801001037 -836032880 -871924295</internalNodes>
      <leafValues>
        -1.1495325714349747e-01 1.4236338436603546e-01</leafValues></_>
    <_>
      <internalNodes>
        0 -1 7195 1336853578 -1301354172 199173762 -1295464018
        1801798565 1517172881 -1255464511 -667593706</internalNodes>
      <leafValues>
        -1.5567617118358612e-01 1.0547938942909241e-01</leafValues></_>
    <_>
      <internalNodes>
        0 -1 7990 1898672657 1156501696 -306583325 -970072420 557066087
        -554043682 1444145008 241587622</internalNodes>
      <leafValues>
        -1.7311237752437592e-01 9.7508445382118225e-02</leafValues></_>
    <_>
      <internalNodes>
        0 -1 3305 524290 616568348 102272138 1263567932 1034305028
        1489811352 13905408 1323656</internalNodes>
      <leafValues>
        -3.6830791831016541e-01 4.3915119022130966e-02</leafValues></_>
    <_>
      <internalNodes>
        0 -1 3928 446710674 381240670 578888268 -2063543563 1641417453
        61443280 -285849064 1621142163</internalNodes>
      <leafValues>
        -1.9409097731113434e-01 8.8128775358200073e-02</leafValues></_>
    <_>
      <internalNodes>
        0 -1 5925 -957955566 1379959776 -312699831 -1943431695 970523742
        2083665588 748184780 1572101632</internalNodes>
      <leafValues>
        -1.8430811166763306e-01 8.9776165783405304e-02</leafValues></_>
    <_>
      <internalNodes>
        0 -1 1577 -707405189 -197344298 759000853 -42683779 -1733245485
        -1107811418 -1109284869 -52572499</internalNodes>
      <leafValues>
        -6.6612131893634796e-02 2.5287839770317078e-01</leafValues></_>
    <_>
      <internalNodes>
        0 -1 1153 -1175175447 -559091758 -809021583 1598027289
        1252227918 -1076961758 -1842065479 2076924255</internalNodes>
      <leafValues>
        -1.0897290706634521e-01 1.5773972868919373e-01</leafValues></_>
    <_>
      <internalNodes>
        0 -1 3028 -1182797651 1237413795 -1940829070 1464581143
        177861838 -662505619 1051394028 -1383866458</internalNodes>
      <leafValues>
        -9.3466490507125854e-02 1.8057872354984283e-01</leafValues></_>
    <_>
      <internalNodes>
        0 -1 2555 1747512504 141439556 1277274024 -2074341846 691283540
        -152011360 -1404810214 1381108852</internalNodes>
      <leafValues>
        -2.4020260572433472e-01 7.0662550628185272e-02</leafValues></_>
    <_>
      <internalNodes>
        0 -1 8158 154040816 1241863262 -268479718 1238687700 -117098793
        651419437 311825750 244740253</internalNodes>
      <leafValues>
        -1.8870113790035248e-01 8.6217850446701050e-02</leafValues></_>
    <_>
      <internalNodes>
        0 -1 5678 -571805304 1177700839 819655184 1653400640 -1654524528
        -1087473393 1120727200 487449676</internalNodes>
      <leafValues>
        -2.1457199752330780e-01 7.7628605067729950e-02</leafValues></_>
    <_>
      <internalNodes>
        0 -1 5841 1250436662 -1957630188 1547048506 -2123754149
        1682243585 696028964 1261705776 272649901</internalNodes>
      <leafValues>
        -2.4211557209491730e-01 6.7550212144851685e-02</leafValues></_>
    <_>
      <internalNodes>
        0 -1 3021 1596057922 -1175442896 166357530 -1759785273
        -650341487 32799390 -277799091 -2112369856</internalNodes>
      <leafValues>
        -1.3129483163356781e-01 1.2573447823524475e-01</leafValues></_>
    <_>
      <internalNodes>
        0 -1 8373 1652525073 913099183 -863182032 842423990 -64651192
        2101615641 166525057 306773923</internalNodes>
      <leafValues>
        -1.6154216229915619e-01 1.0198535770177841e-01</leafValues></_>
    <_>
      <internalNodes>
        0 -1 9 -1507071946 -318854016 790872063 -1888438121 -292641797
        -1659661888 -639795475 -833133470</internalNodes>
      <leafValues>
        -1.2432749569416046e-01 1.3499298691749573e-01</leafValues></_>
    <_>
      <internalNodes>
        0 -1 1534 -8133429 1944600386 1991756983 -7226235 -1137317964
        -1438373803 -273532417 -4516693</internalNodes>
      <leafValues>
        -6.6306129097938538e-02 2.5352624058723450e-01</leafValues></_>
    <_>
      <internalNodes>
        0 -1 1013 1787800343 2117296093 -86739941 2141143037 -583411254
        -437490336 -659321709 1539997490</internalNodes>
      <leafValues>
        -1.0143049061298370e-01 1.6472516953945160e-01</leafValues></_>
    <_>
      <internalNodes>
        0 -1 51 100663976 675319495 115235062 235837472 338976586
        974293504 1116877343 1141716032</internalNodes>
      <leafValues>
        -3.0471813678741455e-01 5.8058094233274460e-02</leafValues></_>
    <_>
      <internalNodes>
        0 -1 3276 -34161619 1575543795 -1314304993 -2140460096
        -1646090548 -1653177376 -1436160468 -1989381631</internalNodes>
      <leafValues>
        -1.2234579026699066e-01 1.4210833609104156e-01</leafValues></_>
    <_>
      <internalNodes>
        0 -1 7730 -299719680 419228194 -1218859408 -1211058740
        -1575111828 -292619489 789655761 -714389514</internalNodes>
      <leafValues>
        -1.3161106407642365e-01 1.3049028813838959e-01</leafValues></_>
    <_>
      <internalNodes>
        0 -1 800 1326424615 1033617037 -1471644039 1491925134 40084717
        -1090901768 1091777976 -1980733467</internalNodes>
      <leafValues>
        -1.2501391768455505e-01 1.3364140689373016e-01</leafValues></_>
    <_>
      <internalNodes>
        0 -1 6703 -1450942812 1113052173 376008326 1840094792 1447451988
        174501795 402768234 544065092</internalNodes>
      <leafValues>
        -2.0492996275424957e-01 8.2298502326011658e-02</leafValues></_>
    <_>
      <internalNodes>
        0 -1 1259 1551346835 -646197506 -891649533 1899209251 1568270666
        -1116268643 -105390635 -563882813</internalNodes>
      <leafValues>
        -8.6697809398174286e-02 2.0020885765552521e-01</leafValues></_>
    <_>
      <internalNodes>
        0 -1 1923 -831049124 440960338 261124648 705617564 1556702448
        -34468 -990325170 -130915008</internalNodes>
      <leafValues>
        -1.7774578928947449e-01 9.6929818391799927e-02</leafValues></_>
    <_>
      <internalNodes>
        0 -1 5270 -1596663964 -2134956890 -1649230930 -1445648933
        -867941949 -1149246038 990190980 1430675460</internalNodes>
      <leafValues>
        -1.7850585281848907e-01 9.6441276371479034e-02</leafValues></_>
    <_>
      <internalNodes>
        0 -1 4270 674020044 -1520706868 -1553439106 177800812 693784690
        -1747045774 1129727049 489841778</internalNodes>
      <leafValues>
        -2.1238321065902710e-01 8.3790592849254608e-02</leafValues></_>
    <_>
      <internalNodes>
        0 -1 6018 -16065057 -69345481 -1155671553 2133701915 -547381265
        -1078190514 -1458475333 -74191213</internalNodes>
      <leafValues>
        -4.8287834972143173e-02 3.6602437496185303e-01</leafValues></_>
    <_>
      <internalNodes>
        0 -1 8125 69661732 -1533271163 539978896 420780802 504045080
        1220664501 21786960 610860260</internalNodes>
      <leafValues>
        -2.5129023194313049e-01 6.9739766418933868e-02</leafValues></_>
    <_>
      <internalNodes>
        0 -1 5328 -376989769 1908393231 1331732538 662222713 -254181637
        1753486796 1494212063 -581442727</internalNodes>
      <leafValues>
        -8.8804297149181366e-02 1.9662721455097198e-01</leafValues></_>
    <_>
      <internalNodes>
        0 -1 7626 -1973184256 671395946 36578404 1864141442 -1442242367
        1962818859 1297961232 80636928</internalNodes>
      <leafValues>
        -2.9386806488037109e-01 5.9028282761573792e-02</leafValues></_>
    <_>
      <internalNodes>
        0 -1 4388 1898210368 -291239415 362621242 -1473610819 1031686940
        -1418864899 179769508 33220174</internalNodes>
      <leafValues>
        -1.9230996072292328e-01 8.8696844875812531e-02</leafValues></_>
    <_>
      <internalNodes>
        0 -1 3262 -1331738667 -392620577 842326013 -1488724962
        -159647342 970435239 504888955 -1170085398</internalNodes>
      <leafValues>
        -9.1246902942657471e-02 1.9192519783973694e-01</leafValues></_>
    <_>
      <internalNodes>
        0 -1 7377 -1736113150 -35444766 764898654 1048377098 -769983740
        -1301197383 -533414131 1080461673</internalNodes>
      <leafValues>
        -1.9330446422100067e-01 8.8744908571243286e-02</leafValues></_>
    <_>
      <internalNodes>
        0 -1 6412 -323166787 1434291334 -1632350803 -437299205
        1551857649 -1446711427 827701979 -19002898</internalNodes>
      <leafValues>
        -8.5726141929626465e-02 2.0254383981227875e-01</leafValues></_>
    <_>
      <internalNodes>
        0 -1 2980 1133292544 1078650726 -1895861200 985548792 1984360360
        1530880844 1395856553 -1828116642</internalNodes>
      <leafValues>
        -1.5196099877357483e-01 1.1348850280046463e-01</leafValues></_>
    <_>
      <internalNodes>
        0 -1 1142 -1840392387 1573439235 -1537316258 529831844
        -1712187214 984315809 1962731721 -93890825</internalNodes>
      <leafValues>
        -1.1097002774477005e-01 1.5819774568080902e-01</leafValues></_>
    <_>
      <internalNodes>
        0 -1 4350 75759874 432024776 -1294418880 1523450808 -993497336
        1727365948 100055472 1079339781</internalNodes>
      <leafValues>
        -2.5961405038833618e-01 6.9198466837406158e-02</leafValues></_>
    <_>
      <internalNodes>
        0 -1 2505 -638075655 -547518798 -1547093113 -546085047
        -700581321 1668283192 -1234439222 -612107329</internalNodes>
      <leafValues>
        -7.2271861135959625e-02 2.4842011928558350e-01</leafValues></_>
    <_>
      <internalNodes>
        0 -1 4154 206802881 -1500065939 -1074002964 -105772320
        1651128568 -1927944526 -852046785 1622963527</internalNodes>
      <leafValues>
        -1.4715915918350220e-01 1.2061035633087158e-01</leafValues></_>
    <_>
      <internalNodes>
        0 -1 7261 -78447139 342441329 -599347435 430945279 1987987876
        -286120263 -1464488229 -280034455</internalNodes>
      <leafValues>
        -9.4560094177722931e-02 1.9114525616168976e-01</leafValues></_></weakClassifiers></stage10>
</opencv_storage>
