<?xml version="1.0"?>
<opencv_storage>
<stage13>
  <maxWeakCount>84</maxWeakCount>
  <stageThreshold>-1.2887319326400757e+00</stageThreshold>
  <weakClassifiers>
    <_>
      <internalNodes>
        0 -1 1939 -67656705 1060361467 -83756065 -12058779 -67409937
        -16530211 -1712914449 -816862257</internalNodes>
      <leafValues>
        -5.3745818138122559e-01 -2.5729244947433472e-01</leafValues></_>
    <_>
      <internalNodes>
        0 -1 731 -499498292 -366002489 -423450018 536935082 -981712800
        1584809304 -98058358 858255450</internalNodes>
      <leafValues>
        -2.7899566292762756e-01 1.1512542143464088e-02</leafValues></_>
    <_>
      <internalNodes>
        0 -1 8455 -16260381 -1027151198 -1570486736 -91758871 25014159
        241089347 1348288709 -683696177</internalNodes>
      <leafValues>
        -1.0728974640369415e-01 1.2732243537902832e-01</leafValues></_>
    <_>
      <internalNodes>
        0 -1 766 1074478752 1357065112 91652809 956544929 -2129199
        726047244 1581377036 615507458</internalNodes>
      <leafValues>
        -1.5461802482604980e-01 8.6436390876770020e-02</leafValues></_>
    <_>
      <internalNodes>
        0 -1 2706 64791082 121187936 619779186 1057395896 1346811798
        -1349921322 1631656728 1952451706</internalNodes>
      <leafValues>
        -1.8132780492305756e-01 1.0053735971450806e-01</leafValues></_>
    <_>
      <internalNodes>
        0 -1 5699 358123500 -10670703 -369258625 -1660855155 -1451673092
        -43503907 -1115379428 -1155003861</internalNodes>
      <leafValues>
        -1.1857815086841583e-01 1.1957012861967087e-01</leafValues></_>
    <_>
      <internalNodes>
        0 -1 731 -185101517 -1778637062 1072380835 -3986821 2097140123
        -486607390 1789865269 -924307487</internalNodes>
      <leafValues>
        -5.8942526578903198e-02 2.5116369128227234e-01</leafValues></_>
    <_>
      <internalNodes>
        0 -1 2706 -123512619 -622221585 -216997259 -322091781 -909089743
        2005572637 -1701512765 -1913782423</internalNodes>
      <leafValues>
        -8.3136878907680511e-02 1.9282032549381256e-01</leafValues></_>
    <_>
      <internalNodes>
        0 -1 620 1087630047 509075763 -789436241 -100025953 -636996895
        1594981711 534994497 -900342184</internalNodes>
      <leafValues>
        -1.0805016756057739e-01 1.2936392426490784e-01</leafValues></_>
    <_>
      <internalNodes>
        0 -1 3700 15499210 84024738 426748623 169378917 -1639967043
        1795157879 1767675066 71321649</internalNodes>
      <leafValues>
        -2.1035316586494446e-01 6.3099808990955353e-02</leafValues></_>
    <_>
      <internalNodes>
        0 -1 2012 -93117430 -602988437 -85645603 -1298949873 -962559484
        1733788750 -954021460 1132430830</internalNodes>
      <leafValues>
        -1.4358291029930115e-01 9.4894334673881531e-02</leafValues></_>
    <_>
      <internalNodes>
        0 -1 4573 -806617425 -677159029 1742779722 -695610971 -173657650
        -73458035 -17966362 -285216777</internalNodes>
      <leafValues>
        -6.2418460845947266e-02 2.2203712165355682e-01</leafValues></_>
    <_>
      <internalNodes>
        0 -1 2345 2066316096 282483831 885035068 -1099571980 803943527
        792930896 913489769 46682268</internalNodes>
      <leafValues>
        -1.7046128213405609e-01 7.9821579158306122e-02</leafValues></_>
    <_>
      <internalNodes>
        0 -1 1270 -320568136 1793741842 155230717 1703027855 150329331
        1047903468 -907923732 1537214707</internalNodes>
      <leafValues>
        -1.4038258790969849e-01 9.5997765660285950e-02</leafValues></_>
    <_>
      <internalNodes>
        0 -1 1721 409453849 394630544 774337661 1070348424 1722353068
        2050680872 -139702341 996665119</internalNodes>
      <leafValues>
        -1.1592636257410049e-01 1.1528589576482773e-01</leafValues></_>
    <_>
      <internalNodes>
        0 -1 437 -395869696 564034 1722565926 615533282 119821892
        517672689 1922698500 617799168</internalNodes>
      <leafValues>
        -3.0776530504226685e-01 4.3980531394481659e-02</leafValues></_>
    <_>
      <internalNodes>
        0 -1 6270 384750671 406980796 872342603 -1108512137 1550771709
        2129734758 442256556 -944283389</internalNodes>
      <leafValues>
        -9.8931267857551575e-02 1.3982856273651123e-01</leafValues></_>
    <_>
      <internalNodes>
        0 -1 2129 -606352965 -570737490 943157751 -213923924 -1887586329
        -1167458563 -1877822529 -40122881</internalNodes>
      <leafValues>
        -5.2704505622386932e-02 2.6158303022384644e-01</leafValues></_>
    <_>
      <internalNodes>
        0 -1 7958 -1407943120 341583908 1041165108 -1446973086
        -1368465264 -1414742568 -870101552 34392818</internalNodes>
      <leafValues>
        -1.9233193993568420e-01 7.3104329407215118e-02</leafValues></_>
    <_>
      <internalNodes>
        0 -1 2483 -1862934767 1570043720 898077661 -571638884
        -2131780902 -1689245914 1788691373 -16844148</internalNodes>
      <leafValues>
        -7.1913883090019226e-02 1.9695323705673218e-01</leafValues></_>
    <_>
      <internalNodes>
        0 -1 8401 -822466302 410481323 754487186 1920992878 -468003324
        1279849477 304875360 850861</internalNodes>
      <leafValues>
        -2.2273935377597809e-01 6.2556840479373932e-02</leafValues></_>
    <_>
      <internalNodes>
        0 -1 4636 -27541769 -1650532758 -1121632979 -1700207856
        -1809109552 -1080670874 676359760 -1405844875</internalNodes>
      <leafValues>
        -1.1323117464780807e-01 1.2632739543914795e-01</leafValues></_>
    <_>
      <internalNodes>
        0 -1 8043 -1875015269 1281353058 359843219 -10048981 561431437
        -904931405 -46023699 -1663240597</internalNodes>
      <leafValues>
        -8.7928831577301025e-02 1.6202990710735321e-01</leafValues></_>
    <_>
      <internalNodes>
        0 -1 3183 -713760865 1054494254 -1739948404 1898687004 220910675
        -1015910257 -1073950644 -4235686</internalNodes>
      <leafValues>
        -9.2253670096397400e-02 1.5374910831451416e-01</leafValues></_>
    <_>
      <internalNodes>
        0 -1 7813 -1392336800 -2002197752 1861346732 68255380 39389984
        1824240440 1103514709 211813460</internalNodes>
      <leafValues>
        -3.1607252359390259e-01 4.4870477169752121e-02</leafValues></_>
    <_>
      <internalNodes>
        0 -1 80 -668486902 2095596344 1010810262 614324930 -675541064
        -39919193 -1420857434 1494739707</internalNodes>
      <leafValues>
        -1.2400825321674347e-01 1.1634940654039383e-01</leafValues></_>
    <_>
      <internalNodes>
        0 -1 1816 1536939827 2079993343 1055411865 353811549 2120619454
        1072359920 -485225010 -73942241</internalNodes>
      <leafValues>
        -7.7283561229705811e-02 1.8484400212764740e-01</leafValues></_>
    <_>
      <internalNodes>
        0 -1 4535 -902938592 138193612 -1964896184 1066528 756897856
        135708911 1100946512 1091588903</internalNodes>
      <leafValues>
        -3.1684988737106323e-01 4.5904040336608887e-02</leafValues></_>
    <_>
      <internalNodes>
        0 -1 1674 201326600 840434816 1107713542 887498866 1282166184
        970521917 845239311 589055296</internalNodes>
      <leafValues>
        -2.5036504864692688e-01 5.5644553154706955e-02</leafValues></_>
    <_>
      <internalNodes>
        0 -1 4276 -1245588006 1435416150 1533625755 -806385151
        -1235600240 -539711890 -1628788341 -652486758</internalNodes>
      <leafValues>
        -7.7245242893695831e-02 1.8669876456260681e-01</leafValues></_>
    <_>
      <internalNodes>
        0 -1 776 -926496693 -152461743 -625629769 2058042613 -1389835825
        -1682597969 1983825825 -72131259</internalNodes>
      <leafValues>
        -9.3671508133411407e-02 1.5444098412990570e-01</leafValues></_>
    <_>
      <internalNodes>
        0 -1 3671 1582154529 -1228868207 -1892162316 -587710544
        149006470 782335357 -2062286107 -1128108417</internalNodes>
      <leafValues>
        -1.1499646306037903e-01 1.2260452657938004e-01</leafValues></_>
    <_>
      <internalNodes>
        0 -1 1903 -1070442854 609232534 1377207491 386422797 -997565164
        -1429192835 1163103161 -1887513955</internalNodes>
      <leafValues>
        -1.5030889213085175e-01 9.7579292953014374e-02</leafValues></_>
    <_>
      <internalNodes>
        0 -1 973 1131997789 1047874599 1169270801 1889309924 -1376724384
        1735952365 -866532649 2065253970</internalNodes>
      <leafValues>
        -1.2336114048957825e-01 1.1834400147199631e-01</leafValues></_>
    <_>
      <internalNodes>
        0 -1 7415 162955856 1428079890 802282849 -860841674 -984527348
        -1944001058 -1128511597 1203184163</internalNodes>
      <leafValues>
        -1.7315597832202911e-01 8.7698422372341156e-02</leafValues></_>
    <_>
      <internalNodes>
        0 -1 6013 289682472 -2048614744 514650532 1018467879 706488648
        -111805847 1700791712 419961872</internalNodes>
      <leafValues>
        -3.0652484297752380e-01 4.8304378986358643e-02</leafValues></_>
    <_>
      <internalNodes>
        0 -1 1124 150673355 -726140118 -1245199568 2126491240 -90589282
        -362138252 664152546 -482359325</internalNodes>
      <leafValues>
        -9.1197021305561066e-02 1.6659864783287048e-01</leafValues></_>
    <_>
      <internalNodes>
        0 -1 890 -1893553628 1789716652 1790125728 326386275 729612221
        1146702254 -1230800992 1325679089</internalNodes>
      <leafValues>
        -1.9287173449993134e-01 7.4576713144779205e-02</leafValues></_>
    <_>
      <internalNodes>
        0 -1 6593 -1572330496 606106778 53767956 276516670 282566
        346038289 894853952 9451056</internalNodes>
      <leafValues>
        -3.0682891607284546e-01 4.8475395888090134e-02</leafValues></_>
    <_>
      <internalNodes>
        0 -1 7001 1139206895 -592860620 683525636 -12063848 1937211661
        -42872615 -1125328871 -299140205</internalNodes>
      <leafValues>
        -9.0537212789058685e-02 1.7082451283931732e-01</leafValues></_>
    <_>
      <internalNodes>
        0 -1 7814 648099746 1378008307 734796149 333679092 587338529
        -1896431682 1566523659 203835597</internalNodes>
      <leafValues>
        -1.6827134788036346e-01 8.5728086531162262e-02</leafValues></_>
    <_>
      <internalNodes>
        0 -1 6464 -1507365854 1548361427 -900974512 -2106850571
        -1648959708 -905051835 1836170240 1613117294</internalNodes>
      <leafValues>
        -2.1863356232643127e-01 6.5152019262313843e-02</leafValues></_>
    <_>
      <internalNodes>
        0 -1 563 152965972 -1743123672 -1142939590 289045813 -1745086180
        479735808 1395395032 335552288</internalNodes>
      <leafValues>
        -3.2925456762313843e-01 4.2770028114318848e-02</leafValues></_>
    <_>
      <internalNodes>
        0 -1 4055 -881655826 -1245405660 -476061992 -4626943 -1044308
        -1082584970 -1914951009 -113250888</internalNodes>
      <leafValues>
        -8.5673063993453979e-02 1.7301690578460693e-01</leafValues></_>
    <_>
      <internalNodes>
        0 -1 5095 1444416807 319929461 1382559956 -1058246997 1419329454
        571826881 267215369 -2009144732</internalNodes>
      <leafValues>
        -1.3977031409740448e-01 1.0540079325437546e-01</leafValues></_>
    <_>
      <internalNodes>
        0 -1 7864 -183502628 -208920736 -511721490 -1275216189 -69300822
        -816613530 -19529793 -69235714</internalNodes>
      <leafValues>
        -5.9485621750354767e-02 2.4540002644062042e-01</leafValues></_>
    <_>
      <internalNodes>
        0 -1 450 1145840162 605576845 727776388 1123168822 286615568
        609201671 1652393813 1355310598</internalNodes>
      <leafValues>
        -2.6214560866355896e-01 5.6338213384151459e-02</leafValues></_>
    <_>
      <internalNodes>
        0 -1 5592 -147113781 -246371079 1906475533 -274405086
        -2091760192 2147225323 -638428449 -924330459</internalNodes>
      <leafValues>
        -9.6903972327709198e-02 1.5717035531997681e-01</leafValues></_>
    <_>
      <internalNodes>
        0 -1 7588 -1628824832 10190308 1153976064 1211227704 272314882
        1542320066 1075016704 269349684</internalNodes>
      <leafValues>
        -3.3186247944831848e-01 4.5643962919712067e-02</leafValues></_>
    <_>
      <internalNodes>
        0 -1 5204 -834341385 1770815791 -146329841 -615799067 1280671374
        -744429628 947589958 -1148227373</internalNodes>
      <leafValues>
        -8.8477753102779388e-02 1.7504192888736725e-01</leafValues></_>
    <_>
      <internalNodes>
        0 -1 8445 148900212 497562116 -317113155 1062791520 225254066
        770204688 88611160 68682880</internalNodes>
      <leafValues>
        -3.6499643325805664e-01 4.0839754045009613e-02</leafValues></_>
    <_>
      <internalNodes>
        0 -1 7879 -869486696 -592690464 -486995681 192708829 1001854343
        2042027050 -1790878280 -139910198</internalNodes>
      <leafValues>
        -1.1795560270547867e-01 1.2809619307518005e-01</leafValues></_>
    <_>
      <internalNodes>
        0 -1 3349 1272447016 271092201 337383370 1692330976 627408956
        -840955726 658377920 304486432</internalNodes>
      <leafValues>
        -2.5002667307853699e-01 6.1038054525852203e-02</leafValues></_>
    <_>
      <internalNodes>
        0 -1 2349 -2062156353 -1766233835 1371772255 -1816695884
        -390223974 -1428602719 -1303807189 -1096309918</internalNodes>
      <leafValues>
        -7.6380647718906403e-02 2.0680280029773712e-01</leafValues></_>
    <_>
      <internalNodes>
        0 -1 4520 1309425824 -509451616 -2021652224 524099986 1657864242
        1580129943 -15660511 1751501888</internalNodes>
      <leafValues>
        -2.1114562451839447e-01 7.5683951377868652e-02</leafValues></_>
    <_>
      <internalNodes>
        0 -1 457 -546321693 -647510161 -408623525 -1144043297 -87574646
        -1425323301 -907839013 -41962901</internalNodes>
      <leafValues>
        -6.0669962316751480e-02 2.6629468798637390e-01</leafValues></_>
    <_>
      <internalNodes>
        0 -1 4130 86941771 642465652 596701736 -117341695 -412841536
        338267557 32826131 115503403</internalNodes>
      <leafValues>
        -1.6137106716632843e-01 9.5671519637107849e-02</leafValues></_>
    <_>
      <internalNodes>
        0 -1 7781 2020597077 357818134 1291087831 1999658823 -346368060
        -1392612961 -960036757 -337655989</internalNodes>
      <leafValues>
        -8.4929831326007843e-02 1.8446187674999237e-01</leafValues></_>
    <_>
      <internalNodes>
        0 -1 7030 202506906 121073880 489142292 135014012 223309919
        817249661 303809604 5492</internalNodes>
      <leafValues>
        -3.1992155313491821e-01 5.0901155918836594e-02</leafValues></_>
    <_>
      <internalNodes>
        0 -1 7624 -1034426209 -607458116 -412417056 1598446656
        -510996815 1909626856 -1107775777 -1114206498</internalNodes>
      <leafValues>
        -8.7242797017097473e-02 1.8189479410648346e-01</leafValues></_>
    <_>
      <internalNodes>
        0 -1 836 123057149 -43429133 1994186653 -1503168665 -1102403853
        1270461412 -1425201799 -616737</internalNodes>
      <leafValues>
        -7.6719999313354492e-02 2.0442979037761688e-01</leafValues></_>
    <_>
      <internalNodes>
        0 -1 3294 -1022657534 -1914371936 -147556310 -2042200877
        1157378531 -324196514 1208294283 -63942444</internalNodes>
      <leafValues>
        -1.3880617916584015e-01 1.1381893604993820e-01</leafValues></_>
    <_>
      <internalNodes>
        0 -1 8133 -919264768 395483090 1023813424 -859900527 2073118279
        63447908 1100967508 8478321</internalNodes>
      <leafValues>
        -2.3781076073646545e-01 6.8584538996219635e-02</leafValues></_>
    <_>
      <internalNodes>
        0 -1 1226 -978442520 463430267 1115783298 1214397136 1867813896
        4275013 -1213674540 1595934292</internalNodes>
      <leafValues>
        -1.9803255796432495e-01 8.0452494323253632e-02</leafValues></_>
    <_>
      <internalNodes>
        0 -1 5060 -979922433 -647830726 250958397 -1754842539 -44750977
        -27804511 -40572469 -321983569</internalNodes>
      <leafValues>
        -7.2191521525382996e-02 2.3083285987377167e-01</leafValues></_>
    <_>
      <internalNodes>
        0 -1 6659 2499840 672187408 -1171881320 379775853 1493185456
        1287524942 -975879932 807600133</internalNodes>
      <leafValues>
        -2.7949365973472595e-01 6.0118626803159714e-02</leafValues></_>
    <_>
      <internalNodes>
        0 -1 2128 -1789560529 862236078 -1515900394 -1336125786
        -739323745 530506816 347555114 639736727</internalNodes>
      <leafValues>
        -1.2047388404607773e-01 1.3292753696441650e-01</leafValues></_>
    <_>
      <internalNodes>
        0 -1 3464 1230515944 150839348 564252056 1249582338 -642810944
        -1994696851 508875166 -848281643</internalNodes>
      <leafValues>
        -1.6273482143878937e-01 9.9090673029422760e-02</leafValues></_>
    <_>
      <internalNodes>
        0 -1 6336 633355032 -1647647103 -530697557 203001830 -1740868994
        1330979768 472178259 1426587668</internalNodes>
      <leafValues>
        -2.1865957975387573e-01 7.3268599808216095e-02</leafValues></_>
    <_>
      <internalNodes>
        0 -1 7516 -154078568 -831463192 399790104 2118507984 -1439208376
        -1787929121 -209983133 -981216544</internalNodes>
      <leafValues>
        -1.2276041507720947e-01 1.3630382716655731e-01</leafValues></_>
    <_>
      <internalNodes>
        0 -1 5752 -1524464880 -535820274 1234438443 138952253 987241824
        987517701 -915556492 897737821</internalNodes>
      <leafValues>
        -2.0390039682388306e-01 8.0662183463573456e-02</leafValues></_>
    <_>
      <internalNodes>
        0 -1 6082 1946488840 -1505750646 1753958141 1806611142 -67835923
        -1712426012 -749622683 -741976342</internalNodes>
      <leafValues>
        -1.4318658411502838e-01 1.1593109369277954e-01</leafValues></_>
    <_>
      <internalNodes>
        0 -1 3621 1777000950 -1149519134 1341341681 -340786991 738819282
        1072543138 -1869908663 -877221954</internalNodes>
      <leafValues>
        -1.1432871222496033e-01 1.4233106374740601e-01</leafValues></_>
    <_>
      <internalNodes>
        0 -1 5835 -1441488846 376070179 -1287879810 1198382832 81339093
        -604825163 -1869240119 -978400649</internalNodes>
      <leafValues>
        -1.3706047832965851e-01 1.1830136179924011e-01</leafValues></_>
    <_>
      <internalNodes>
        0 -1 112 1014490941 598037777 -409372431 1956821229 -184033426
        -501887385 -356581311 1599285959</internalNodes>
      <leafValues>
        -9.9867351353168488e-02 1.6298012435436249e-01</leafValues></_>
    <_>
      <internalNodes>
        0 -1 206 774637568 -1061116110 783411244 582022278 8746833
        -1113746954 1850152258 21515729</internalNodes>
      <leafValues>
        -2.8268226981163025e-01 5.8074239641427994e-02</leafValues></_>
    <_>
      <internalNodes>
        0 -1 7984 1970774675 -1450647416 -2013691849 -301174608
        -2029259913 -2044192804 1213805760 489091304</internalNodes>
      <leafValues>
        -1.6305109858512878e-01 1.0066414624452591e-01</leafValues></_>
    <_>
      <internalNodes>
        0 -1 850 -138552777 2131270271 1459002743 -12239453 2032468155
        -306093921 -1523275780 -103307619</internalNodes>
      <leafValues>
        -7.2465457022190094e-02 2.3017437756061554e-01</leafValues></_>
    <_>
      <internalNodes>
        0 -1 1902 -1642202145 -1122785715 1650087886 359084831
        -1043009686 -472039555 -409677366 -947534498</internalNodes>
      <leafValues>
        -8.5440963506698608e-02 1.9084639847278595e-01</leafValues></_>
    <_>
      <internalNodes>
        0 -1 294 -952512801 1557660657 -1288235242 -282593093 2110908921
        -1135425372 -1049298808 -220284001</internalNodes>
      <leafValues>
        -8.4965959191322327e-02 1.9455760717391968e-01</leafValues></_>
    <_>
      <internalNodes>
        0 -1 7108 -1858563088 -182408528 -49984930 551896976 -1543597071
        2065985374 1750221733 279594406</internalNodes>
      <leafValues>
        -1.6065119206905365e-01 1.0051683336496353e-01</leafValues></_>
    <_>
      <internalNodes>
        0 -1 5559 -245896705 1051973603 770434237 -860511661 490354397
        2065586174 1122221681 -358089389</internalNodes>
      <leafValues>
        -8.3552598953247070e-02 2.0276652276515961e-01</leafValues></_>
    <_>
      <internalNodes>
        0 -1 5535 -582088056 -145057949 476163481 1737603640 89911288
        -28225553 1785621519 -841636726</internalNodes>
      <leafValues>
        -1.1972273886203766e-01 1.4143972098827362e-01</leafValues></_>
    <_>
      <internalNodes>
        0 -1 3718 496018127 809510474 80394342 -699426042 566803995
        -1249766614 391618244 698528796</internalNodes>
      <leafValues>
        -1.6043230891227722e-01 1.0453031957149506e-01</leafValues></_></weakClassifiers></stage13>
</opencv_storage>
