<?xml version="1.0"?>
<opencv_storage>
<stage13>
  <maxWeakCount>100</maxWeakCount>
  <stageThreshold>-1.4228818416595459e+00</stageThreshold>
  <weakClassifiers>
    <_>
      <internalNodes>
        0 -1 218 -673195009 -2287618 -10551301 -921961 -560409922
        -72810832 -268772385 -2110501</internalNodes>
      <leafValues>
        -5.2709293365478516e-01 -2.6309379935264587e-01</leafValues></_>
    <_>
      <internalNodes>
        0 -1 2 -8393985 -671102337 330661687 -537405769 -34100229
        -54412705 -942670085 -33560657</internalNodes>
      <leafValues>
        -8.5903234779834747e-02 2.3535597324371338e-01</leafValues></_>
    <_>
      <internalNodes>
        0 -1 417 -759434286 -668217488 1370474512 -1615856315 -542252869
        -21498210 -721719168 -929043317</internalNodes>
      <leafValues>
        -9.6010014414787292e-02 9.5041319727897644e-02</leafValues></_>
    <_>
      <internalNodes>
        0 -1 475 -564397568 942648747 498939440 1995429317 -1888897644
        -1593870410 -1409362550 -538969137</internalNodes>
      <leafValues>
        -7.3246806859970093e-02 1.0859218239784241e-01</leafValues></_>
    <_>
      <internalNodes>
        0 -1 124 -922418457 -558852666 385883564 -576921595 -602498087
        1908447432 -173282360 -80876731</internalNodes>
      <leafValues>
        -7.6487980782985687e-02 1.0263814032077789e-01</leafValues></_>
    <_>
      <internalNodes>
        0 -1 220 -516781440 -705429409 749069212 1908794258 -1443704308
        -1611661975 -306503528 -2104809598</internalNodes>
      <leafValues>
        -8.1988282501697540e-02 9.0059764683246613e-02</leafValues></_>
    <_>
      <internalNodes>
        0 -1 87 577714114 2051766658 -865088896 128775744 200889507
        567442891 -562280241 541291264</internalNodes>
      <leafValues>
        -1.0973726212978363e-01 8.8272899389266968e-02</leafValues></_>
    <_>
      <internalNodes>
        0 -1 87 -545814403 634970585 1475518335 -1204557867 -1249923812
        -548549536 -1242594720 -540219221</internalNodes>
      <leafValues>
        -5.1334891468286514e-02 1.7967481911182404e-01</leafValues></_>
    <_>
      <internalNodes>
        0 -1 219 150304896 -577373964 824584263 -1080313723 1526142670
        1133947744 734836926 827007881</internalNodes>
      <leafValues>
        -1.0115132480859756e-01 7.3668867349624634e-02</leafValues></_>
    <_>
      <internalNodes>
        0 -1 217 -1648208865 -638056915 -438698499 1562959198 1417201808
        -1009104527 -645259374 -618595951</internalNodes>
      <leafValues>
        -8.9891530573368073e-02 8.6741201579570770e-02</leafValues></_>
    <_>
      <internalNodes>
        0 -1 85 -662976846 1415546405 -491194873 538159647 -58990774
        -1770595474 -543208598 -412138689</internalNodes>
      <leafValues>
        -7.4717082083225250e-02 9.8437875509262085e-02</leafValues></_>
    <_>
      <internalNodes>
        0 -1 428 1906501506 -620283824 131376932 -676797583 390927595
        1056193890 -216687986 -573835305</internalNodes>
      <leafValues>
        -6.7352011799812317e-02 1.0962750762701035e-01</leafValues></_>
    <_>
      <internalNodes>
        0 -1 409 -2772545 -404699844 -591643275 -100640975 -671338636
        -1143414952 -893860269 -1096547018</internalNodes>
      <leafValues>
        -7.6743744313716888e-02 9.2266522347927094e-02</leafValues></_>
    <_>
      <internalNodes>
        0 -1 446 1249084574 -1556300176 1579954585 -533192108 2100953994
        1286647174 1023035098 970396908</internalNodes>
      <leafValues>
        -9.7971573472023010e-02 7.2470322251319885e-02</leafValues></_>
    <_>
      <internalNodes>
        0 -1 18 1244023314 145756200 383533937 242772674 276123010
        -1180360162 1919370050 452154065</internalNodes>
      <leafValues>
        -1.4248608052730560e-01 4.8011887818574905e-02</leafValues></_>
    <_>
      <internalNodes>
        0 -1 53 -621817141 -751531109 1551194637 -615253478 -644821172
        -227087208 -856359939 -534319</internalNodes>
      <leafValues>
        -5.0656668841838837e-02 1.4095625281333923e-01</leafValues></_>
    <_>
      <internalNodes>
        0 -1 118 -926889844 -1293260342 436404260 -35217330 -440104970
        -121180488 -1194213586 -841537662</internalNodes>
      <leafValues>
        -7.5124189257621765e-02 9.3439288437366486e-02</leafValues></_>
    <_>
      <internalNodes>
        0 -1 323 610580820 496936756 1602579004 1301409857 -164309190
        1875185252 1581301376 202150560</internalNodes>
      <leafValues>
        -1.4895738661289215e-01 4.7583315521478653e-02</leafValues></_>
    <_>
      <internalNodes>
        0 -1 7 -925012327 -929448933 -1362284199 -599526327 -322963696
        1810835505 1716473816 444201243</internalNodes>
      <leafValues>
        -7.3349475860595703e-02 9.6526026725769043e-02</leafValues></_>
    <_>
      <internalNodes>
        0 -1 55 -343228997 457375370 2047247470 -167933342 -1306861199
        -1050973 -1292433198 -86806834</internalNodes>
      <leafValues>
        -6.7175991833209991e-02 1.1706755310297012e-01</leafValues></_>
    <_>
      <internalNodes>
        0 -1 262 -681577505 -105126245 -207582597 -540848493 -314627315
        -220518002 -118489105 -540021521</internalNodes>
      <leafValues>
        -3.5424612462520599e-02 2.0362819731235504e-01</leafValues></_>
    <_>
      <internalNodes>
        0 -1 71 -652864013 316071768 1970990947 -850340262 1104757935
        2115078357 -409318356 -101725189</internalNodes>
      <leafValues>
        -6.7163825035095215e-02 1.0156896710395813e-01</leafValues></_>
    <_>
      <internalNodes>
        0 -1 259 -702691908 1561522016 352251296 1019306643 116776377
        802727908 -146891559 -1982895539</internalNodes>
      <leafValues>
        -7.4309624731540680e-02 9.6198663115501404e-02</leafValues></_>
    <_>
      <internalNodes>
        0 -1 330 -619477585 -613450801 -1150731777 -807306053 -111545013
        -404441611 -582689986 -1752457078</internalNodes>
      <leafValues>
        -4.8406295478343964e-02 1.4072461426258087e-01</leafValues></_>
    <_>
      <internalNodes>
        0 -1 80 1454106711 -69314441 -224515949 -620696913 1402346500
        -1795291115 -437634218 -549284400</internalNodes>
      <leafValues>
        -7.3657929897308350e-02 9.3273058533668518e-02</leafValues></_>
    <_>
      <internalNodes>
        0 -1 382 -803019077 -324203616 2064193311 -238471512 -1114258482
        -1455041152 1645037258 -71600754</internalNodes>
      <leafValues>
        -5.5051408708095551e-02 1.2617546319961548e-01</leafValues></_>
    <_>
      <internalNodes>
        0 -1 215 -190795067 -1957396466 -1332011292 1455935175
        -2107554539 -305479435 -857223933 1253245779</internalNodes>
      <leafValues>
        -8.9351065456867218e-02 7.7560827136039734e-02</leafValues></_>
    <_>
      <internalNodes>
        0 -1 381 -1089695728 -1292532041 1043496504 721317548 1784714753
        259713409 -1150751553 1746134427</internalNodes>
      <leafValues>
        -1.1607693880796432e-01 5.8062687516212463e-02</leafValues></_>
    <_>
      <internalNodes>
        0 -1 125 -607043241 -551829283 -1850462498 1068427484 -261560785
        -279517667 -1404118629 1435033134</internalNodes>
      <leafValues>
        -6.5737351775169373e-02 1.0629522800445557e-01</leafValues></_>
    <_>
      <internalNodes>
        0 -1 261 313426211 397453103 1170876679 -271135703 9200283
        1174143157 798792342 -1078789455</internalNodes>
      <leafValues>
        -8.1143438816070557e-02 8.9257366955280304e-02</leafValues></_>
    <_>
      <internalNodes>
        0 -1 482 -546325551 -1425496406 2031082289 -626041735
        -1306083857 -1668582469 -1779990120 -607134547</internalNodes>
      <leafValues>
        -6.2136154621839523e-02 1.0757879912853241e-01</leafValues></_>
    <_>
      <internalNodes>
        0 -1 168 -32134438 1057172777 98749100 -1245715778 -1907373089
        981400276 939978188 -78646818</internalNodes>
      <leafValues>
        -5.9734951704740524e-02 1.1308377236127853e-01</leafValues></_>
    <_>
      <internalNodes>
        0 -1 159 -2145005610 -1338279617 -660167346 -2070679591
        -863662753 1310713786 -650403955 -1990152080</internalNodes>
      <leafValues>
        -8.2549117505550385e-02 8.5342295467853546e-02</leafValues></_>
    <_>
      <internalNodes>
        0 -1 325 -1003660125 -1653522015 1546728989 1504926541
        -566952060 1069030712 -1343036583 -1145104563</internalNodes>
      <leafValues>
        -6.0531981289386749e-02 1.1347835510969162e-01</leafValues></_>
    <_>
      <internalNodes>
        0 -1 302 10488464 209725824 -1527766424 1610661632 634530916
        -1359447492 267934212 342895664</internalNodes>
      <leafValues>
        -2.7929070591926575e-01 2.4961855262517929e-02</leafValues></_>
    <_>
      <internalNodes>
        0 -1 316 209160037 614640936 -602238959 234980608 55121206
        140721437 -437197464 5261569</internalNodes>
      <leafValues>
        -1.4367058873176575e-01 4.9819435924291611e-02</leafValues></_>
    <_>
      <internalNodes>
        0 -1 89 -1038089600 -1809336912 1708865781 -1312424926
        1445603766 678194980 1755094098 809781254</internalNodes>
      <leafValues>
        -1.3642789423465729e-01 5.0417363643646240e-02</leafValues></_>
    <_>
      <internalNodes>
        0 -1 166 -532971134 1541898328 -25504762 530165128 -1476152939
        -292223359 -226946661 -615262284</internalNodes>
      <leafValues>
        -7.2794221341609955e-02 9.5018282532691956e-02</leafValues></_>
    <_>
      <internalNodes>
        0 -1 464 69862144 -2126207452 1043342905 -525149336 -1905642456
        -1171867069 1813003728 822141892</internalNodes>
      <leafValues>
        -1.7324844002723694e-01 3.9981037378311157e-02</leafValues></_>
    <_>
      <internalNodes>
        0 -1 232 -232813937 -647228645 -1430527370 -245898198
        -1166555922 752176637 -829493590 -1679562758</internalNodes>
      <leafValues>
        -5.4186221212148666e-02 1.2856270372867584e-01</leafValues></_>
    <_>
      <internalNodes>
        0 -1 129 351487009 278668147 -2067247963 -1616288740 21602612
        858738934 673058431 616851565</internalNodes>
      <leafValues>
        -1.0237266868352890e-01 6.7742079496383667e-02</leafValues></_>
    <_>
      <internalNodes>
        0 -1 313 -54794837 -41553993 -998760679 -78768605 1833759208
        -1373029038 -1936188824 -424791570</internalNodes>
      <leafValues>
        -5.8328978717327118e-02 1.1895215511322021e-01</leafValues></_>
    <_>
      <internalNodes>
        0 -1 407 89006112 -937047828 -1805494784 -1196056639 89060448
        716869415 438517992 269071366</internalNodes>
      <leafValues>
        -1.5158253908157349e-01 4.5381020754575729e-02</leafValues></_>
    <_>
      <internalNodes>
        0 -1 435 452128337 532155503 -295867142 358992077 54805792
        -1633020363 2132618753 148574384</internalNodes>
      <leafValues>
        -1.1264312267303467e-01 6.0928702354431152e-02</leafValues></_>
    <_>
      <internalNodes>
        0 -1 395 -654845283 -294171553 -1373867747 1607243756 1292479673
        -323105905 -1796823269 -257294349</internalNodes>
      <leafValues>
        -5.2706927061080933e-02 1.3397707045078278e-01</leafValues></_>
    <_>
      <internalNodes>
        0 -1 457 1417628529 1976630802 1608395001 1563490639 1108237223
        -1128534603 -1214938901 -2228244</internalNodes>
      <leafValues>
        -6.0529332607984543e-02 1.2195760011672974e-01</leafValues></_>
    <_>
      <internalNodes>
        0 -1 334 1759642754 -316005186 1437386476 -1666434828
        -1638399300 -1117303264 1224763057 551556627</internalNodes>
      <leafValues>
        -1.2385977059602737e-01 5.5453266948461533e-02</leafValues></_>
    <_>
      <internalNodes>
        0 -1 453 -311271406 -1095560272 -2070010140 262483608 1949055408
        -486984208 -865007943 -1447360705</internalNodes>
      <leafValues>
        -8.3391584455966949e-02 8.4217637777328491e-02</leafValues></_>
    <_>
      <internalNodes>
        0 -1 473 -1456037248 12899078 75790417 -2071797798 243767608
        1316372378 55147284 1076686838</internalNodes>
      <leafValues>
        -1.2847633659839630e-01 5.4881982505321503e-02</leafValues></_>
    <_>
      <internalNodes>
        0 -1 0 -349248599 -295163808 -940967693 -1377987678 -886391809
        -288447755 -719231239 -841099785</internalNodes>
      <leafValues>
        -6.4357765018939972e-02 1.0589420795440674e-01</leafValues></_>
    <_>
      <internalNodes>
        0 -1 374 -1026249215 1462505889 -100836809 421107922 -1199131779
        -1648417760 2012648814 -1718562086</internalNodes>
      <leafValues>
        -7.2522856295108795e-02 9.2272281646728516e-02</leafValues></_>
    <_>
      <internalNodes>
        0 -1 3 146279436 2009417632 -1623141456 -720815888 1306317322
        880620744 -1351143902 945949715</internalNodes>
      <leafValues>
        -1.5051031112670898e-01 4.4908173382282257e-02</leafValues></_>
    <_>
      <internalNodes>
        0 -1 194 -579340353 -1366647679 -1981930959 -37880128 1182720248
        -566259802 -553771253 -824519349</internalNodes>
      <leafValues>
        -5.3074751049280167e-02 1.3262806832790375e-01</leafValues></_>
    <_>
      <internalNodes>
        0 -1 181 554996691 -784097956 -786936536 -823125943 -2096390932
        744016608 -1364849921 -1785143062</internalNodes>
      <leafValues>
        -6.9881156086921692e-02 9.9273979663848877e-02</leafValues></_>
    <_>
      <internalNodes>
        0 -1 293 203264 1594427940 615691916 1517984527 669355794
        -367192513 222442568 72459032</internalNodes>
      <leafValues>
        -1.5256240963935852e-01 4.5334514230489731e-02</leafValues></_>
    <_>
      <internalNodes>
        0 -1 273 -146679817 503327700 506199379 1841122489 -1371103908
        -12260723 -1355369998 -1375631505</internalNodes>
      <leafValues>
        -5.8416660875082016e-02 1.2314185500144958e-01</leafValues></_>
    <_>
      <internalNodes>
        0 -1 182 -1108872201 -122309199 1402060765 1735909373 -453122115
        -1212864091 -1797709857 -338962043</internalNodes>
      <leafValues>
        -4.0683228522539139e-02 1.7252647876739502e-01</leafValues></_>
    <_>
      <internalNodes>
        0 -1 140 135291068 929863032 -1395364464 167780896 1235753048
        -973596608 273726224 138419856</internalNodes>
      <leafValues>
        -2.2878970205783844e-01 2.9645271599292755e-02</leafValues></_>
    <_>
      <internalNodes>
        0 -1 148 -639635989 -629451155 652708779 -214742197 -908667725
        -20325693 -14430273 -4470833</internalNodes>
      <leafValues>
        -3.6413252353668213e-02 1.9640983641147614e-01</leafValues></_>
    <_>
      <internalNodes>
        0 -1 268 1949139298 1556483495 1693233232 -1231229803
        -1603297336 618005932 -859374817 187587427</internalNodes>
      <leafValues>
        -9.9706269800662994e-02 6.8621799349784851e-02</leafValues></_>
    <_>
      <internalNodes>
        0 -1 235 1202698153 -2074137201 -1878227826 -1109920477
        -27532627 -128112479 -1545423064 -28181662</internalNodes>
      <leafValues>
        -6.8603537976741791e-02 9.9653467535972595e-02</leafValues></_>
    <_>
      <internalNodes>
        0 -1 112 -168911403 -172553445 483196639 2110908061 -652305162
        -69481279 -1731926098 -67375397</internalNodes>
      <leafValues>
        -3.8349229842424393e-02 1.8628625571727753e-01</leafValues></_>
    <_>
      <internalNodes>
        0 -1 66 1175173642 138448644 4484650 -1496658520 1544836660
        1020532390 356274305 1087037761</internalNodes>
      <leafValues>
        -1.9378013908863068e-01 3.6198563873767853e-02</leafValues></_>
    <_>
      <internalNodes>
        0 -1 137 425216157 -18588233 326186249 1566753995 20019687
        -1480620114 -798999156 -1417944536</internalNodes>
      <leafValues>
        -6.2878623604774475e-02 1.2211404740810394e-01</leafValues></_>
    <_>
      <internalNodes>
        0 -1 96 -392845237 -1204508235 1544364368 -800322647 311631175
        -1121775805 1639504523 -187722142</internalNodes>
      <leafValues>
        -8.1071801483631134e-02 8.7535806000232697e-02</leafValues></_>
    <_>
      <internalNodes>
        0 -1 348 1535909888 137382565 368447392 -2123694790 -1241606203
        -1970237600 1065130213 12723809</internalNodes>
      <leafValues>
        -1.4195248484611511e-01 5.0232671201229095e-02</leafValues></_>
    <_>
      <internalNodes>
        0 -1 477 1259288833 4773640 32863292 1880284417 1770362368
        788018597 1079635776 268984024</internalNodes>
      <leafValues>
        -1.4920260012149811e-01 4.7478768974542618e-02</leafValues></_>
    <_>
      <internalNodes>
        0 -1 180 1076591298 -1978690104 -1282075918 1166388654 155461506
        -994025354 951010972 1740458114</internalNodes>
      <leafValues>
        -1.0466165095567703e-01 6.6992871463298798e-02</leafValues></_>
    <_>
      <internalNodes>
        0 -1 16 -752096263 1363399022 -37840008 -196481427 -858539110
        -820063958 -474614902 -112590881</internalNodes>
      <leafValues>
        -4.6362735331058502e-02 1.5615932643413544e-01</leafValues></_>
    <_>
      <internalNodes>
        0 -1 288 1260404236 89175436 -1010205630 2045885632 -1944582462
        -1272858066 -2059588084 1476569314</internalNodes>
      <leafValues>
        -1.2403933703899384e-01 5.6374534964561462e-02</leafValues></_>
    <_>
      <internalNodes>
        0 -1 306 467914897 243523383 955126367 1121466804 1013820718
        762212125 668173335 -1999700543</internalNodes>
      <leafValues>
        -8.6236260831356049e-02 8.6478181183338165e-02</leafValues></_>
    <_>
      <internalNodes>
        0 -1 226 -660604001 -3801121 1693775742 -805569023 -319034857
        156356665 -227757731 -471602833</internalNodes>
      <leafValues>
        -4.1463520377874374e-02 1.6794411838054657e-01</leafValues></_>
    <_>
      <internalNodes>
        0 -1 440 -2105532416 1801326601 -931378708 47716656 -1294932952
        -96292092 -1811249501 36741196</internalNodes>
      <leafValues>
        -1.5765458345413208e-01 4.4503033161163330e-02</leafValues></_>
    <_>
      <internalNodes>
        0 -1 405 1901932007 -886126515 -928506913 -6801950 -917252344
        -438143416 -1130299710 -118521891</internalNodes>
      <leafValues>
        -6.2297746539115906e-02 1.1189037561416626e-01</leafValues></_>
    <_>
      <internalNodes>
        0 -1 427 -669537074 -1656504799 -1518634627 -1621443038
        2105265795 -881181717 -2075521394 -34611225</internalNodes>
      <leafValues>
        -5.3508084267377853e-02 1.2909789383411407e-01</leafValues></_>
    <_>
      <internalNodes>
        0 -1 250 -729029679 -1655395011 -445264110 1241406821 -994737189
        -381923280 -1711898948 -69369857</internalNodes>
      <leafValues>
        -5.4189730435609818e-02 1.3119311630725861e-01</leafValues></_>
    <_>
      <internalNodes>
        0 -1 179 550644272 196625528 -1475179975 1300281040 705964568
        681775958 1777926934 1179648097</internalNodes>
      <leafValues>
        -1.6932070255279541e-01 4.1478775441646576e-02</leafValues></_>
    <_>
      <internalNodes>
        0 -1 57 1324887840 351026698 171182544 264578599 -1307825062
        -697112647 19031853 1171014032</internalNodes>
      <leafValues>
        -1.4240927994251251e-01 5.1610872149467468e-02</leafValues></_>
    <_>
      <internalNodes>
        0 -1 34 173018112 1080314526 -1899860412 1689264750 1143220821
        1614817076 608032768 72655392</internalNodes>
      <leafValues>
        -2.3843465745449066e-01 3.0148580670356750e-02</leafValues></_>
    <_>
      <internalNodes>
        0 -1 284 -312921231 492516858 1682906929 -1146671388 -276368770
        -1633748138 1809784569 -23334181</internalNodes>
      <leafValues>
        -5.3311295807361603e-02 1.3409414887428284e-01</leafValues></_>
    <_>
      <internalNodes>
        0 -1 116 -136842761 -36274697 -338554913 -1152008211 -143528505
        -356607156 -33838633 -1074135042</internalNodes>
      <leafValues>
        -3.4499716013669968e-02 2.0296610891819000e-01</leafValues></_>
    <_>
      <internalNodes>
        0 -1 131 4424228 -1533779634 150515876 1450655789 842017811
        959777036 752222965 1835672596</internalNodes>
      <leafValues>
        -1.4852251112461090e-01 4.7056511044502258e-02</leafValues></_>
    <_>
      <internalNodes>
        0 -1 264 1534716351 -1394829260 729672666 50067486 1923695791
        -1029883913 -622202929 1618700963</internalNodes>
      <leafValues>
        -6.2648557126522064e-02 1.1252835392951965e-01</leafValues></_>
    <_>
      <internalNodes>
        0 -1 324 1511139043 -1968395441 237334012 -1920964716
        -1146036772 -1097547916 658439035 -1380940795</internalNodes>
      <leafValues>
        -8.7314195930957794e-02 8.5396274924278259e-02</leafValues></_>
    <_>
      <internalNodes>
        0 -1 200 -1720719881 -202393938 -329557063 2132667987 2019536814
        -609198884 -1431635747 -526954</internalNodes>
      <leafValues>
        -4.2639415711164474e-02 1.6697645187377930e-01</leafValues></_>
    <_>
      <internalNodes>
        0 -1 281 2021047287 -965425283 -988946737 -6995291 -1583041058
        -147002972 -8455506 -20381030</internalNodes>
      <leafValues>
        -5.0646789371967316e-02 1.4404542744159698e-01</leafValues></_>
    <_>
      <internalNodes>
        0 -1 371 -631411323 -100452295 1953255345 -878234437 -302142442
        -184050274 -1179745119 -1617968374</internalNodes>
      <leafValues>
        -6.8431623280048370e-02 1.0755401849746704e-01</leafValues></_>
    <_>
      <internalNodes>
        0 -1 367 -401832836 1230037566 1005898772 101761080 1835871324
        769981416 23735348 637558864</internalNodes>
      <leafValues>
        -1.8842861056327820e-01 3.8798477500677109e-02</leafValues></_>
    <_>
      <internalNodes>
        0 -1 411 -1152394049 1118059071 1192206047 -718024953
        -2022706226 -617886493 -746596193 -1049857</internalNodes>
      <leafValues>
        -3.7125803530216217e-02 2.0202013850212097e-01</leafValues></_>
    <_>
      <internalNodes>
        0 -1 63 -893245870 -1800758654 1479413064 807480412 -1711232444
        726621242 -731831933 39152983</internalNodes>
      <leafValues>
        -1.3818602263927460e-01 5.2635248750448227e-02</leafValues></_>
    <_>
      <internalNodes>
        0 -1 106 -1328295527 2119805711 -620983395 -7669423 -214242526
        -166845772 -90061918 -46477337</internalNodes>
      <leafValues>
        -5.2000302821397781e-02 1.3798141479492188e-01</leafValues></_>
    <_>
      <internalNodes>
        0 -1 461 421575825 -1305938996 -1623894846 -1548165295 598322737
        -5101079 1469335933 -845154083</internalNodes>
      <leafValues>
        -8.9245311915874481e-02 8.1243701279163361e-02</leafValues></_>
    <_>
      <internalNodes>
        0 -1 244 -953719393 -1339003455 1015917655 -102261095 -80372049
        -469945411 -1179189302 -2379377</internalNodes>
      <leafValues>
        -4.7682791948318481e-02 1.5723949670791626e-01</leafValues></_>
    <_>
      <internalNodes>
        0 -1 163 898404544 832061463 53820942 -1942213947 1069685822
        1831775118 -1276436843 1739861185</internalNodes>
      <leafValues>
        -1.2863981723785400e-01 5.7683225721120834e-02</leafValues></_>
    <_>
      <internalNodes>
        0 -1 459 2064383735 1531570173 1349882965 -136981522 -1810117145
        -1418945 -648198741 -255009302</internalNodes>
      <leafValues>
        -4.9670126289129257e-02 1.4253331720829010e-01</leafValues></_>
    <_>
      <internalNodes>
        0 -1 184 -33624873 -113850665 -395024197 -643990045 -1373769820
        -1078203084 -286991381 -69206017</internalNodes>
      <leafValues>
        -3.6052826792001724e-02 1.9610868394374847e-01</leafValues></_>
    <_>
      <internalNodes>
        0 -1 133 -767522064 1927114534 649383798 726690101 441002212
        1022717767 904079850 1388115885</internalNodes>
      <leafValues>
        -1.0257142782211304e-01 6.8914882838726044e-02</leafValues></_>
    <_>
      <internalNodes>
        0 -1 308 1313072 344462388 159976176 445124096 1069050884
        -1141502952 969991188 671090948</internalNodes>
      <leafValues>
        -3.0426001548767090e-01 2.3138705641031265e-02</leafValues></_>
    <_>
      <internalNodes>
        0 -1 317 -9437289 -867308605 2132288991 -158343377 -1940669257
        479706524 -1118059353 -788535825</internalNodes>
      <leafValues>
        -3.8466282188892365e-02 2.0450602471828461e-01</leafValues></_>
    <_>
      <internalNodes>
        0 -1 134 1295796917 497322108 2109928473 -1413691043 -572520360
        -520984572 119212597 -672599416</internalNodes>
      <leafValues>
        -9.4547294080257416e-02 7.7950783073902130e-02</leafValues></_></weakClassifiers></stage13>
</opencv_storage>
