<?xml version="1.0"?>
<opencv_storage>
<stage1>
  <maxWeakCount>31</maxWeakCount>
  <stageThreshold>-1.9513374567031860e+00</stageThreshold>
  <weakClassifiers>
    <_>
      <internalNodes>
        0 -1 87 -9437186 -69282340 -755303684 -4656062 -131588 -75182400
        -122819862 -3153270</internalNodes>
      <leafValues>
        -6.6118580102920532e-01 4.4608648866415024e-02</leafValues></_>
    <_>
      <internalNodes>
        0 -1 192 -721358640 -581922088 1342177424 -721315724 -83837192
        940617908 672180410 285839530</internalNodes>
      <leafValues>
        -4.8220512270927429e-01 1.9301179051399231e-01</leafValues></_>
    <_>
      <internalNodes>
        0 -1 61 -796997382 -769513974 -2112862148 453116930 -699775864
        1074790724 -1039875686 -5510437</internalNodes>
      <leafValues>
        -2.3897698521614075e-01 3.3642733097076416e-01</leafValues></_>
    <_>
      <internalNodes>
        0 -1 232 -1073577984 -796917758 546836540 285212672 -2112847736
        143919392 -1945583446 -2138341237</internalNodes>
      <leafValues>
        -2.6017808914184570e-01 2.6821208000183105e-01</leafValues></_>
    <_>
      <internalNodes>
        0 -1 472 -244850688 -1858500608 1612988464 -248130404
        -1815306112 10223872 -2136828792 -1581516129</internalNodes>
      <leafValues>
        -2.0873121917247772e-01 3.0796167254447937e-01</leafValues></_>
    <_>
      <internalNodes>
        0 -1 217 -655358724 -579834560 -2060267524 1562397750 -868482920
        -112195464 286268568 -83224550</internalNodes>
      <leafValues>
        -2.0027041435241699e-01 2.8590080142021179e-01</leafValues></_>
    <_>
      <internalNodes>
        0 -1 474 -9969648 845185424 -991405927 -1859780528 145788088
        -2012175760 -866041720 -71308801</internalNodes>
      <leafValues>
        -1.8538482487201691e-01 2.8887331485748291e-01</leafValues></_>
    <_>
      <internalNodes>
        0 -1 29 -895303430 1522663600 -1563884333 1459653408 1350796723
        1324613664 -488317992 -69240717</internalNodes>
      <leafValues>
        -2.0571208000183105e-01 2.6001560688018799e-01</leafValues></_>
    <_>
      <internalNodes>
        0 -1 154 -939482880 -803205824 -1992765156 -585038718 572038056
        -1094711168 -415638102 -1727527920</internalNodes>
      <leafValues>
        -2.0875014364719391e-01 2.2260171175003052e-01</leafValues></_>
    <_>
      <internalNodes>
        0 -1 439 -1140807888 -1207922208 365638897 -1750020072
        -2028077636 -1682786672 795629816 -1180103528</internalNodes>
      <leafValues>
        -2.2811207175254822e-01 1.9959966838359833e-01</leafValues></_>
    <_>
      <internalNodes>
        0 -1 463 -788692992 1901926432 1761622293 1762866713 444392096
        1271959330 -459011350 -1472469265</internalNodes>
      <leafValues>
        -1.9271595776081085e-01 2.2227452695369720e-01</leafValues></_>
    <_>
      <internalNodes>
        0 -1 14 1179920896 -45041645 226502660 -814937522 -544678913
        -11527640 -271832341 1533485730</internalNodes>
      <leafValues>
        -2.4797923862934113e-01 1.7410132288932800e-01</leafValues></_>
    <_>
      <internalNodes>
        0 -1 84 -41981870 -776208266 -2002613192 488244934 -596638720
        1833007616 -975548968 -83689766</internalNodes>
      <leafValues>
        -1.8519623577594757e-01 2.1728608012199402e-01</leafValues></_>
    <_>
      <internalNodes>
        0 -1 100 -427655040 -111124346 67399906 -753953660 -2101692998
        -1530974484 39293165 -204753389</internalNodes>
      <leafValues>
        -1.5853968262672424e-01 2.5432506203651428e-01</leafValues></_>
    <_>
      <internalNodes>
        0 -1 440 -727644158 -111279864 -314818184 1393563042 -1400312136
        -1199556351 1210103210 -2146942906</internalNodes>
      <leafValues>
        -2.0405125617980957e-01 1.7771121859550476e-01</leafValues></_>
    <_>
      <internalNodes>
        0 -1 398 -830998272 -1807420028 113642520 -821528266 1560671384
        361521072 969870232 1769859995</internalNodes>
      <leafValues>
        -2.1241490542888641e-01 1.7177209258079529e-01</leafValues></_>
    <_>
      <internalNodes>
        0 -1 482 -450647008 35827234 489545008 1426448928 -1558735436
        46318233 -1855913840 -616313686</internalNodes>
      <leafValues>
        -1.8905688822269440e-01 1.8153508007526398e-01</leafValues></_>
    <_>
      <internalNodes>
        0 -1 447 -624516608 -595820016 -976249899 -578151422 -620445528
        -1160194238 1241377704 -1689576126</internalNodes>
      <leafValues>
        -1.5640558302402496e-01 2.1346198022365570e-01</leafValues></_>
    <_>
      <internalNodes>
        0 -1 16 -471078161 -209549150 -236059811 -180330270 -1061774418
        -884915538 -15269497 -136612653</internalNodes>
      <leafValues>
        -1.1431124806404114e-01 2.8188735246658325e-01</leafValues></_>
    <_>
      <internalNodes>
        0 -1 208 -658482352 -1823194914 410519697 -779614912 223393272
        -555975446 -1912320456 247989768</internalNodes>
      <leafValues>
        -2.6403027772903442e-01 1.2235240638256073e-01</leafValues></_>
    <_>
      <internalNodes>
        0 -1 31 -923801362 -121997114 -1981619461 -174246042 -668355075
        -761562529 -1023501313 -39083009</internalNodes>
      <leafValues>
        -1.1095174401998520e-01 2.8658589720726013e-01</leafValues></_>
    <_>
      <internalNodes>
        0 -1 286 -796360472 2051688182 227591927 -646802378 1381800666
        -348514770 -850158900 -108890942</internalNodes>
      <leafValues>
        -1.3987715542316437e-01 2.1436092257499695e-01</leafValues></_>
    <_>
      <internalNodes>
        0 -1 411 -580919248 45562416 -706772644 -64753924 361005472
        -1467421984 27726096 682555622</internalNodes>
      <leafValues>
        -2.3239050805568695e-01 1.2913098931312561e-01</leafValues></_>
    <_>
      <internalNodes>
        0 -1 425 -477371902 -669939630 -1638069863 -640679106 181013920
        1558727764 802235594 -1849330922</internalNodes>
      <leafValues>
        -1.6906356811523438e-01 1.7643693089485168e-01</leafValues></_>
    <_>
      <internalNodes>
        0 -1 60 -898202914 1089914102 11308158 1401178862 1285183063
        -1468920254 -159066915 -210246829</internalNodes>
      <leafValues>
        -1.5163634717464447e-01 1.8873375654220581e-01</leafValues></_>
    <_>
      <internalNodes>
        0 -1 483 -1700539647 -2036822448 -481370631 -954437432
        1070307473 349988262 -1954049863 -1645748772</internalNodes>
      <leafValues>
        -1.5444500744342804e-01 1.8630178272724152e-01</leafValues></_>
    <_>
      <internalNodes>
        0 -1 11 1212417692 1053903588 1414583325 -419420496 -825160368
        -915165764 261627370 239147826</internalNodes>
      <leafValues>
        -2.5783047080039978e-01 1.0770772397518158e-01</leafValues></_>
    <_>
      <internalNodes>
        0 -1 375 1224900640 1530227766 2039615163 1936207874 1085115837
        -1820408666 1357142840 828728418</internalNodes>
      <leafValues>
        -2.3381194472312927e-01 1.1651644110679626e-01</leafValues></_>
    <_>
      <internalNodes>
        0 -1 128 1524343922 421137332 -857646841 -7647390 -379800581
        -1025360744 75676382 -287322253</internalNodes>
      <leafValues>
        -1.2165397405624390e-01 2.2074766457080841e-01</leafValues></_>
    <_>
      <internalNodes>
        0 -1 54 -699997954 1962647870 -1396642920 -73997250 72565714
        217431975 -583045156 -758777934</internalNodes>
      <leafValues>
        -1.4427253603935242e-01 1.8357175588607788e-01</leafValues></_>
    <_>
      <internalNodes>
        0 -1 80 1150543894 -769913889 -1156439301 1344415479 1083709444
        -2107375563 1926782000 1428173298</internalNodes>
      <leafValues>
        -2.3969852924346924e-01 1.1020754277706146e-01</leafValues></_></weakClassifiers></stage1>
</opencv_storage>
