<?xml version="1.0"?>
<opencv_storage>
<stage0>
  <maxWeakCount>10</maxWeakCount>
  <stageThreshold>-2.0133440494537354e+00</stageThreshold>
  <weakClassifiers>
    <_>
      <internalNodes>
        0 -1 439 -721356296 -652179344 356536688 -15663024 -2147435336
        -1650416512 -1996439400 -1148518264</internalNodes>
      <leafValues>
        -7.2843331098556519e-01 1.7301763594150543e-01</leafValues></_>
    <_>
      <internalNodes>
        0 -1 16 -2113240576 131072 537657344 352329760 32896 0 65666
        -2096954366</internalNodes>
      <leafValues>
        -6.1737632751464844e-01 2.6194179058074951e-01</leafValues></_>
    <_>
      <internalNodes>
        0 -1 48 -939472168 -584006112 19900 -574618112 100965624
        -605025084 -1358758929 -607452501</internalNodes>
      <leafValues>
        -3.8473826646804810e-01 3.9929643273353577e-01</leafValues></_>
    <_>
      <internalNodes>
        0 -1 461 -1574788096 537002560 119538696 454233632 537570216
        201990824 2097280 -2146828160</internalNodes>
      <leafValues>
        -4.7066360712051392e-01 2.6028844714164734e-01</leafValues></_>
    <_>
      <internalNodes>
        0 -1 469 -670859264 1362165760 545652736 1393847414 1075937280
        268435992 1116168 -2138336117</internalNodes>
      <leafValues>
        -3.4673357009887695e-01 2.9487457871437073e-01</leafValues></_>
    <_>
      <internalNodes>
        0 -1 151 -645231398 -44561352 1080073240 1059200553 -2111827752
        -3140506 942180508 -1157476486</internalNodes>
      <leafValues>
        -2.0292246341705322e-01 3.5504400730133057e-01</leafValues></_>
    <_>
      <internalNodes>
        0 -1 97 -1065189238 1897106057 84934809 486604938 942967274
        -1349244768 141132718 -1077738870</internalNodes>
      <leafValues>
        -2.5254970788955688e-01 2.8744310140609741e-01</leafValues></_>
    <_>
      <internalNodes>
        0 -1 52 -1026629398 -742225366 -2071834720 -748158454 743687884
        -1638853079 -1642397473 -141563321</internalNodes>
      <leafValues>
        -1.7634168267250061e-01 3.5321870446205139e-01</leafValues></_>
    <_>
      <internalNodes>
        0 -1 328 1279264860 -785368248 2075138549 1065354040 743971480
        -862438155 -1235435784 -1156703074</internalNodes>
      <leafValues>
        -2.3242731392383575e-01 2.5385153293609619e-01</leafValues></_>
    <_>
      <internalNodes>
        0 -1 88 -930447164 -584924492 -2086734859 -682790324 -2070314760
        -813133356 -2004434033 -888470324</internalNodes>
      <leafValues>
        -1.8539600074291229e-01 3.0085256695747375e-01</leafValues></_></weakClassifiers></stage0>
</opencv_storage>
