<?xml version="1.0"?>
<opencv_storage>
<stage10>
  <maxWeakCount>100</maxWeakCount>
  <stageThreshold>-1.4537770748138428e+00</stageThreshold>
  <weakClassifiers>
    <_>
      <internalNodes>
        0 -1 283 -853240356 -570664976 -67580419 -82272257 -598419300
        -35722044 -13050374 -6629253</internalNodes>
      <leafValues>
        -5.7346415519714355e-01 -3.9039015769958496e-01</leafValues></_>
    <_>
      <internalNodes>
        0 -1 61 1347877978 -684005697 -2146286850 -635265958 -863316850
        -1071969794 -781722226 -3148069</internalNodes>
      <leafValues>
        -1.4672352373600006e-01 7.2585962712764740e-02</leafValues></_>
    <_>
      <internalNodes>
        0 -1 163 1418498248 1893262334 -1857767250 -584243251 1053002719
        520993164 -1619026289 -2119476</internalNodes>
      <leafValues>
        -1.0230890661478043e-01 1.0557892173528671e-01</leafValues></_>
    <_>
      <internalNodes>
        0 -1 474 -446324364 2137313244 -1540301328 -676067856 -847930224
        -1699682184 -1929100056 -638588161</internalNodes>
      <leafValues>
        -1.0466827452182770e-01 9.5239616930484772e-02</leafValues></_>
    <_>
      <internalNodes>
        0 -1 475 -581180800 -1138836182 -1579350688 -1800874041
        -1376280905 -1850710158 -1968774008 -1595540566</internalNodes>
      <leafValues>
        -4.6147584915161133e-02 1.4552047848701477e-01</leafValues></_>
    <_>
      <internalNodes>
        0 -1 373 -769154368 -1692559736 255589156 -1388472297 -160960072
        -283711080 -862989144 -1351616454</internalNodes>
      <leafValues>
        -9.8976656794548035e-02 8.9491948485374451e-02</leafValues></_>
    <_>
      <internalNodes>
        0 -1 149 -126683457 -573436177 -627935534 2079391946 -479858705
        2113687387 -44851253 -150257061</internalNodes>
      <leafValues>
        -5.9639975428581238e-02 1.4531968533992767e-01</leafValues></_>
    <_>
      <internalNodes>
        0 -1 29 -629766402 1528203186 662259415 -550261088 -266343008
        1593337012 -740961299 -67928453</internalNodes>
      <leafValues>
        -6.7502453923225403e-02 1.2313594669103622e-01</leafValues></_>
    <_>
      <internalNodes>
        0 -1 163 -2091824729 -1080087971 1695607933 389348581 -578651748
        -440485489 2079131360 1176772411</internalNodes>
      <leafValues>
        -8.4928967058658600e-02 9.6592128276824951e-02</leafValues></_>
    <_>
      <internalNodes>
        0 -1 432 -574108193 -537945025 -1658159813 -551729324 -869596977
        -1134725796 -288756993 -1051049</internalNodes>
      <leafValues>
        -4.2590461671352386e-02 2.0153474807739258e-01</leafValues></_>
    <_>
      <internalNodes>
        0 -1 217 -1931798339 2113553703 -541405204 1563024702 1568165392
        -203610032 982015448 -4581368</internalNodes>
      <leafValues>
        -8.7780445814132690e-02 9.0370804071426392e-02</leafValues></_>
    <_>
      <internalNodes>
        0 -1 16 -957683030 -213194142 1631454538 1575905888 -989216838
        -871341281 1929475462 -747150125</internalNodes>
      <leafValues>
        -8.7807424366474152e-02 9.1918826103210449e-02</leafValues></_>
    <_>
      <internalNodes>
        0 -1 479 136265984 68068388 -1750928864 283434612 850096384
        39955440 5185536 4507200</internalNodes>
      <leafValues>
        -2.6831015944480896e-01 2.9325556010007858e-02</leafValues></_>
    <_>
      <internalNodes>
        0 -1 447 -231422336 1012680273 1214582408 1570080512 -1079123547
        903403362 -830615631 -2033700520</internalNodes>
      <leafValues>
        -9.6505768597126007e-02 8.2445666193962097e-02</leafValues></_>
    <_>
      <internalNodes>
        0 -1 341 -373921054 -1712371822 -303279342 -651428358 1364534775
        -115837455 1212226430 -15243755</internalNodes>
      <leafValues>
        -8.3717748522758484e-02 9.8375141620635986e-02</leafValues></_>
    <_>
      <internalNodes>
        0 -1 469 -1191213558 360680941 -1029644206 1346961139 1861459336
        -1149399532 1482005930 -1292124181</internalNodes>
      <leafValues>
        -8.2823596894741058e-02 1.0036417096853256e-01</leafValues></_>
    <_>
      <internalNodes>
        0 -1 461 109220257 580290248 1063546044 -1559638356 603519400
        -1903248535 1593724157 -842213235</internalNodes>
      <leafValues>
        -1.0488860309123993e-01 7.4919976294040680e-02</leafValues></_>
    <_>
      <internalNodes>
        0 -1 113 1041408128 353542410 705434194 -1489580834 1021667132
        -1336371218 1943391481 883535562</internalNodes>
      <leafValues>
        -1.3018913567066193e-01 6.1658255755901337e-02</leafValues></_>
    <_>
      <internalNodes>
        0 -1 170 -535327129 -1176984865 1697174108 1470527400 1100213720
        -1258350938 -607767523 587684809</internalNodes>
      <leafValues>
        -9.0796567499637604e-02 8.8806666433811188e-02</leafValues></_>
    <_>
      <internalNodes>
        0 -1 278 1387133789 2065125077 -1282656563 399435541 -1989109314
        -1378779723 -321611125 -271591550</internalNodes>
      <leafValues>
        -5.3684804588556290e-02 1.5200367569923401e-01</leafValues></_>
    <_>
      <internalNodes>
        0 -1 329 -16377771 -1270284624 1796169273 -1097154115 2069085244
        865871805 1796041741 -1205923677</internalNodes>
      <leafValues>
        -8.1956081092357635e-02 9.8125308752059937e-02</leafValues></_>
    <_>
      <internalNodes>
        0 -1 33 -2012584944 21802560 -2075325404 742903016 -1071932902
        1262398741 -442231679 582214213</internalNodes>
      <leafValues>
        -1.5349604189395905e-01 5.1168706268072128e-02</leafValues></_>
    <_>
      <internalNodes>
        0 -1 119 1517798287 -13334912 -1394708491 -12286290 1685498318
        -4302428 1611958495 -17898818</internalNodes>
      <leafValues>
        -5.9129424393177032e-02 1.3544929027557373e-01</leafValues></_>
    <_>
      <internalNodes>
        0 -1 482 -200950863 187676330 532674483 -1666228421 -352395334
        -1933317190 300916917 -644101957</internalNodes>
      <leafValues>
        -7.0872373878955841e-02 1.0981193929910660e-01</leafValues></_>
    <_>
      <internalNodes>
        0 -1 82 1698737984 10626754 80275627 619225728 760221524
        -506272268 -389655828 1264862030</internalNodes>
      <leafValues>
        -1.5431901812553406e-01 5.0835747271776199e-02</leafValues></_>
    <_>
      <internalNodes>
        0 -1 20 -1843133296 607660306 250717762 68435512 -316259328
        2111470805 1196763157 577830152</internalNodes>
      <leafValues>
        -1.6928720474243164e-01 4.5426838099956512e-02</leafValues></_>
    <_>
      <internalNodes>
        0 -1 476 1196081663 -1236799809 -1354844809 2039283391
        1369161883 -1271518378 -1967185477 -18877765</internalNodes>
      <leafValues>
        -4.5951846987009048e-02 1.6786687076091766e-01</leafValues></_>
    <_>
      <internalNodes>
        0 -1 448 -571888495 432637220 503224073 -44808704 -328788090
        -365058321 -295649621 -75085881</internalNodes>
      <leafValues>
        -6.3583038747310638e-02 1.2120315432548523e-01</leafValues></_>
    <_>
      <internalNodes>
        0 -1 130 -1440695132 -2097142560 35976310 -387629487 1208230292
        2081691205 2006992808 962670980</internalNodes>
      <leafValues>
        -1.4722004532814026e-01 5.1160972565412521e-02</leafValues></_>
    <_>
      <internalNodes>
        0 -1 335 1888887362 1128088296 356431402 -610133001 1315307804
        -353645923 2095526598 1229202738</internalNodes>
      <leafValues>
        -1.3058114051818848e-01 5.8214087039232254e-02</leafValues></_>
    <_>
      <internalNodes>
        0 -1 39 2045508431 1001703803 1039925293 -1215237026 905372148
        1419158451 2141961195 1673646838</internalNodes>
      <leafValues>
        -7.0047825574874878e-02 1.1039606481790543e-01</leafValues></_>
    <_>
      <internalNodes>
        0 -1 237 -1059528598 1740552023 1701059256 -1432931721
        1560183369 -840110639 -1330341319 -229907574</internalNodes>
      <leafValues>
        -8.7715603411197662e-02 9.1306425631046295e-02</leafValues></_>
    <_>
      <internalNodes>
        0 -1 112 -479329132 364121720 446750244 1963260468 -901376606
        -1411871039 2022567844 -1296797888</internalNodes>
      <leafValues>
        -9.9266082048416138e-02 8.1406995654106140e-02</leafValues></_>
    <_>
      <internalNodes>
        0 -1 70 -1503400337 916642505 709248578 1746979494 1174688753
        -712137409 -1343853274 -463151509</internalNodes>
      <leafValues>
        -1.0318677872419357e-01 7.2567686438560486e-02</leafValues></_>
    <_>
      <internalNodes>
        0 -1 90 993068568 329207380 -1972472643 1131752140 1700211826
        1299238261 -269431132 761536546</internalNodes>
      <leafValues>
        -1.3870362937450409e-01 5.4157175123691559e-02</leafValues></_>
    <_>
      <internalNodes>
        0 -1 167 -523261634 -96616786 553069914 -171003765 1518094559
        -1366209294 997203135 -66193957</internalNodes>
      <leafValues>
        -6.4183861017227173e-02 1.2017764151096344e-01</leafValues></_>
    <_>
      <internalNodes>
        0 -1 84 1820205124 -870580192 -1637681968 503871436 2104640588
        1288075828 -298957292 504527418</internalNodes>
      <leafValues>
        -1.6832779347896576e-01 4.5075975358486176e-02</leafValues></_>
    <_>
      <internalNodes>
        0 -1 210 -293356585 1574231988 1501597916 -137499749 -1510701201
        435803549 -419552805 -1152405364</internalNodes>
      <leafValues>
        -5.9985984116792679e-02 1.2613077461719513e-01</leafValues></_>
    <_>
      <internalNodes>
        0 -1 213 -1766608446 1454415174 -1658419127 -1932667164
        -101917376 1329052592 -1565553151 38237259</internalNodes>
      <leafValues>
        -1.2694753706455231e-01 6.1429005116224289e-02</leafValues></_>
    <_>
      <internalNodes>
        0 -1 414 337643680 1207967152 -1103562888 79704944 1543592968
        -1730117687 169974880 134223888</internalNodes>
      <leafValues>
        -2.3332050442695618e-01 3.3336188644170761e-02</leafValues></_>
    <_>
      <internalNodes>
        0 -1 462 -54587390 -168024481 955930911 1568463736 2016914448
        -624132294 -1380853574 -1305285686</internalNodes>
      <leafValues>
        -8.8532656431198120e-02 8.8146597146987915e-02</leafValues></_>
    <_>
      <internalNodes>
        0 -1 73 -1704848076 1123205650 776490526 -697055589 710176146
        1826553215 -2050562794 -609891389</internalNodes>
      <leafValues>
        -9.8449811339378357e-02 7.9764761030673981e-02</leafValues></_>
    <_>
      <internalNodes>
        0 -1 313 -928450771 -2076901644 -404745668 -278651214 1682731773
        -1665630432 -1192742228 -831202884</internalNodes>
      <leafValues>
        -9.6903383731842041e-02 8.5897758603096008e-02</leafValues></_>
    <_>
      <internalNodes>
        0 -1 260 2005122799 -651759887 -332223276 -580451005 991011583
        -2044419 1859411949 -1611724234</internalNodes>
      <leafValues>
        -6.0807872563600540e-02 1.3102537393569946e-01</leafValues></_>
    <_>
      <internalNodes>
        0 -1 47 68027984 -1734554447 2043890815 -1514863560 -651942652
        1201036372 1757372164 1889865160</internalNodes>
      <leafValues>
        -1.3468994200229645e-01 5.7024247944355011e-02</leafValues></_>
    <_>
      <internalNodes>
        0 -1 328 -1902822563 1479813944 767401438 518533432 1981334520
        -808047125 -1109877176 -1687216161</internalNodes>
      <leafValues>
        -7.8511349856853485e-02 9.9850557744503021e-02</leafValues></_>
    <_>
      <internalNodes>
        0 -1 261 -201330309 -1758420069 1167487810 -1078602887 132640691
        -102201676 -153309970 -1096024343</internalNodes>
      <leafValues>
        -5.2098575979471207e-02 1.4706908166408539e-01</leafValues></_>
    <_>
      <internalNodes>
        0 -1 158 -762800379 -772650243 940457843 2108760951 -1997290598
        -36286530 2011769306 -68735544</internalNodes>
      <leafValues>
        -5.9722363948822021e-02 1.2640635669231415e-01</leafValues></_>
    <_>
      <internalNodes>
        0 -1 460 -1573582845 1745098992 -711032768 -431163928
        -2063586828 -1485715628 1159013777 222609992</internalNodes>
      <leafValues>
        -1.4037430286407471e-01 5.4849039763212204e-02</leafValues></_>
    <_>
      <internalNodes>
        0 -1 459 -2095897597 190156596 1093490693 1982634348 539511854
        1793725268 969786112 138727138</internalNodes>
      <leafValues>
        -1.3051722943782806e-01 5.9565633535385132e-02</leafValues></_>
    <_>
      <internalNodes>
        0 -1 332 -382226701 2049279720 -313181327 -305248151 928490491
        -285463089 -42612762 -808593442</internalNodes>
      <leafValues>
        -5.1799766719341278e-02 1.5492422878742218e-01</leafValues></_>
    <_>
      <internalNodes>
        0 -1 376 279223440 -147278183 -203200135 358452968 817742074
        -1208078576 628196596 146086408</internalNodes>
      <leafValues>
        -1.4927852153778076e-01 5.5219717323780060e-02</leafValues></_>
    <_>
      <internalNodes>
        0 -1 27 186458628 -1571524552 546570252 516217406 -1835070096
        1884685089 752944486 370676488</internalNodes>
      <leafValues>
        -1.9470889866352081e-01 4.0746558457612991e-02</leafValues></_>
    <_>
      <internalNodes>
        0 -1 209 -275795243 -36406835 758923259 -1287285435 -1116271443
        -118452572 -879625233 -1350657861</internalNodes>
      <leafValues>
        -4.5119341462850571e-02 1.8457466363906860e-01</leafValues></_>
    <_>
      <internalNodes>
        0 -1 255 349962842 507002278 -521102400 109404715 -879280182
        1414924074 1054375072 80498787</internalNodes>
      <leafValues>
        -1.4301840960979462e-01 5.5958114564418793e-02</leafValues></_>
    <_>
      <internalNodes>
        0 -1 123 1273667800 -2050563198 -2028851264 94714428 629967112
        1480897289 -978287550 166252513</internalNodes>
      <leafValues>
        -1.3964225351810455e-01 5.6302394717931747e-02</leafValues></_>
    <_>
      <internalNodes>
        0 -1 151 1484688435 -394651743 -29514375 255483897 -1792896440
        2130056783 2128670662 -383181502</internalNodes>
      <leafValues>
        -8.4566272795200348e-02 9.2536397278308868e-02</leafValues></_>
    <_>
      <internalNodes>
        0 -1 157 1970773535 1928818419 -1423741699 -575604874 1816892635
        1748581565 -207192127 -92299326</internalNodes>
      <leafValues>
        -4.7734584659337997e-02 1.6456037759780884e-01</leafValues></_>
    <_>
      <internalNodes>
        0 -1 338 -1842228452 1381720810 -1883956474 1397454359
        1510208268 -1116068315 -250699256 -774950742</internalNodes>
      <leafValues>
        -7.9603619873523712e-02 9.8114557564258575e-02</leafValues></_>
    <_>
      <internalNodes>
        0 -1 298 -2114183646 -234878420 -2038560983 1921886754
        -192421550 1673358134 258222292 1816541331</internalNodes>
      <leafValues>
        -1.2869067490100861e-01 6.1271242797374725e-02</leafValues></_>
    <_>
      <internalNodes>
        0 -1 379 -811884105 -646075044 -1098240037 -772129817 -542753
        -1123296083 1723911638 -34932498</internalNodes>
      <leafValues>
        -5.1437646150588989e-02 1.5856803953647614e-01</leafValues></_>
    <_>
      <internalNodes>
        0 -1 353 -1933840930 909395891 2138478791 -1380100505 300562869
        -1586711413 1072075164 -282660689</internalNodes>
      <leafValues>
        -6.8544156849384308e-02 1.1390773206949234e-01</leafValues></_>
    <_>
      <internalNodes>
        0 -1 297 -76000769 -1669314743 -204071416 -1847265446 1883608243
        -252236883 -1401800068 -348178500</internalNodes>
      <leafValues>
        -6.2924265861511230e-02 1.2152049690485001e-01</leafValues></_>
    <_>
      <internalNodes>
        0 -1 272 -378142829 -647062515 -1273176517 -822740264 1022906429
        -1659949539 -1177492368 -336620289</internalNodes>
      <leafValues>
        -5.2900981158018112e-02 1.4492140710353851e-01</leafValues></_>
    <_>
      <internalNodes>
        0 -1 346 67119124 92400756 -1846512087 215786752 1346635788
        -1619516751 -1061937068 704913240</internalNodes>
      <leafValues>
        -2.4418295919895172e-01 3.2294116914272308e-02</leafValues></_>
    <_>
      <internalNodes>
        0 -1 243 -660561 2116484512 -1507488067 -852781224 -25861152
        -1267383347 -193679650 -426516870</internalNodes>
      <leafValues>
        -5.1708091050386429e-02 1.5604269504547119e-01</leafValues></_>
    <_>
      <internalNodes>
        0 -1 439 -115885717 -340218388 -716290321 -5876004 -816759439
        -1678201698 -1342350243 -7430754</internalNodes>
      <leafValues>
        -6.2282100319862366e-02 1.2706030905246735e-01</leafValues></_>
    <_>
      <internalNodes>
        0 -1 327 -142688801 -182458412 -434669803 -282239721 -721463403
        -292946324 -41420149 -269511037</internalNodes>
      <leafValues>
        -4.2945209890604019e-02 1.8311409652233124e-01</leafValues></_>
    <_>
      <internalNodes>
        0 -1 395 -627840333 -281284997 -321510377 -211896468 -839066177
        -306404684 -827932769 -101718325</internalNodes>
      <leafValues>
        -4.1408196091651917e-02 1.8973149359226227e-01</leafValues></_>
    <_>
      <internalNodes>
        0 -1 363 -150134167 -598859231 -1503860179 1303933846
        -1201916416 1006026104 803402329 1487761387</internalNodes>
      <leafValues>
        -9.2085763812065125e-02 8.6708456277847290e-02</leafValues></_>
    <_>
      <internalNodes>
        0 -1 192 2063725503 -448588193 1905570783 -169267521 -233073029
        2109192502 -1090814273 -607126621</internalNodes>
      <leafValues>
        -4.1666518896818161e-02 1.9107311964035034e-01</leafValues></_>
    <_>
      <internalNodes>
        0 -1 258 705301008 269747044 -1340077836 745681316 -1171737968
        1850902 636708160 209245184</internalNodes>
      <leafValues>
        -2.2656521201133728e-01 3.6903232336044312e-02</leafValues></_>
    <_>
      <internalNodes>
        0 -1 229 1884917914 -1465002200 -190762249 -1419453459
        1244097748 2076301628 -591350607 -1072889108</internalNodes>
      <leafValues>
        -9.2811688780784607e-02 8.4796778857707977e-02</leafValues></_>
    <_>
      <internalNodes>
        0 -1 358 1610624000 28454434 695610472 -1075257304 1376011281
        1009522389 -1264226943 848306178</internalNodes>
      <leafValues>
        -1.7653331160545349e-01 4.4162515550851822e-02</leafValues></_>
    <_>
      <internalNodes>
        0 -1 316 -1640870347 -1003242226 -574942935 1318083858 407514484
        1583716309 -51106639 72886612</internalNodes>
      <leafValues>
        -1.3660901784896851e-01 6.0582946985960007e-02</leafValues></_>
    <_>
      <internalNodes>
        0 -1 202 -133047457 -542122229 -794758005 -842796341 -997655553
        -44073540 -1132560666 -6310929</internalNodes>
      <leafValues>
        -4.2141169309616089e-02 1.8713857233524323e-01</leafValues></_>
    <_>
      <internalNodes>
        0 -1 271 70251443 -1657397706 -1787474851 -1712543847 946900927
        -91972187 1487597557 -286990435</internalNodes>
      <leafValues>
        -7.1218915283679962e-02 1.1028981953859329e-01</leafValues></_>
    <_>
      <internalNodes>
        0 -1 23 874913888 1712891437 897686703 94412288 1307698452
        1960689592 -1314768704 559957702</internalNodes>
      <leafValues>
        -1.5788428485393524e-01 4.9988552927970886e-02</leafValues></_>
    <_>
      <internalNodes>
        0 -1 31 -933141500 680405574 -1439036382 1681533696 1111561412
        16211479 1620182352 205092</internalNodes>
      <leafValues>
        -2.4458436667919159e-01 3.1356208026409149e-02</leafValues></_>
    <_>
      <internalNodes>
        0 -1 5 -201681157 -751583470 -118005825 1602419641 2070915705
        -69421668 -1141087812 -7901953</internalNodes>
      <leafValues>
        -5.0515688955783844e-02 1.6730567812919617e-01</leafValues></_>
    <_>
      <internalNodes>
        0 -1 241 -117652582 -1849688789 771369592 -1825357881
        -1527513148 -590731796 2126813871 -86248757</internalNodes>
      <leafValues>
        -6.0600854456424713e-02 1.3022918999195099e-01</leafValues></_>
    <_>
      <internalNodes>
        0 -1 381 -279979085 -1302139556 -541951975 998206121 -32948355
        -830869791 -1158945153 -90231665</internalNodes>
      <leafValues>
        -5.2299402654170990e-02 1.5293480455875397e-01</leafValues></_>
    <_>
      <internalNodes>
        0 -1 80 1317177486 -1972985778 -1164548062 270725370 1429360708
        307175685 -60260732 1460681300</internalNodes>
      <leafValues>
        -1.7686912417411804e-01 4.5641005039215088e-02</leafValues></_>
    <_>
      <internalNodes>
        0 -1 69 361772595 926242152 1781464538 791679723 -472906472
        -1477830036 -988612310 -57083318</internalNodes>
      <leafValues>
        -1.0536426305770874e-01 7.9964622855186462e-02</leafValues></_>
    <_>
      <internalNodes>
        0 -1 81 711141760 -1863507414 647611012 572596875 62784791
        1541826135 1870753285 1095065539</internalNodes>
      <leafValues>
        -1.4696270227432251e-01 5.6009564548730850e-02</leafValues></_>
    <_>
      <internalNodes>
        0 -1 214 -1309041505 207906068 -1919596295 1998089157 2122193578
        -21046179 -1681091749 -50145702</internalNodes>
      <leafValues>
        -7.6644010841846466e-02 1.1053373664617538e-01</leafValues></_>
    <_>
      <internalNodes>
        0 -1 286 -492535743 -753171210 -1914165513 1343475031
        -1298482235 -1423153578 2000409122 -1744783478</internalNodes>
      <leafValues>
        -8.5794828832149506e-02 9.8451428115367889e-02</leafValues></_>
    <_>
      <internalNodes>
        0 -1 244 1370932691 -663670793 -561207097 -254040376 -1365268753
        -479287659 -608751270 -283387218</internalNodes>
      <leafValues>
        -5.5917553603649139e-02 1.4360094070434570e-01</leafValues></_>
    <_>
      <internalNodes>
        0 -1 155 7078432 830809360 634764471 27546112 304046224
        -807318343 813212256 393280</internalNodes>
      <leafValues>
        -2.3755688965320587e-01 3.3820360898971558e-02</leafValues></_>
    <_>
      <internalNodes>
        0 -1 166 -232069904 -668589804 2115808308 1401666748 -395730668
        -1402974277 -263122166 -1690371058</internalNodes>
      <leafValues>
        -7.9550541937351227e-02 1.0069102048873901e-01</leafValues></_>
    <_>
      <internalNodes>
        0 -1 96 59375626 14721365 873072244 -1387320344 282242500
        2064453216 897090179 151459332</internalNodes>
      <leafValues>
        -1.6081644594669342e-01 5.0990186631679535e-02</leafValues></_>
    <_>
      <internalNodes>
        0 -1 443 341836376 1829285038 1836593601 107821616 895770748
        -1677975072 682386952 138544384</internalNodes>
      <leafValues>
        -2.3482827842235565e-01 3.3761594444513321e-02</leafValues></_>
    <_>
      <internalNodes>
        0 -1 88 -131825568 -102566272 -2026539962 -672287194 1537050425
        -1658570779 -684340234 -887136040</internalNodes>
      <leafValues>
        -7.9903572797775269e-02 1.0003388673067093e-01</leafValues></_>
    <_>
      <internalNodes>
        0 -1 175 -1718818759 -1067022410 -537018791 1168437891
        2136650921 -778301524 -539396177 -201366726</internalNodes>
      <leafValues>
        -6.7327812314033508e-02 1.2043611705303192e-01</leafValues></_>
    <_>
      <internalNodes>
        0 -1 38 2000741199 2079367483 5852593 -1354774403 1979209199
        208700093 -1151648779 -146961526</internalNodes>
      <leafValues>
        -6.9871887564659119e-02 1.1479832977056503e-01</leafValues></_>
    <_>
      <internalNodes>
        0 -1 154 -1465743232 11736568 724363342 272811074 549168216
        -1899287601 792326688 547366432</internalNodes>
      <leafValues>
        -1.7589823901653290e-01 4.4063206762075424e-02</leafValues></_>
    <_>
      <internalNodes>
        0 -1 351 -738987361 497591774 -1715463699 -282785401 -1219461897
        2060729780 -1124300049 -822319138</internalNodes>
      <leafValues>
        -5.9079177677631378e-02 1.3208533823490143e-01</leafValues></_>
    <_>
      <internalNodes>
        0 -1 52 -688994573 -69751769 -1483850115 -8423825 -404899888
        -75926477 -1074792467 -12588474</internalNodes>
      <leafValues>
        -4.5571170747280121e-02 1.7343515157699585e-01</leafValues></_>
    <_>
      <internalNodes>
        0 -1 19 1644824106 1216760998 682068042 -1373094596 1542409556
        -1245956255 1700021701 1679120051</internalNodes>
      <leafValues>
        -1.7526158690452576e-01 4.3964236974716187e-02</leafValues></_>
    <_>
      <internalNodes>
        0 -1 463 -637670255 -186926793 -1082101741 -200542438 325424116
        -237906528 -1937494309 683145119</internalNodes>
      <leafValues>
        -7.2873257100582123e-02 1.0805962234735489e-01</leafValues></_></weakClassifiers></stage10>
</opencv_storage>
