<?xml version="1.0"?>
<opencv_storage>
<stage19>
  <maxWeakCount>100</maxWeakCount>
  <stageThreshold>-1.4001231193542480e+00</stageThreshold>
  <weakClassifiers>
    <_>
      <internalNodes>
        0 -1 153 -618832910 -67985040 1059380095 -547882569 -1152844805
        -1077892382 -361828885 -611327601</internalNodes>
      <leafValues>
        -5.4213470220565796e-01 -3.7092062830924988e-01</leafValues></_>
    <_>
      <internalNodes>
        0 -1 413 -721430563 -109201189 1843379869 -116926649 -11797879
        -376848705 -90182262 -806359665</internalNodes>
      <leafValues>
        -9.5101267099380493e-02 1.3297602534294128e-01</leafValues></_>
    <_>
      <internalNodes>
        0 -1 217 -580923148 -50691892 -765797384 2066238807 -63255128
        -144814892 -778511206 -14656613</internalNodes>
      <leafValues>
        -8.8056117296218872e-02 8.6378492414951324e-02</leafValues></_>
    <_>
      <internalNodes>
        0 -1 16 -750065110 1531101858 -2051075230 -179329824 -955928656
        -569094012 1380307886 -678988593</internalNodes>
      <leafValues>
        -7.3205143213272095e-02 9.9273987114429474e-02</leafValues></_>
    <_>
      <internalNodes>
        0 -1 469 -641736568 -1854045013 -1608267948 -1111135266
        -564093056 -1199799664 -1065494134 -269502837</internalNodes>
      <leafValues>
        -6.1489216983318329e-02 1.1440607160329819e-01</leafValues></_>
    <_>
      <internalNodes>
        0 -1 474 -563829472 -1581191256 -1464286851 -1725597188
        1531356208 -1470092744 1267890379 436127894</internalNodes>
      <leafValues>
        -1.1660920083522797e-01 6.1401415616273880e-02</leafValues></_>
    <_>
      <internalNodes>
        0 -1 474 725307103 2114782255 -1112286789 1711718907 -1969993073
        1075882101 -1723230636 -31641799</internalNodes>
      <leafValues>
        -1.7134014517068863e-02 1.5897379815578461e-01</leafValues></_>
    <_>
      <internalNodes>
        0 -1 444 -232478314 -571394480 391282026 1534733930 -1314854528
        -39942516 -173741398 -217329533</internalNodes>
      <leafValues>
        -7.6256603002548218e-02 8.9103832840919495e-02</leafValues></_>
    <_>
      <internalNodes>
        0 -1 217 248785179 -605224162 -2027975697 -1910256048 1341746258
        1742065119 1058676529 1221310720</internalNodes>
      <leafValues>
        -5.5997077375650406e-02 1.0779110342264175e-01</leafValues></_>
    <_>
      <internalNodes>
        0 -1 479 -113247965 302900484 -878496984 -225649034 858247882
        -1417281549 1967080198 -231806417</internalNodes>
      <leafValues>
        -8.1735141575336456e-02 8.4935866296291351e-02</leafValues></_>
    <_>
      <internalNodes>
        0 -1 120 -652702416 -711975424 685271476 -574507472 1838721209
        1593494204 -1128168900 1543741082</internalNodes>
      <leafValues>
        -1.0349679738283157e-01 6.3485309481620789e-02</leafValues></_>
    <_>
      <internalNodes>
        0 -1 210 -84368457 1762901939 1463857884 -1176651041 230356991
        1069257325 -270013445 -82857590</internalNodes>
      <leafValues>
        -4.8582918941974640e-02 1.3597749173641205e-01</leafValues></_>
    <_>
      <internalNodes>
        0 -1 373 302691320 -1475374448 -1213206596 -817423745 -998334175
        -281132641 -584087896 1561321627</internalNodes>
      <leafValues>
        -8.7977960705757141e-02 7.2180949151515961e-02</leafValues></_>
    <_>
      <internalNodes>
        0 -1 102 1564872154 421293225 -1640887864 108289044 842907994
        -117102684 -232452612 785819554</internalNodes>
      <leafValues>
        -1.0631347447633743e-01 6.0217499732971191e-02</leafValues></_>
    <_>
      <internalNodes>
        0 -1 29 -140259704 977969810 -1091010603 -545411405 -183521370
        -658405583 -775890276 -537158447</internalNodes>
      <leafValues>
        -6.1924349516630173e-02 1.0522268712520599e-01</leafValues></_>
    <_>
      <internalNodes>
        0 -1 379 132318098 -1932401196 -1617556141 138362794 911680839
        994116024 1892698061 111180768</internalNodes>
      <leafValues>
        -1.2316295504570007e-01 5.2404202520847321e-02</leafValues></_>
    <_>
      <internalNodes>
        0 -1 422 -7885360 -68312141 -46457478 -3439644 -1611412024
        -217065568 -1078788418 -674556597</internalNodes>
      <leafValues>
        -5.4866753518581390e-02 1.2257105857133865e-01</leafValues></_>
    <_>
      <internalNodes>
        0 -1 85 -1009792935 752846468 -262515942 -1607294370 -58994616
        -13348258 -536896513 -277533345</internalNodes>
      <leafValues>
        -8.2182735204696655e-02 7.7772982418537140e-02</leafValues></_>
    <_>
      <internalNodes>
        0 -1 260 -554189905 -1725264205 -1392268256 -553590894
        -1405635794 -319746476 1318863593 -17187075</internalNodes>
      <leafValues>
        -5.4752197116613388e-02 1.1863664537668228e-01</leafValues></_>
    <_>
      <internalNodes>
        0 -1 388 -1568297976 -726949715 1252003972 -744374098 71597722
        2022753964 -1941847544 -196124645</internalNodes>
      <leafValues>
        -8.4682062268257141e-02 7.5222223997116089e-02</leafValues></_>
    <_>
      <internalNodes>
        0 -1 435 1601519603 1450724515 1242855915 -1755035099 2069710322
        -1120266443 1866300687 -1679574405</internalNodes>
      <leafValues>
        -5.9746850281953812e-02 1.0774849355220795e-01</leafValues></_>
    <_>
      <internalNodes>
        0 -1 110 -1972981832 -2036888527 1771045884 -160813403
        1316763838 -122833291 -894267656 -1155522512</internalNodes>
      <leafValues>
        -9.4066098332405090e-02 6.7958086729049683e-02</leafValues></_>
    <_>
      <internalNodes>
        0 -1 482 -1791643422 185259752 1534056817 1309514877 1762956798
        -1529024072 1340576141 -571671315</internalNodes>
      <leafValues>
        -7.8902624547481537e-02 8.4568105638027191e-02</leafValues></_>
    <_>
      <internalNodes>
        0 -1 187 -354825065 -1865091427 -305379825 622737069 734307735
        -69312078 2109987722 -1409370195</internalNodes>
      <leafValues>
        -5.8655463159084320e-02 1.0733932256698608e-01</leafValues></_>
    <_>
      <internalNodes>
        0 -1 440 -1065312256 -648249155 -596054420 1796034846
        -2019763536 -129843420 411748280 -939464106</internalNodes>
      <leafValues>
        -8.7178006768226624e-02 7.1700863540172577e-02</leafValues></_>
    <_>
      <internalNodes>
        0 -1 425 -838670710 -291926818 -1973670773 -624057494
        -1442536308 -1497936756 -1395642633 -1719873382</internalNodes>
      <leafValues>
        -6.8353086709976196e-02 9.3816794455051422e-02</leafValues></_>
    <_>
      <internalNodes>
        0 -1 267 -149433897 1985023295 567483845 -15345669 -2013737227
        -1356899 -153681989 -4208374</internalNodes>
      <leafValues>
        -3.6372121423482895e-02 1.6942852735519409e-01</leafValues></_>
    <_>
      <internalNodes>
        0 -1 108 539230752 229188644 634718824 337719652 -1758054721
        1657899830 1079601204 559948566</internalNodes>
      <leafValues>
        -1.8762341141700745e-01 3.2889928668737411e-02</leafValues></_>
    <_>
      <internalNodes>
        0 -1 27 -637929505 -768412463 615600463 -17302601 -1816133787
        1885250554 2008059887 -88736881</internalNodes>
      <leafValues>
        -4.0016863495111465e-02 1.7996251583099365e-01</leafValues></_>
    <_>
      <internalNodes>
        0 -1 481 -1216351261 -1576864246 1089782786 7339050 573838390
        68138860 1163486288 1905720320</internalNodes>
      <leafValues>
        -1.2146343290805817e-01 5.1204923540353775e-02</leafValues></_>
    <_>
      <internalNodes>
        0 -1 169 -700194309 -1250046815 972406717 -605685898 -1618631397
        -1141321811 -20513838 -616841576</internalNodes>
      <leafValues>
        -4.5001599937677383e-02 1.3983640074729919e-01</leafValues></_>
    <_>
      <internalNodes>
        0 -1 182 474515968 -1013076335 -491779990 1864647736 -989990088
        2145782180 -1246381184 -1639345904</internalNodes>
      <leafValues>
        -1.1323328316211700e-01 5.5179499089717865e-02</leafValues></_>
    <_>
      <internalNodes>
        0 -1 105 -571398509 434318360 -222231624 -2953368 -1815756789
        689874454 -51978710 1841257552</internalNodes>
      <leafValues>
        -7.1681633591651917e-02 9.3340240418910980e-02</leafValues></_>
    <_>
      <internalNodes>
        0 -1 328 201590856 135278088 1773672792 142606624 1276116992
        1128064481 500743216 134217728</internalNodes>
      <leafValues>
        -3.3391100168228149e-01 1.8365118652582169e-02</leafValues></_>
    <_>
      <internalNodes>
        0 -1 367 -1466702738 -502242246 -1680037932 472958106
        -1947102756 1281670096 -1519473466 596015290</internalNodes>
      <leafValues>
        -1.0143556445837021e-01 6.1760444194078445e-02</leafValues></_>
    <_>
      <internalNodes>
        0 -1 7 138674184 46312600 -2003553952 139699916 606025472
        1524932160 1656097616 5339136</internalNodes>
      <leafValues>
        -2.1973121166229248e-01 2.7562206611037254e-02</leafValues></_>
    <_>
      <internalNodes>
        0 -1 262 -551707649 -1246239128 -743842853 -943199021
        -1002721653 -144458262 -17843091 -72616449</internalNodes>
      <leafValues>
        -3.6659885197877884e-02 1.7656379938125610e-01</leafValues></_>
    <_>
      <internalNodes>
        0 -1 364 -1588159271 961637469 398655077 454914881 -1809255980
        406063099 1295092248 239110616</internalNodes>
      <leafValues>
        -1.0039619356393814e-01 6.5895691514015198e-02</leafValues></_>
    <_>
      <internalNodes>
        0 -1 177 -344870882 1915946978 -1206351247 -1347906698
        -596867435 -593604859 -1164010522 -16884757</internalNodes>
      <leafValues>
        -6.3148595392704010e-02 9.7546488046646118e-02</leafValues></_>
    <_>
      <internalNodes>
        0 -1 223 207520982 1350822478 -1106520094 216866438 746358318
        468192631 241969324 1881687483</internalNodes>
      <leafValues>
        -1.0940741747617722e-01 5.7365901768207550e-02</leafValues></_>
    <_>
      <internalNodes>
        0 -1 142 -3409305 431710610 -1900800047 2004840856 -506286117
        -1396998526 -705914106 -640459021</internalNodes>
      <leafValues>
        -5.3177218884229660e-02 1.2622922658920288e-01</leafValues></_>
    <_>
      <internalNodes>
        0 -1 327 -688026187 -447225454 -445420283 1052106197 -713800576
        -1799569963 1026022177 -1699751511</internalNodes>
      <leafValues>
        -6.3544638454914093e-02 1.0467225313186646e-01</leafValues></_>
    <_>
      <internalNodes>
        0 -1 93 164352 685911616 -1468783100 478473314 -364371931
        -322632031 109716116 67151169</internalNodes>
      <leafValues>
        -1.9904863834381104e-01 3.1428571790456772e-02</leafValues></_>
    <_>
      <internalNodes>
        0 -1 256 -553789995 -695897642 -346132995 -43519121 -38800199
        -1093566520 768522943 -1164011268</internalNodes>
      <leafValues>
        -3.6138918250799179e-02 1.7990662157535553e-01</leafValues></_>
    <_>
      <internalNodes>
        0 -1 242 -126809027 -541416161 -928346251 -655238330 1876770138
        -496618474 1152464556 -137961073</internalNodes>
      <leafValues>
        -5.8497313410043716e-02 1.0926093906164169e-01</leafValues></_>
    <_>
      <internalNodes>
        0 -1 269 -401102078 1930704518 590145892 219681907 59124117
        -1444289803 255047849 515226350</internalNodes>
      <leafValues>
        -1.0074416548013687e-01 6.6137380897998810e-02</leafValues></_>
    <_>
      <internalNodes>
        0 -1 189 1617431568 -1603626200 -447460636 -1128708987 479468680
        591038324 486575558 1249520212</internalNodes>
      <leafValues>
        -1.5259598195552826e-01 3.9983469992876053e-02</leafValues></_>
    <_>
      <internalNodes>
        0 -1 308 -659598405 -557826377 -1683993999 -97938848 -543605570
        -1628123951 -1141320650 -331001917</internalNodes>
      <leafValues>
        -5.5561378598213196e-02 1.1717160046100616e-01</leafValues></_>
    <_>
      <internalNodes>
        0 -1 286 -215112221 1246727797 -1901039945 -607457801
        -1303464762 -206166974 -80231806 -376589617</internalNodes>
      <leafValues>
        -5.1019873470067978e-02 1.2407021969556808e-01</leafValues></_>
    <_>
      <internalNodes>
        0 -1 237 -2137382366 -2054119644 -1251997680 -1681026506
        956203280 -957043583 -2135521739 39857429</internalNodes>
      <leafValues>
        -1.4634469151496887e-01 4.3317440897226334e-02</leafValues></_>
    <_>
      <internalNodes>
        0 -1 168 -24894760 960530694 -1392317252 -441072358 245113304
        986979420 1889596736 978166220</internalNodes>
      <leafValues>
        -1.1355261504650116e-01 5.7775322347879410e-02</leafValues></_>
    <_>
      <internalNodes>
        0 -1 383 -472389925 -78797062 -1309204693 -4740762 -720385137
        -75639049 -707403128 -910166037</internalNodes>
      <leafValues>
        -3.5920388996601105e-02 1.8111856281757355e-01</leafValues></_>
    <_>
      <internalNodes>
        0 -1 344 88875650 1534592642 1515719118 1218482742 1540105224
        424676868 1867514144 571867680</internalNodes>
      <leafValues>
        -1.5844722092151642e-01 3.9099674671888351e-02</leafValues></_>
    <_>
      <internalNodes>
        0 -1 198 1658499959 -1822291818 1900387695 -2638242 802852018
        2140911413 -99103753 -1831417813</internalNodes>
      <leafValues>
        -5.4910659790039062e-02 1.1318418383598328e-01</leafValues></_>
    <_>
      <internalNodes>
        0 -1 76 1442450 1242726402 6450178 33699986 1090535492 101999906
        371480132 4213248</internalNodes>
      <leafValues>
        -2.7872213721275330e-01 2.2392986342310905e-02</leafValues></_>
    <_>
      <internalNodes>
        0 -1 193 -2007874415 155639410 -352616829 1897330821 712149671
        -1112320071 1324969215 -1333569439</internalNodes>
      <leafValues>
        -7.9145178198814392e-02 7.8988462686538696e-02</leafValues></_>
    <_>
      <internalNodes>
        0 -1 28 -223876884 -658194270 817299284 -1056003 -835733995
        -1100479263 -615711777 -409274881</internalNodes>
      <leafValues>
        -5.6325450539588928e-02 1.1301752179861069e-01</leafValues></_>
    <_>
      <internalNodes>
        0 -1 473 1217789961 -2138734288 262830416 760141246 277284376
        74935000 1079523086 212397546</internalNodes>
      <leafValues>
        -1.0912837088108063e-01 5.6517880409955978e-02</leafValues></_>
    <_>
      <internalNodes>
        0 -1 12 201785862 1019306837 575408200 1620313851 677191004
        3447960 1123893660 1983905795</internalNodes>
      <leafValues>
        -1.5635965764522552e-01 4.0091123431921005e-02</leafValues></_>
    <_>
      <internalNodes>
        0 -1 97 1720922873 858491743 1440301051 -525632630 -13407388
        1840692918 1097932449 -544489860</internalNodes>
      <leafValues>
        -6.3590154051780701e-02 9.9269710481166840e-02</leafValues></_>
    <_>
      <internalNodes>
        0 -1 107 275785736 784357126 89835556 -390164222 -1311631151
        970863004 1603752029 379593666</internalNodes>
      <leafValues>
        -1.5277543663978577e-01 4.1579209268093109e-02</leafValues></_>
    <_>
      <internalNodes>
        0 -1 456 -11011073 -12585295 -482214347 -10627061 -890267409
        -72360198 -53756417 -3145841</internalNodes>
      <leafValues>
        -2.4506226181983948e-02 2.6011553406715393e-01</leafValues></_>
    <_>
      <internalNodes>
        0 -1 361 -716665187 2111876970 1032830642 -1527701628 -432186984
        -1936798348 -1497905482 -1162399422</internalNodes>
      <leafValues>
        -7.2550587356090546e-02 8.6519986391067505e-02</leafValues></_>
    <_>
      <internalNodes>
        0 -1 0 -189552909 -159478176 -2026342410 2102695459 -80307083
        -1504792383 -716243211 -588261627</internalNodes>
      <leafValues>
        -5.6839924305677414e-02 1.1221566051244736e-01</leafValues></_>
    <_>
      <internalNodes>
        0 -1 101 -4608065 -18600130 -1902829448 -235720741 -856904773
        -673075006 -303587461 -11107637</internalNodes>
      <leafValues>
        -4.1306532919406891e-02 1.5298369526863098e-01</leafValues></_>
    <_>
      <internalNodes>
        0 -1 145 41494611 450383943 41891945 1081268862 1148822082
        -3921934 -1759915954 1261440769</internalNodes>
      <leafValues>
        -1.0954997688531876e-01 5.6671556085348129e-02</leafValues></_>
    <_>
      <internalNodes>
        0 -1 112 -241181259 1958696731 -1820565865 -42996060 -1250020125
        -572600715 -1198931057 -620843013</internalNodes>
      <leafValues>
        -4.1957058012485504e-02 1.5122717618942261e-01</leafValues></_>
    <_>
      <internalNodes>
        0 -1 266 -321397053 -1114179665 -1930954355 -639440480
        1572285239 -1145788164 -2107011833 -549209825</internalNodes>
      <leafValues>
        -4.8429094254970551e-02 1.2947395443916321e-01</leafValues></_>
    <_>
      <internalNodes>
        0 -1 125 -608044033 -10803053 497376221 -2228869 -39487489
        -1210323065 -1405168265 -263285</internalNodes>
      <leafValues>
        -2.8883095830678940e-02 2.1464723348617554e-01</leafValues></_>
    <_>
      <internalNodes>
        0 -1 41 1937746471 -940118053 1721175319 -33588693 -745116245
        485763140 -539461666 -144197893</internalNodes>
      <leafValues>
        -4.8750538378953934e-02 1.3257195055484772e-01</leafValues></_>
    <_>
      <internalNodes>
        0 -1 139 1915701243 379938441 611239501 1352822702 -541303472
        -1109764524 -1115926561 450656906</internalNodes>
      <leafValues>
        -8.5840694606304169e-02 7.5374193489551544e-02</leafValues></_>
    <_>
      <internalNodes>
        0 -1 205 -734419727 -644207431 958814999 1772613695 -1642687881
        -487002158 834170711 -71748794</internalNodes>
      <leafValues>
        -5.6182369589805603e-02 1.1368352174758911e-01</leafValues></_>
    <_>
      <internalNodes>
        0 -1 338 -1954822697 -539346985 -2011358345 1121838814
        -100289381 -1638634012 558282154 -91622517</internalNodes>
      <leafValues>
        -4.9911815673112869e-02 1.2874223291873932e-01</leafValues></_>
    <_>
      <internalNodes>
        0 -1 22 -101019966 138577482 126116212 893917095 620199379
        -1113175604 -1362690206 1390276663</internalNodes>
      <leafValues>
        -1.0735738277435303e-01 6.2400400638580322e-02</leafValues></_>
    <_>
      <internalNodes>
        0 -1 161 536871936 579618546 268206658 537272768 1230260764
        391686104 1266029640 555753552</internalNodes>
      <leafValues>
        -2.8349229693412781e-01 2.2976482287049294e-02</leafValues></_>
    <_>
      <internalNodes>
        0 -1 229 -1341619836 -1976618838 -1326718832 -274446428
        1846421203 1791652268 933690918 17900132</internalNodes>
      <leafValues>
        -1.2772630155086517e-01 4.9934055656194687e-02</leafValues></_>
    <_>
      <internalNodes>
        0 -1 341 -907576577 2055018408 -885196786 -550519015 -1055576844
        -305463841 1812411350 -1075928066</internalNodes>
      <leafValues>
        -5.3082913160324097e-02 1.2957459688186646e-01</leafValues></_>
    <_>
      <internalNodes>
        0 -1 374 -437387309 -840064082 -1745896901 -1759670573
        -1607811080 -56755676 -588081153 -619515397</internalNodes>
      <leafValues>
        -4.3864272534847260e-02 1.4705297350883484e-01</leafValues></_>
    <_>
      <internalNodes>
        0 -1 2 36048400 589171600 78980733 638932532 -177344916
        653405007 -506709840 1279672836</internalNodes>
      <leafValues>
        -1.6591385006904602e-01 3.8535997271537781e-02</leafValues></_>
    <_>
      <internalNodes>
        0 -1 211 -1689192489 1202710687 2061713595 -1110573173
        1913191858 1861223022 530175471 -1150167079</internalNodes>
      <leafValues>
        -5.2590828388929367e-02 1.2121058255434036e-01</leafValues></_>
    <_>
      <internalNodes>
        0 -1 175 -1037442359 -451788582 1184840703 -318152026 -193071883
        -662909380 -894079282 -36120</internalNodes>
      <leafValues>
        -5.3887192159891129e-02 1.2209187448024750e-01</leafValues></_>
    <_>
      <internalNodes>
        0 -1 241 2040448924 -1778750254 -336910463 -258099506 1594272952
        -1373272987 -1097556825 -1430013229</internalNodes>
      <leafValues>
        -6.4647942781448364e-02 1.0045898705720901e-01</leafValues></_>
    <_>
      <internalNodes>
        0 -1 92 -1541176576 470149220 -163077548 283554312 -607568827
        901376197 -1339676672 77017121</internalNodes>
      <leafValues>
        -1.4553050696849823e-01 4.4663053005933762e-02</leafValues></_>
    <_>
      <internalNodes>
        0 -1 415 1437972981 -33247827 -1194405280 1018035565 1881767825
        -392495603 595570114 -1881365106</internalNodes>
      <leafValues>
        -7.2750307619571686e-02 8.8718526065349579e-02</leafValues></_>
    <_>
      <internalNodes>
        0 -1 439 -787966081 -751588620 -1954658969 2145818684 198786549
        536493974 224185083 -30273</internalNodes>
      <leafValues>
        -5.0229031592607498e-02 1.3920243084430695e-01</leafValues></_>
    <_>
      <internalNodes>
        0 -1 251 -1703612723 -176888787 -624539817 -41783520 -434980933
        575057361 -1091172017 -186074338</internalNodes>
      <leafValues>
        -6.4018286764621735e-02 1.0205270349979401e-01</leafValues></_>
    <_>
      <internalNodes>
        0 -1 316 242478899 -1342982775 -866152055 119358874 -2111234779
        -1921708705 -106320471 2123795</internalNodes>
      <leafValues>
        -9.4621114432811737e-02 6.7183017730712891e-02</leafValues></_>
    <_>
      <internalNodes>
        0 -1 261 -1748097781 -1817137345 -868066812 -297429973
        1104086581 1437927340 -1910724305 1041497955</internalNodes>
      <leafValues>
        -9.2087246477603912e-02 7.0135734975337982e-02</leafValues></_>
    <_>
      <internalNodes>
        0 -1 475 -593496441 -481381494 164582645 1145330649 874032622
        -1242536206 -1695762904 -351274312</internalNodes>
      <leafValues>
        -5.8428149670362473e-02 1.0863274335861206e-01</leafValues></_>
    <_>
      <internalNodes>
        0 -1 77 1357117181 -143703827 -1337394276 1051103367 2082728831
        -1548396075 -757082376 -452024433</internalNodes>
      <leafValues>
        -6.1900079250335693e-02 1.0111899673938751e-01</leafValues></_>
    <_>
      <internalNodes>
        0 -1 207 1237038515 -212376086 -1722619221 2005691297 1445329363
        -319408201 -963428949 -849154599</internalNodes>
      <leafValues>
        -5.3071238100528717e-02 1.2321566045284271e-01</leafValues></_>
    <_>
      <internalNodes>
        0 -1 325 -1970710396 -869252832 -2062468602 -1920300964
        -74035328 599570868 510001985 -1122561509</internalNodes>
      <leafValues>
        -9.5932915806770325e-02 6.7472867667675018e-02</leafValues></_>
    <_>
      <internalNodes>
        0 -1 292 216371434 2080985719 -1579809237 -1065949746 -950218940
        -357259514 1620376040 1916977395</internalNodes>
      <leafValues>
        -9.2618674039840698e-02 7.1671023964881897e-02</leafValues></_>
    <_>
      <internalNodes>
        0 -1 304 -803803627 -1462309775 1909851003 -786329934
        -1900731411 -1768125151 1549813132 -847041453</internalNodes>
      <leafValues>
        -6.9823846220970154e-02 9.5653332769870758e-02</leafValues></_>
    <_>
      <internalNodes>
        0 -1 118 1357968596 1530407318 304222766 -35145182 -1225858790
        -1084479683 -1202676086 -39991217</internalNodes>
      <leafValues>
        -5.8961182832717896e-02 1.0828468203544617e-01</leafValues></_>
    <_>
      <internalNodes>
        0 -1 246 1318105088 418548825 589721808 547033662 -1693441018
        -85242997 -1121158560 1078198600</internalNodes>
      <leafValues>
        -1.5442673861980438e-01 4.2169600725173950e-02</leafValues></_>
    <_>
      <internalNodes>
        0 -1 254 -1214252581 -1750509513 2072442205 -237142037
        -201465700 -48222923 666624413 -269488229</internalNodes>
      <leafValues>
        -4.0221497416496277e-02 1.6117505729198456e-01</leafValues></_>
    <_>
      <internalNodes>
        0 -1 239 -707282953 -196605016 -38057314 1185875677 -568475959
        1543830295 1583747066 -1899327025</internalNodes>
      <leafValues>
        -5.2703250199556351e-02 1.2250705063343048e-01</leafValues></_>
    <_>
      <internalNodes>
        0 -1 247 744451140 809815175 -1533836790 -1839380779 -2118158302
        1704256906 -1422517304 400744776</internalNodes>
      <leafValues>
        -1.2416914105415344e-01 5.3246885538101196e-02</leafValues></_>
    <_>
      <internalNodes>
        0 -1 299 692650528 746889582 746331248 56749804 1088895092
        1847889620 85161372 1349378368</internalNodes>
      <leafValues>
        -1.5459191799163818e-01 4.1614994406700134e-02</leafValues></_></weakClassifiers></stage19>
</opencv_storage>
