<?xml version="1.0"?>
<opencv_storage>
<stage9>
  <maxWeakCount>100</maxWeakCount>
  <stageThreshold>-1.4547952413558960e+00</stageThreshold>
  <weakClassifiers>
    <_>
      <internalNodes>
        0 -1 439 -6029313 -39718660 -570959891 -9000 -1621770247
        -1090603812 -1074012165 -273267</internalNodes>
      <leafValues>
        -5.4970920085906982e-01 -3.1310427188873291e-01</leafValues></_>
    <_>
      <internalNodes>
        0 -1 80 -721421601 -68167057 -124060517 -234686725 -687875890
        -151034540 -17047842 -27001633</internalNodes>
      <leafValues>
        -1.3327489793300629e-01 1.3338036835193634e-01</leafValues></_>
    <_>
      <internalNodes>
        0 -1 14 333258882 1836880789 550576770 -537185537 -1831277114
        1576278537 777628399 -206654469</internalNodes>
      <leafValues>
        -1.2737436592578888e-01 8.9855872094631195e-02</leafValues></_>
    <_>
      <internalNodes>
        0 -1 415 -999834189 -651823169 -1121124878 -122815156 -198444670
        -670441719 312976514 -1081154421</internalNodes>
      <leafValues>
        -8.4229089319705963e-02 1.2341686338186264e-01</leafValues></_>
    <_>
      <internalNodes>
        0 -1 151 1500169693 -44430227 -348896207 184686253 -806879158
        -8514481 -42808484 -16057477</internalNodes>
      <leafValues>
        -9.3425996601581573e-02 1.0929778218269348e-01</leafValues></_>
    <_>
      <internalNodes>
        0 -1 468 -818938872 1409975870 -2130660289 741134526 -584603492
        -1123961353 212400782 1213197451</internalNodes>
      <leafValues>
        -6.6702589392662048e-02 1.3264749944210052e-01</leafValues></_>
    <_>
      <internalNodes>
        0 -1 258 -1102530020 1343564645 -1274757059 -858557771
        -226692478 -1907446721 719580075 75265191</internalNodes>
      <leafValues>
        -1.2477570027112961e-01 7.7143765985965729e-02</leafValues></_>
    <_>
      <internalNodes>
        0 -1 60 -227545345 -203430161 1113114687 -205176090 -683184657
        -110147880 -547488273 -2337</internalNodes>
      <leafValues>
        -3.4518200904130936e-02 2.1469423174858093e-01</leafValues></_>
    <_>
      <internalNodes>
        0 -1 255 -805327109 1572036006 -1057720072 -693244517
        -1818413602 -646045046 -56885593 -271582241</internalNodes>
      <leafValues>
        -5.4843191057443619e-02 1.7632073163986206e-01</leafValues></_>
    <_>
      <internalNodes>
        0 -1 215 1995743191 -1082411899 -189641011 1437715149 1575540116
        -1110260481 -825259383 1334922841</internalNodes>
      <leafValues>
        -6.8700484931468964e-02 1.2116262316703796e-01</leafValues></_>
    <_>
      <internalNodes>
        0 -1 166 -576088511 1501610332 259382356 -604129940 -1474371171
        -118942038 -494956102 -1174675977</internalNodes>
      <leafValues>
        -5.8461569249629974e-02 1.4076837897300720e-01</leafValues></_>
    <_>
      <internalNodes>
        0 -1 8 -1897756937 -1160019716 -1326662723 1065488568 -50876421
        -67138081 -1411504385 -574893325</internalNodes>
      <leafValues>
        -5.8260913938283920e-02 1.4444096386432648e-01</leafValues></_>
    <_>
      <internalNodes>
        0 -1 428 -219748822 505871704 -1488143276 229155616 269318337
        2100317606 -204137689 -287158108</internalNodes>
      <leafValues>
        -1.0318966954946518e-01 8.1131510436534882e-02</leafValues></_>
    <_>
      <internalNodes>
        0 -1 189 608742992 -1473727678 -307228848 -1108314495 483689600
        447271288 216608640 137374288</internalNodes>
      <leafValues>
        -2.0731505751609802e-01 3.9705120027065277e-02</leafValues></_>
    <_>
      <internalNodes>
        0 -1 378 -755818496 1542720518 1989831482 136853613 1437022212
        1857171089 -1475061952 70370534</internalNodes>
      <leafValues>
        -1.8402242660522461e-01 4.5246079564094543e-02</leafValues></_>
    <_>
      <internalNodes>
        0 -1 442 7831962 -37820783 1067003549 -1099112826 -130275925
        -1145718602 1288527037 794993824</internalNodes>
      <leafValues>
        -1.0685037821531296e-01 7.8937083482742310e-02</leafValues></_>
    <_>
      <internalNodes>
        0 -1 211 -691800169 1470827413 -496542529 433191179 -698565189
        -811631878 -646855714 -79052773</internalNodes>
      <leafValues>
        -4.9747269600629807e-02 1.6638907790184021e-01</leafValues></_>
    <_>
      <internalNodes>
        0 -1 86 -823468030 15900926 916507210 -1205303262 1116016208
        996298353 1316310016 -985445325</internalNodes>
      <leafValues>
        -1.7264345288276672e-01 4.8170525580644608e-02</leafValues></_>
    <_>
      <internalNodes>
        0 -1 198 1662007818 1128704308 852754500 -1094419752 623413552
        1053867521 923421214 337444996</internalNodes>
      <leafValues>
        -1.6984678804874420e-01 4.7938507050275803e-02</leafValues></_>
    <_>
      <internalNodes>
        0 -1 458 -716139299 397446460 1600259577 -545232060 146329049
        -1096237964 1595694793 -1384231462</internalNodes>
      <leafValues>
        -9.1585084795951843e-02 9.0454563498497009e-02</leafValues></_>
    <_>
      <internalNodes>
        0 -1 305 -178913317 1492902439 1688664971 -385890605 -166227201
        -541136332 -1258426565 -268707585</internalNodes>
      <leafValues>
        -3.8494866341352463e-02 2.1005591750144958e-01</leafValues></_>
    <_>
      <internalNodes>
        0 -1 284 1633260279 -597756676 1812740731 -1415393061 -297741572
        -1084966428 2019049114 780900827</internalNodes>
      <leafValues>
        -7.0987075567245483e-02 1.1460834741592407e-01</leafValues></_>
    <_>
      <internalNodes>
        0 -1 261 -1602827465 498118527 232921348 260411505 367912951
        932283751 -1965753221 -342132533</internalNodes>
      <leafValues>
        -7.2560057044029236e-02 1.1085408180952072e-01</leafValues></_>
    <_>
      <internalNodes>
        0 -1 348 1574700160 -925853052 -2132931080 -2123698918 482280832
        -1992683676 -1430850828 268453568</internalNodes>
      <leafValues>
        -1.5110702812671661e-01 5.4094057530164719e-02</leafValues></_>
    <_>
      <internalNodes>
        0 -1 178 -476811453 384898127 1985522668 -714376408 -588936217
        1016730597 -1485203064 -646983782</internalNodes>
      <leafValues>
        -7.4894897639751434e-02 1.0982925444841385e-01</leafValues></_>
    <_>
      <internalNodes>
        0 -1 278 1461825887 -649436519 -620185973 -942715115 -1671653476
        -458199052 -291710551 -1366336349</internalNodes>
      <leafValues>
        -5.5840924382209778e-02 1.4041352272033691e-01</leafValues></_>
    <_>
      <internalNodes>
        0 -1 139 -298365265 1537213577 553272924 -1876922880 1296786784
        -2054089130 -1907822613 1380243906</internalNodes>
      <leafValues>
        -1.0576917231082916e-01 7.4785277247428894e-02</leafValues></_>
    <_>
      <internalNodes>
        0 -1 146 -320381573 -544190581 1856987467 -3813693 1942398645
        2088992703 -1210048561 -16038057</internalNodes>
      <leafValues>
        -5.6515324860811234e-02 1.4721214771270752e-01</leafValues></_>
    <_>
      <internalNodes>
        0 -1 75 -79449590 248818378 -964248674 1032427342 -37138115
        1408641830 -358125504 -611473846</internalNodes>
      <leafValues>
        -1.0986649245023727e-01 7.6430730521678925e-02</leafValues></_>
    <_>
      <internalNodes>
        0 -1 323 -529222145 1838129180 1586014973 -1459555231 1077704252
        1848385057 -201187606 1007421610</internalNodes>
      <leafValues>
        -1.0224170237779617e-01 8.2887336611747742e-02</leafValues></_>
    <_>
      <internalNodes>
        0 -1 17 -98385822 -1348295146 861541917 1037371154 1098771854
        -1402304632 -1038858772 -998939048</internalNodes>
      <leafValues>
        -9.7563579678535461e-02 8.1087127327919006e-02</leafValues></_>
    <_>
      <internalNodes>
        0 -1 120 1595672536 1588598928 393232821 -808403448 624687505
        442524548 -1655659992 -1078477159</internalNodes>
      <leafValues>
        -1.0902315378189087e-01 7.7592276036739349e-02</leafValues></_>
    <_>
      <internalNodes>
        0 -1 76 -780694785 -1074034936 1928555147 1903376590 -492873919
        391671143 1609717319 -545921422</internalNodes>
      <leafValues>
        -6.7786209285259247e-02 1.2604308128356934e-01</leafValues></_>
    <_>
      <internalNodes>
        0 -1 43 -219946842 511110810 176040350 -1108715895 926347230
        -1095946795 1790385075 -1094715077</internalNodes>
      <leafValues>
        -7.6898217201232910e-02 1.0357841849327087e-01</leafValues></_>
    <_>
      <internalNodes>
        0 -1 253 -1880915097 415767191 1636140650 -452615068 -818764066
        -1259623388 -460908901 -1545000702</internalNodes>
      <leafValues>
        -8.5367687046527863e-02 9.8481044173240662e-02</leafValues></_>
    <_>
      <internalNodes>
        0 -1 479 -14689917 64679719 -645766603 -588251458 -217680966
        -1569343000 1885315781 -868220946</internalNodes>
      <leafValues>
        -7.0716023445129395e-02 1.1511601507663727e-01</leafValues></_>
    <_>
      <internalNodes>
        0 -1 407 -1891294715 1076747501 878910992 2032934345 256595268
        -368399071 2071150818 1401943620</internalNodes>
      <leafValues>
        -1.0861134529113770e-01 7.4605360627174377e-02</leafValues></_>
    <_>
      <internalNodes>
        0 -1 433 -2005216043 2092578182 -1945832940 1495011497
        1192587253 1040052093 -289103907 -1446157219</internalNodes>
      <leafValues>
        -7.9700775444507599e-02 1.0089623928070068e-01</leafValues></_>
    <_>
      <internalNodes>
        0 -1 233 -966286272 822822419 1576154648 -720332168 -18974019
        -1116189632 -1190609740 1247963586</internalNodes>
      <leafValues>
        -1.0637232661247253e-01 7.5477719306945801e-02</leafValues></_>
    <_>
      <internalNodes>
        0 -1 141 -257690237 -1782266953 753167485 1034025063 -1242239575
        967492221 -317846307 -21158033</internalNodes>
      <leafValues>
        -5.6765973567962646e-02 1.3525113463401794e-01</leafValues></_>
    <_>
      <internalNodes>
        0 -1 200 3286532 1205280 1812482425 983885664 1551675168
        976817908 1074800964 17828884</internalNodes>
      <leafValues>
        -2.4258919060230255e-01 3.2376185059547424e-02</leafValues></_>
    <_>
      <internalNodes>
        0 -1 51 1300415240 -2111954486 1476403672 37812107 38050112
        39792854 1600803849 365396258</internalNodes>
      <leafValues>
        -1.7216978967189789e-01 4.4339828193187714e-02</leafValues></_>
    <_>
      <internalNodes>
        0 -1 345 -38285699 291998374 1694879925 -1181958414 1316773040
        1808842417 1609100731 -832054074</internalNodes>
      <leafValues>
        -6.1104349792003632e-02 1.2959283590316772e-01</leafValues></_>
    <_>
      <internalNodes>
        0 -1 444 -128789805 -574937194 88538461 -45645869 -1332811543
        -1178681612 -898770246 -5245493</internalNodes>
      <leafValues>
        -4.0950194001197815e-02 1.8850712478160858e-01</leafValues></_>
    <_>
      <internalNodes>
        0 -1 289 6291472 154149908 -840939420 275283072 772291860
        -824164472 242746400 203435840</internalNodes>
      <leafValues>
        -3.8740605115890503e-01 2.0580952987074852e-02</leafValues></_>
    <_>
      <internalNodes>
        0 -1 88 -356351822 -657984850 -583142916 -684853379 -1380351942
        -1901101867 -594120097 -1698033643</internalNodes>
      <leafValues>
        -8.2612216472625732e-02 9.5844574272632599e-02</leafValues></_>
    <_>
      <internalNodes>
        0 -1 370 1661596249 1018330481 1836478809 -1354764605 497466811
        935452405 2144349494 -1380111950</internalNodes>
      <leafValues>
        -7.6707080006599426e-02 1.0387390851974487e-01</leafValues></_>
    <_>
      <internalNodes>
        0 -1 106 2140656123 -67528324 374049727 -540444771 -337970187
        -1093958988 -2102869 -136273</internalNodes>
      <leafValues>
        -3.4412492066621780e-02 2.2939111292362213e-01</leafValues></_>
    <_>
      <internalNodes>
        0 -1 436 527713589 -936366675 -1158877967 179338320 -915119072
        -641982756 -1460138796 -1126164204</internalNodes>
      <leafValues>
        -1.3703791797161102e-01 5.9226289391517639e-02</leafValues></_>
    <_>
      <internalNodes>
        0 -1 270 1779952655 -1783886401 1189306903 -805550933 1238285055
        234270267 -67402965 -89654065</internalNodes>
      <leafValues>
        -5.5170986801385880e-02 1.5699939429759979e-01</leafValues></_>
    <_>
      <internalNodes>
        0 -1 324 -648818893 -871583949 -298226626 -293245032 -1741097859
        -1078387884 1042217931 -1172093347</internalNodes>
      <leafValues>
        -6.7645467817783356e-02 1.1832482367753983e-01</leafValues></_>
    <_>
      <internalNodes>
        0 -1 22 -429196222 577383518 797064400 904397408 913645427
        1037323644 1247174932 1995781242</internalNodes>
      <leafValues>
        -1.4190703630447388e-01 5.4929483681917191e-02</leafValues></_>
    <_>
      <internalNodes>
        0 -1 101 169880080 482354099 -1398922498 339027217 209225888
        79235266 1192579544 67375208</internalNodes>
      <leafValues>
        -2.2960217297077179e-01 3.4867111593484879e-02</leafValues></_>
    <_>
      <internalNodes>
        0 -1 194 -703732977 494050593 167012402 -46621760 88795968
        1500982261 -430563676 1215985547</internalNodes>
      <leafValues>
        -8.7365403771400452e-02 9.1039761900901794e-02</leafValues></_>
    <_>
      <internalNodes>
        0 -1 40 1793803808 -324325663 1845363270 2064550498 96734308
        956875109 -973835340 1197675862</internalNodes>
      <leafValues>
        -1.3760533928871155e-01 5.7640757411718369e-02</leafValues></_>
    <_>
      <internalNodes>
        0 -1 199 -555580761 462660690 242319075 -1915507755 -548416354
        -110401493 718269406 -285355269</internalNodes>
      <leafValues>
        -6.0624890029430389e-02 1.3123899698257446e-01</leafValues></_>
    <_>
      <internalNodes>
        0 -1 138 -777996565 -566735942 -399445921 -843065729 1373519861
        -722493013 -770412806 1588270632</internalNodes>
      <leafValues>
        -7.6019428670406342e-02 1.0422620177268982e-01</leafValues></_>
    <_>
      <internalNodes>
        0 -1 450 -104093024 -652581382 -1699080807 1666020337 106796673
        939362290 1761020905 -345557341</internalNodes>
      <leafValues>
        -7.8367836773395538e-02 1.0474664717912674e-01</leafValues></_>
    <_>
      <internalNodes>
        0 -1 321 77606656 1162874180 1455340413 -2074856408 339503476
        -817613880 -1650976740 101715984</internalNodes>
      <leafValues>
        -2.7466222643852234e-01 2.8807953000068665e-02</leafValues></_>
    <_>
      <internalNodes>
        0 -1 245 -57214025 -74039817 -1717989629 -1023180917 -295032409
        -70841264 -1694695843 1943779971</internalNodes>
      <leafValues>
        -6.0445442795753479e-02 1.3145560026168823e-01</leafValues></_>
    <_>
      <internalNodes>
        0 -1 398 251038977 1886927780 -597225669 932411312 788882009
        944938897 1758837660 1945519618</internalNodes>
      <leafValues>
        -1.1067086458206177e-01 7.6823100447654724e-02</leafValues></_>
    <_>
      <internalNodes>
        0 -1 483 -1444890725 94406824 -408032784 -357472152 592706319
        -1497530958 525701529 499113113</internalNodes>
      <leafValues>
        -1.0063280910253525e-01 7.9640962183475494e-02</leafValues></_>
    <_>
      <internalNodes>
        0 -1 256 181216256 112599314 -1487183680 1751826980 15553544
        372268928 -1394864084 34347041</internalNodes>
      <leafValues>
        -2.1419307589530945e-01 3.7394333630800247e-02</leafValues></_>
    <_>
      <internalNodes>
        0 -1 225 2105789570 1590507975 1150590094 291306222 1471240444
        777317030 -427928684 -372797928</internalNodes>
      <leafValues>
        -9.3741267919540405e-02 8.8277786970138550e-02</leafValues></_>
    <_>
      <internalNodes>
        0 -1 384 -858814821 -43215565 487075709 964463214 -1417945461
        -407534161 -847315378 -34743626</internalNodes>
      <leafValues>
        -5.1721222698688507e-02 1.5827719867229462e-01</leafValues></_>
    <_>
      <internalNodes>
        0 -1 168 -1537563048 2068221733 -2136813844 -853388516
        -1886019467 1054288972 1751184508 1775215758</internalNodes>
      <leafValues>
        -1.0922718793153763e-01 7.3148190975189209e-02</leafValues></_>
    <_>
      <internalNodes>
        0 -1 140 -644760641 -537518241 -51098207 -650656973 -333039004
        -369429409 -65750180 -537145649</internalNodes>
      <leafValues>
        -4.8289727419614792e-02 1.7165446281433105e-01</leafValues></_>
    <_>
      <internalNodes>
        0 -1 306 -774138731 244515374 1489386399 -944162635 753837992
        746029037 1002637992 -829043866</internalNodes>
      <leafValues>
        -7.4559569358825684e-02 1.0725725442171097e-01</leafValues></_>
    <_>
      <internalNodes>
        0 -1 74 109453320 640851616 61634600 101595138 1346850560
        253080857 -1941824768 1145361441</internalNodes>
      <leafValues>
        -2.8506150841712952e-01 2.8398456051945686e-02</leafValues></_>
    <_>
      <internalNodes>
        0 -1 364 459371985 -283087681 398597766 -295046751 908284230
        -1621286991 1287006533 161481822</internalNodes>
      <leafValues>
        -1.1649695783853531e-01 7.0928663015365601e-02</leafValues></_>
    <_>
      <internalNodes>
        0 -1 466 -1828743537 -44610437 1620502248 -748430593 1609033416
        -1104118398 -345587734 -76681490</internalNodes>
      <leafValues>
        -5.3295891731977463e-02 1.4978644251823425e-01</leafValues></_>
    <_>
      <internalNodes>
        0 -1 385 1609236738 -2135285189 1269998740 1209710763
        -2037710080 -1623711979 1723152721 77731144</internalNodes>
      <leafValues>
        -1.7079956829547882e-01 4.8044692724943161e-02</leafValues></_>
    <_>
      <internalNodes>
        0 -1 263 -263342787 989724386 -727369347 -271222828 -596801836
        -1120166450 -1007558693 -1423640481</internalNodes>
      <leafValues>
        -5.6284483522176743e-02 1.4549508690834045e-01</leafValues></_>
    <_>
      <internalNodes>
        0 -1 250 -55312745 -563610595 -1585848485 -773661286 -127431014
        -1167270831 1673248509 -208160001</internalNodes>
      <leafValues>
        -4.6512003988027573e-02 1.7155696451663971e-01</leafValues></_>
    <_>
      <internalNodes>
        0 -1 290 -771254827 -689307888 259640127 1775746346 1065126009
        -671886848 1094921125 -87330123</internalNodes>
      <leafValues>
        -6.2546879053115845e-02 1.2649142742156982e-01</leafValues></_>
    <_>
      <internalNodes>
        0 -1 454 -607661097 -1879918925 -1193489433 -672204204
        -231461700 -1629231115 -1362226757 -275781717</internalNodes>
      <leafValues>
        -4.7387298196554184e-02 1.6773952543735504e-01</leafValues></_>
    <_>
      <internalNodes>
        0 -1 143 -136609291 -870389352 -1916507163 -8441979 -432327173
        -556491280 -48783739 -1700941910</internalNodes>
      <leafValues>
        -5.4182179272174835e-02 1.4694121479988098e-01</leafValues></_>
    <_>
      <internalNodes>
        0 -1 337 488950848 1016989414 790253314 1114209119 -465197293
        -429777538 1865313035 23268390</internalNodes>
      <leafValues>
        -1.4232525229454041e-01 5.6727007031440735e-02</leafValues></_>
    <_>
      <internalNodes>
        0 -1 0 -298983390 -320020320 461109814 -581493070 -472216211
        -1393749883 -172673817 -821770815</internalNodes>
      <leafValues>
        -8.9431904256343842e-02 8.7709702551364899e-02</leafValues></_>
    <_>
      <internalNodes>
        0 -1 100 -1736309344 148910922 674542839 1487553213 -678627864
        77078006 -2076719161 -217238517</internalNodes>
      <leafValues>
        -1.0306849330663681e-01 8.1239454448223114e-02</leafValues></_>
    <_>
      <internalNodes>
        0 -1 368 1424824117 -1659882692 1109954472 178415540 305150620
        -406979056 48835408 761537856</internalNodes>
      <leafValues>
        -1.4502857625484467e-01 5.5536519736051559e-02</leafValues></_>
    <_>
      <internalNodes>
        0 -1 246 546820107 343390252 653621482 159897132 -98093278
        -29488566 1580693568 1113426398</internalNodes>
      <leafValues>
        -9.0544737875461578e-02 9.3269966542720795e-02</leafValues></_>
    <_>
      <internalNodes>
        0 -1 117 1118044744 -1770550782 1708195843 1103949998 1717406222
        433922530 1877181842 35651856</internalNodes>
      <leafValues>
        -1.7316639423370361e-01 4.7406729310750961e-02</leafValues></_>
    <_>
      <internalNodes>
        0 -1 125 -91145005 1833478302 297573114 777251023 -132073537
        2001200112 -1371748011 -20385016</internalNodes>
      <leafValues>
        -7.1473449468612671e-02 1.1662496626377106e-01</leafValues></_>
    <_>
      <internalNodes>
        0 -1 377 288360304 741606520 1249162545 1014827568 259094836
        591668976 79464448 459282888</internalNodes>
      <leafValues>
        -2.5181230902671814e-01 3.2031714916229248e-02</leafValues></_>
    <_>
      <internalNodes>
        0 -1 236 -21499585 555268671 -1585859685 -298780630 -90116761
        1321567714 -36331751 2055064139</internalNodes>
      <leafValues>
        -6.6584609448909760e-02 1.2308798730373383e-01</leafValues></_>
    <_>
      <internalNodes>
        0 -1 247 -1200215808 275023384 -2062677100 -539295038
        -1274206304 1589016555 -1976157560 536129752</internalNodes>
      <leafValues>
        -1.2544234097003937e-01 6.7354634404182434e-02</leafValues></_>
    <_>
      <internalNodes>
        0 -1 397 74187776 70994776 769466280 681690146 2118008896
        13753111 885083685 547517184</internalNodes>
      <leafValues>
        -2.5004959106445312e-01 3.2282605767250061e-02</leafValues></_>
    <_>
      <internalNodes>
        0 -1 441 -742934826 -589589594 -42287371 534024110 -657986306
        -92328204 -1812334882 -370251093</internalNodes>
      <leafValues>
        -6.1854410916566849e-02 1.4007747173309326e-01</leafValues></_>
    <_>
      <internalNodes>
        0 -1 422 -33952621 -629636440 1710953815 1945106096 -1218983956
        -2116124 -155787755 -3680310</internalNodes>
      <leafValues>
        -5.2853796631097794e-02 1.6718433797359467e-01</leafValues></_>
    <_>
      <internalNodes>
        0 -1 98 262144 262628440 30443744 313918744 953378128 -136412502
        2084836676 4203236</internalNodes>
      <leafValues>
        -2.5417718291282654e-01 3.1817875802516937e-02</leafValues></_>
    <_>
      <internalNodes>
        0 -1 15 -42207745 -1854481957 122287689 -964235435 -39917127
        -711150554 -1993159411 -1144522441</internalNodes>
      <leafValues>
        -4.4749237596988678e-02 1.8478037416934967e-01</leafValues></_>
    <_>
      <internalNodes>
        0 -1 58 -1600780928 73179252 -1527275424 107260774 957659714
        -77328406 -1007080849 270426114</internalNodes>
      <leafValues>
        -1.8040317296981812e-01 4.6121425926685333e-02</leafValues></_>
    <_>
      <internalNodes>
        0 -1 187 548948996 276358677 629499398 -1491812699 197396866
        523750739 2011133992 553460992</internalNodes>
      <leafValues>
        -1.5876388549804688e-01 5.1952563226222992e-02</leafValues></_>
    <_>
      <internalNodes>
        0 -1 188 -44567553 -392168785 -1278256897 -39332957 -344026103
        -805587101 -407615285 -68197121</internalNodes>
      <leafValues>
        -4.0045864880084991e-02 2.1800360083580017e-01</leafValues></_>
    <_>
      <internalNodes>
        0 -1 84 2090800767 -744619481 -64237321 1497498863 -170769188
        -42308828 -1046583457 -6117701</internalNodes>
      <leafValues>
        -7.4322350323200226e-02 1.2067122012376785e-01</leafValues></_>
    <_>
      <internalNodes>
        0 -1 48 140920136 -1803726334 75917101 -1997538170 33889310
        -1829083337 -1087152320 1079582960</internalNodes>
      <leafValues>
        -1.5016743540763855e-01 5.7005047798156738e-02</leafValues></_>
    <_>
      <internalNodes>
        0 -1 470 2011158931 -65740714 246554331 -818097828 -270008341
        -1109497820 -764596327 -1245269</internalNodes>
      <leafValues>
        -5.4189190268516541e-02 1.6078607738018036e-01</leafValues></_>
    <_>
      <internalNodes>
        0 -1 135 -759802251 336113223 801163352 1039616042 644813750
        1790339817 68800416 449172318</internalNodes>
      <leafValues>
        -9.8559021949768066e-02 8.6840361356735229e-02</leafValues></_>
    <_>
      <internalNodes>
        0 -1 171 -2017450064 -1584385498 -1796628208 769704560
        1715122106 -1997763680 -1035636218 1496802372</internalNodes>
      <leafValues>
        -1.4721408486366272e-01 5.6782472878694534e-02</leafValues></_></weakClassifiers></stage9>
</opencv_storage>
