<?xml version="1.0"?>
<opencv_storage>
<stage18>
  <maxWeakCount>100</maxWeakCount>
  <stageThreshold>-8.1727224588394165e-01</stageThreshold>
  <weakClassifiers>
    <_>
      <internalNodes>
        0 -1 153 -98608174 -738284304 -681289093 -3685959 -1144980485
        -1077105942 1777266155 -808468017</internalNodes>
      <leafValues>
        -5.4410022497177124e-01 -3.7553751468658447e-01</leafValues></_>
    <_>
      <internalNodes>
        0 -1 52 -531963226 -212368974 1149398538 -77369702 1683918318
        1046041619 -701174945 -134514489</internalNodes>
      <leafValues>
        -1.3028541207313538e-01 5.0686426460742950e-02</leafValues></_>
    <_>
      <internalNodes>
        0 -1 465 1798369408 1150336650 1947567994 -1693537767
        -1374665328 -1684599390 -1072433192 52639914</internalNodes>
      <leafValues>
        -1.3603197038173676e-01 5.3080085664987564e-02</leafValues></_>
    <_>
      <internalNodes>
        0 -1 217 -866841356 -587717362 -2028319812 1562401887 -595801928
        -748922640 1427677146 -81781870</internalNodes>
      <leafValues>
        -1.0089293122291565e-01 6.7118875682353973e-02</leafValues></_>
    <_>
      <internalNodes>
        0 -1 411 -1068643138 -1706589382 -950149508 -593237419 -49815092
        700053886 -321420662 -819986709</internalNodes>
      <leafValues>
        -4.5454397797584534e-02 1.2371435761451721e-01</leafValues></_>
    <_>
      <internalNodes>
        0 -1 465 -1809903749 -1644749091 -180992795 2093435030
        1872209179 -136460885 844645619 -19085551</internalNodes>
      <leafValues>
        -4.0510006248950958e-02 1.7276167869567871e-01</leafValues></_>
    <_>
      <internalNodes>
        0 -1 465 1801515148 1141964422 872518426 -2093438435 -1744813936
        412323104 -1006373032 19085550</internalNodes>
      <leafValues>
        -1.5306448936462402e-01 6.0248196125030518e-02</leafValues></_>
    <_>
      <internalNodes>
        0 -1 465 -1801515145 -1074836391 -176274203 -54043950 1744807759
        -402897221 1006374063 -19085475</internalNodes>
      <leafValues>
        -4.8720587044954300e-02 1.7788493633270264e-01</leafValues></_>
    <_>
      <internalNodes>
        0 -1 465 1801515144 1141947046 805409562 54044685 -1744811888
        403933472 -1006374064 19085474</internalNodes>
      <leafValues>
        -1.7537349462509155e-01 5.2510816603899002e-02</leafValues></_>
    <_>
      <internalNodes>
        0 -1 465 -1801515145 -1074836135 -134320923 -54042638 1744811887
        -402889025 1006374063 -19085475</internalNodes>
      <leafValues>
        -5.6643337011337280e-02 1.7467552423477173e-01</leafValues></_>
    <_>
      <internalNodes>
        0 -1 465 1801515144 1074838182 134320922 54044685 -1744811888
        402884864 -1006374064 19085474</internalNodes>
      <leafValues>
        -1.7412310838699341e-01 5.6527487933635712e-02</leafValues></_>
    <_>
      <internalNodes>
        0 -1 465 -1801515145 -1074836135 -134320923 -54042638 1744811887
        -402884865 1006374063 -19085475</internalNodes>
      <leafValues>
        -5.3033053874969482e-02 1.7406080663204193e-01</leafValues></_>
    <_>
      <internalNodes>
        0 -1 465 1801515144 1074836134 134320922 54042637 -1744811888
        402884864 -1006374064 19085474</internalNodes>
      <leafValues>
        -1.7395760118961334e-01 5.3043548017740250e-02</leafValues></_>
    <_>
      <internalNodes>
        0 -1 465 -1801515145 -1074836135 -134320923 -54042638 1744811887
        -402884865 1006374063 -19085475</internalNodes>
      <leafValues>
        -5.1942188292741776e-02 1.7396073043346405e-01</leafValues></_>
    <_>
      <internalNodes>
        0 -1 465 1801515144 1074836134 134320922 54042637 -1744811888
        402884864 -1006374064 19085474</internalNodes>
      <leafValues>
        -1.7396062612533569e-01 5.1945224404335022e-02</leafValues></_>
    <_>
      <internalNodes>
        0 -1 465 -1801515145 -1074836135 -134320923 -54042638 1744811887
        -402884865 1006374063 -19085475</internalNodes>
      <leafValues>
        -5.1945213228464127e-02 1.7396062612533569e-01</leafValues></_>
    <_>
      <internalNodes>
        0 -1 465 1801515144 1074836134 134320922 54042637 -1744811888
        402884864 -1006374064 19085474</internalNodes>
      <leafValues>
        -1.7396062612533569e-01 5.1945213228464127e-02</leafValues></_>
    <_>
      <internalNodes>
        0 -1 465 -1801515145 -1074836135 -134320923 -54042638 1744811887
        -402884865 1006374063 -19085475</internalNodes>
      <leafValues>
        -5.1945213228464127e-02 1.7396062612533569e-01</leafValues></_>
    <_>
      <internalNodes>
        0 -1 465 1801515144 1074836134 134320922 54042637 -1744811888
        402884864 -1006374064 19085474</internalNodes>
      <leafValues>
        -1.7396062612533569e-01 5.1945213228464127e-02</leafValues></_>
    <_>
      <internalNodes>
        0 -1 465 -1801515145 -1074836135 -134320923 -54042638 1744811887
        -402884865 1006374063 -19085475</internalNodes>
      <leafValues>
        -5.1945213228464127e-02 1.7396062612533569e-01</leafValues></_>
    <_>
      <internalNodes>
        0 -1 465 1801515144 1074836134 134320922 54042637 -1744811888
        402884864 -1006374064 19085474</internalNodes>
      <leafValues>
        -1.7396062612533569e-01 5.1945213228464127e-02</leafValues></_>
    <_>
      <internalNodes>
        0 -1 465 -1801515145 -1074836135 -134320923 -54042638 1744811887
        -402884865 1006374063 -19085475</internalNodes>
      <leafValues>
        -5.1945213228464127e-02 1.7396062612533569e-01</leafValues></_>
    <_>
      <internalNodes>
        0 -1 465 1801515144 1074836134 134320922 54042637 -1744811888
        402884864 -1006374064 19085474</internalNodes>
      <leafValues>
        -1.7396062612533569e-01 5.1945213228464127e-02</leafValues></_>
    <_>
      <internalNodes>
        0 -1 465 -1801515145 -1074836135 -134320923 -54042638 1744811887
        -402884865 1006374063 -19085475</internalNodes>
      <leafValues>
        -5.1945213228464127e-02 1.7396062612533569e-01</leafValues></_>
    <_>
      <internalNodes>
        0 -1 465 1801515144 1074836134 134320922 54042637 -1744811888
        402884864 -1006374064 19085474</internalNodes>
      <leafValues>
        -1.7396062612533569e-01 5.1945213228464127e-02</leafValues></_>
    <_>
      <internalNodes>
        0 -1 465 -1801515145 -1074836135 -134320923 -54042638 1744811887
        -402884865 1006374063 -19085475</internalNodes>
      <leafValues>
        -5.1945213228464127e-02 1.7396062612533569e-01</leafValues></_>
    <_>
      <internalNodes>
        0 -1 465 1801515144 1074836134 134320922 54042637 -1744811888
        402884864 -1006374064 19085474</internalNodes>
      <leafValues>
        -1.7396062612533569e-01 5.1945213228464127e-02</leafValues></_>
    <_>
      <internalNodes>
        0 -1 465 -1801515145 -1074836135 -134320923 -54042638 1744811887
        -402884865 1006374063 -19085475</internalNodes>
      <leafValues>
        -5.1945213228464127e-02 1.7396062612533569e-01</leafValues></_>
    <_>
      <internalNodes>
        0 -1 465 1801515144 1074836134 134320922 54042637 -1744811888
        402884864 -1006374064 19085474</internalNodes>
      <leafValues>
        -1.7396062612533569e-01 5.1945213228464127e-02</leafValues></_>
    <_>
      <internalNodes>
        0 -1 465 -1801515145 -1074836135 -134320923 -54042638 1744811887
        -402884865 1006374063 -19085475</internalNodes>
      <leafValues>
        -5.1945213228464127e-02 1.7396062612533569e-01</leafValues></_>
    <_>
      <internalNodes>
        0 -1 465 1801515144 1074836134 134320922 54042637 -1744811888
        402884864 -1006374064 19085474</internalNodes>
      <leafValues>
        -1.7396062612533569e-01 5.1945213228464127e-02</leafValues></_>
    <_>
      <internalNodes>
        0 -1 465 -1801515145 -1074836135 -134320923 -54042638 1744811887
        -402884865 1006374063 -19085475</internalNodes>
      <leafValues>
        -5.1945213228464127e-02 1.7396062612533569e-01</leafValues></_>
    <_>
      <internalNodes>
        0 -1 465 1801515144 1074836134 134320922 54042637 -1744811888
        402884864 -1006374064 19085474</internalNodes>
      <leafValues>
        -1.7396062612533569e-01 5.1945213228464127e-02</leafValues></_>
    <_>
      <internalNodes>
        0 -1 465 -1801515145 -1074836135 -134320923 -54042638 1744811887
        -402884865 1006374063 -19085475</internalNodes>
      <leafValues>
        -5.1945213228464127e-02 1.7396062612533569e-01</leafValues></_>
    <_>
      <internalNodes>
        0 -1 465 1801515144 1074836134 134320922 54042637 -1744811888
        402884864 -1006374064 19085474</internalNodes>
      <leafValues>
        -1.7396062612533569e-01 5.1945213228464127e-02</leafValues></_>
    <_>
      <internalNodes>
        0 -1 465 -1801515145 -1074836135 -134320923 -54042638 1744811887
        -402884865 1006374063 -19085475</internalNodes>
      <leafValues>
        -5.1945213228464127e-02 1.7396062612533569e-01</leafValues></_>
    <_>
      <internalNodes>
        0 -1 465 1801515144 1074836134 134320922 54042637 -1744811888
        402884864 -1006374064 19085474</internalNodes>
      <leafValues>
        -1.7396062612533569e-01 5.1945213228464127e-02</leafValues></_>
    <_>
      <internalNodes>
        0 -1 465 -1801515145 -1074836135 -134320923 -54042638 1744811887
        -402884865 1006374063 -19085475</internalNodes>
      <leafValues>
        -5.1945213228464127e-02 1.7396062612533569e-01</leafValues></_>
    <_>
      <internalNodes>
        0 -1 465 1801515144 1074836134 134320922 54042637 -1744811888
        402884864 -1006374064 19085474</internalNodes>
      <leafValues>
        -1.7396062612533569e-01 5.1945213228464127e-02</leafValues></_>
    <_>
      <internalNodes>
        0 -1 465 -1801515145 -1074836135 -134320923 -54042638 1744811887
        -402884865 1006374063 -19085475</internalNodes>
      <leafValues>
        -5.1945213228464127e-02 1.7396062612533569e-01</leafValues></_>
    <_>
      <internalNodes>
        0 -1 465 1801515144 1074836134 134320922 54042637 -1744811888
        402884864 -1006374064 19085474</internalNodes>
      <leafValues>
        -1.7396062612533569e-01 5.1945213228464127e-02</leafValues></_>
    <_>
      <internalNodes>
        0 -1 465 -1801515145 -1074836135 -134320923 -54042638 1744811887
        -402884865 1006374063 -19085475</internalNodes>
      <leafValues>
        -5.1945213228464127e-02 1.7396062612533569e-01</leafValues></_>
    <_>
      <internalNodes>
        0 -1 465 1801515144 1074836134 134320922 54042637 -1744811888
        402884864 -1006374064 19085474</internalNodes>
      <leafValues>
        -1.7396062612533569e-01 5.1945213228464127e-02</leafValues></_>
    <_>
      <internalNodes>
        0 -1 465 -1801515145 -1074836135 -134320923 -54042638 1744811887
        -402884865 1006374063 -19085475</internalNodes>
      <leafValues>
        -5.1945213228464127e-02 1.7396062612533569e-01</leafValues></_>
    <_>
      <internalNodes>
        0 -1 465 1801515144 1074836134 134320922 54042637 -1744811888
        402884864 -1006374064 19085474</internalNodes>
      <leafValues>
        -1.7396062612533569e-01 5.1945213228464127e-02</leafValues></_>
    <_>
      <internalNodes>
        0 -1 465 -1801515145 -1074836135 -134320923 -54042638 1744811887
        -402884865 1006374063 -19085475</internalNodes>
      <leafValues>
        -5.1945213228464127e-02 1.7396062612533569e-01</leafValues></_>
    <_>
      <internalNodes>
        0 -1 465 1801515144 1074836134 134320922 54042637 -1744811888
        402884864 -1006374064 19085474</internalNodes>
      <leafValues>
        -1.7396062612533569e-01 5.1945213228464127e-02</leafValues></_>
    <_>
      <internalNodes>
        0 -1 465 -1801515145 -1074836135 -134320923 -54042638 1744811887
        -402884865 1006374063 -19085475</internalNodes>
      <leafValues>
        -5.1945213228464127e-02 1.7396062612533569e-01</leafValues></_>
    <_>
      <internalNodes>
        0 -1 465 1801515144 1074836134 134320922 54042637 -1744811888
        402884864 -1006374064 19085474</internalNodes>
      <leafValues>
        -1.7396062612533569e-01 5.1945213228464127e-02</leafValues></_>
    <_>
      <internalNodes>
        0 -1 465 -1801515145 -1074836135 -134320923 -54042638 1744811887
        -402884865 1006374063 -19085475</internalNodes>
      <leafValues>
        -5.1945213228464127e-02 1.7396062612533569e-01</leafValues></_>
    <_>
      <internalNodes>
        0 -1 465 1801515144 1074836134 134320922 54042637 -1744811888
        402884864 -1006374064 19085474</internalNodes>
      <leafValues>
        -1.7396062612533569e-01 5.1945213228464127e-02</leafValues></_>
    <_>
      <internalNodes>
        0 -1 465 -1801515145 -1074836135 -134320923 -54042638 1744811887
        -402884865 1006374063 -19085475</internalNodes>
      <leafValues>
        -5.1945213228464127e-02 1.7396062612533569e-01</leafValues></_>
    <_>
      <internalNodes>
        0 -1 465 1801515144 1074836134 134320922 54042637 -1744811888
        402884864 -1006374064 19085474</internalNodes>
      <leafValues>
        -1.7396062612533569e-01 5.1945213228464127e-02</leafValues></_>
    <_>
      <internalNodes>
        0 -1 465 -1801515145 -1074836135 -134320923 -54042638 1744811887
        -402884865 1006374063 -19085475</internalNodes>
      <leafValues>
        -5.1945213228464127e-02 1.7396062612533569e-01</leafValues></_>
    <_>
      <internalNodes>
        0 -1 465 1801515144 1074836134 134320922 54042637 -1744811888
        402884864 -1006374064 19085474</internalNodes>
      <leafValues>
        -1.7396062612533569e-01 5.1945213228464127e-02</leafValues></_>
    <_>
      <internalNodes>
        0 -1 465 -1801515145 -1074836135 -134320923 -54042638 1744811887
        -402884865 1006374063 -19085475</internalNodes>
      <leafValues>
        -5.1945213228464127e-02 1.7396062612533569e-01</leafValues></_>
    <_>
      <internalNodes>
        0 -1 465 1801515144 1074836134 134320922 54042637 -1744811888
        402884864 -1006374064 19085474</internalNodes>
      <leafValues>
        -1.7396062612533569e-01 5.1945213228464127e-02</leafValues></_>
    <_>
      <internalNodes>
        0 -1 465 -1801515145 -1074836135 -134320923 -54042638 1744811887
        -402884865 1006374063 -19085475</internalNodes>
      <leafValues>
        -5.1945213228464127e-02 1.7396062612533569e-01</leafValues></_>
    <_>
      <internalNodes>
        0 -1 465 1801515144 1074836134 134320922 54042637 -1744811888
        402884864 -1006374064 19085474</internalNodes>
      <leafValues>
        -1.7396062612533569e-01 5.1945213228464127e-02</leafValues></_>
    <_>
      <internalNodes>
        0 -1 465 -1801515145 -1074836135 -134320923 -54042638 1744811887
        -402884865 1006374063 -19085475</internalNodes>
      <leafValues>
        -5.1945213228464127e-02 1.7396062612533569e-01</leafValues></_>
    <_>
      <internalNodes>
        0 -1 465 1801515144 1074836134 134320922 54042637 -1744811888
        402884864 -1006374064 19085474</internalNodes>
      <leafValues>
        -1.7396062612533569e-01 5.1945213228464127e-02</leafValues></_>
    <_>
      <internalNodes>
        0 -1 465 -1801515145 -1074836135 -134320923 -54042638 1744811887
        -402884865 1006374063 -19085475</internalNodes>
      <leafValues>
        -5.1945213228464127e-02 1.7396062612533569e-01</leafValues></_>
    <_>
      <internalNodes>
        0 -1 465 1801515144 1074836134 134320922 54042637 -1744811888
        402884864 -1006374064 19085474</internalNodes>
      <leafValues>
        -1.7396062612533569e-01 5.1945213228464127e-02</leafValues></_>
    <_>
      <internalNodes>
        0 -1 465 -1801515145 -1074836135 -134320923 -54042638 1744811887
        -402884865 1006374063 -19085475</internalNodes>
      <leafValues>
        -5.1945213228464127e-02 1.7396062612533569e-01</leafValues></_>
    <_>
      <internalNodes>
        0 -1 465 1801515144 1074836134 134320922 54042637 -1744811888
        402884864 -1006374064 19085474</internalNodes>
      <leafValues>
        -1.7396062612533569e-01 5.1945213228464127e-02</leafValues></_>
    <_>
      <internalNodes>
        0 -1 465 -1801515145 -1074836135 -134320923 -54042638 1744811887
        -402884865 1006374063 -19085475</internalNodes>
      <leafValues>
        -5.1945213228464127e-02 1.7396062612533569e-01</leafValues></_>
    <_>
      <internalNodes>
        0 -1 465 1801515144 1074836134 134320922 54042637 -1744811888
        402884864 -1006374064 19085474</internalNodes>
      <leafValues>
        -1.7396062612533569e-01 5.1945213228464127e-02</leafValues></_>
    <_>
      <internalNodes>
        0 -1 465 -1801515145 -1074836135 -134320923 -54042638 1744811887
        -402884865 1006374063 -19085475</internalNodes>
      <leafValues>
        -5.1945213228464127e-02 1.7396062612533569e-01</leafValues></_>
    <_>
      <internalNodes>
        0 -1 465 1801515144 1074836134 134320922 54042637 -1744811888
        402884864 -1006374064 19085474</internalNodes>
      <leafValues>
        -1.7396062612533569e-01 5.1945213228464127e-02</leafValues></_>
    <_>
      <internalNodes>
        0 -1 465 -1801515145 -1074836135 -134320923 -54042638 1744811887
        -402884865 1006374063 -19085475</internalNodes>
      <leafValues>
        -5.1945213228464127e-02 1.7396062612533569e-01</leafValues></_>
    <_>
      <internalNodes>
        0 -1 465 1801515144 1074836134 134320922 54042637 -1744811888
        402884864 -1006374064 19085474</internalNodes>
      <leafValues>
        -1.7396062612533569e-01 5.1945213228464127e-02</leafValues></_>
    <_>
      <internalNodes>
        0 -1 465 -1801515145 -1074836135 -134320923 -54042638 1744811887
        -402884865 1006374063 -19085475</internalNodes>
      <leafValues>
        -5.1945213228464127e-02 1.7396062612533569e-01</leafValues></_>
    <_>
      <internalNodes>
        0 -1 465 1801515144 1074836134 134320922 54042637 -1744811888
        402884864 -1006374064 19085474</internalNodes>
      <leafValues>
        -1.7396062612533569e-01 5.1945213228464127e-02</leafValues></_>
    <_>
      <internalNodes>
        0 -1 465 -1801515145 -1074836135 -134320923 -54042638 1744811887
        -402884865 1006374063 -19085475</internalNodes>
      <leafValues>
        -5.1945213228464127e-02 1.7396062612533569e-01</leafValues></_>
    <_>
      <internalNodes>
        0 -1 465 1801515144 1074836134 134320922 54042637 -1744811888
        402884864 -1006374064 19085474</internalNodes>
      <leafValues>
        -1.7396062612533569e-01 5.1945213228464127e-02</leafValues></_>
    <_>
      <internalNodes>
        0 -1 465 -1801515145 -1074836135 -134320923 -54042638 1744811887
        -402884865 1006374063 -19085475</internalNodes>
      <leafValues>
        -5.1945213228464127e-02 1.7396062612533569e-01</leafValues></_>
    <_>
      <internalNodes>
        0 -1 465 1801515144 1074836134 134320922 54042637 -1744811888
        402884864 -1006374064 19085474</internalNodes>
      <leafValues>
        -1.7396062612533569e-01 5.1945213228464127e-02</leafValues></_>
    <_>
      <internalNodes>
        0 -1 465 -1801515145 -1074836135 -134320923 -54042638 1744811887
        -402884865 1006374063 -19085475</internalNodes>
      <leafValues>
        -5.1945213228464127e-02 1.7396062612533569e-01</leafValues></_>
    <_>
      <internalNodes>
        0 -1 465 1801515144 1074836134 134320922 54042637 -1744811888
        402884864 -1006374064 19085474</internalNodes>
      <leafValues>
        -1.7396062612533569e-01 5.1945213228464127e-02</leafValues></_>
    <_>
      <internalNodes>
        0 -1 465 -1801515145 -1074836135 -134320923 -54042638 1744811887
        -402884865 1006374063 -19085475</internalNodes>
      <leafValues>
        -5.1945213228464127e-02 1.7396062612533569e-01</leafValues></_>
    <_>
      <internalNodes>
        0 -1 465 1801515144 1074836134 134320922 54042637 -1744811888
        402884864 -1006374064 19085474</internalNodes>
      <leafValues>
        -1.7396062612533569e-01 5.1945213228464127e-02</leafValues></_>
    <_>
      <internalNodes>
        0 -1 465 -1801515145 -1074836135 -134320923 -54042638 1744811887
        -402884865 1006374063 -19085475</internalNodes>
      <leafValues>
        -5.1945213228464127e-02 1.7396062612533569e-01</leafValues></_>
    <_>
      <internalNodes>
        0 -1 465 1801515144 1074836134 134320922 54042637 -1744811888
        402884864 -1006374064 19085474</internalNodes>
      <leafValues>
        -1.7396062612533569e-01 5.1945213228464127e-02</leafValues></_>
    <_>
      <internalNodes>
        0 -1 465 -1801515145 -1074836135 -134320923 -54042638 1744811887
        -402884865 1006374063 -19085475</internalNodes>
      <leafValues>
        -5.1945213228464127e-02 1.7396062612533569e-01</leafValues></_>
    <_>
      <internalNodes>
        0 -1 465 1801515144 1074836134 134320922 54042637 -1744811888
        402884864 -1006374064 19085474</internalNodes>
      <leafValues>
        -1.7396062612533569e-01 5.1945213228464127e-02</leafValues></_>
    <_>
      <internalNodes>
        0 -1 465 -1801515145 -1074836135 -134320923 -54042638 1744811887
        -402884865 1006374063 -19085475</internalNodes>
      <leafValues>
        -5.1945213228464127e-02 1.7396062612533569e-01</leafValues></_>
    <_>
      <internalNodes>
        0 -1 465 1801515144 1074836134 134320922 54042637 -1744811888
        402884864 -1006374064 19085474</internalNodes>
      <leafValues>
        -1.7396062612533569e-01 5.1945213228464127e-02</leafValues></_>
    <_>
      <internalNodes>
        0 -1 465 -1801515145 -1074836135 -134320923 -54042638 1744811887
        -402884865 1006374063 -19085475</internalNodes>
      <leafValues>
        -5.1945213228464127e-02 1.7396062612533569e-01</leafValues></_>
    <_>
      <internalNodes>
        0 -1 465 1801515144 1074836134 134320922 54042637 -1744811888
        402884864 -1006374064 19085474</internalNodes>
      <leafValues>
        -1.7396062612533569e-01 5.1945213228464127e-02</leafValues></_>
    <_>
      <internalNodes>
        0 -1 465 -1801515145 -1074836135 -134320923 -54042638 1744811887
        -402884865 1006374063 -19085475</internalNodes>
      <leafValues>
        -5.1945213228464127e-02 1.7396062612533569e-01</leafValues></_>
    <_>
      <internalNodes>
        0 -1 465 1801515144 1074836134 134320922 54042637 -1744811888
        402884864 -1006374064 19085474</internalNodes>
      <leafValues>
        -1.7396062612533569e-01 5.1945213228464127e-02</leafValues></_>
    <_>
      <internalNodes>
        0 -1 465 -1801515145 -1074836135 -134320923 -54042638 1744811887
        -402884865 1006374063 -19085475</internalNodes>
      <leafValues>
        -5.1945213228464127e-02 1.7396062612533569e-01</leafValues></_>
    <_>
      <internalNodes>
        0 -1 465 1801515144 1074836134 134320922 54042637 -1744811888
        402884864 -1006374064 19085474</internalNodes>
      <leafValues>
        -1.7396062612533569e-01 5.1945213228464127e-02</leafValues></_>
    <_>
      <internalNodes>
        0 -1 465 -1801515145 -1074836135 -134320923 -54042638 1744811887
        -402884865 1006374063 -19085475</internalNodes>
      <leafValues>
        -5.1945213228464127e-02 1.7396062612533569e-01</leafValues></_>
    <_>
      <internalNodes>
        0 -1 465 1801515144 1074836134 134320922 54042637 -1744811888
        402884864 -1006374064 19085474</internalNodes>
      <leafValues>
        -1.7396062612533569e-01 5.1945213228464127e-02</leafValues></_>
    <_>
      <internalNodes>
        0 -1 465 -1801515145 -1074836135 -134320923 -54042638 1744811887
        -402884865 1006374063 -19085475</internalNodes>
      <leafValues>
        -5.1945213228464127e-02 1.7396062612533569e-01</leafValues></_>
    <_>
      <internalNodes>
        0 -1 465 1801515144 1074836134 134320922 54042637 -1744811888
        402884864 -1006374064 19085474</internalNodes>
      <leafValues>
        -1.7396062612533569e-01 5.1945213228464127e-02</leafValues></_>
    <_>
      <internalNodes>
        0 -1 465 -1801515145 -1074836135 -134320923 -54042638 1744811887
        -402884865 1006374063 -19085475</internalNodes>
      <leafValues>
        -5.1945213228464127e-02 1.7396062612533569e-01</leafValues></_>
    <_>
      <internalNodes>
        0 -1 465 1801515144 1074836134 134320922 54042637 -1744811888
        402884864 -1006374064 19085474</internalNodes>
      <leafValues>
        -1.7396062612533569e-01 5.1945213228464127e-02</leafValues></_>
    <_>
      <internalNodes>
        0 -1 465 -1801515145 -1074836135 -134320923 -54042638 1744811887
        -402884865 1006374063 -19085475</internalNodes>
      <leafValues>
        -5.1945213228464127e-02 1.7396062612533569e-01</leafValues></_></weakClassifiers></stage18>
</opencv_storage>
