<?xml version="1.0"?>
<opencv_storage>
<stage5>
  <maxWeakCount>99</maxWeakCount>
  <stageThreshold>-1.4117163419723511e+00</stageThreshold>
  <weakClassifiers>
    <_>
      <internalNodes>
        0 -1 461 -40108037 -72613896 -1179651 -4203336 -1142179847
        -1078281283 -977842731 -536880947</internalNodes>
      <leafValues>
        -5.8325237035751343e-01 -2.6347377896308899e-01</leafValues></_>
    <_>
      <internalNodes>
        0 -1 152 -421340966 -340769 -129831234 -1207938406 -833732388
        -604092708 -623317250 -96286501</internalNodes>
      <leafValues>
        -2.2868278622627258e-01 1.0126568377017975e-01</leafValues></_>
    <_>
      <internalNodes>
        0 -1 481 -545783933 -284758238 -302160544 -609224789 -1346390623
        -921766984 1163912384 -844373617</internalNodes>
      <leafValues>
        -1.1900695413351059e-01 1.9306708872318268e-01</leafValues></_>
    <_>
      <internalNodes>
        0 -1 107 21037706 1058374566 84476430 -207744597 -237655873
        1003497978 -146939905 -678450449</internalNodes>
      <leafValues>
        -1.5318843722343445e-01 1.3604797422885895e-01</leafValues></_>
    <_>
      <internalNodes>
        0 -1 61 -931201858 -751147270 -2146244546 1509994010 1416774788
        -835235491 -285410531 -36178093</internalNodes>
      <leafValues>
        -1.3072881102561951e-01 1.5034572780132294e-01</leafValues></_>
    <_>
      <internalNodes>
        0 -1 416 -1685012995 -1758401292 -1073987587 -537020936
        -828702723 -1145049091 -840344065 -1078263653</internalNodes>
      <leafValues>
        -5.4995991289615631e-02 2.3713129758834839e-01</leafValues></_>
    <_>
      <internalNodes>
        0 -1 16 -1020599698 -1023220574 -1376907266 -673061280
        1141222899 -1914678083 1460131551 -605555245</internalNodes>
      <leafValues>
        -9.8279498517513275e-02 1.6111361980438232e-01</leafValues></_>
    <_>
      <internalNodes>
        0 -1 464 1143963672 1599976470 842839353 -166266325 1583264904
        -1424507309 2015575178 943383439</internalNodes>
      <leafValues>
        -1.3564807176589966e-01 1.1871162801980972e-01</leafValues></_>
    <_>
      <internalNodes>
        0 -1 411 -984621892 -637437136 1331108080 1864622676 1148043984
        -608637716 1299124376 -1909720894</internalNodes>
      <leafValues>
        -1.3858364522457123e-01 1.0793977230787277e-01</leafValues></_>
    <_>
      <internalNodes>
        0 -1 397 -847783422 353610714 1062493992 -1180435422 1584087456
        989462463 -52015476 1659369459</internalNodes>
      <leafValues>
        -1.4916698634624481e-01 1.0143606364727020e-01</leafValues></_>
    <_>
      <internalNodes>
        0 -1 372 218107348 422611116 2113191221 -1112009080 -1074247251
        -1074872834 216276188 -1431763864</internalNodes>
      <leafValues>
        -1.5675729513168335e-01 8.8384546339511871e-02</leafValues></_>
    <_>
      <internalNodes>
        0 -1 19 -521214326 -804862292 767461406 185094712 1111485780
        -1381091736 -918094381 805746275</internalNodes>
      <leafValues>
        -1.6674494743347168e-01 8.5642017424106598e-02</leafValues></_>
    <_>
      <internalNodes>
        0 -1 162 1418657928 958349241 180589023 -686503802 2141956540
        -1147371288 -746550582 -5858618</internalNodes>
      <leafValues>
        -9.9950402975082397e-02 1.3669858872890472e-01</leafValues></_>
    <_>
      <internalNodes>
        0 -1 152 -679540699 1122188414 600874339 1729672027 -285898666
        408745555 1120354425 231698948</internalNodes>
      <leafValues>
        -1.1654838919639587e-01 1.1610508710145950e-01</leafValues></_>
    <_>
      <internalNodes>
        0 -1 78 -420829606 -431821274 1859555101 -1910349142 1204856756
        -138615841 -1516888274 1784829527</internalNodes>
      <leafValues>
        -1.5821149945259094e-01 8.5818760097026825e-02</leafValues></_>
    <_>
      <internalNodes>
        0 -1 44 -884578778 453168930 -427028200 999671386 1310544088
        2104646948 -168897480 1265857730</internalNodes>
      <leafValues>
        -1.5151423215866089e-01 8.8301680982112885e-02</leafValues></_>
    <_>
      <internalNodes>
        0 -1 148 1552944663 417547366 1823498042 1879205454 -984165358
        -33929401 -2963378 -619521414</internalNodes>
      <leafValues>
        -1.2063805758953094e-01 1.0918934643268585e-01</leafValues></_>
    <_>
      <internalNodes>
        0 -1 439 118534001 1646320364 -571049987 -272727823 101754853
        -1075265543 795629648 -1895506773</internalNodes>
      <leafValues>
        -1.1900655180215836e-01 1.1146956682205200e-01</leafValues></_>
    <_>
      <internalNodes>
        0 -1 460 -833648381 588003936 1170130001 -1882854156 105080749
        -1344443079 87246168 -871972663</internalNodes>
      <leafValues>
        -1.1829721182584763e-01 1.1028943955898285e-01</leafValues></_>
    <_>
      <internalNodes>
        0 -1 422 -392003582 724310433 -975422085 938046051 184797069
        -371575328 1857353434 -853315177</internalNodes>
      <leafValues>
        -1.0794128477573395e-01 1.2123912572860718e-01</leafValues></_>
    <_>
      <internalNodes>
        0 -1 83 -671099922 -639569180 1671534724 967648975 2044143209
        1153826768 -402655703 1930158671</internalNodes>
      <leafValues>
        -1.4184133708477020e-01 9.1249421238899231e-02</leafValues></_>
    <_>
      <internalNodes>
        0 -1 4 -1028929950 678045348 1281912636 142633616 -2005229132
        -1363212380 202792962 1213219904</internalNodes>
      <leafValues>
        -2.0619936287403107e-01 6.1477195471525192e-02</leafValues></_>
    <_>
      <internalNodes>
        0 -1 2 1311146744 1601891056 -2020837393 263457876 744761972
        -1093596539 1793941436 1769279126</internalNodes>
      <leafValues>
        -1.5897350013256073e-01 8.0064386129379272e-02</leafValues></_>
    <_>
      <internalNodes>
        0 -1 388 -368336894 -1228773183 716442382 1072660684 1095536086
        2024847284 1829876889 -1034952328</internalNodes>
      <leafValues>
        -1.1400613188743591e-01 1.1379429697990417e-01</leafValues></_>
    <_>
      <internalNodes>
        0 -1 283 -1653090883 918421493 -1073770753 -1246130197
        -556231268 -82436 -583475272 -38015277</internalNodes>
      <leafValues>
        -6.2691695988178253e-02 2.0796671509742737e-01</leafValues></_>
    <_>
      <internalNodes>
        0 -1 462 -563248869 -37897442 519941087 -227809412 -131142656
        -1073840347 -659687238 -1426918758</internalNodes>
      <leafValues>
        -8.5029438138008118e-02 1.5005287528038025e-01</leafValues></_>
    <_>
      <internalNodes>
        0 -1 176 1081091216 526388785 706878876 -1792788174 -488777536
        266560149 -476022088 212088362</internalNodes>
      <leafValues>
        -1.9159597158432007e-01 6.4641460776329041e-02</leafValues></_>
    <_>
      <internalNodes>
        0 -1 252 1601751024 -1173835584 -612852604 -1683953024
        -1941679387 -1226009052 -558887516 1006331454</internalNodes>
      <leafValues>
        -1.5607494115829468e-01 8.0588378012180328e-02</leafValues></_>
    <_>
      <internalNodes>
        0 -1 440 -326074238 -547553131 -325134471 -805725808 -1567496967
        -622543579 -387209544 -19201507</internalNodes>
      <leafValues>
        -8.4382362663745880e-02 1.4748708903789520e-01</leafValues></_>
    <_>
      <internalNodes>
        0 -1 253 -942552901 1485707551 96765838 -43516193 1295165397
        -1108283238 -124273733 -338846833</internalNodes>
      <leafValues>
        -6.9586820900440216e-02 1.7769332230091095e-01</leafValues></_>
    <_>
      <internalNodes>
        0 -1 426 2133424 1002972208 229317398 -1246743530 574965176
        -1095737156 635702473 763122240</internalNodes>
      <leafValues>
        -2.0458678901195526e-01 5.9196073561906815e-02</leafValues></_>
    <_>
      <internalNodes>
        0 -1 31 -865080798 -125637914 -1464414346 2099161603 1163757028
        -1728620489 -829289529 1969485402</internalNodes>
      <leafValues>
        -1.2929789721965790e-01 9.3513116240501404e-02</leafValues></_>
    <_>
      <internalNodes>
        0 -1 406 -330340096 68181625 -48419280 638597198 75454464
        144731888 1484069696 26700866</internalNodes>
      <leafValues>
        -2.5428897142410278e-01 4.7178819775581360e-02</leafValues></_>
    <_>
      <internalNodes>
        0 -1 222 136317072 1225367205 -1900421679 368058434 203697944
        -1093589191 -981455756 1479813416</internalNodes>
      <leafValues>
        -2.3811934888362885e-01 4.9595352262258530e-02</leafValues></_>
    <_>
      <internalNodes>
        0 -1 483 -676145167 -1356800966 -1882722351 -872423206
        -2087542593 -1564510813 265286841 -806364969</internalNodes>
      <leafValues>
        -7.5169570744037628e-02 1.5999026596546173e-01</leafValues></_>
    <_>
      <internalNodes>
        0 -1 145 40828953 852000098 1657037427 440564430 1182227708
        -53463681 -331552700 -751815104</internalNodes>
      <leafValues>
        -1.3643762469291687e-01 8.6490169167518616e-02</leafValues></_>
    <_>
      <internalNodes>
        0 -1 237 17015322 1697660566 560217136 888177267 1844413187
        -328094352 649440813 1866500867</internalNodes>
      <leafValues>
        -1.4648123085498810e-01 8.2788147032260895e-02</leafValues></_>
    <_>
      <internalNodes>
        0 -1 194 -749736037 531795120 770982743 -46556480 1112532088
        -595595083 -1360543844 -1073875174</internalNodes>
      <leafValues>
        -7.1550808846950531e-02 1.7421825230121613e-01</leafValues></_>
    <_>
      <internalNodes>
        0 -1 342 -789265758 -700155976 -2052113152 1835199195 1190238439
        2096497066 1055353032 233117867</internalNodes>
      <leafValues>
        -1.2728221714496613e-01 9.4012051820755005e-02</leafValues></_>
    <_>
      <internalNodes>
        0 -1 60 -429461953 -742070674 -997421378 -542750034 1179821454
        -834707598 -811206195 -68747657</internalNodes>
      <leafValues>
        -7.6391048729419708e-02 1.5329742431640625e-01</leafValues></_>
    <_>
      <internalNodes>
        0 -1 217 -1722000965 1576101601 -1883612183 489704730 -600259448
        -203785135 -586494600 -317712353</internalNodes>
      <leafValues>
        -1.0787993669509888e-01 1.1076231300830841e-01</leafValues></_>
    <_>
      <internalNodes>
        0 -1 459 -585924617 1392553844 -239765423 939301236 170413498
        -1435786649 -1153088117 -657470229</internalNodes>
      <leafValues>
        -7.0210866630077362e-02 1.7031092941761017e-01</leafValues></_>
    <_>
      <internalNodes>
        0 -1 479 945735043 344891701 -274292159 -53676347 -2094341216
        41740797 284156928 913106400</internalNodes>
      <leafValues>
        -1.4402730762958527e-01 8.4163427352905273e-02</leafValues></_>
    <_>
      <internalNodes>
        0 -1 300 -209736581 -1216879771 97856731 -1779070917 -2100795517
        -37217115 -309238018 -1926766982</internalNodes>
      <leafValues>
        -7.3933579027652740e-02 1.6602557897567749e-01</leafValues></_>
    <_>
      <internalNodes>
        0 -1 82 -440144134 -1058134462 216197165 619831937 230727476
        -50608394 2027830119 1280076829</internalNodes>
      <leafValues>
        -1.3601635396480560e-01 8.8796868920326233e-02</leafValues></_>
    <_>
      <internalNodes>
        0 -1 118 1179183236 1517838786 102894118 -1644857098 -314309186
        835626037 864376492 -157366453</internalNodes>
      <leafValues>
        -1.0892927646636963e-01 1.1128114163875580e-01</leafValues></_>
    <_>
      <internalNodes>
        0 -1 45 1213214008 974159648 1283610969 550801363 413480076
        -592093899 524147842 1521702227</internalNodes>
      <leafValues>
        -1.6680784523487091e-01 7.2480514645576477e-02</leafValues></_>
    <_>
      <internalNodes>
        0 -1 241 -123548408 284093186 -827445095 418281310 -162150784
        147160045 -1095703930 -890345263</internalNodes>
      <leafValues>
        -1.1538414657115936e-01 1.0779512673616409e-01</leafValues></_>
    <_>
      <internalNodes>
        0 -1 166 1244242306 -2142181821 -1371931588 1540750352 134259609
        -1402794334 -144109538 -618443220</internalNodes>
      <leafValues>
        -1.1210676282644272e-01 1.1290956288576126e-01</leafValues></_>
    <_>
      <internalNodes>
        0 -1 435 -215875597 1929071723 -560989061 1600427421 458163692
        -1162963401 -1384280313 -588137285</internalNodes>
      <leafValues>
        -7.3052234947681427e-02 1.6557082533836365e-01</leafValues></_>
    <_>
      <internalNodes>
        0 -1 337 788536592 -1206114746 -1372049560 1419893311 1146146073
        -486531660 1726233932 174129726</internalNodes>
      <leafValues>
        -2.1648162603378296e-01 5.8044731616973877e-02</leafValues></_>
    <_>
      <internalNodes>
        0 -1 307 -541471813 488120255 -1477126019 1330167680 1076137433
        -1116444676 -10486024 -35406528</internalNodes>
      <leafValues>
        -8.1276915967464447e-02 1.6036714613437653e-01</leafValues></_>
    <_>
      <internalNodes>
        0 -1 467 -158354392 409822490 1538307636 -1715390692 -1921114999
        -1705085459 -1084805910 -724635957</internalNodes>
      <leafValues>
        -9.9380753934383392e-02 1.2365206331014633e-01</leafValues></_>
    <_>
      <internalNodes>
        0 -1 362 -588298345 309689812 213613361 -1078985886 480793585
        -101584907 2133285343 -340015251</internalNodes>
      <leafValues>
        -7.1670405566692352e-02 1.7351680994033813e-01</leafValues></_>
    <_>
      <internalNodes>
        0 -1 18 -888148393 -608585735 -1231523849 1988020850 -193296971
        -1734547332 -210796278 -537417991</internalNodes>
      <leafValues>
        -6.5465472638607025e-02 1.8367294967174530e-01</leafValues></_>
    <_>
      <internalNodes>
        0 -1 322 555843990 431503937 1728614193 621932178 249267973
        -123458378 -1519727089 234095651</internalNodes>
      <leafValues>
        -1.2972985208034515e-01 9.3106254935264587e-02</leafValues></_>
    <_>
      <internalNodes>
        0 -1 405 -263925825 185483077 -323474979 -1344510492 -1605315540
        -538249699 -56560576 -1385220839</internalNodes>
      <leafValues>
        -1.0306115448474884e-01 1.1818484216928482e-01</leafValues></_>
    <_>
      <internalNodes>
        0 -1 210 704684836 1209044980 1428287692 587248259 98874380
        -1184353119 1250730396 939963264</internalNodes>
      <leafValues>
        -1.9886024296283722e-01 6.0826022177934647e-02</leafValues></_>
    <_>
      <internalNodes>
        0 -1 382 -1023179854 1373668392 -38724649 -168242576 -581442633
        -371896857 1888855960 -114621429</internalNodes>
      <leafValues>
        -8.6291328072547913e-02 1.4291574060916901e-01</leafValues></_>
    <_>
      <internalNodes>
        0 -1 476 -988823296 978602660 -1119995787 -83165891 1342673086
        -1101582756 -1723912008 -704206321</internalNodes>
      <leafValues>
        -1.0736224800348282e-01 1.1036153137683868e-01</leafValues></_>
    <_>
      <internalNodes>
        0 -1 181 825921975 1361282386 1474834735 -161268614 1913253549
        941104098 -274535511 -570651687</internalNodes>
      <leafValues>
        -7.5514279305934906e-02 1.5937015414237976e-01</leafValues></_>
    <_>
      <internalNodes>
        0 -1 338 -704150249 -77666585 -1079243852 1922446075 1493558716
        -1679546384 -468601960 -87032766</internalNodes>
      <leafValues>
        -7.5031429529190063e-02 1.5827091038227081e-01</leafValues></_>
    <_>
      <internalNodes>
        0 -1 438 -902308357 -140606630 -805448361 -49414711 -1226887233
        -637538889 -2052991489 -875573813</internalNodes>
      <leafValues>
        -4.9223877489566803e-02 2.4016480147838593e-01</leafValues></_>
    <_>
      <internalNodes>
        0 -1 324 202419968 151039540 -1902084650 78932752 1318063189
        665852478 201637968 136316992</internalNodes>
      <leafValues>
        -2.9809674620628357e-01 4.0293283760547638e-02</leafValues></_>
    <_>
      <internalNodes>
        0 -1 361 1095716799 -310624723 763968759 -1227277120 1648680373
        -567786843 -1570474314 -358153117</internalNodes>
      <leafValues>
        -8.3641201257705688e-02 1.4804218709468842e-01</leafValues></_>
    <_>
      <internalNodes>
        0 -1 463 -1057004400 2109946893 -1125650210 1561030792 450184597
        1891288912 -460027639 805631255</internalNodes>
      <leafValues>
        -1.4036229252815247e-01 8.7833508849143982e-02</leafValues></_>
    <_>
      <internalNodes>
        0 -1 291 1157693704 710970566 -406496321 -468069953 -1735360042
        1048292263 157327404 700543744</internalNodes>
      <leafValues>
        -1.6375379264354706e-01 7.2234272956848145e-02</leafValues></_>
    <_>
      <internalNodes>
        0 -1 275 4948480 135312132 915898112 -1458399778 27092224
        684982092 156724320 15251984</internalNodes>
      <leafValues>
        -2.8119280934333801e-01 4.2049329727888107e-02</leafValues></_>
    <_>
      <internalNodes>
        0 -1 69 124003890 825754728 1853517693 421051064 -422032104
        1784814660 -989793496 763394970</internalNodes>
      <leafValues>
        -1.9377261400222778e-01 6.0140822082757950e-02</leafValues></_>
    <_>
      <internalNodes>
        0 -1 265 -632887727 278555877 -438823856 233319026 345149380
        -1773115482 -87937666 677641517</internalNodes>
      <leafValues>
        -1.2330892682075500e-01 9.4817236065864563e-02</leafValues></_>
    <_>
      <internalNodes>
        0 -1 423 -592797270 -1812359440 633257526 -153769028 -1262264839
        -571011686 -1909561426 -935364470</internalNodes>
      <leafValues>
        -9.0928770601749420e-02 1.2769724428653717e-01</leafValues></_>
    <_>
      <internalNodes>
        0 -1 482 -198188422 -1962354782 -578038480 1967119908
        -1565551115 247724986 875479253 -55129030</internalNodes>
      <leafValues>
        -1.0227005928754807e-01 1.1552204191684723e-01</leafValues></_>
    <_>
      <internalNodes>
        0 -1 14 170696704 -1379885925 1691429448 1119756591 303948628
        1162895109 1874340720 1344295552</internalNodes>
      <leafValues>
        -2.4373900890350342e-01 4.8480685800313950e-02</leafValues></_>
    <_>
      <internalNodes>
        0 -1 169 -54009645 -110375108 -1613133128 1884411476 -2057333264
        -143651386 -19477806 -622301190</internalNodes>
      <leafValues>
        -8.1561610102653503e-02 1.4954026043415070e-01</leafValues></_>
    <_>
      <internalNodes>
        0 -1 112 2013810243 413257501 143300869 -581708193 -1609679520
        -1235630907 2124281733 -294998273</internalNodes>
      <leafValues>
        -8.7635770440101624e-02 1.3611641526222229e-01</leafValues></_>
    <_>
      <internalNodes>
        0 -1 197 1169400251 -1772505711 1629813583 -605160197
        -1685345287 -36132945 -395989573 -10537013</internalNodes>
      <leafValues>
        -5.7861108332872391e-02 2.1080222725868225e-01</leafValues></_>
    <_>
      <internalNodes>
        0 -1 250 -856440793 2127045637 -2048717987 -651593593 -567341350
        467975345 1575935150 -238813185</internalNodes>
      <leafValues>
        -7.3673792183399200e-02 1.6343079507350922e-01</leafValues></_>
    <_>
      <internalNodes>
        0 -1 128 2140925943 -1618219331 1573084975 -70289910 1331475289
        -1701688588 -558590721 -5254</internalNodes>
      <leafValues>
        -5.2673850208520889e-02 2.1968345344066620e-01</leafValues></_>
    <_>
      <internalNodes>
        0 -1 105 -859664852 57183530 -1505212764 35699050 868536068
        450639380 1491932682 637093062</internalNodes>
      <leafValues>
        -1.8364855647087097e-01 6.5594509243965149e-02</leafValues></_>
    <_>
      <internalNodes>
        0 -1 52 1107699886 -1150899546 -1366137302 -1024413878
        1153656144 -1633609933 1144967639 1978727764</internalNodes>
      <leafValues>
        -1.5900894999504089e-01 7.2242535650730133e-02</leafValues></_>
    <_>
      <internalNodes>
        0 -1 373 -801643193 -1089744352 -539034111 -1892792262
        1286498225 2134364553 -729201488 -1123490785</internalNodes>
      <leafValues>
        -1.0140092670917511e-01 1.1534578353166580e-01</leafValues></_>
    <_>
      <internalNodes>
        0 -1 445 -2085116506 -256796903 862348221 -91744710 708548520
        -588665858 -202561800 -54884336</internalNodes>
      <leafValues>
        -9.6508130431175232e-02 1.2195835262537003e-01</leafValues></_>
    <_>
      <internalNodes>
        0 -1 195 -983458951 408640935 145502199 1880129459 939376096
        -119141644 -387987765 -180404570</internalNodes>
      <leafValues>
        -8.0847740173339844e-02 1.4341463148593903e-01</leafValues></_>
    <_>
      <internalNodes>
        0 -1 474 169878680 2124431528 -1261414063 428108880 -1917711200
        -294638031 956304712 1026366455</internalNodes>
      <leafValues>
        -1.8804927170276642e-01 6.3617967069149017e-02</leafValues></_>
    <_>
      <internalNodes>
        0 -1 407 -913313443 810927326 1417350677 2015839625 1984336000
        732335946 -1154793238 -2141192676</internalNodes>
      <leafValues>
        -9.7788549959659576e-02 1.1803400516510010e-01</leafValues></_>
    <_>
      <internalNodes>
        0 -1 154 -1734159838 -632216237 1241375199 -579229881
        -1573208834 -1630622721 -1372368402 -630472192</internalNodes>
      <leafValues>
        -8.9008443057537079e-02 1.3134169578552246e-01</leafValues></_>
    <_>
      <internalNodes>
        0 -1 151 -574693679 -509186 1870127003 -16558537 -834657948
        -650124 -1377418 -16015633</internalNodes>
      <leafValues>
        -6.4989119768142700e-02 1.7747502028942108e-01</leafValues></_>
    <_>
      <internalNodes>
        0 -1 72 -463280030 1758129058 -1402020251 -1916607962 1285362147
        1815279486 -540291908 1564648146</internalNodes>
      <leafValues>
        -1.5007814764976501e-01 7.9684324562549591e-02</leafValues></_>
    <_>
      <internalNodes>
        0 -1 142 -310413459 -1692457392 -834924069 1587936411 1414105048
        -288465247 -404729516 -621351655</internalNodes>
      <leafValues>
        -8.5046030580997467e-02 1.3937515020370483e-01</leafValues></_>
    <_>
      <internalNodes>
        0 -1 183 -704052287 1446181429 1707651215 -939538137 -308413402
        -266453330 1848210635 1937803741</internalNodes>
      <leafValues>
        -1.0014490038156509e-01 1.1550468951463699e-01</leafValues></_>
    <_>
      <internalNodes>
        0 -1 100 -526153718 -244977703 643200486 -169883931 -2107760648
        -1094918674 1143378159 -1623017573</internalNodes>
      <leafValues>
        -8.5299119353294373e-02 1.3500803709030151e-01</leafValues></_>
    <_>
      <internalNodes>
        0 -1 103 149619724 747900525 -712504276 -1339517440 13634992
        -1601020931 -1036580159 543682919</internalNodes>
      <leafValues>
        -1.9320000708103180e-01 6.1843954026699066e-02</leafValues></_>
    <_>
      <internalNodes>
        0 -1 351 -617488737 1039703509 -1449393351 -37122210 1816755697
        -1426940675 -1392709415 -1158415713</internalNodes>
      <leafValues>
        -6.4310297369956970e-02 1.7611032724380493e-01</leafValues></_>
    <_>
      <internalNodes>
        0 -1 311 794829876 1300377716 1880363056 564669808 273681536
        1148073020 629153792 674240048</internalNodes>
      <leafValues>
        -3.0205377936363220e-01 3.8323268294334412e-02</leafValues></_>
    <_>
      <internalNodes>
        0 -1 0 -475886560 -798318592 2071049842 1974488304 669025886
        -1135811851 1409382224 1547781125</internalNodes>
      <leafValues>
        -1.5420426428318024e-01 7.4054144322872162e-02</leafValues></_>
    <_>
      <internalNodes>
        0 -1 219 692500610 -2003637082 -1842679470 916112132 1390993148
        882228904 550383624 419598985</internalNodes>
      <leafValues>
        -1.7283704876899719e-01 6.5228290855884552e-02</leafValues></_>
    <_>
      <internalNodes>
        0 -1 284 -850091265 688954925 1971165723 -1361917848 -942630332
        -15017096 -62882768 -900530127</internalNodes>
      <leafValues>
        -1.0860043019056320e-01 1.1005576699972153e-01</leafValues></_>
    <_>
      <internalNodes>
        0 -1 385 1341806594 78918197 751742036 9615579 -2124803456
        1913405156 1624739970 74514304</internalNodes>
      <leafValues>
        -1.9422948360443115e-01 5.9679988771677017e-02</leafValues></_>
    <_>
      <internalNodes>
        0 -1 204 -217383081 -540852781 889255965 -604373433 -422073153
        -109186367 -300947009 -1077156121</internalNodes>
      <leafValues>
        -5.3381167352199554e-02 2.2795368731021881e-01</leafValues></_></weakClassifiers></stage5>
</opencv_storage>
