<?xml version="1.0"?>
<opencv_storage>
<stage2>
  <maxWeakCount>50</maxWeakCount>
  <stageThreshold>-1.8223396539688110e+00</stageThreshold>
  <weakClassifiers>
    <_>
      <internalNodes>
        0 -1 15 -716898354 -1065 620867545 -2097329 -3145729 -35717190
        -1446001 -2098177</internalNodes>
      <leafValues>
        -6.2284409999847412e-01 -9.2772386968135834e-02</leafValues></_>
    <_>
      <internalNodes>
        0 -1 417 -608439664 -1725383296 431032656 -575286000 -1616518728
        -1665206384 -1795586944 -643840885</internalNodes>
      <leafValues>
        -3.2161816954612732e-01 2.1106325089931488e-01</leafValues></_>
    <_>
      <internalNodes>
        0 -1 283 -938180388 -172206092 -1191965187 -1082647302
        -598736744 -34075496 -1987011448 -73791270</internalNodes>
      <leafValues>
        -2.2682261466979980e-01 2.6464548707008362e-01</leafValues></_>
    <_>
      <internalNodes>
        0 -1 476 -704126960 285270576 -1389985776 -1123690444 403280000
        -1139398640 2031768 -1396707077</internalNodes>
      <leafValues>
        -2.1980665624141693e-01 2.1955867111682892e-01</leafValues></_>
    <_>
      <internalNodes>
        0 -1 151 -638597934 -109435872 -298445799 354557612 -368967488
        -11136924 -118830882 -81113558</internalNodes>
      <leafValues>
        -1.8362714350223541e-01 2.4623121321201324e-01</leafValues></_>
    <_>
      <internalNodes>
        0 -1 52 -959520122 1516405282 -2104883664 -748640760 1146552976
        236000273 -1003540257 -1316201</internalNodes>
      <leafValues>
        -1.3875235617160797e-01 2.6936465501785278e-01</leafValues></_>
    <_>
      <internalNodes>
        0 -1 462 -931266560 -130612968 705033048 1477691922 -1469939712
        -94872796 -2012706678 -1609317494</internalNodes>
      <leafValues>
        -2.0042587816715240e-01 1.9999787211418152e-01</leafValues></_>
    <_>
      <internalNodes>
        0 -1 225 1342210176 1440031362 83951882 1427454598 396474622
        -11265398 -129528946 -377126390</internalNodes>
      <leafValues>
        -2.0197343826293945e-01 1.8291585147380829e-01</leafValues></_>
    <_>
      <internalNodes>
        0 -1 40 -488447254 -589123962 -1900404144 -253622200 1634831536
        -2143272667 1948573905 -210512173</internalNodes>
      <leafValues>
        -1.8615666031837463e-01 1.9615679979324341e-01</leafValues></_>
    <_>
      <internalNodes>
        0 -1 482 -279975728 50996770 229627216 -39324560 582262205
        -1975336533 92471704 -576729878</internalNodes>
      <leafValues>
        -1.4998868107795715e-01 2.2831127047538757e-01</leafValues></_>
    <_>
      <internalNodes>
        0 -1 80 -557856649 -67615026 -98682693 1375869690 -594062136
        -126350330 -253583682 -33294630</internalNodes>
      <leafValues>
        -1.3593162596225739e-01 2.5736981630325317e-01</leafValues></_>
    <_>
      <internalNodes>
        0 -1 334 -534544384 -713349825 493618937 -575854382 -827357564
        -592089432 679484552 -1465691134</internalNodes>
      <leafValues>
        -1.6809225082397461e-01 2.0487500727176666e-01</leafValues></_>
    <_>
      <internalNodes>
        0 -1 416 1383806004 1026689428 -1222829635 -609179656 -545231436
        -1463366220 1568868537 -1410661192</internalNodes>
      <leafValues>
        -1.7623217403888702e-01 1.8767040967941284e-01</leafValues></_>
    <_>
      <internalNodes>
        0 -1 122 1078102930 287318362 218106136 258016818 1112820906
        1825353708 1298942188 723742387</internalNodes>
      <leafValues>
        -2.3384727537631989e-01 1.3394637405872345e-01</leafValues></_>
    <_>
      <internalNodes>
        0 -1 16 -1024791814 -244652894 -986903079 -37378528 1276755370
        -820886845 1837421503 -67905853</internalNodes>
      <leafValues>
        -1.1567065119743347e-01 2.5164595246315002e-01</leafValues></_>
    <_>
      <internalNodes>
        0 -1 475 -85995008 307214607 366828852 836893732 1566747312
        806778256 -1035014016 -534512246</internalNodes>
      <leafValues>
        -1.6357892751693726e-01 1.6846786439418793e-01</leafValues></_>
    <_>
      <internalNodes>
        0 -1 84 -269023412 -789312461 -856473220 285216766 -373556
        -591233481 -105198312 -110899462</internalNodes>
      <leafValues>
        -1.4246693253517151e-01 2.0034889876842499e-01</leafValues></_>
    <_>
      <internalNodes>
        0 -1 88 -358448958 -574437884 -470011401 -584615918 -1912821829
        -1987999531 -1990800641 -585399159</internalNodes>
      <leafValues>
        -1.2216134369373322e-01 2.2018443048000336e-01</leafValues></_>
    <_>
      <internalNodes>
        0 -1 75 -213863738 516353022 1405107188 530597798 616687352
        1905871832 671447496 1477177923</internalNodes>
      <leafValues>
        -2.1935203671455383e-01 1.2638662755489349e-01</leafValues></_>
    <_>
      <internalNodes>
        0 -1 431 -1036062832 2121171764 -1342817710 -1215011280
        1507592696 -17421140 -301845027 -356814530</internalNodes>
      <leafValues>
        -1.3850049674510956e-01 1.9930744171142578e-01</leafValues></_>
    <_>
      <internalNodes>
        0 -1 23 305842 1076930355 796920234 226496004 828449268
        -36062919 1898387612 792019842</internalNodes>
      <leafValues>
        -2.4050147831439972e-01 1.0810742527246475e-01</leafValues></_>
    <_>
      <internalNodes>
        0 -1 413 -964443627 807859518 764067216 -653921442 2005649028
        -1082595686 -905329208 -1998068350</internalNodes>
      <leafValues>
        -1.4066085219383240e-01 1.8221451342105865e-01</leafValues></_>
    <_>
      <internalNodes>
        0 -1 447 -170163568 1492961046 1497499997 -571416237 -1740463988
        -1243964089 -299382087 -1836059205</internalNodes>
      <leafValues>
        -1.1465480178594589e-01 2.2366338968276978e-01</leafValues></_>
    <_>
      <internalNodes>
        0 -1 461 -2042960429 -1589975096 522505689 -115351888 845851320
        -1364281415 1160079612 -1879879523</internalNodes>
      <leafValues>
        -1.3658219575881958e-01 1.8071202933788300e-01</leafValues></_>
    <_>
      <internalNodes>
        0 -1 133 -930642262 501258284 670075446 2070955568 981540018
        -17420576 -1679074113 -69995913</internalNodes>
      <leafValues>
        -1.2693217396736145e-01 1.9745668768882751e-01</leafValues></_>
    <_>
      <internalNodes>
        0 -1 166 -804675584 1484947456 1850676244 2024932384 -385424963
        -1166995577 -1813390934 -1741961053</internalNodes>
      <leafValues>
        -1.4676499366760254e-01 1.6846467554569244e-01</leafValues></_>
    <_>
      <internalNodes>
        0 -1 425 -297295354 -90469117 464978233 -1646681030 -493534035
        -1394145005 -539942166 -270043182</internalNodes>
      <leafValues>
        -1.1517690867185593e-01 2.0649656653404236e-01</leafValues></_>
    <_>
      <internalNodes>
        0 -1 261 1895801783 393244343 1162746639 -808084981 217404921
        903381144 -321000277 -6587157</internalNodes>
      <leafValues>
        -9.3451708555221558e-02 2.4306519329547882e-01</leafValues></_>
    <_>
      <internalNodes>
        0 -1 481 -142607469 1317184688 33129491 -358481942 -1089098860
        1854563628 1887258096 -520226638</internalNodes>
      <leafValues>
        -1.3036325573921204e-01 1.7981041967868805e-01</leafValues></_>
    <_>
      <internalNodes>
        0 -1 8 -358054784 -713383746 542377979 929170576 80192698
        -1176056113 155591920 909406790</internalNodes>
      <leafValues>
        -1.9871473312377930e-01 1.2221337109804153e-01</leafValues></_>
    <_>
      <internalNodes>
        0 -1 241 -238059238 -1805895677 398073905 -1715659422 -950538348
        -35240604 -67267665 -19932853</internalNodes>
      <leafValues>
        -1.0059997439384460e-01 2.3196323215961456e-01</leafValues></_>
    <_>
      <internalNodes>
        0 -1 450 -378612050 421146485 463178575 -782385359 -953820963
        1072272306 -113905667 -320340817</internalNodes>
      <leafValues>
        -1.0085259377956390e-01 2.2959303855895996e-01</leafValues></_>
    <_>
      <internalNodes>
        0 -1 371 -690361871 1410578704 -327787207 -1079492974
        -1149683296 -41240135 -1805232991 -2010659038</internalNodes>
      <leafValues>
        -1.3407854735851288e-01 1.7739784717559814e-01</leafValues></_>
    <_>
      <internalNodes>
        0 -1 466 -769687030 -638091986 -1014209409 -546276450 -54050428
        976632868 -505086312 -126095633</internalNodes>
      <leafValues>
        -1.1113990843296051e-01 2.0818966627120972e-01</leafValues></_>
    <_>
      <internalNodes>
        0 -1 71 -961621158 380253342 565239534 -1105928678 1567165808
        -30081024 -866234870 -30979278</internalNodes>
      <leafValues>
        -1.7123018205165863e-01 1.3689117133617401e-01</leafValues></_>
    <_>
      <internalNodes>
        0 -1 175 -1033024976 -643801062 2076142165 -174024166 -260229499
        2056654820 -593261045 -453517249</internalNodes>
      <leafValues>
        -1.2453883141279221e-01 1.8476140499114990e-01</leafValues></_>
    <_>
      <internalNodes>
        0 -1 343 1682289168 2095239153 -1392105894 531121454 1415615989
        -52152295 1467206798 1304388450</internalNodes>
      <leafValues>
        -1.8109054863452911e-01 1.2591864168643951e-01</leafValues></_>
    <_>
      <internalNodes>
        0 -1 270 -334371820 -1864263747 1317562903 -1612129989
        -892491540 -1107392557 -1117059445 671611927</internalNodes>
      <leafValues>
        -1.5105494856834412e-01 1.4750176668167114e-01</leafValues></_>
    <_>
      <internalNodes>
        0 -1 372 -1424976044 439390716 2104556981 -41364984 1001396720
        -51561217 93079933 -1120402200</internalNodes>
      <leafValues>
        -1.8162086606025696e-01 1.2221726775169373e-01</leafValues></_>
    <_>
      <internalNodes>
        0 -1 382 -763442806 2025922360 -114821165 -1857520974 152379024
        -1992008439 1880515418 -653650622</internalNodes>
      <leafValues>
        -1.4096106588840485e-01 1.5711514651775360e-01</leafValues></_>
    <_>
      <internalNodes>
        0 -1 108 4202544 -1347099581 617949800 -544179976 1276459185
        1792049780 -27678256 1625295616</internalNodes>
      <leafValues>
        -2.6515364646911621e-01 8.1803582608699799e-02</leafValues></_>
    <_>
      <internalNodes>
        0 -1 55 -662247150 924511782 1662291580 -1378427959 1463047189
        2100852461 -501143424 1079205614</internalNodes>
      <leafValues>
        -1.9125518202781677e-01 1.1272958666086197e-01</leafValues></_>
    <_>
      <internalNodes>
        0 -1 118 -1060912250 -127374005 782697500 -39445378 751611312
        2085338359 451776184 -144869813</internalNodes>
      <leafValues>
        -1.2158580869436264e-01 1.7821398377418518e-01</leafValues></_>
    <_>
      <internalNodes>
        0 -1 152 -470102502 49415804 -487450574 1749078354 1483751492
        1515609292 -665759860 -1470937008</internalNodes>
      <leafValues>
        -2.1018187701702118e-01 1.0153220593929291e-01</leafValues></_>
    <_>
      <internalNodes>
        0 -1 388 -502550880 2014183968 2071666063 -1108708116 499355284
        1692173952 -44986339 -869829766</internalNodes>
      <leafValues>
        -1.3786505162715912e-01 1.5419831871986389e-01</leafValues></_>
    <_>
      <internalNodes>
        0 -1 94 73412104 442527206 1688120601 544221752 -866712464
        -332318796 625401880 137708392</internalNodes>
      <leafValues>
        -3.0947610735893250e-01 6.8855576217174530e-02</leafValues></_>
    <_>
      <internalNodes>
        0 -1 41 -1032977898 1888627964 718311825 -1727369118 1093029412
        -1653392932 -961588 90261109</internalNodes>
      <leafValues>
        -2.1360765397548676e-01 9.7206473350524902e-02</leafValues></_>
    <_>
      <internalNodes>
        0 -1 477 1130079489 34928428 410513720 -1724196078 809939860
        781264224 211413896 833224680</internalNodes>
      <leafValues>
        -1.7423413693904877e-01 1.2190165370702744e-01</leafValues></_>
    <_>
      <internalNodes>
        0 -1 219 197495058 -569707390 1429119318 -1222973440 1384996292
        387791545 1745697930 956403739</internalNodes>
      <leafValues>
        -1.7784300446510315e-01 1.1911452561616898e-01</leafValues></_>
    <_>
      <internalNodes>
        0 -1 143 2130176247 -1080509102 -273875971 -708985 704094907
        -1097031938 -1102848052 -23147061</internalNodes>
      <leafValues>
        -6.9166608154773712e-02 3.0478826165199280e-01</leafValues></_></weakClassifiers></stage2>
</opencv_storage>
