<?xml version="1.0"?>
<opencv_storage>
<stage15>
  <maxWeakCount>100</maxWeakCount>
  <stageThreshold>-1.3903573751449585e+00</stageThreshold>
  <weakClassifiers>
    <_>
      <internalNodes>
        0 -1 371 -3408397 -241454919 1105600475 -13785521 -4474689
        -5277253 -74450245 -13632597</internalNodes>
      <leafValues>
        -5.2743297815322876e-01 -2.8626373410224915e-01</leafValues></_>
    <_>
      <internalNodes>
        0 -1 476 -687610096 -82711888 -1608150668 -238290316 1409986907
        -1114199213 -1201753702 -7343893</internalNodes>
      <leafValues>
        -1.3177019357681274e-01 6.2735535204410553e-02</leafValues></_>
    <_>
      <internalNodes>
        0 -1 283 -585114145 -538157065 -67302659 -6697223 -572730984
        -483876 -13066246 -4460805</internalNodes>
      <leafValues>
        -4.3217748403549194e-02 1.8684509396553040e-01</leafValues></_>
    <_>
      <internalNodes>
        0 -1 482 -33449536 1779168930 -575677517 -642916623 -474040846
        1443036089 1439158481 -174326545</internalNodes>
      <leafValues>
        -7.9289458692073822e-02 9.8665855824947357e-02</leafValues></_>
    <_>
      <internalNodes>
        0 -1 127 1514726614 1365126596 -1358680242 1532560506 182908588
        2073191140 -1478816274 -69503010</internalNodes>
      <leafValues>
        -7.0389091968536377e-02 1.0752068459987640e-01</leafValues></_>
    <_>
      <internalNodes>
        0 -1 28 -491863444 1556251680 -1044208878 -76644238 1176807316
        -1704983360 -579868266 1997755685</internalNodes>
      <leafValues>
        -1.0648646205663681e-01 6.9850757718086243e-02</leafValues></_>
    <_>
      <internalNodes>
        0 -1 87 2059900650 558526850 1290700800 697227081 591230143
        730296011 -327922993 1901033986</internalNodes>
      <leafValues>
        -9.5860831439495087e-02 8.8544078171253204e-02</leafValues></_>
    <_>
      <internalNodes>
        0 -1 328 -48919169 -617791735 1857732085 -1616154131 -585593188
        -822417961 1574485744 -1148150143</internalNodes>
      <leafValues>
        -6.2903761863708496e-02 1.1261139810085297e-01</leafValues></_>
    <_>
      <internalNodes>
        0 -1 470 1358228656 -1139432581 1177588244 -1481510508
        -857447264 -1721999834 -798193256 -1594769693</internalNodes>
      <leafValues>
        -8.0260597169399261e-02 9.2098511755466461e-02</leafValues></_>
    <_>
      <internalNodes>
        0 -1 262 -674303297 -1820202406 1390457064 -553390781 -985727313
        -736921300 -1528242449 -575802129</internalNodes>
      <leafValues>
        -4.9925811588764191e-02 1.3433066010475159e-01</leafValues></_>
    <_>
      <internalNodes>
        0 -1 307 -639563857 2045819629 -1500325251 253820464 1470551547
        -1078721486 -169034193 -656224342</internalNodes>
      <leafValues>
        -6.0151945799589157e-02 1.1129567772150040e-01</leafValues></_>
    <_>
      <internalNodes>
        0 -1 378 310325248 -573305692 1983604860 498998765 -576216672
        -291444048 1150565994 683132350</internalNodes>
      <leafValues>
        -9.8433092236518860e-02 6.8807162344455719e-02</leafValues></_>
    <_>
      <internalNodes>
        0 -1 431 -231043688 -1133599688 750927442 -73473708 980418622
        535967388 -1639376008 -945082261</internalNodes>
      <leafValues>
        -8.3012253046035767e-02 8.1961497664451599e-02</leafValues></_>
    <_>
      <internalNodes>
        0 -1 270 -1605057340 -2140860483 1141668509 1438638499
        -605155230 1098261537 149919619 1830745312</internalNodes>
      <leafValues>
        -9.9557742476463318e-02 6.4708024263381958e-02</leafValues></_>
    <_>
      <internalNodes>
        0 -1 209 1975761501 1063031248 897323337 730709294 -1889782823
        2029031221 154172409 -8484165</internalNodes>
      <leafValues>
        -5.4504096508026123e-02 1.1932473629713058e-01</leafValues></_>
    <_>
      <internalNodes>
        0 -1 80 -592524145 -119592551 2014510083 -768456985 1520321672
        -167959291 -1812275663 -8397473</internalNodes>
      <leafValues>
        -6.3841275870800018e-02 1.0347439348697662e-01</leafValues></_>
    <_>
      <internalNodes>
        0 -1 450 -113040384 499261284 494433800 -75126223 -1908072760
        939197938 2104781765 -582408959</internalNodes>
      <leafValues>
        -9.0381205081939697e-02 7.0456475019454956e-02</leafValues></_>
    <_>
      <internalNodes>
        0 -1 467 -1586518342 -696475045 1050686860 1757460377
        -1080191317 1526556103 -331960791 -1127231800</internalNodes>
      <leafValues>
        -6.7950844764709473e-02 1.0092407464981079e-01</leafValues></_>
    <_>
      <internalNodes>
        0 -1 12 -838653438 1888836573 927959298 -39897846 -899761673
        815043220 -1143207761 -27818654</internalNodes>
      <leafValues>
        -8.8757053017616272e-02 7.3247760534286499e-02</leafValues></_>
    <_>
      <internalNodes>
        0 -1 162 899535069 1019716252 93558207 1880539294 -1207980612
        -1276772286 814057936 1958605327</internalNodes>
      <leafValues>
        -6.7258767783641815e-02 9.8519191145896912e-02</leafValues></_>
    <_>
      <internalNodes>
        0 -1 329 201374772 402713112 1611521720 1846135200 -1168954732
        2136754581 673013796 672679088</internalNodes>
      <leafValues>
        -1.6876924037933350e-01 3.7821028381586075e-02</leafValues></_>
    <_>
      <internalNodes>
        0 -1 57 -1939332432 933504 842795460 -289371519 -1342158286
        -2089802343 1812150083 58512</internalNodes>
      <leafValues>
        -1.6649952530860901e-01 3.8917578756809235e-02</leafValues></_>
    <_>
      <internalNodes>
        0 -1 161 1221027092 734794462 523634663 -1154735631 1241304861
        773513432 1803468548 1068449857</internalNodes>
      <leafValues>
        -1.0717216134071350e-01 6.1739638447761536e-02</leafValues></_>
    <_>
      <internalNodes>
        0 -1 437 1863515643 1435168101 -249379725 -1650141411 -709884772
        -1268944973 222140943 1280169178</internalNodes>
      <leafValues>
        -7.1823664009571075e-02 9.0944260358810425e-02</leafValues></_>
    <_>
      <internalNodes>
        0 -1 17 -210776453 1392698535 -1172883787 -1108050431 1500495146
        -1750097196 -430644356 -740513</internalNodes>
      <leafValues>
        -4.8458304256200790e-02 1.3493470847606659e-01</leafValues></_>
    <_>
      <internalNodes>
        0 -1 167 -1060206820 -1205260798 2061763864 -1542901591
        510471775 -1359950656 728930550 134733851</internalNodes>
      <leafValues>
        -1.0486409813165665e-01 6.2531322240829468e-02</leafValues></_>
    <_>
      <internalNodes>
        0 -1 400 -747671039 2038314669 1672228370 912698047 -718025827
        -152865708 -1755834546 -713989166</internalNodes>
      <leafValues>
        -7.0835694670677185e-02 9.2872120440006256e-02</leafValues></_>
    <_>
      <internalNodes>
        0 -1 160 159949712 -887606963 1768327394 2033068666 1987492868
        1366747442 986358086 1078545986</internalNodes>
      <leafValues>
        -1.3057975471019745e-01 4.9821071326732635e-02</leafValues></_>
    <_>
      <internalNodes>
        0 -1 222 -622614085 1541385859 1206508447 100134279 2104487561
        -1127209025 -444480814 -101716852</internalNodes>
      <leafValues>
        -4.5791618525981903e-02 1.4603874087333679e-01</leafValues></_>
    <_>
      <internalNodes>
        0 -1 15 -6326945 -1812775917 1954381043 -286676865 -306205969
        1434891310 -1257749077 -203428217</internalNodes>
      <leafValues>
        -3.5891722887754440e-02 1.7780335247516632e-01</leafValues></_>
    <_>
      <internalNodes>
        0 -1 257 -2074869232 -242128804 -1406928372 -1019807321
        -200696268 -4285916 2136218160 1016435352</internalNodes>
      <leafValues>
        -1.3155077397823334e-01 5.2702587097883224e-02</leafValues></_>
    <_>
      <internalNodes>
        0 -1 356 728985095 -679955477 337159898 136639250 258816425
        1849697519 419851830 5538131</internalNodes>
      <leafValues>
        -1.1275156587362289e-01 5.7244338095188141e-02</leafValues></_>
    <_>
      <internalNodes>
        0 -1 253 -850409181 1225986367 667389519 -64454753 -272977977
        -1124079532 -326959125 -611800791</internalNodes>
      <leafValues>
        -5.9340499341487885e-02 1.1095259338617325e-01</leafValues></_>
    <_>
      <internalNodes>
        0 -1 280 1454865917 -1915672826 863459897 -729737031 325123904
        -786529 -558522560 -1726393200</internalNodes>
      <leafValues>
        -7.6344370841979980e-02 8.7284609675407410e-02</leafValues></_>
    <_>
      <internalNodes>
        0 -1 174 1076665083 1387383161 33296911 -2040019484 611002011
        551101141 1866937481 258405030</internalNodes>
      <leafValues>
        -7.6156526803970337e-02 8.7859950959682465e-02</leafValues></_>
    <_>
      <internalNodes>
        0 -1 214 3807251 170525578 -2146105127 1111501390 1358039560
        -230799542 1502401089 136844812</internalNodes>
      <leafValues>
        -1.5193915367126465e-01 4.4200070202350616e-02</leafValues></_>
    <_>
      <internalNodes>
        0 -1 355 -27525377 -144818181 837652438 2110128015 -1335565948
        -608506806 -1375908098 -403964161</internalNodes>
      <leafValues>
        -4.4234450906515121e-02 1.5151262283325195e-01</leafValues></_>
    <_>
      <internalNodes>
        0 -1 8 -1899854046 -1057445514 -2098310223 -1090321792 386345722
        969558735 433861777 1437766352</internalNodes>
      <leafValues>
        -1.1605019122362137e-01 5.6805353611707687e-02</leafValues></_>
    <_>
      <internalNodes>
        0 -1 478 494001329 -396179746 -1926245839 -1715012515 1751592760
        -2089255014 2145305769 -1189071050</internalNodes>
      <leafValues>
        -8.5104458034038544e-02 7.7072806656360626e-02</leafValues></_>
    <_>
      <internalNodes>
        0 -1 275 416096768 1095428 839201024 545678346 990720 574679820
        693642752 2111776</internalNodes>
      <leafValues>
        -3.2408636808395386e-01 1.9870469346642494e-02</leafValues></_>
    <_>
      <internalNodes>
        0 -1 216 -178526535 -595272100 1031018849 -691446831 1725730031
        1579329425 -1610704753 -339611681</internalNodes>
      <leafValues>
        -5.0628583878278732e-02 1.3165761530399323e-01</leafValues></_>
    <_>
      <internalNodes>
        0 -1 150 -255532958 -1093253292 2003782725 -1884773874 960940129
        -640741218 1324236628 1435337234</internalNodes>
      <leafValues>
        -1.0951305925846100e-01 6.2543094158172607e-02</leafValues></_>
    <_>
      <internalNodes>
        0 -1 204 816724638 -1764025736 1174448788 1274666579 45362287
        -2133677560 -2136579104 730832387</internalNodes>
      <leafValues>
        -9.9478222429752350e-02 6.5687641501426697e-02</leafValues></_>
    <_>
      <internalNodes>
        0 -1 105 327339696 325364058 -1303738956 -553078674 -1417214699
        429794878 970751720 221105220</internalNodes>
      <leafValues>
        -1.2092655152082443e-01 5.4990157485008240e-02</leafValues></_>
    <_>
      <internalNodes>
        0 -1 346 -583926521 750776508 -1174798791 -556814846 -178274018
        -1890423244 -469811748 -87041285</internalNodes>
      <leafValues>
        -4.5087046921253204e-02 1.4768597483634949e-01</leafValues></_>
    <_>
      <internalNodes>
        0 -1 23 -1699719041 -694639497 -1111105871 -2051451568
        -1277138960 -2212933 -709196133 -1242433592</internalNodes>
      <leafValues>
        -5.8825064450502396e-02 1.1895349621772766e-01</leafValues></_>
    <_>
      <internalNodes>
        0 -1 233 117851238 1477121695 -848155365 -573990072 -1311856603
        422153289 -381063500 2147106187</internalNodes>
      <leafValues>
        -9.5213666558265686e-02 7.2241649031639099e-02</leafValues></_>
    <_>
      <internalNodes>
        0 -1 305 1124495170 859804471 -457647574 99542960 28209406
        -1615035564 802540803 794839120</internalNodes>
      <leafValues>
        -1.1341325938701630e-01 5.8883808553218842e-02</leafValues></_>
    <_>
      <internalNodes>
        0 -1 235 -55050665 -1268815197 -241397752 -65992398 507232914
        -866351163 -420432247 -841238155</internalNodes>
      <leafValues>
        -5.9396460652351379e-02 1.1432150006294250e-01</leafValues></_>
    <_>
      <internalNodes>
        0 -1 84 1683391344 1115508499 414359648 453552062 -17675804
        -285051340 1973318938 -429724421</internalNodes>
      <leafValues>
        -9.3016639351844788e-02 7.1269847452640533e-02</leafValues></_>
    <_>
      <internalNodes>
        0 -1 471 137431040 45123800 374529557 342408764 -1773918672
        994513122 -804892206 335613617</internalNodes>
      <leafValues>
        -1.7826828360557556e-01 3.7200320512056351e-02</leafValues></_>
    <_>
      <internalNodes>
        0 -1 441 -20804466 -1881424982 -377848195 1339868955 -1713778549
        -566331675 -484050981 -709888486</internalNodes>
      <leafValues>
        -5.7096168398857117e-02 1.1643297225236893e-01</leafValues></_>
    <_>
      <internalNodes>
        0 -1 453 -1673870832 -73886032 -2039141215 -2752971 -2033546959
        1508580250 -1411799896 -1194605857</internalNodes>
      <leafValues>
        -6.7747265100479126e-02 9.3886747956275940e-02</leafValues></_>
    <_>
      <internalNodes>
        0 -1 41 -882652617 613813851 1523718430 -1201833270 1252441607
        -1124914994 -629381235 -253364498</internalNodes>
      <leafValues>
        -6.3684605062007904e-02 1.0077556967735291e-01</leafValues></_>
    <_>
      <internalNodes>
        0 -1 386 699803264 74580780 1418817076 563160876 1786053840
        350583972 1738677906 8958576</internalNodes>
      <leafValues>
        -1.5990598499774933e-01 4.0015492588281631e-02</leafValues></_>
    <_>
      <internalNodes>
        0 -1 392 -59252955 -658732958 -605127255 1823510315 427074625
        -219887048 865156553 1442133933</internalNodes>
      <leafValues>
        -8.5227467119693756e-02 7.9821869730949402e-02</leafValues></_>
    <_>
      <internalNodes>
        0 -1 132 2115745403 -128614472 -2120126985 -696813631 980728561
        938622815 -99885270 -17641540</internalNodes>
      <leafValues>
        -5.2633564919233322e-02 1.2723384797573090e-01</leafValues></_>
    <_>
      <internalNodes>
        0 -1 141 -760599342 48809520 786706016 1872816313 -738885974
        1770716005 252587101 516168567</internalNodes>
      <leafValues>
        -1.1314700543880463e-01 5.8622904121875763e-02</leafValues></_>
    <_>
      <internalNodes>
        0 -1 236 -145302593 -1271269129 -988158113 -516556357 -932352521
        -541773904 -1164848167 -237250085</internalNodes>
      <leafValues>
        -4.2358648031949997e-02 1.6179946064949036e-01</leafValues></_>
    <_>
      <internalNodes>
        0 -1 362 -916991787 1446325253 -331367361 1979633283 -1659381019
        -123650114 -1079903858 -894207107</internalNodes>
      <leafValues>
        -5.0257168710231781e-02 1.3036701083183289e-01</leafValues></_>
    <_>
      <internalNodes>
        0 -1 140 1555299227 -464477355 1961110930 1043715893 -716129659
        -575142714 -75629924 -284254566</internalNodes>
      <leafValues>
        -6.1674278229475021e-02 1.0673119872808456e-01</leafValues></_>
    <_>
      <internalNodes>
        0 -1 377 320088632 1042724176 1755654586 1020051350 117074026
        -431710005 95265506 945183512</internalNodes>
      <leafValues>
        -1.5917582809925079e-01 3.9974965155124664e-02</leafValues></_>
    <_>
      <internalNodes>
        0 -1 334 1881331714 -662559438 -1251063816 -987387903
        -2008849664 -116041499 159419521 -2061413326</internalNodes>
      <leafValues>
        -1.0226882994174957e-01 6.4055196940898895e-02</leafValues></_>
    <_>
      <internalNodes>
        0 -1 385 1006324178 1497178811 -614043817 1100916889 -447745130
        -1753121067 -406536198 -298584341</internalNodes>
      <leafValues>
        -6.0335319489240646e-02 1.1162705719470978e-01</leafValues></_>
    <_>
      <internalNodes>
        0 -1 425 -335355222 -1984387866 1272742975 -1015198 -1844166524
        1253574790 928310990 -536914446</internalNodes>
      <leafValues>
        -7.1770466864109039e-02 9.0844459831714630e-02</leafValues></_>
    <_>
      <internalNodes>
        0 -1 244 -1009974238 488254957 -2033702912 -909793720 286708518
        2124713649 -638195679 -1914895609</internalNodes>
      <leafValues>
        -1.0884257405996323e-01 6.7327834665775299e-02</leafValues></_>
    <_>
      <internalNodes>
        0 -1 185 -597432417 -280708395 360332297 -172415195 -951442035
        -1141038343 -1562862916 -339759345</internalNodes>
      <leafValues>
        -4.5197866857051849e-02 1.4875209331512451e-01</leafValues></_>
    <_>
      <internalNodes>
        0 -1 326 220536983 -1969171408 -1262791050 -287241068 370339924
        -294357738 -1551252356 -1104012702</internalNodes>
      <leafValues>
        -8.8171675801277161e-02 7.6692692935466766e-02</leafValues></_>
    <_>
      <internalNodes>
        0 -1 199 1050854045 473641104 1254173030 -1082086529 374043804
        -1452660549 155663390 351999102</internalNodes>
      <leafValues>
        -9.4405710697174072e-02 7.0922516286373138e-02</leafValues></_>
    <_>
      <internalNodes>
        0 -1 388 -33051916 -1615188352 -1951323513 -538855729 -918577985
        -1431271764 -590522696 -268443622</internalNodes>
      <leafValues>
        -5.4595734924077988e-02 1.2157619744539261e-01</leafValues></_>
    <_>
      <internalNodes>
        0 -1 303 1839598617 1545669782 1703175893 480641990 1744663143
        -1512629522 290283664 32573044</internalNodes>
      <leafValues>
        -1.0404647141695023e-01 6.2030147761106491e-02</leafValues></_>
    <_>
      <internalNodes>
        0 -1 133 1245803186 151523174 1740222324 995762108 436207812
        2059300339 903548615 -1324551643</internalNodes>
      <leafValues>
        -9.7362324595451355e-02 6.6937841475009918e-02</leafValues></_>
    <_>
      <internalNodes>
        0 -1 390 -456540993 1865766423 2136797147 -550505571 1693928675
        -50682705 -2048931731 -6308885</internalNodes>
      <leafValues>
        -4.0994964540004730e-02 1.6025027632713318e-01</leafValues></_>
    <_>
      <internalNodes>
        0 -1 436 453247124 -987736776 -2108363327 183512432 1566608944
        -382134036 486032584 1054867540</internalNodes>
      <leafValues>
        -1.9684945046901703e-01 3.4514088183641434e-02</leafValues></_>
    <_>
      <internalNodes>
        0 -1 452 -881476353 -549909837 2010926391 -1916830619 -35420228
        -1382668948 -995480833 -542192137</internalNodes>
      <leafValues>
        -4.6146132051944733e-02 1.4540871977806091e-01</leafValues></_>
    <_>
      <internalNodes>
        0 -1 434 -546325569 -353710353 -642983119 -581487469 -617665397
        -1360462741 -71376889 -1316901</internalNodes>
      <leafValues>
        -3.4443560987710953e-02 1.9283157587051392e-01</leafValues></_>
    <_>
      <internalNodes>
        0 -1 396 201335312 241175852 -1540598088 -1565773696 891950020
        -2034980079 95442516 4458656</internalNodes>
      <leafValues>
        -2.8082817792892456e-01 2.3709757253527641e-02</leafValues></_>
    <_>
      <internalNodes>
        0 -1 311 -421545217 -1078250329 959527719 1738787453 -194000909
        -1083249347 -9967489 -178295237</internalNodes>
      <leafValues>
        -3.7824839353561401e-02 1.8431934714317322e-01</leafValues></_>
    <_>
      <internalNodes>
        0 -1 111 -784466181 1574274841 -1765257975 1204451975
        -1762979225 -8469655 -2116279315 -268709261</internalNodes>
      <leafValues>
        -4.6459790319204330e-02 1.4356830716133118e-01</leafValues></_>
    <_>
      <internalNodes>
        0 -1 330 -1425013751 1577806791 1937586606 1190137857 -447113421
        -403397204 1464671063 -1842732964</internalNodes>
      <leafValues>
        -9.7689829766750336e-02 6.9225601851940155e-02</leafValues></_>
    <_>
      <internalNodes>
        0 -1 92 2097665437 -1121786345 1957096276 139525661 -811991590
        -773722515 -1222465301 -930117425</internalNodes>
      <leafValues>
        -5.6885235011577606e-02 1.2158721685409546e-01</leafValues></_>
    <_>
      <internalNodes>
        0 -1 31 -58999240 -90772777 -1465742411 2131745295 298387264
        -17327435 -488996157 -1469580941</internalNodes>
      <leafValues>
        -6.4772538840770721e-02 1.0477340221405029e-01</leafValues></_>
    <_>
      <internalNodes>
        0 -1 1 -839522655 1024081611 458986485 -1052182746 192924267
        -582194389 -1017260585 -824896420</internalNodes>
      <leafValues>
        -7.1681760251522064e-02 9.5618985593318939e-02</leafValues></_>
    <_>
      <internalNodes>
        0 -1 30 -775236929 -177896291 -549743655 -71967169 2124378047
        -726649658 1601825006 -6568413</internalNodes>
      <leafValues>
        -4.8918377608060837e-02 1.4380939304828644e-01</leafValues></_>
    <_>
      <internalNodes>
        0 -1 37 583442954 -2102084758 591440264 765100130 -1671351210
        554969521 279054906 339846080</internalNodes>
      <leafValues>
        -1.7705787718296051e-01 3.7830129265785217e-02</leafValues></_>
    <_>
      <internalNodes>
        0 -1 382 -746654822 2095844961 1771159303 -237408408 735115166
        -1259548831 -264920615 -5245821</internalNodes>
      <leafValues>
        -5.3076967597007751e-02 1.2756076455116272e-01</leafValues></_>
    <_>
      <internalNodes>
        0 -1 322 -106725354 1246804167 -2108946404 -1639418240 243795236
        1554252086 -2055683424 158337547</internalNodes>
      <leafValues>
        -1.2643317878246307e-01 5.4243981838226318e-02</leafValues></_>
    <_>
      <internalNodes>
        0 -1 410 8523264 39065399 1374379520 107484322 1482425408
        1425950604 8160000 5612881</internalNodes>
      <leafValues>
        -2.5153824687004089e-01 2.7026047930121422e-02</leafValues></_>
    <_>
      <internalNodes>
        0 -1 115 -741999627 -6293773 1979553789 -396387 -1133657154
        -1378182517 -126118149 -67532087</internalNodes>
      <leafValues>
        -3.0328704044222832e-02 2.2807766497135162e-01</leafValues></_>
    <_>
      <internalNodes>
        0 -1 348 -654922617 -271225935 893357491 -781660833 -177236579
        193011185 -139398660 -187971925</internalNodes>
      <leafValues>
        -5.5113516747951508e-02 1.2504708766937256e-01</leafValues></_>
    <_>
      <internalNodes>
        0 -1 420 16777216 823730161 1038111608 -1591342588 2113734416
        1535956328 1344018184 4202496</internalNodes>
      <leafValues>
        -2.8015944361686707e-01 2.4648126214742661e-02</leafValues></_>
    <_>
      <internalNodes>
        0 -1 468 -643306870 -736324067 -394251207 1819051446 220547994
        -1258143876 -1364500804 -133518901</internalNodes>
      <leafValues>
        -6.7075587809085846e-02 1.0287281125783920e-01</leafValues></_>
    <_>
      <internalNodes>
        0 -1 71 -1530396320 310653960 561966886 201513498 1096635392
        504400473 -432190196 548882320</internalNodes>
      <leafValues>
        -1.7368319630622864e-01 3.9709340780973434e-02</leafValues></_>
    <_>
      <internalNodes>
        0 -1 170 542840168 -1681127449 1747505864 -1633387224 1238613833
        905774726 1272845340 543127897</internalNodes>
      <leafValues>
        -1.2491472065448761e-01 5.5714953690767288e-02</leafValues></_>
    <_>
      <internalNodes>
        0 -1 179 -151422273 -672182288 2047986799 -57936175 -23752035
        -50684909 -529807809 -579128345</internalNodes>
      <leafValues>
        -4.7083694487810135e-02 1.5642675757408142e-01</leafValues></_>
    <_>
      <internalNodes>
        0 -1 60 576930564 14558790 -1966831054 105147110 1073744997
        1094452824 612658244 1094739008</internalNodes>
      <leafValues>
        -2.1340197324752808e-01 3.2159417867660522e-02</leafValues></_>
    <_>
      <internalNodes>
        0 -1 81 1532084023 -240262485 1554881247 -1086330713 -610545417
        -18512513 -11803441 -69206037</internalNodes>
      <leafValues>
        -3.3544316887855530e-02 2.0403970777988434e-01</leafValues></_>
    <_>
      <internalNodes>
        0 -1 284 1611376383 1432008184 132002842 -316237574 1870909663
        -1105856275 -397377605 -288384949</internalNodes>
      <leafValues>
        -5.5308025330305099e-02 1.2525546550750732e-01</leafValues></_>
    <_>
      <internalNodes>
        0 -1 208 139996416 -2041307084 33031376 1543527304 639639880
        769511296 -1394320574 340001808</internalNodes>
      <leafValues>
        -2.3007997870445251e-01 2.9658477753400803e-02</leafValues></_>
    <_>
      <internalNodes>
        0 -1 14 -2101253 2038076309 900854231 -973384707 -1218932772
        -579830723 -19284367 -201927765</internalNodes>
      <leafValues>
        -4.2174916714429855e-02 1.6168551146984100e-01</leafValues></_></weakClassifiers></stage15>
</opencv_storage>
