<?xml version="1.0"?>
<opencv_storage>
<stage14>
  <maxWeakCount>100</maxWeakCount>
  <stageThreshold>-1.4263876676559448e+00</stageThreshold>
  <weakClassifiers>
    <_>
      <internalNodes>
        0 -1 18 -1052933 -605044673 -627184769 -5381 -202388549
        -41442721 -1054001 -67111937</internalNodes>
      <leafValues>
        -5.2230292558670044e-01 -2.4154208600521088e-01</leafValues></_>
    <_>
      <internalNodes>
        0 -1 86 -825039646 -791507752 1042472287 -13071622 -1037858597
        -1144304911 -288366705 -537950701</internalNodes>
      <leafValues>
        -1.3496099412441254e-01 5.8820478618144989e-02</leafValues></_>
    <_>
      <internalNodes>
        0 -1 474 -345641288 -146478148 83413309 -710626064 -572215150
        -90150348 1586003162 -67118377</internalNodes>
      <leafValues>
        -8.3917312324047089e-02 1.0305578261613846e-01</leafValues></_>
    <_>
      <internalNodes>
        0 -1 416 -606888193 -1641510660 -1074225803 -1612149256
        -1086458629 -1520791555 -1951803905 -342127365</internalNodes>
      <leafValues>
        -5.0755463540554047e-02 1.5969586372375488e-01</leafValues></_>
    <_>
      <internalNodes>
        0 -1 425 -702092478 -27544342 1280595995 -70737050 -1558934323
        -328401457 -1480480308 -306657</internalNodes>
      <leafValues>
        -6.0483135282993317e-02 1.1982855945825577e-01</leafValues></_>
    <_>
      <internalNodes>
        0 -1 74 -2105074720 2132016818 569350988 -1555651578 -531730799
        -71975846 -1369907365 2119661315</internalNodes>
      <leafValues>
        -1.0582456737756729e-01 6.8419151008129120e-02</leafValues></_>
    <_>
      <internalNodes>
        0 -1 84 -597998501 1373456643 1608708734 2097809359 -592295932
        -808029664 -231023358 -83835170</internalNodes>
      <leafValues>
        -5.7197406888008118e-02 1.1883348971605301e-01</leafValues></_>
    <_>
      <internalNodes>
        0 -1 110 1516634756 -1277194316 966092792 -1746106508 1844722150
        1483056231 -1160769800 453050882</internalNodes>
      <leafValues>
        -1.0676955431699753e-01 8.1378556787967682e-02</leafValues></_>
    <_>
      <internalNodes>
        0 -1 110 -1951273189 1452542077 -55308875 1739552425 343521341
        -928697115 -474502031 -437338995</internalNodes>
      <leafValues>
        -6.6391907632350922e-02 1.2176266312599182e-01</leafValues></_>
    <_>
      <internalNodes>
        0 -1 444 -122650424 -571468844 -2042204298 -590369118
        -1341595508 -1450399770 -2099139938 -829845641</internalNodes>
      <leafValues>
        -7.0699200034141541e-02 1.0271550714969635e-01</leafValues></_>
    <_>
      <internalNodes>
        0 -1 164 1101269552 -780898891 548737184 1974397668 941196636
        1725152047 -1798204840 1643416906</internalNodes>
      <leafValues>
        -1.4202080667018890e-01 5.1906581968069077e-02</leafValues></_>
    <_>
      <internalNodes>
        0 -1 326 -579799595 518132863 -788598857 -563106284 -721386081
        -25862764 -1681007113 -1352986109</internalNodes>
      <leafValues>
        -5.8601461350917816e-02 1.2440649420022964e-01</leafValues></_>
    <_>
      <internalNodes>
        0 -1 462 -33849336 -151080180 -1124091032 -629147016 -130759168
        1054219348 1209571464 -2145780901</internalNodes>
      <leafValues>
        -9.2701338231563568e-02 7.7228799462318420e-02</leafValues></_>
    <_>
      <internalNodes>
        0 -1 430 -427843973 -24803888 -1103954956 -1157860628
        -1967305134 -1719115800 -817973601 -639777</internalNodes>
      <leafValues>
        -5.2238203585147858e-02 1.3427032530307770e-01</leafValues></_>
    <_>
      <internalNodes>
        0 -1 461 -1509833575 -1475042232 783664301 -413631324 589863083
        -290532696 1152864085 -1647339132</internalNodes>
      <leafValues>
        -9.9590383470058441e-02 7.1423724293708801e-02</leafValues></_>
    <_>
      <internalNodes>
        0 -1 149 -646327585 -656896786 -86411646 2076295874 -1019130625
        -34812301 -278810816 -41333931</internalNodes>
      <leafValues>
        -6.4961642026901245e-02 1.0767947137355804e-01</leafValues></_>
    <_>
      <internalNodes>
        0 -1 193 1593753760 274595632 615018552 -1854448252 273935332
        498840697 -285667923 -1182531664</internalNodes>
      <leafValues>
        -8.2737848162651062e-02 8.1500105559825897e-02</leafValues></_>
    <_>
      <internalNodes>
        0 -1 265 1770135313 484387941 -456637424 2205732 -916970816
        509175804 -79397431 1783090462</internalNodes>
      <leafValues>
        -1.0182361304759979e-01 6.8134300410747528e-02</leafValues></_>
    <_>
      <internalNodes>
        0 -1 212 -1357712261 1497527438 166074389 2127077517 -465652746
        -458952826 1582578223 195839567</internalNodes>
      <leafValues>
        -7.7847532927989960e-02 8.6916595697402954e-02</leafValues></_>
    <_>
      <internalNodes>
        0 -1 455 2053692849 454854768 890632961 794750465 -1032051241
        801082744 -960530167 -902200170</internalNodes>
      <leafValues>
        -7.2930566966533661e-02 9.1213122010231018e-02</leafValues></_>
    <_>
      <internalNodes>
        0 -1 16 -1379593 -236264262 -1241612449 -572694303 -849625109
        -560434519 1372042190 -136349985</internalNodes>
      <leafValues>
        -4.2478714138269424e-02 1.5349896252155304e-01</leafValues></_>
    <_>
      <internalNodes>
        0 -1 5 131584 2109186 542248540 67116704 140125712 1986280724
        -1918894048 4211728</internalNodes>
      <leafValues>
        -3.2973578572273254e-01 2.0198322832584381e-02</leafValues></_>
    <_>
      <internalNodes>
        0 -1 183 574619816 346973607 815866682 -1918019228 767495277
        -904745222 210376359 884261406</internalNodes>
      <leafValues>
        -1.3847917318344116e-01 4.7153308987617493e-02</leafValues></_>
    <_>
      <internalNodes>
        0 -1 203 -1485219497 144026768 921700647 2105219572 989796565
        -167902408 -76174634 -818989312</internalNodes>
      <leafValues>
        -6.3218124210834503e-02 1.1253634095191956e-01</leafValues></_>
    <_>
      <internalNodes>
        0 -1 389 -958947413 -2715553 -1675407399 -204095500 -1802910019
        -375332177 -335229495 -637551872</internalNodes>
      <leafValues>
        -5.0329431891441345e-02 1.3602250814437866e-01</leafValues></_>
    <_>
      <internalNodes>
        0 -1 294 -9975137 -679784878 1928860891 1440987035 -596397174
        -1134916514 -444606738 -243534901</internalNodes>
      <leafValues>
        -4.2314741760492325e-02 1.6179114580154419e-01</leafValues></_>
    <_>
      <internalNodes>
        0 -1 483 2068445163 -703533722 131587057 -1893764727 -1411144529
        819985834 1565520317 -681658178</internalNodes>
      <leafValues>
        -5.5690355598926544e-02 1.2241262942552567e-01</leafValues></_>
    <_>
      <internalNodes>
        0 -1 373 1577760411 -317876206 -832704875 -816856769 1954432804
        -12697256 1578047138 -1257247205</internalNodes>
      <leafValues>
        -6.4257144927978516e-02 1.0411189496517181e-01</leafValues></_>
    <_>
      <internalNodes>
        0 -1 0 -1540183648 -857169312 -361664162 1280315424 -752703434
        -301291802 97588304 1098137696</internalNodes>
      <leafValues>
        -1.5880294144153595e-01 4.3123450130224228e-02</leafValues></_>
    <_>
      <internalNodes>
        0 -1 422 -440006528 -757333013 -191279078 -36972858 -946770526
        -398936224 109107102 -1647753962</internalNodes>
      <leafValues>
        -8.3732493221759796e-02 8.2961730659008026e-02</leafValues></_>
    <_>
      <internalNodes>
        0 -1 100 -710795232 -51597944 -835322121 1479255996 -1958747655
        -122921482 -207811713 -1123306785</internalNodes>
      <leafValues>
        -6.7574016749858856e-02 9.8594710230827332e-02</leafValues></_>
    <_>
      <internalNodes>
        0 -1 242 -390952132 1198074934 -2136435275 -982991924 1855828056
        -1184498342 -501679528 -1234714198</internalNodes>
      <leafValues>
        -8.0486409366130829e-02 8.1982247531414032e-02</leafValues></_>
    <_>
      <internalNodes>
        0 -1 64 -268415297 -974353523 258887503 -100675297 1050690262
        -321221367 1945609727 -1108001</internalNodes>
      <leafValues>
        -5.1243193447589874e-02 1.3090749084949493e-01</leafValues></_>
    <_>
      <internalNodes>
        0 -1 138 -786508951 758859435 1097887801 -587475889 -1835880540
        1374519339 -1174049058 2080183842</internalNodes>
      <leafValues>
        -7.1502409875392914e-02 9.4595149159431458e-02</leafValues></_>
    <_>
      <internalNodes>
        0 -1 47 646883104 -958382051 776119406 630980652 1233167372
        127354398 162934532 158663878</internalNodes>
      <leafValues>
        -1.7138472199440002e-01 4.0603995323181152e-02</leafValues></_>
    <_>
      <internalNodes>
        0 -1 314 -479222273 1349838654 -554292465 -1783814317 -46028994
        -53587987 -3825202 -628164933</internalNodes>
      <leafValues>
        -4.9907803535461426e-02 1.3677431643009186e-01</leafValues></_>
    <_>
      <internalNodes>
        0 -1 449 -1943787088 89001769 1056471868 192292020 99753996
        -857416792 831383888 1065887616</internalNodes>
      <leafValues>
        -1.6091485321521759e-01 4.1253346949815750e-02</leafValues></_>
    <_>
      <internalNodes>
        0 -1 299 -1986064282 1048945255 -1638821608 1810754990
        1785129152 -1355940139 2098627706 1359671108</internalNodes>
      <leafValues>
        -1.0132046788930893e-01 6.7569293081760406e-02</leafValues></_>
    <_>
      <internalNodes>
        0 -1 176 -8935521 -539115797 -615370343 -705741416 -92415233
        -1612468681 -433980744 -1575221</internalNodes>
      <leafValues>
        -3.4060209989547729e-02 1.9584923982620239e-01</leafValues></_>
    <_>
      <internalNodes>
        0 -1 172 97060618 -1180889131 -175863593 -2069915398 -1284496456
        969068729 179243274 -364272992</internalNodes>
      <leafValues>
        -9.0613946318626404e-02 7.5293347239494324e-02</leafValues></_>
    <_>
      <internalNodes>
        0 -1 221 -472414962 1381230527 -1019547521 362363732 -598308610
        -160048333 1718795485 -75130848</internalNodes>
      <leafValues>
        -6.9801300764083862e-02 1.0358787328004837e-01</leafValues></_>
    <_>
      <internalNodes>
        0 -1 309 -223481561 -132640867 1028183879 1106242519 -1780429940
        -1508301407 2011425261 -1097011657</internalNodes>
      <leafValues>
        -5.8917906135320663e-02 1.1444882303476334e-01</leafValues></_>
    <_>
      <internalNodes>
        0 -1 78 -2147473920 570606630 575014912 201351848 75502628
        70584950 1050368 1141129232</internalNodes>
      <leafValues>
        -4.1108053922653198e-01 1.6105229035019875e-02</leafValues></_>
    <_>
      <internalNodes>
        0 -1 146 -712315461 -627455091 -1154559631 -204088253 1541578475
        -63414665 -337606676 -276050217</internalNodes>
      <leafValues>
        -4.5988522469997406e-02 1.5057629346847534e-01</leafValues></_>
    <_>
      <internalNodes>
        0 -1 239 627890672 907028936 995827436 539681878 1485701009
        355504085 878853644 151916943</internalNodes>
      <leafValues>
        -1.0889558494091034e-01 6.3166402280330658e-02</leafValues></_>
    <_>
      <internalNodes>
        0 -1 343 -1006626800 1441418800 -1538377954 -2132512411
        1557987660 174364701 -302117849 1278627690</internalNodes>
      <leafValues>
        -1.4516705274581909e-01 5.0755776464939117e-02</leafValues></_>
    <_>
      <internalNodes>
        0 -1 2 774242898 -620837647 1941268479 -2026410474 2137853805
        -1126577659 1137012208 -445166460</internalNodes>
      <leafValues>
        -1.1112882941961288e-01 6.2238037586212158e-02</leafValues></_>
    <_>
      <internalNodes>
        0 -1 281 -275205129 -696678599 -1798449169 656345965 -341777473
        -555965970 -1166102870 -1159730179</internalNodes>
      <leafValues>
        -4.3786276131868362e-02 1.5491703152656555e-01</leafValues></_>
    <_>
      <internalNodes>
        0 -1 159 -620235819 -1114120579 -454235010 -775819420 -602959375
        -1906350413 -96758179 1806367024</internalNodes>
      <leafValues>
        -5.6947670876979828e-02 1.2022128701210022e-01</leafValues></_>
    <_>
      <internalNodes>
        0 -1 225 43649536 1417949574 1685109282 -1836705144 534841376
        -1470865888 -57210930 157549067</internalNodes>
      <leafValues>
        -1.6906213760375977e-01 4.3992020189762115e-02</leafValues></_>
    <_>
      <internalNodes>
        0 -1 124 -1189618689 -75656755 1545445231 -675294953 -601424427
        -71975758 -22287362 -282333431</internalNodes>
      <leafValues>
        -3.5501249134540558e-02 1.9359317421913147e-01</leafValues></_>
    <_>
      <internalNodes>
        0 -1 481 -231214345 1178757095 1760654834 -846465653 -1692498891
        -1895073874 828239202 -918619893</internalNodes>
      <leafValues>
        -6.9650359451770782e-02 9.6213191747665405e-02</leafValues></_>
    <_>
      <internalNodes>
        0 -1 463 -914516982 -402014673 865368977 225164174 919435183
        -275204396 -1534809430 2088300326</internalNodes>
      <leafValues>
        -8.2612670958042145e-02 8.1288002431392670e-02</leafValues></_>
    <_>
      <internalNodes>
        0 -1 439 739781412 -1474255628 267578606 245539797 -1760414339
        -1884801855 793532509 -1173618248</internalNodes>
      <leafValues>
        -1.2893103063106537e-01 5.3622037172317505e-02</leafValues></_>
    <_>
      <internalNodes>
        0 -1 274 634665728 1720866564 969183428 -2062017488 1987692588
        591148436 1410625284 100939794</internalNodes>
      <leafValues>
        -1.8822810053825378e-01 3.4698545932769775e-02</leafValues></_>
    <_>
      <internalNodes>
        0 -1 446 1532726747 1727372924 -538443015 409713396 2109645731
        -407720534 1072948936 -377496422</internalNodes>
      <leafValues>
        -4.9805026501417160e-02 1.3401667773723602e-01</leafValues></_>
    <_>
      <internalNodes>
        0 -1 73 -1821138053 -671137486 -1144242529 -25703902 1014917074
        1977607533 -974918625 -685255021</internalNodes>
      <leafValues>
        -5.4483890533447266e-02 1.2552970647811890e-01</leafValues></_>
    <_>
      <internalNodes>
        0 -1 61 1079684703 -1708070134 -698949345 1596996630 -165517164
        1155128292 -414722728 -36341870</internalNodes>
      <leafValues>
        -8.1591144204139709e-02 8.4022715687751770e-02</leafValues></_>
    <_>
      <internalNodes>
        0 -1 205 1900017647 411429904 -1432330313 1610650323 -1697218398
        -1904730166 1808747996 2022838344</internalNodes>
      <leafValues>
        -8.6815595626831055e-02 7.9848140478134155e-02</leafValues></_>
    <_>
      <internalNodes>
        0 -1 119 -651196673 -214490211 779059120 -11040858 -328233522
        -4281931 -353039378 -3151138</internalNodes>
      <leafValues>
        -4.1806079447269440e-02 1.7660279572010040e-01</leafValues></_>
    <_>
      <internalNodes>
        0 -1 130 111680230 663685218 -2110968238 547726856 503754294
        1681569381 304551716 435532934</internalNodes>
      <leafValues>
        -1.2993846833705902e-01 5.2475564181804657e-02</leafValues></_>
    <_>
      <internalNodes>
        0 -1 364 -881336877 410086559 1296218983 -5577853 641439093
        2104778663 -269669347 -2016934799</internalNodes>
      <leafValues>
        -7.0860639214515686e-02 9.4041794538497925e-02</leafValues></_>
    <_>
      <internalNodes>
        0 -1 217 232675423 2146985922 -654192711 522845559 -570796112
        -1021417224 1321745694 -1624605030</internalNodes>
      <leafValues>
        -7.6769933104515076e-02 8.7246581912040710e-02</leafValues></_>
    <_>
      <internalNodes>
        0 -1 445 -1888572768 -2103994082 1901945403 -549894342 573768368
        -554060625 -640893836 -55656414</internalNodes>
      <leafValues>
        -8.3593755960464478e-02 8.2895390689373016e-02</leafValues></_>
    <_>
      <internalNodes>
        0 -1 145 1517783183 518836299 113146531 170776795 1180746853
        -338319522 -551763249 468774474</internalNodes>
      <leafValues>
        -8.7172903120517731e-02 8.0498293042182922e-02</leafValues></_>
    <_>
      <internalNodes>
        0 -1 123 1576526847 -708332570 -954806315 -1112179533 483210761
        2089644873 -977957269 -377752085</internalNodes>
      <leafValues>
        -4.3642558157444000e-02 1.6448177397251129e-01</leafValues></_>
    <_>
      <internalNodes>
        0 -1 154 -563439476 -1873693187 -948212402 -652721075 682669183
        -1429722219 56808090 -934737400</internalNodes>
      <leafValues>
        -8.0564409494400024e-02 8.6414530873298645e-02</leafValues></_>
    <_>
      <internalNodes>
        0 -1 320 -138383497 -578949125 1508536699 -1631097017 2111729539
        983615335 -337372021 -1900373474</internalNodes>
      <leafValues>
        -5.9819936752319336e-02 1.1846876889467239e-01</leafValues></_>
    <_>
      <internalNodes>
        0 -1 459 1392540915 60789606 1408611813 462168316 11019319
        732567366 1969512865 -1739830328</internalNodes>
      <leafValues>
        -9.6292674541473389e-02 7.2667688131332397e-02</leafValues></_>
    <_>
      <internalNodes>
        0 -1 359 -140617009 2137705907 -1997464455 -1781928521
        -611567475 -1281632364 -408047877 -288623726</internalNodes>
      <leafValues>
        -4.9093745648860931e-02 1.3942977786064148e-01</leafValues></_>
    <_>
      <internalNodes>
        0 -1 303 -811356717 -56530510 2109849759 2069717487 -948108375
        -320922928 -135357221 -25515340</internalNodes>
      <leafValues>
        -4.8970069736242294e-02 1.4127771556377411e-01</leafValues></_>
    <_>
      <internalNodes>
        0 -1 178 -2133713654 -641587290 -1401412280 -1916629144
        -554957428 780800921 -1342621295 -448534262</internalNodes>
      <leafValues>
        -9.8444558680057526e-02 7.1128822863101959e-02</leafValues></_>
    <_>
      <internalNodes>
        0 -1 400 -682755331 -635848131 -1413988781 -1686290434
        -1091318899 -2901677 1867562178 -11804193</internalNodes>
      <leafValues>
        -4.3843805789947510e-02 1.6113154590129852e-01</leafValues></_>
    <_>
      <internalNodes>
        0 -1 114 -2090919873 -891295819 793616111 1970268023 -1910143267
        -1023696606 -315715882 -403703816</internalNodes>
      <leafValues>
        -5.1856640726327896e-02 1.3538721203804016e-01</leafValues></_>
    <_>
      <internalNodes>
        0 -1 11 1221103116 240468705 -673345233 -2045745647 -657507054
        540142775 949646666 5511969</internalNodes>
      <leafValues>
        -1.5914581716060638e-01 4.5884292572736740e-02</leafValues></_>
    <_>
      <internalNodes>
        0 -1 232 -890011387 1390463608 -1114012362 1399013666 -216668724
        -61583948 1292793579 -489488433</internalNodes>
      <leafValues>
        -6.9175735116004944e-02 1.0217127203941345e-01</leafValues></_>
    <_>
      <internalNodes>
        0 -1 50 -137169927 -1095393419 1939618525 1503379711 2110550011
        -251743517 -962933286 -1940155658</internalNodes>
      <leafValues>
        -4.4456847012042999e-02 1.5800683200359344e-01</leafValues></_>
    <_>
      <internalNodes>
        0 -1 59 169914368 -424386944 580659720 -904361270 2059613216
        893850864 1676166912 6357060</internalNodes>
      <leafValues>
        -2.6187118887901306e-01 3.0016498640179634e-02</leafValues></_>
    <_>
      <internalNodes>
        0 -1 44 -1844575217 1590677412 -461054885 -1141811927 1309743761
        -579702895 -254864155 264052304</internalNodes>
      <leafValues>
        -8.8339507579803467e-02 8.0134145915508270e-02</leafValues></_>
    <_>
      <internalNodes>
        0 -1 156 -37751106 -37038066 -480578307 -177739790 2075896679
        736685789 -1904416235 -339222897</internalNodes>
      <leafValues>
        -4.4430632144212723e-02 1.5795218944549561e-01</leafValues></_>
    <_>
      <internalNodes>
        0 -1 54 235144230 648675918 -1512775158 715531390 240722257
        617922164 -1994495227 604184080</internalNodes>
      <leafValues>
        -2.2477689385414124e-01 3.1491518020629883e-02</leafValues></_>
    <_>
      <internalNodes>
        0 -1 63 1246328211 -82791462 -601568311 -135796675 443542306
        -1345331958 -818246162 -798833</internalNodes>
      <leafValues>
        -5.2301790565252304e-02 1.3453058898448944e-01</leafValues></_>
    <_>
      <internalNodes>
        0 -1 271 1363147871 -637620521 1582386382 -974377747 2053426669
        -397833032 -1866629287 -838199921</internalNodes>
      <leafValues>
        -6.0532130300998688e-02 1.1618830263614655e-01</leafValues></_>
    <_>
      <internalNodes>
        0 -1 398 49788928 1011973612 1042491440 866139424 554025232
        153765712 1759582956 1255507780</internalNodes>
      <leafValues>
        -1.5011070668697357e-01 4.5614134520292282e-02</leafValues></_>
    <_>
      <internalNodes>
        0 -1 423 -18112110 -631718496 1438939004 -1082736744 -1128194988
        -1630315134 -1908088308 -2100928421</internalNodes>
      <leafValues>
        -8.1106290221214294e-02 8.7473869323730469e-02</leafValues></_>
    <_>
      <internalNodes>
        0 -1 60 -681857033 1912252133 -2000731748 1465515751 835188453
        -293642264 658964167 -68303034</internalNodes>
      <leafValues>
        -4.9267597496509552e-02 1.4162333309650421e-01</leafValues></_>
    <_>
      <internalNodes>
        0 -1 278 -2048527915 -616313947 -1490424691 2012194705
        -613834312 -1125042829 -302065021 -615539525</internalNodes>
      <leafValues>
        -4.5852646231651306e-02 1.4801269769668579e-01</leafValues></_>
    <_>
      <internalNodes>
        0 -1 9 780666428 444657033 972954184 -1393275216 1913993273
        477636068 899793172 944019</internalNodes>
      <leafValues>
        -1.4604561030864716e-01 4.6698268502950668e-02</leafValues></_>
    <_>
      <internalNodes>
        0 -1 358 610692098 79107745 -380234901 803991133 286545431
        222263249 -1427814125 68280422</internalNodes>
      <leafValues>
        -1.4290016889572144e-01 4.8637721687555313e-02</leafValues></_>
    <_>
      <internalNodes>
        0 -1 360 -1470234689 -921884751 1536455998 182583033 -286643075
        729072765 516206086 638600217</internalNodes>
      <leafValues>
        -9.6765235066413879e-02 7.2627007961273193e-02</leafValues></_>
    <_>
      <internalNodes>
        0 -1 88 -936246720 -124623232 -1328745866 -717467476 -878989904
        -1660416539 1596351472 1077477896</internalNodes>
      <leafValues>
        -1.1815975606441498e-01 5.9086129069328308e-02</leafValues></_>
    <_>
      <internalNodes>
        0 -1 454 -81275937 -43797273 2128456695 -87959485 -936928065
        -1076844560 654289871 -541874261</internalNodes>
      <leafValues>
        -3.5845451056957245e-02 2.0009124279022217e-01</leafValues></_>
    <_>
      <internalNodes>
        0 -1 338 -434665315 1390322924 -861037619 1783410357 1812276636
        734602470 -230510080 1221571208</internalNodes>
      <leafValues>
        -8.5637554526329041e-02 8.1659115850925446e-02</leafValues></_>
    <_>
      <internalNodes>
        0 -1 369 -527541153 1777103256 -973944659 2111078088 -1151567465
        581287359 -839904892 -2011196384</internalNodes>
      <leafValues>
        -8.1523232161998749e-02 8.6218766868114471e-02</leafValues></_>
    <_>
      <internalNodes>
        0 -1 279 259937288 -784782862 -1479850488 -1413063131 171798098
        653354101 1786211082 70818712</internalNodes>
      <leafValues>
        -1.3152141869068146e-01 5.3203701972961426e-02</leafValues></_>
    <_>
      <internalNodes>
        0 -1 144 -682368005 -1039030801 2037651961 -42655267 -537202961
        384809458 -326275122 -343150284</internalNodes>
      <leafValues>
        -4.9132741987705231e-02 1.4920608699321747e-01</leafValues></_>
    <_>
      <internalNodes>
        0 -1 208 551177488 -2141937594 971023040 -391587168 83409384
        232025134 -1662755518 444402953</internalNodes>
      <leafValues>
        -1.4984942972660065e-01 4.9225684255361557e-02</leafValues></_>
    <_>
      <internalNodes>
        0 -1 72 631926002 -1140840393 -1574383838 176351840 411056993
        -60653194 1078367260 1441666128</internalNodes>
      <leafValues>
        -1.3461562991142273e-01 5.2496351301670074e-02</leafValues></_>
    <_>
      <internalNodes>
        0 -1 93 -740830659 867695475 -1267247491 2134895851 -95142417
        -7526771 -820265486 -70652433</internalNodes>
      <leafValues>
        -4.4127304106950760e-02 1.5923485159873962e-01</leafValues></_>
    <_>
      <internalNodes>
        0 -1 118 -2012182008 -131522046 168199358 -1201227606 -53703268
        1927066677 1905330590 -1323371835</internalNodes>
      <leafValues>
        -9.2911601066589355e-02 7.4768371880054474e-02</leafValues></_></weakClassifiers></stage14>
</opencv_storage>
