<?xml version="1.0"?>
<opencv_storage>
<stage12>
  <maxWeakCount>100</maxWeakCount>
  <stageThreshold>-1.4116021394729614e+00</stageThreshold>
  <weakClassifiers>
    <_>
      <internalNodes>
        0 -1 153 -653468974 -15533974 1459932155 -539612712 -1815488008
        524858048 -353440821 -607403638</internalNodes>
      <leafValues>
        -5.7013362646102905e-01 -3.9636081457138062e-01</leafValues></_>
    <_>
      <internalNodes>
        0 -1 126 -179537448 -7631189 1417949884 -545435159 -1210320213
        1648601770 -1556874253 -245690765</internalNodes>
      <leafValues>
        -1.5092743933200836e-01 4.6666819602251053e-02</leafValues></_>
    <_>
      <internalNodes>
        0 -1 417 -894438720 136970000 1235748880 -1616380588 -592583775
        -1674053954 -2046847968 -2002786805</internalNodes>
      <leafValues>
        -1.3103041052818298e-01 7.0851571857929230e-02</leafValues></_>
    <_>
      <internalNodes>
        0 -1 371 -144708103 -241327663 274079705 -13818859 -214311957
        -40936033 -1081352485 -300943445</internalNodes>
      <leafValues>
        -4.2279381304979324e-02 1.9805172085762024e-01</leafValues></_>
    <_>
      <internalNodes>
        0 -1 417 326780731 -784420985 531237825 1086127535 237337118
        1857744585 2096699611 2007990006</internalNodes>
      <leafValues>
        -2.4191817268729210e-02 1.8377670645713806e-01</leafValues></_>
    <_>
      <internalNodes>
        0 -1 417 -101204481 -2629921 -155976705 -8451077 -134309377
        -134251401 -76091393 -9397763</internalNodes>
      <leafValues>
        -4.5190420001745224e-02 3.9180257916450500e-01</leafValues></_>
    <_>
      <internalNodes>
        0 -1 417 -1029160448 2637056 159907840 8451092 203776512
        201779096 76092416 10446338</internalNodes>
      <leafValues>
        -3.9253729581832886e-01 3.2705469056963921e-03</leafValues></_>
    <_>
      <internalNodes>
        0 -1 68 -1026825521 -596787477 -2107186581 685895275 -632207905
        -405119993 1318510335 -813703201</internalNodes>
      <leafValues>
        -6.1072483658790588e-02 1.2763941287994385e-01</leafValues></_>
    <_>
      <internalNodes>
        0 -1 228 806289920 1036821850 47471901 2098559994 970242264
        984984980 206674056 2031419538</internalNodes>
      <leafValues>
        -1.2072553485631943e-01 6.5700136125087738e-02</leafValues></_>
    <_>
      <internalNodes>
        0 -1 481 -2080375294 1174593623 1088259136 1220507594 1068802439
        -1391502871 -2048971392 -1030752437</internalNodes>
      <leafValues>
        -6.8871118128299713e-02 1.1168668419122696e-01</leafValues></_>
    <_>
      <internalNodes>
        0 -1 145 1115509399 -1144336825 1121415343 1393285247 239733967
        -79223329 -989004082 -1909304824</internalNodes>
      <leafValues>
        -7.7115975320339203e-02 9.8427496850490570e-02</leafValues></_>
    <_>
      <internalNodes>
        0 -1 401 -237122465 1610010086 -1402441896 -1719601208
        -991066882 -50838532 -992936820 -1468007622</internalNodes>
      <leafValues>
        -5.1845911890268326e-02 1.3454066216945648e-01</leafValues></_>
    <_>
      <internalNodes>
        0 -1 267 933214687 -1116620133 851509377 -956000296 -1664316255
        -1653929068 1989999481 -5518519</internalNodes>
      <leafValues>
        -5.6684993207454681e-02 1.2933066487312317e-01</leafValues></_>
    <_>
      <internalNodes>
        0 -1 106 1426217951 1603382652 658553805 -1248761064 -881089631
        -1226890708 -110304533 -10486841</internalNodes>
      <leafValues>
        -4.6636529266834259e-02 1.4965917170047760e-01</leafValues></_>
    <_>
      <internalNodes>
        0 -1 144 -741100841 -1652595230 2035299195 -537690657 -20912654
        1060813024 -274736177 -607422533</internalNodes>
      <leafValues>
        -4.2121719568967819e-02 1.6751031577587128e-01</leafValues></_>
    <_>
      <internalNodes>
        0 -1 67 306217536 -2002769268 93112582 585765472 1350069088
        398476004 -1874520268 872728288</internalNodes>
      <leafValues>
        -2.2845354676246643e-01 3.1495474278926849e-02</leafValues></_>
    <_>
      <internalNodes>
        0 -1 212 -1507599125 359593647 -1683612411 2143413357
        -1577152073 -587288659 471722927 -1415094573</internalNodes>
      <leafValues>
        -5.5044967681169510e-02 1.3139460980892181e-01</leafValues></_>
    <_>
      <internalNodes>
        0 -1 29 -895351154 1481549490 1869817043 253921856 -992531968
        1224237941 869585549 1465792601</internalNodes>
      <leafValues>
        -1.2537927925586700e-01 5.6575138121843338e-02</leafValues></_>
    <_>
      <internalNodes>
        0 -1 221 -494692465 -804010593 -1197218497 1686204310 -662732290
        -1102595981 -228378531 -87831942</internalNodes>
      <leafValues>
        -5.4181005805730820e-02 1.3042990863323212e-01</leafValues></_>
    <_>
      <internalNodes>
        0 -1 190 1535236607 2073912708 293943519 -574623436 -664891461
        -140672579 -34944001 -269489688</internalNodes>
      <leafValues>
        -3.6757573485374451e-02 1.9731503725051880e-01</leafValues></_>
    <_>
      <internalNodes>
        0 -1 388 -1173903360 -631562206 1253050890 401531116 1430527298
        2123400961 492160540 -196616142</internalNodes>
      <leafValues>
        -1.0214134305715561e-01 7.1864292025566101e-02</leafValues></_>
    <_>
      <internalNodes>
        0 -1 43 581869762 343297954 251522311 -1914030385 359768406
        983525218 -1983951086 -1564873962</internalNodes>
      <leafValues>
        -1.0289768874645233e-01 6.6584259271621704e-02</leafValues></_>
    <_>
      <internalNodes>
        0 -1 175 -345071584 -803184458 -94995308 -611792350 -1525107583
        1564249205 69456712 -1334450756</internalNodes>
      <leafValues>
        -9.1444730758666992e-02 7.8570999205112457e-02</leafValues></_>
    <_>
      <internalNodes>
        0 -1 44 -2094295633 1231743492 -1266357897 -604527421 1520071393
        -60561627 1975704623 -1476922161</internalNodes>
      <leafValues>
        -6.3480406999588013e-02 1.1482179164886475e-01</leafValues></_>
    <_>
      <internalNodes>
        0 -1 89 -790461792 -614361163 -136431619 1535469569 -608261707
        -40297306 1693424606 -437367098</internalNodes>
      <leafValues>
        -7.7292911708354950e-02 9.5276743173599243e-02</leafValues></_>
    <_>
      <internalNodes>
        0 -1 1 -1781325254 -1700589642 1549488823 1362459648 -812701907
        -1621196887 -820631660 2119660625</internalNodes>
      <leafValues>
        -9.4718225300312042e-02 7.6652012765407562e-02</leafValues></_>
    <_>
      <internalNodes>
        0 -1 285 740880516 84854806 155844356 -301415678 -1127784524
        408540807 -264651720 691532822</internalNodes>
      <leafValues>
        -1.3973695039749146e-01 5.0274439156055450e-02</leafValues></_>
    <_>
      <internalNodes>
        0 -1 151 -613905304 -1126296336 -457292417 520255139 -793610048
        2144902223 2105599454 -48177294</internalNodes>
      <leafValues>
        -1.0147482901811600e-01 7.1314856410026550e-02</leafValues></_>
    <_>
      <internalNodes>
        0 -1 460 -110773325 -241321503 -711601703 -12192641 240379895
        -2013542405 1830142427 -269499927</internalNodes>
      <leafValues>
        -4.7041013836860657e-02 1.4735332131385803e-01</leafValues></_>
    <_>
      <internalNodes>
        0 -1 361 -711471681 762855310 1971731573 -337715263 -690775179
        -540476059 -353313128 -1132113513</internalNodes>
      <leafValues>
        -6.1314724385738373e-02 1.1305382102727890e-01</leafValues></_>
    <_>
      <internalNodes>
        0 -1 195 1577144025 1429233075 565718720 1161942406 2003645937
        -1161720215 -1432630161 -323010791</internalNodes>
      <leafValues>
        -6.7165680229663849e-02 1.0417226701974869e-01</leafValues></_>
    <_>
      <internalNodes>
        0 -1 306 -1057296833 446109245 469637907 1893743280 1023288101
        -374456515 995600905 1258151170</internalNodes>
      <leafValues>
        -8.6038894951343536e-02 8.2488164305686951e-02</leafValues></_>
    <_>
      <internalNodes>
        0 -1 448 704161808 478707757 100537088 -1877982174 477462454
        706331254 74464397 180639376</internalNodes>
      <leafValues>
        -1.6129650175571442e-01 4.2376194149255753e-02</leafValues></_>
    <_>
      <internalNodes>
        0 -1 69 -704677889 1395619175 -283477505 -13911557 -591474792
        1984116205 1276551326 -804114</internalNodes>
      <leafValues>
        -4.2090777307748795e-02 1.6470265388488770e-01</leafValues></_>
    <_>
      <internalNodes>
        0 -1 231 -181289728 1644252886 1651050291 1014049559 -368571805
        587123253 1851938082 477012798</internalNodes>
      <leafValues>
        -1.2283999472856522e-01 5.7855349034070969e-02</leafValues></_>
    <_>
      <internalNodes>
        0 -1 374 -632645453 -676428825 -167956945 1339924086 -1672694793
        -1646468688 1601606094 -665107749</internalNodes>
      <leafValues>
        -5.6419499218463898e-02 1.2417756766080856e-01</leafValues></_>
    <_>
      <internalNodes>
        0 -1 85 576409318 -2079160824 -802634240 539011086 1852985344
        1060588263 -805942720 1728515444</internalNodes>
      <leafValues>
        -1.6786515712738037e-01 3.9737749844789505e-02</leafValues></_>
    <_>
      <internalNodes>
        0 -1 408 1800723347 320566037 493440884 -1254871660 -965737115
        -990317388 786488087 171334577</internalNodes>
      <leafValues>
        -9.7293056547641754e-02 7.0715755224227905e-02</leafValues></_>
    <_>
      <internalNodes>
        0 -1 343 821005279 -150286479 -372801637 -1953932436 2046797311
        988330237 -303117139 -290792469</internalNodes>
      <leafValues>
        -4.7729432582855225e-02 1.4557977020740509e-01</leafValues></_>
    <_>
      <internalNodes>
        0 -1 339 -1059738179 -136660517 1839545979 515492222 -240577079
        -68153765 2112197900 -575416541</internalNodes>
      <leafValues>
        -5.7802170515060425e-02 1.2174598127603531e-01</leafValues></_>
    <_>
      <internalNodes>
        0 -1 254 1150298440 1075875842 464162852 110431116 -678164460
        471867462 -1522946308 38209072</internalNodes>
      <leafValues>
        -1.6099245846271515e-01 4.3975878506898880e-02</leafValues></_>
    <_>
      <internalNodes>
        0 -1 432 -577242751 -939672003 -1925546719 -1635753645
        -400094761 -1136739066 1800200204 -206815050</internalNodes>
      <leafValues>
        -6.6866084933280945e-02 1.0367294400930405e-01</leafValues></_>
    <_>
      <internalNodes>
        0 -1 354 -492565862 2001309523 13964224 -1163174008 1349010594
        2117482237 953185534 893279789</internalNodes>
      <leafValues>
        -1.0890255123376846e-01 6.4979121088981628e-02</leafValues></_>
    <_>
      <internalNodes>
        0 -1 389 -139067601 -17331169 -1918666275 -8274381 -695497537
        -1104133841 -182073650 -545790069</internalNodes>
      <leafValues>
        -3.8750175386667252e-02 1.8631336092948914e-01</leafValues></_>
    <_>
      <internalNodes>
        0 -1 384 134220832 692849696 497826044 675155498 190338112
        238294309 953680900 67635984</internalNodes>
      <leafValues>
        -3.5171627998352051e-01 2.0251354202628136e-02</leafValues></_>
    <_>
      <internalNodes>
        0 -1 444 -591662949 -570869995 -976818730 1644167163 -393488183
        -640840027 -638919938 -6162</internalNodes>
      <leafValues>
        -4.1071806102991104e-02 1.7646329104900360e-01</leafValues></_>
    <_>
      <internalNodes>
        0 -1 357 -42601475 -588017897 533608761 -910311543 -727384529
        -658712244 -417554033 -50368331</internalNodes>
      <leafValues>
        -5.1293723285198212e-02 1.3908380270004272e-01</leafValues></_>
    <_>
      <internalNodes>
        0 -1 362 -292575857 380972437 -1447159105 1068297826 -1249111817
        -573067476 -905127537 -835981525</internalNodes>
      <leafValues>
        -5.7744883000850677e-02 1.2740445137023926e-01</leafValues></_>
    <_>
      <internalNodes>
        0 -1 416 550583423 -696202824 -1111916610 -604011012 -1615284940
        636390846 1279491580 -1346562823</internalNodes>
      <leafValues>
        -8.2033865153789520e-02 8.6755022406578064e-02</leafValues></_>
    <_>
      <internalNodes>
        0 -1 9 444596778 679521608 734267624 1052899840 -194659080
        -1092078148 -958216409 249366593</internalNodes>
      <leafValues>
        -1.3722279667854309e-01 5.0242036581039429e-02</leafValues></_>
    <_>
      <internalNodes>
        0 -1 24 -302922373 1840229391 738191511 -107212679 -226490488
        1828101905 820377587 2118015424</internalNodes>
      <leafValues>
        -6.9023229181766510e-02 1.0402634739875793e-01</leafValues></_>
    <_>
      <internalNodes>
        0 -1 122 811232184 -1147025270 -415477128 -538074574 -2074295069
        -315653076 1835804868 -387186945</internalNodes>
      <leafValues>
        -8.1443451344966888e-02 9.3788020312786102e-02</leafValues></_>
    <_>
      <internalNodes>
        0 -1 402 -1034972894 135560118 -1039831224 91794874 822412032
        443578308 -1133505440 1076919044</internalNodes>
      <leafValues>
        -1.9905464351177216e-01 3.7756111472845078e-02</leafValues></_>
    <_>
      <internalNodes>
        0 -1 295 -376658774 -973658213 -2123846793 1082462107 2145329898
        -1622094674 -433820050 -861629391</internalNodes>
      <leafValues>
        -8.0046191811561584e-02 8.6758486926555634e-02</leafValues></_>
    <_>
      <internalNodes>
        0 -1 81 -86770857 -138664945 1946215127 -164123506 454660535
        -50976841 1858334095 -176271414</internalNodes>
      <leafValues>
        -6.0742929577827454e-02 1.1723944544792175e-01</leafValues></_>
    <_>
      <internalNodes>
        0 -1 252 203957812 676115652 494443060 -2131429248 68976240
        1413612552 472386736 35681316</internalNodes>
      <leafValues>
        -2.6987963914871216e-01 2.6215618476271629e-02</leafValues></_>
    <_>
      <internalNodes>
        0 -1 266 -642261133 -39862353 1038218525 -1925861597 -550032613
        -1275942787 -1427206417 -672399777</internalNodes>
      <leafValues>
        -4.1872557252645493e-02 1.9797354936599731e-01</leafValues></_>
    <_>
      <internalNodes>
        0 -1 379 -2081487228 141598924 -1227461311 1754184101 457123784
        -1178435912 819236708 679180996</internalNodes>
      <leafValues>
        -1.2677381932735443e-01 5.6474842131137848e-02</leafValues></_>
    <_>
      <internalNodes>
        0 -1 104 820609064 298856761 -1264544995 587034002 1481528666
        982624840 726099789 539366642</internalNodes>
      <leafValues>
        -1.4054340124130249e-01 4.9271933734416962e-02</leafValues></_>
    <_>
      <internalNodes>
        0 -1 107 622356130 1658688994 621302406 -913434454 836027664
        626014690 -685783440 207367116</internalNodes>
      <leafValues>
        -1.4434729516506195e-01 5.1075831055641174e-02</leafValues></_>
    <_>
      <internalNodes>
        0 -1 115 -763118977 -593454061 77369677 -542010494 -1624382030
        1029576616 1660844661 -32058</internalNodes>
      <leafValues>
        -5.7826951146125793e-02 1.2940116226673126e-01</leafValues></_>
    <_>
      <internalNodes>
        0 -1 196 -263078033 -21649538 697387327 -838780794 723004631
        -303944246 881580844 1923247317</internalNodes>
      <leafValues>
        -7.5331144034862518e-02 9.8808750510215759e-02</leafValues></_>
    <_>
      <internalNodes>
        0 -1 146 1290423936 -2108109894 552075264 885016132 299148541
        941121342 -2066479152 352387674</internalNodes>
      <leafValues>
        -1.5659198164939880e-01 4.5793849974870682e-02</leafValues></_>
    <_>
      <internalNodes>
        0 -1 372 -15617537 -566690771 -369958475 -147243427 -70509064
        -4897 531267071 -80013649</internalNodes>
      <leafValues>
        -4.6742714941501617e-02 1.5336321294307709e-01</leafValues></_>
    <_>
      <internalNodes>
        0 -1 209 516022532 739280068 556143992 1992204676 -2007727660
        -224359148 1387654424 375263777</internalNodes>
      <leafValues>
        -1.3188900053501129e-01 5.4277244955301285e-02</leafValues></_>
    <_>
      <internalNodes>
        0 -1 135 -608190593 -568292778 -1361912235 -1141653765
        -1218638921 -88085719 -1387215041 -3670690</internalNodes>
      <leafValues>
        -4.3077871203422546e-02 1.6079238057136536e-01</leafValues></_>
    <_>
      <internalNodes>
        0 -1 404 474269959 549748595 1330276927 794981817 1124676863
        -1409606541 2087464708 1244662021</internalNodes>
      <leafValues>
        -1.1256783455610275e-01 6.1906855553388596e-02</leafValues></_>
    <_>
      <internalNodes>
        0 -1 456 1061234933 -1204576982 1184384572 2099742914
        -1038301169 -1347902215 -729232930 -70550469</internalNodes>
      <leafValues>
        -6.4738288521766663e-02 1.0881616175174713e-01</leafValues></_>
    <_>
      <internalNodes>
        0 -1 392 -285224201 -1797482041 -3524834 -158026961 1211541221
        -352589847 -205784065 -1279656072</internalNodes>
      <leafValues>
        -4.8797637224197388e-02 1.4433881640434265e-01</leafValues></_>
    <_>
      <internalNodes>
        0 -1 413 -532234236 11838358 1691004672 138711362 370037764
        577026096 1352254976 67423264</internalNodes>
      <leafValues>
        -2.5936678051948547e-01 2.7720116078853607e-02</leafValues></_>
    <_>
      <internalNodes>
        0 -1 290 1611595908 -1978651120 101930980 -1983869973
        -1256846317 300204340 21524352 1742755845</internalNodes>
      <leafValues>
        -1.4204177260398865e-01 4.9520883709192276e-02</leafValues></_>
    <_>
      <internalNodes>
        0 -1 60 -496833458 1138665076 177248819 567167718 -180091730
        2041405013 -445187388 2146366542</internalNodes>
      <leafValues>
        -9.6326068043708801e-02 7.2389580309391022e-02</leafValues></_>
    <_>
      <internalNodes>
        0 -1 363 -1097807749 -196570477 -293302522 1336766870 39842504
        -1411990407 1847685690 -1658646541</internalNodes>
      <leafValues>
        -7.1287214756011963e-02 9.8434485495090485e-02</leafValues></_>
    <_>
      <internalNodes>
        0 -1 353 213394436 1753536017 1652437126 263616202 836973957
        1014506640 -1748742812 1175081566</internalNodes>
      <leafValues>
        -1.5095943212509155e-01 4.5953333377838135e-02</leafValues></_>
    <_>
      <internalNodes>
        0 -1 286 -754118527 -874603916 -1611635041 1268416831 440330700
        -471128202 -436757836 -903301245</internalNodes>
      <leafValues>
        -7.4130363762378693e-02 9.7063742578029633e-02</leafValues></_>
    <_>
      <internalNodes>
        0 -1 165 17041152 810079830 694526754 767742252 -1901589918
        768345349 420859151 552949761</internalNodes>
      <leafValues>
        -1.7913386225700378e-01 3.9578620344400406e-02</leafValues></_>
    <_>
      <internalNodes>
        0 -1 299 -36178945 -1097494356 -1761828903 1198520749 -949116166
        -392101897 -15233486 -210768054</internalNodes>
      <leafValues>
        -4.3438948690891266e-02 1.7871610820293427e-01</leafValues></_>
    <_>
      <internalNodes>
        0 -1 340 1050640 1547711038 -1927260115 -1574272656 1259612416
        -1141634614 2087527948 1320192</internalNodes>
      <leafValues>
        -2.6800942420959473e-01 2.7384210377931595e-02</leafValues></_>
    <_>
      <internalNodes>
        0 -1 469 2057023488 1433096873 581754892 1110470130 2029067264
        1534870079 213253416 269917615</internalNodes>
      <leafValues>
        -1.3728266954421997e-01 5.0436794757843018e-02</leafValues></_>
    <_>
      <internalNodes>
        0 -1 219 697824255 -14942537 -467469993 1067424047 -739246081
        -73482311 -70272021 -3410997</internalNodes>
      <leafValues>
        -2.7742316946387291e-02 2.6332473754882812e-01</leafValues></_>
    <_>
      <internalNodes>
        0 -1 77 92715588 -2076030612 -1375557536 548293646 1074932500
        2053101031 63198209 1145064721</internalNodes>
      <leafValues>
        -2.1092534065246582e-01 3.3975530415773392e-02</leafValues></_>
    <_>
      <internalNodes>
        0 -1 223 515867676 -1038975804 792448434 214802148 243137888
        -1687262348 -1798818571 841582321</internalNodes>
      <leafValues>
        -1.1039680242538452e-01 6.4499475061893463e-02</leafValues></_>
    <_>
      <internalNodes>
        0 -1 283 -2127527667 -994306208 -84857620 823146272 1312042392
        2113600644 -811071959 1805659168</internalNodes>
      <leafValues>
        -1.3204847276210785e-01 5.4185252636671066e-02</leafValues></_>
    <_>
      <internalNodes>
        0 -1 369 -982722049 -44532829 -1241584497 -1176929823 134149531
        850388451 1709869259 -271582051</internalNodes>
      <leafValues>
        -4.5605093240737915e-02 1.6692130267620087e-01</leafValues></_>
    <_>
      <internalNodes>
        0 -1 211 1412764917 23703171 -903646785 882932483 1385737503
        -1883625893 227857115 -633240826</internalNodes>
      <leafValues>
        -7.6648086309432983e-02 9.2010430991649628e-02</leafValues></_>
    <_>
      <internalNodes>
        0 -1 440 -2085361530 -178449991 -916568276 -1277264405
        -1901212495 -121162364 -1259483608 -362876893</internalNodes>
      <leafValues>
        -6.9177582859992981e-02 1.0460081696510315e-01</leafValues></_>
    <_>
      <internalNodes>
        0 -1 177 -67110945 -986458714 -1137113541 -5647629 2111735455
        -1097052480 -18927145 -33555473</internalNodes>
      <leafValues>
        -3.0205048620700836e-02 2.3956932127475739e-01</leafValues></_>
    <_>
      <internalNodes>
        0 -1 185 218106912 404359317 -1728572916 -1302058650 -297527891
        -1546771875 1224092056 143786500</internalNodes>
      <leafValues>
        -1.9225162267684937e-01 4.0726725012063980e-02</leafValues></_>
    <_>
      <internalNodes>
        0 -1 147 -1211324040 747003034 1437352040 1191231516 -1284415460
        1761042135 -1467105484 1124890146</internalNodes>
      <leafValues>
        -1.3937406241893768e-01 5.2046094089746475e-02</leafValues></_>
    <_>
      <internalNodes>
        0 -1 303 -980808664 1578543270 562094611 -1880718462 -1485704928
        76962500 1378754744 1700438768</internalNodes>
      <leafValues>
        -1.2501299381256104e-01 5.8081805706024170e-02</leafValues></_>
    <_>
      <internalNodes>
        0 -1 335 832000662 -1755540748 -1408371604 -1683296457 281806253
        -18224227 -811409245 -269552773</internalNodes>
      <leafValues>
        -7.2502404451370239e-02 1.0192372649908066e-01</leafValues></_>
    <_>
      <internalNodes>
        0 -1 26 -182452737 -947981319 756123735 -1659033285 -1445635034
        -25683353 -1370256449 -539000891</internalNodes>
      <leafValues>
        -4.2880337685346603e-02 1.7026883363723755e-01</leafValues></_>
    <_>
      <internalNodes>
        0 -1 276 -519998848 -517939427 -180947800 1079168134 1754148005
        1696510072 1621834224 688841849</internalNodes>
      <leafValues>
        -1.3823550939559937e-01 5.3582262247800827e-02</leafValues></_>
    <_>
      <internalNodes>
        0 -1 399 -79342917 -1330569469 473368293 -140950112 -480610902
        1535819759 -546313065 -1617974881</internalNodes>
      <leafValues>
        -5.0782531499862671e-02 1.4427684247493744e-01</leafValues></_>
    <_>
      <internalNodes>
        0 -1 466 -1860499960 1080560976 1235190800 677391112 -41950380
        -1891701501 1759948510 -1734152883</internalNodes>
      <leafValues>
        -1.0988651216030121e-01 6.6579036414623260e-02</leafValues></_>
    <_>
      <internalNodes>
        0 -1 37 449258112 1121093961 1195911552 731482338 -563207010
        429140371 473581073 350065415</internalNodes>
      <leafValues>
        -1.5697160363197327e-01 4.6470638364553452e-02</leafValues></_>
    <_>
      <internalNodes>
        0 -1 13 -1253363593 -194151820 630050103 1884965881 -554344917
        -1112401680 -1147615873 -614870063</internalNodes>
      <leafValues>
        -5.5296652019023895e-02 1.3277851045131683e-01</leafValues></_>
    <_>
      <internalNodes>
        0 -1 169 1178764328 -1202725824 -1635427368 6829748 -2024569600
        1213222693 387238088 679094365</internalNodes>
      <leafValues>
        -1.4211320877075195e-01 5.3541205823421478e-02</leafValues></_>
    <_>
      <internalNodes>
        0 -1 418 -532635520 -1076023448 -1346054022 -584167270
        -671705293 -71839348 -1590316762 -1957736148</internalNodes>
      <leafValues>
        -8.3743706345558167e-02 8.6276441812515259e-02</leafValues></_>
    <_>
      <internalNodes>
        0 -1 374 -1953824254 111067810 -587387284 -571437488 -1123796156
        349993649 -1015787417 406872340</internalNodes>
      <leafValues>
        -1.4997716248035431e-01 4.7998204827308655e-02</leafValues></_></weakClassifiers></stage12>
</opencv_storage>
