<?xml version="1.0"?>
<opencv_storage>
<stage4>
  <maxWeakCount>87</maxWeakCount>
  <stageThreshold>-1.5339770317077637e+00</stageThreshold>
  <weakClassifiers>
    <_>
      <internalNodes>
        0 -1 217 -570500865 -34057093 -1618292739 -14525345 -596063048
        -69314343 -41230598 -72680005</internalNodes>
      <leafValues>
        -5.8939796686172485e-01 -2.2338792681694031e-01</leafValues></_>
    <_>
      <internalNodes>
        0 -1 439 -7274504 -249513488 -580957955 -5128108 -1910915080
        -1078417512 233691353 -4226920</internalNodes>
      <leafValues>
        -2.1825966238975525e-01 1.5957151353359222e-01</leafValues></_>
    <_>
      <internalNodes>
        0 -1 13 357376650 2009013239 353175053 1576897454 2147336175
        -1080479542 -1415770193 -1053749</internalNodes>
      <leafValues>
        -1.5887813270092010e-01 2.0729875564575195e-01</leafValues></_>
    <_>
      <internalNodes>
        0 -1 52 -968429842 -204044638 1184523822 -1364342 1178650334
        -1692707629 -322965537 -1049633</internalNodes>
      <leafValues>
        -1.0513601452112198e-01 2.4197016656398773e-01</leafValues></_>
    <_>
      <internalNodes>
        0 -1 381 1594221840 -1704950249 1058470160 1040165027 1795492877
        -837030745 -60232530 1213720127</internalNodes>
      <leafValues>
        -1.8074187636375427e-01 1.3200917840003967e-01</leafValues></_>
    <_>
      <internalNodes>
        0 -1 80 -23344506 -620848625 -88982309 304281850 -758098912
        -699514810 -92758342 -550768421</internalNodes>
      <leafValues>
        -9.5680773258209229e-02 2.1149332821369171e-01</leafValues></_>
    <_>
      <internalNodes>
        0 -1 440 -796753920 -581173115 -849417987 -205186725 -355414876
        -87580634 -934637912 -1442059634</internalNodes>
      <leafValues>
        -1.1967265605926514e-01 1.8174801766872406e-01</leafValues></_>
    <_>
      <internalNodes>
        0 -1 328 135531676 2073303580 1844985687 -1076145671 1815612668
        -905736 -221446 -1078260533</internalNodes>
      <leafValues>
        -1.0950054228305817e-01 1.8388603627681732e-01</leafValues></_>
    <_>
      <internalNodes>
        0 -1 479 2102917376 353155380 -2086456832 1369823966 1940374432
        51946456 1882693664 -1997544914</internalNodes>
      <leafValues>
        -1.6635239124298096e-01 1.2072538584470749e-01</leafValues></_>
    <_>
      <internalNodes>
        0 -1 466 -631798784 2048345200 1486440000 6568536 -184827252
        -1967982431 -85017366 -1464930673</internalNodes>
      <leafValues>
        -1.3183300197124481e-01 1.5166512131690979e-01</leafValues></_>
    <_>
      <internalNodes>
        0 -1 1 -528292176 1508413114 223940863 1935467106 -1438219534
        -648402013 -950811217 -1032362941</internalNodes>
      <leafValues>
        -1.3233633339405060e-01 1.4929860830307007e-01</leafValues></_>
    <_>
      <internalNodes>
        0 -1 192 1548263936 -582609316 17059976 -304243017 2073630328
        404273488 -1164854593 614308010</internalNodes>
      <leafValues>
        -2.0823255181312561e-01 8.8761828839778900e-02</leafValues></_>
    <_>
      <internalNodes>
        0 -1 418 -107773952 -76539591 1710609143 -33991654 -646016126
        -68077418 -650010238 -1949368032</internalNodes>
      <leafValues>
        -1.1636474728584290e-01 1.6473430395126343e-01</leafValues></_>
    <_>
      <internalNodes>
        0 -1 151 1506483220 -33945992 1333020216 354555424 -555088804
        -126891 -34952821 -16114118</internalNodes>
      <leafValues>
        -1.3917790353298187e-01 1.3179089128971100e-01</leafValues></_>
    <_>
      <internalNodes>
        0 -1 6 1109568226 391193098 220415221 701858500 1852276853
        1556418220 1605790832 4681259</internalNodes>
      <leafValues>
        -2.0358322560787201e-01 8.7991945445537567e-02</leafValues></_>
    <_>
      <internalNodes>
        0 -1 461 -1375015237 -1163749984 1072544988 -1080762456
        -1594250566 -1364546904 1603463384 -1915762552</internalNodes>
      <leafValues>
        -1.2239571660757065e-01 1.4621873199939728e-01</leafValues></_>
    <_>
      <internalNodes>
        0 -1 250 -595334524 1567297085 -1789884324 1374489592 -155679016
        -1725098472 -185162568 -124011586</internalNodes>
      <leafValues>
        -9.6758656203746796e-02 1.8339814245700836e-01</leafValues></_>
    <_>
      <internalNodes>
        0 -1 193 -837361022 499314418 -1574292968 -1118447925 150015648
        480886367 1291332844 -51381314</internalNodes>
      <leafValues>
        -1.2109450995922089e-01 1.5698039531707764e-01</leafValues></_>
    <_>
      <internalNodes>
        0 -1 63 -1035164080 939698896 -1943908774 -1533015976 1510243604
        2143845720 -828044146 1138191170</internalNodes>
      <leafValues>
        -2.0739793777465820e-01 7.9702995717525482e-02</leafValues></_>
    <_>
      <internalNodes>
        0 -1 175 -634918904 -244170575 1542486256 2108734486 -193399892
        -1111732428 -1071333400 -1166050450</internalNodes>
      <leafValues>
        -1.0208245366811752e-01 1.6032300889492035e-01</leafValues></_>
    <_>
      <internalNodes>
        0 -1 482 -687604269 -1693714910 -812909127 -575156619 -520190546
        -1899832643 -831618916 -549718817</internalNodes>
      <leafValues>
        -7.3046721518039703e-02 2.2392657399177551e-01</leafValues></_>
    <_>
      <internalNodes>
        0 -1 326 1518401781 1467798775 -1332052033 -43704684 -463469068
        -9003524 -1743135559 -1145431390</internalNodes>
      <leafValues>
        -1.0038560628890991e-01 1.6596744954586029e-01</leafValues></_>
    <_>
      <internalNodes>
        0 -1 470 -86012888 -81271270 236229821 934990653 -1364904790
        -1180927100 -534466616 -52560213</internalNodes>
      <leafValues>
        -9.8031267523765564e-02 1.6117504239082336e-01</leafValues></_>
    <_>
      <internalNodes>
        0 -1 62 -905517998 143297260 1736584890 1298180830 744769420
        917096171 1780486256 1880587599</internalNodes>
      <leafValues>
        -2.0958051085472107e-01 7.6012745499610901e-02</leafValues></_>
    <_>
      <internalNodes>
        0 -1 87 -1032867574 -1164426858 1159433742 -1113693333 115283136
        232098241 -1166091575 2051998479</internalNodes>
      <leafValues>
        -1.5193450450897217e-01 1.0234480351209641e-01</leafValues></_>
    <_>
      <internalNodes>
        0 -1 447 -109664640 -571955237 1425345352 -841224425 -1702305622
        -1194082873 -17436743 -2376714</internalNodes>
      <leafValues>
        -8.4716364741325378e-02 1.8467780947685242e-01</leafValues></_>
    <_>
      <internalNodes>
        0 -1 428 -773658976 1987426684 -415496348 -1346788555 12063104
        -1090757407 -1150280693 -1074826750</internalNodes>
      <leafValues>
        -1.0851418226957321e-01 1.4316144585609436e-01</leafValues></_>
    <_>
      <internalNodes>
        0 -1 244 -1009736442 1360010717 -1614501564 -1186560376
        -283670550 -1464565110 730331752 -1086239228</internalNodes>
      <leafValues>
        -1.2640668451786041e-01 1.2151855230331421e-01</leafValues></_>
    <_>
      <internalNodes>
        0 -1 0 -501029728 -525406686 1533080442 -5922126 -486880005
        -285337403 1843484407 -10107769</internalNodes>
      <leafValues>
        -1.0538367927074432e-01 1.3980074226856232e-01</leafValues></_>
    <_>
      <internalNodes>
        0 -1 17 4591152 822191650 1723481567 331871765 1080906922
        1453982406 1080457211 1601398369</internalNodes>
      <leafValues>
        -1.7461918294429779e-01 8.4369145333766937e-02</leafValues></_>
    <_>
      <internalNodes>
        0 -1 436 -685650689 -705389411 -1963659915 -1682638850
        -1922814552 -104891140 1291640570 -1090524610</internalNodes>
      <leafValues>
        -8.1810407340526581e-02 1.8398457765579224e-01</leafValues></_>
    <_>
      <internalNodes>
        0 -1 409 -832789355 396422076 -79936131 -1086459339 -1880584820
        -1125057123 -1126687523 -1145426768</internalNodes>
      <leafValues>
        -1.3394422829151154e-01 1.1422970145940781e-01</leafValues></_>
    <_>
      <internalNodes>
        0 -1 294 -219688936 1500972436 1756386655 810554987 -31421816
        953826375 1829311076 -218385814</internalNodes>
      <leafValues>
        -1.0695860534906387e-01 1.4192138612270355e-01</leafValues></_>
    <_>
      <internalNodes>
        0 -1 89 -610040950 -1635929597 -203916107 2147328032 -605081158
        -41341020 1849687770 -319910224</internalNodes>
      <leafValues>
        -9.3157105147838593e-02 1.5992282330989838e-01</leafValues></_>
    <_>
      <internalNodes>
        0 -1 230 6075920 422589282 -1349710529 -173221480 1096561079
        2146472433 476391502 14064292</internalNodes>
      <leafValues>
        -1.8887367844581604e-01 7.8991234302520752e-02</leafValues></_>
    <_>
      <internalNodes>
        0 -1 257 -1068236792 -1869076772 1052325661 -1922600097
        -1393187668 -50425115 998574722 1620410943</internalNodes>
      <leafValues>
        -1.6305840015411377e-01 9.0451948344707489e-02</leafValues></_>
    <_>
      <internalNodes>
        0 -1 335 -263801950 1348239615 -434817156 -571819729 -783482448
        -17101935 1066757034 -372840506</internalNodes>
      <leafValues>
        -1.0532803088426590e-01 1.3720293343067169e-01</leafValues></_>
    <_>
      <internalNodes>
        0 -1 53 1208918660 1470112259 -655299874 1498450586 2081034872
        1786399789 -596295155 1226293830</internalNodes>
      <leafValues>
        -1.5580591559410095e-01 9.2147581279277802e-02</leafValues></_>
    <_>
      <internalNodes>
        0 -1 316 1610016689 297067797 -931453671 -306354861 841033397
        -386587203 -161436232 -1892586671</internalNodes>
      <leafValues>
        -1.0261225700378418e-01 1.4591020345687866e-01</leafValues></_>
    <_>
      <internalNodes>
        0 -1 77 12761677 -1939306945 581478862 -1465383230 1613123572
        -1162358602 -162138487 -347235307</internalNodes>
      <leafValues>
        -1.3269998133182526e-01 1.0681066662073135e-01</leafValues></_>
    <_>
      <internalNodes>
        0 -1 154 -394165888 -759625890 -1703186514 -1645624369
        -218455876 -1091851825 -278267206 -107264622</internalNodes>
      <leafValues>
        -8.8518410921096802e-02 1.6061316430568695e-01</leafValues></_>
    <_>
      <internalNodes>
        0 -1 427 1569891467 331988530 -438747851 355515942 1842327213
        -548255333 -1675977816 -411831329</internalNodes>
      <leafValues>
        -8.4896937012672424e-02 1.6992910206317902e-01</leafValues></_>
    <_>
      <internalNodes>
        0 -1 329 1460701305 2065079316 -1140222307 1863874751
        -1075970524 956202404 699264168 -1105264485</internalNodes>
      <leafValues>
        -9.9834263324737549e-02 1.4198343455791473e-01</leafValues></_>
    <_>
      <internalNodes>
        0 -1 306 -639697259 -539852481 1489378011 2075109436 2081173176
        -1091122267 -70927816 -656542777</internalNodes>
      <leafValues>
        -7.7241584658622742e-02 1.8731294572353363e-01</leafValues></_>
    <_>
      <internalNodes>
        0 -1 29 -835711246 1588146822 642785047 389214019 143404976
        -1896273371 1791236124 -548939919</internalNodes>
      <leafValues>
        -1.2904804944992065e-01 1.0918370634317398e-01</leafValues></_>
    <_>
      <internalNodes>
        0 -1 125 1509990912 -1101215559 11279050 -1164515100 -181387545
        1858364160 -1435510510 919182088</internalNodes>
      <leafValues>
        -1.8390014767646790e-01 8.0986939370632172e-02</leafValues></_>
    <_>
      <internalNodes>
        0 -1 148 -623391529 -676114969 -1599967233 1495516923 1098290714
        -60396962 -595014470 -6562917</internalNodes>
      <leafValues>
        -6.1939943581819534e-02 2.3677173256874084e-01</leafValues></_>
    <_>
      <internalNodes>
        0 -1 451 268905488 440405881 428869876 792367800 957614606
        984393864 801793705 213658628</internalNodes>
      <leafValues>
        -2.3656500875949860e-01 6.1462271958589554e-02</leafValues></_>
    <_>
      <internalNodes>
        0 -1 415 -706758509 1277623711 -1380981711 -647365553 -985698030
        -128196951 111613345 -283385714</internalNodes>
      <leafValues>
        -1.0262830555438995e-01 1.4397570490837097e-01</leafValues></_>
    <_>
      <internalNodes>
        0 -1 483 -76817093 36211819 -2020611075 -543332136 -303384337
        -1634742869 -825388823 -1611670066</internalNodes>
      <leafValues>
        -7.5658515095710754e-02 1.9396363198757172e-01</leafValues></_>
    <_>
      <internalNodes>
        0 -1 389 -566850022 -1110147002 -1783223488 399556126 932826224
        -392150739 1568998620 -1881690342</internalNodes>
      <leafValues>
        -1.1548078805208206e-01 1.2156319618225098e-01</leafValues></_>
    <_>
      <internalNodes>
        0 -1 444 -937049896 -579332363 23555448 -706332005 -50181688
        -1729329452 -294667590 -89299144</internalNodes>
      <leafValues>
        -9.0756177902221680e-02 1.5619353950023651e-01</leafValues></_>
    <_>
      <internalNodes>
        0 -1 119 1200785174 456297636 -846808389 -1363005788 1683325420
        1396493485 -1834738196 -1896432862</internalNodes>
      <leafValues>
        -1.3557825982570648e-01 1.0517819225788116e-01</leafValues></_>
    <_>
      <internalNodes>
        0 -1 465 -919419088 206576843 -259666128 957146258 1645265797
        -1616908808 1097353694 795998762</internalNodes>
      <leafValues>
        -1.5122731029987335e-01 9.3369878828525543e-02</leafValues></_>
    <_>
      <internalNodes>
        0 -1 158 -2068807150 284428476 1702901689 1006907156 -1974214514
        -119624262 913971602 -1304294328</internalNodes>
      <leafValues>
        -1.4325022697448730e-01 1.0128074884414673e-01</leafValues></_>
    <_>
      <internalNodes>
        0 -1 232 -934641664 -798248164 -608618250 2043105465 1184467340
        1218379965 -1655968774 -1966367805</internalNodes>
      <leafValues>
        -1.0830970108509064e-01 1.3387098908424377e-01</leafValues></_>
    <_>
      <internalNodes>
        0 -1 76 -799087913 1985185590 1826913995 -763756861 1444809952
        1330672710 1587994199 -825956734</internalNodes>
      <leafValues>
        -1.0977989435195923e-01 1.2947638332843781e-01</leafValues></_>
    <_>
      <internalNodes>
        0 -1 136 1107440658 77647112 -810477231 -1132381518 301994436
        215019024 -985007538 212025941</internalNodes>
      <leafValues>
        -1.8389281630516052e-01 7.8364819288253784e-02</leafValues></_>
    <_>
      <internalNodes>
        0 -1 212 1819344179 -244385928 -1699408427 -974027608 1823922615
        -21721387 -928761201 -356555178</internalNodes>
      <leafValues>
        -8.1859417259693146e-02 1.7217338085174561e-01</leafValues></_>
    <_>
      <internalNodes>
        0 -1 88 -801734014 -117785083 -671616522 -39373298 -1410554191
        -374557193 -945435993 -1349319660</internalNodes>
      <leafValues>
        -9.7909525036811829e-02 1.4142465591430664e-01</leafValues></_>
    <_>
      <internalNodes>
        0 -1 365 1165756889 1004322450 291257978 -376956740 -2000935316
        -16886305 -129728851 -1393808224</internalNodes>
      <leafValues>
        -1.5611311793327332e-01 8.9551493525505066e-02</leafValues></_>
    <_>
      <internalNodes>
        0 -1 191 1345693333 -1529375007 1421804191 -409087294 278680510
        -1342714654 2044169075 1194885120</internalNodes>
      <leafValues>
        -1.1618780344724655e-01 1.2686617672443390e-01</leafValues></_>
    <_>
      <internalNodes>
        0 -1 297 -506265270 1511835916 505576782 552397457 1615412368
        -219334715 877409812 727629854</internalNodes>
      <leafValues>
        -1.6386751830577850e-01 8.8583663105964661e-02</leafValues></_>
    <_>
      <internalNodes>
        0 -1 109 -186728322 1571066530 2107400477 -641372717 -1465998691
        -140629724 -237122084 -201604977</internalNodes>
      <leafValues>
        -7.5322300195693970e-02 1.8618923425674438e-01</leafValues></_>
    <_>
      <internalNodes>
        0 -1 57 -1025446878 598535314 112462542 -1378317655 995388790
        507392372 -586324178 1975274320</internalNodes>
      <leafValues>
        -1.9019094109535217e-01 7.4441693723201752e-02</leafValues></_>
    <_>
      <internalNodes>
        0 -1 184 -700806640 403612795 1752457308 2023839080 214957984
        -623159947 1314028683 -220242341</internalNodes>
      <leafValues>
        -1.1013914644718170e-01 1.3070124387741089e-01</leafValues></_>
    <_>
      <internalNodes>
        0 -1 402 -229923584 1722969686 -1623196408 -1653244772 849823424
        309657557 1017523456 1123547654</internalNodes>
      <leafValues>
        -1.9047303497791290e-01 7.7558465301990509e-02</leafValues></_>
    <_>
      <internalNodes>
        0 -1 455 -1017971279 989959968 674407037 1298792216 -596695907
        -1358983751 1240363451 -353632326</internalNodes>
      <leafValues>
        -8.1314913928508759e-02 1.7813129723072052e-01</leafValues></_>
    <_>
      <internalNodes>
        0 -1 84 2096568405 1471614239 463638016 956841448 -567259892
        -841843955 -493204200 -9245094</internalNodes>
      <leafValues>
        -1.1328323930501938e-01 1.2316422164440155e-01</leafValues></_>
    <_>
      <internalNodes>
        0 -1 163 78479948 551069301 2048439950 84683753 2126580061
        1983626142 -211710320 1181028236</internalNodes>
      <leafValues>
        -1.9203133881092072e-01 7.3936268687248230e-02</leafValues></_>
    <_>
      <internalNodes>
        0 -1 201 -134787085 1045681142 970261909 -1615530907 1766124020
        -54652176 826584646 -1395962903</internalNodes>
      <leafValues>
        -8.5034936666488647e-02 1.6800236701965332e-01</leafValues></_>
    <_>
      <internalNodes>
        0 -1 475 517928579 1550807883 -1331077075 1865277302 499299276
        932347760 -747620676 -721420869</internalNodes>
      <leafValues>
        -9.3007586896419525e-02 1.5516307950019836e-01</leafValues></_>
    <_>
      <internalNodes>
        0 -1 450 -393303368 324538736 702459772 -76173509 1864749580
        863867873 970337194 -78200981</internalNodes>
      <leafValues>
        -1.0285749286413193e-01 1.4195497334003448e-01</leafValues></_>
    <_>
      <internalNodes>
        0 -1 276 -1559432828 -2079466215 1493284384 1825606018
        1514968100 741798004 707595008 156688</internalNodes>
      <leafValues>
        -2.6785746216773987e-01 5.3829375654459000e-02</leafValues></_>
    <_>
      <internalNodes>
        0 -1 478 1667859473 1778570850 -1525843379 -1145897447
        -1570167543 -22585698 1851018649 136690750</internalNodes>
      <leafValues>
        -1.4000558853149414e-01 1.0404659807682037e-01</leafValues></_>
    <_>
      <internalNodes>
        0 -1 172 1700647935 -1860431747 1946425521 -711109475 -10095635
        -1644506181 194677659 -86580993</internalNodes>
      <leafValues>
        -6.1271596699953079e-02 2.3861373960971832e-01</leafValues></_>
    <_>
      <internalNodes>
        0 -1 396 1305978647 910069319 870621177 -617990508 402147293
        -1103859886 -1141356834 -1068190</internalNodes>
      <leafValues>
        -7.6528675854206085e-02 1.8396487832069397e-01</leafValues></_>
    <_>
      <internalNodes>
        0 -1 309 306676736 353011701 474330949 402189160 -1718418530
        1004023968 1280847072 823040036</internalNodes>
      <leafValues>
        -1.6875606775283813e-01 8.3700172603130341e-02</leafValues></_>
    <_>
      <internalNodes>
        0 -1 214 -195232745 -1108642148 -864228911 936110422 -151204162
        -139016295 -1079854373 -548178237</internalNodes>
      <leafValues>
        -7.2428502142429352e-02 1.9684647023677826e-01</leafValues></_>
    <_>
      <internalNodes>
        0 -1 406 -2011856640 1143343920 -1548523728 209860691 538329092
        804507312 1626079488 13988161</internalNodes>
      <leafValues>
        -2.9785177111625671e-01 4.7916211187839508e-02</leafValues></_>
    <_>
      <internalNodes>
        0 -1 178 -108859958 1352796092 -1614239947 -1645671669
        -1671329820 -1467213861 1043971322 -259930197</internalNodes>
      <leafValues>
        -9.8125986754894257e-02 1.4354003965854645e-01</leafValues></_>
    <_>
      <internalNodes>
        0 -1 213 395948504 1410357950 308592398 -1941837755 1829232064
        1803336530 1757045784 168228490</internalNodes>
      <leafValues>
        -1.5356475114822388e-01 9.1231763362884521e-02</leafValues></_>
    <_>
      <internalNodes>
        0 -1 202 1976656859 -1875830085 -1382968135 233005841 490573812
        1232377247 -8995192 -1879053571</internalNodes>
      <leafValues>
        -8.2243397831916809e-02 1.6784654557704926e-01</leafValues></_>
    <_>
      <internalNodes>
        0 -1 99 6557450 58904115 -1637008976 -390814207 -377229404
        1869689184 2136287128 1134703141</internalNodes>
      <leafValues>
        -2.0528563857078552e-01 7.1588158607482910e-02</leafValues></_>
    <_>
      <internalNodes>
        0 -1 49 -1293027277 477001528 -1672003969 -1113311663 -95974633
        -670971004 -1180042625 2128965738</internalNodes>
      <leafValues>
        -8.8728941977024078e-02 1.6038411855697632e-01</leafValues></_>
    <_>
      <internalNodes>
        0 -1 85 -934544693 -1334667634 -264581398 1610660409 1278431752
        463560408 1606748267 -400069011</internalNodes>
      <leafValues>
        -1.3322252035140991e-01 1.0878470540046692e-01</leafValues></_>
    <_>
      <internalNodes>
        0 -1 378 -872964044 1608367140 -983668966 1245204733 -1132021248
        -291127395 787508520 807073199</internalNodes>
      <leafValues>
        -1.5462253987789154e-01 9.0347185730934143e-02</leafValues></_></weakClassifiers></stage4>
</opencv_storage>
